nep4 2 Te Ge 
cutoff 7 5 67 26
n_max 8 8
basis_size 10 10
l_max 4 2 0
ANN 50 0
 -1.3350666e-01
 -4.8707920e-01
 -4.9699444e-01
  7.9809242e-01
  2.5356111e-01
 -5.7371169e-01
 -1.5004413e+00
 -4.7515866e-01
 -1.3040080e+00
 -1.8678552e-01
 -4.3604955e-02
 -1.1231650e-01
  1.2789327e-01
 -7.1167457e-01
 -1.6647759e-01
  3.9134428e-01
  1.6784006e-01
  8.8734591e-01
 -3.5271716e-01
 -1.5098650e-02
  1.6068891e-01
 -1.0352403e-01
 -6.1218828e-01
 -2.2721407e-01
 -1.5311193e-01
  1.3632733e-01
  2.5716376e-02
  6.6791075e-01
 -1.3040463e+00
  2.0802472e-02
 -1.0467345e-02
 -3.3576378e-01
 -1.7894058e-01
 -1.9349045e-01
  1.1635076e-01
 -7.2818674e-02
  4.0903311e-02
  1.0864525e-02
 -5.0961815e-02
 -2.6122737e-01
 -3.7101239e-01
 -1.8055633e-01
 -2.9026219e-01
  2.3016867e-01
 -1.7858398e-01
  1.9998360e-01
 -3.0650166e-01
 -6.6608131e-02
 -1.4044416e-01
 -7.3189899e-02
 -1.2317024e-01
 -2.7236188e-02
 -8.0555037e-02
 -1.6096537e-01
  1.1161703e-01
 -1.5868716e-01
  1.7833053e-03
 -1.3317243e-03
  3.5914581e-02
 -2.3888733e-02
 -2.5013408e-02
  2.2180942e-01
  4.7207154e-02
 -4.3478224e-02
  5.1769465e-03
 -1.1796543e-01
  7.2516955e-02
  1.1158991e-01
 -5.9562791e-02
  1.0308442e-01
  5.7252947e-02
 -5.0475582e-02
 -1.1672123e-01
 -5.0306994e-02
  4.1898582e-02
  8.8842861e-02
  5.3213369e-02
 -1.8916806e-02
 -5.6737136e-02
 -4.5062635e-02
 -8.8798024e-02
  1.6453531e-01
 -8.9497911e-03
 -2.3166787e-02
 -2.1186283e-02
 -3.5085883e-02
 -1.9304404e-02
 -3.4387190e-02
  1.1289829e-01
  5.1512461e-02
  6.0553183e-03
  3.7227988e-02
  2.1801084e-02
 -1.3948187e-01
 -5.8477826e-02
  1.4276722e-01
  3.1542536e-02
 -9.7060874e-03
 -3.8133562e-02
 -3.1940766e-02
  1.0146720e-01
  1.3061459e-03
 -6.3035652e-02
  7.2048557e-01
  2.0570418e-02
 -3.2121141e-02
  1.1263122e-01
  3.4100238e-02
  6.0722321e-01
  4.2212391e-01
 -8.6012089e-01
 -1.4310029e-01
  1.9800985e-01
  9.0914452e-03
  2.6665202e-01
 -4.1715446e-01
  1.4423294e-01
 -7.2223179e-02
 -4.8878271e-02
  4.6667352e-02
  8.3704896e-02
  8.4798694e-02
 -4.8916049e-02
  9.0241052e-02
 -1.2868360e-01
  2.7170476e-02
  5.7159144e-02
 -3.5938665e-02
 -1.5555137e-01
  4.6476405e-02
 -6.9575869e-02
 -4.1596439e-02
  1.4783417e-02
 -1.5228414e-02
 -1.3378607e-01
  1.1667909e-01
  6.6305093e-02
  2.3093680e-01
 -4.0080175e-02
  8.6338349e-02
  1.1579503e-02
  6.3253626e-02
  5.4289903e-02
 -2.7142328e-03
 -1.9893056e-02
  3.2108132e-02
  1.0210173e-01
 -1.6482646e-02
  2.6812965e-01
  1.4471719e-01
  1.3988417e-01
  2.1007324e-02
  1.2657790e-01
 -4.9473893e-02
  1.6176327e-01
 -6.5754354e-01
 -8.7650418e-02
  1.3895044e-01
  2.5660116e-03
 -6.5008454e-02
 -1.8573452e-02
  2.1321533e-02
 -4.0992108e-01
  1.0669748e-01
 -5.6998312e-01
 -2.7478214e-02
 -4.0922195e-02
  1.1753099e+00
 -7.2525211e-02
 -3.0144442e-02
  8.8206482e-01
  1.4422753e-01
 -4.3813586e-01
 -5.1849437e-01
  2.7996781e-01
  3.4474984e-01
 -7.5542521e-01
  7.9509741e-01
  4.5084444e-01
 -1.3434255e-01
  1.0798711e-01
 -9.0754396e-01
  4.5287091e-01
 -2.0975581e-01
  1.0023052e-01
 -4.3402913e-01
 -7.3544627e-01
  1.1352146e-01
  2.2189540e-01
 -1.6846474e-01
 -3.9059716e-01
 -4.9786302e-01
 -1.5618758e-02
 -2.0683728e-02
 -8.4766656e-01
 -4.0396416e-01
  2.3846503e-03
  2.7656032e-02
  7.0174658e-01
 -1.0753111e-01
 -3.0491012e-01
 -2.4767359e-01
 -1.2245364e+00
  1.4885785e-01
 -2.6332480e-01
 -8.0691896e-02
  4.4746768e-01
  1.9854212e-01
 -2.8610867e-01
 -1.0894874e-01
  1.0341024e-02
 -6.9402598e-02
 -3.0832069e-02
  1.4201288e-01
 -8.3640951e-04
  9.2853099e-02
  9.9587035e-01
 -7.9935151e-01
 -5.6061286e-01
 -2.5968299e+00
  5.1430094e-01
 -3.5244681e-02
 -6.4975923e-01
 -5.3209770e-01
  3.0841461e-01
 -3.6975417e-01
 -1.1540429e-01
 -1.0723425e-01
 -1.1699036e-01
  9.4912484e-02
 -3.0351320e-01
 -4.6140531e-01
 -1.2681019e-02
  1.0016136e-01
  2.8272349e-01
  1.6607757e-01
  4.5406315e-02
  4.3210994e-02
  4.4862571e-01
  1.4241593e-01
 -5.0042428e-02
 -5.1605769e-02
  9.7696736e-02
 -1.1924698e+00
 -8.2168430e-02
  3.2340731e-02
 -1.0434947e-02
  1.1322429e-01
 -1.6821787e-01
 -2.6924650e-03
 -1.1250344e-01
 -2.0239182e-01
  3.6749813e-01
 -3.5653595e-02
 -4.1827891e-02
  5.9469104e-02
  3.5563356e-01
  4.0411718e-02
  1.2355039e-02
 -2.0754689e-01
 -2.0364732e-01
 -3.6734410e-02
  1.2899187e-01
  4.2123139e-02
 -2.6434306e-02
  5.9863301e-03
  5.4904632e-02
 -4.9443711e-02
 -9.3892016e-02
 -1.3536565e-01
 -1.1017741e+00
  9.6419640e-02
  1.1079146e+00
  2.4847789e+00
  5.9633505e-01
  9.7149563e-01
  2.1062113e-01
 -1.8549311e-01
  1.1588874e+00
 -7.5066262e-01
  3.9763927e-01
  8.6343654e-02
 -3.2792279e-01
 -4.1753319e-01
  6.8994331e-01
  6.8935508e-01
  5.9402478e-01
 -1.8909487e-01
  6.1832047e-01
  3.4109390e-01
 -9.2811638e-01
  2.9680070e-01
 -8.8141114e-01
  6.9545436e-01
  9.5815104e-01
  1.4736736e-01
  6.7780167e-01
  7.0003882e-02
  1.3073726e-01
  2.5038671e-01
  9.4536960e-02
 -7.8851789e-01
  3.6642966e-01
  4.9317887e-01
 -2.6384413e-01
 -8.9638524e-02
 -6.1640340e-01
  1.3280061e-01
 -4.2991295e-01
  3.2103959e-01
  3.6155847e-01
  3.9894268e-01
  5.9569985e-02
  1.8658742e-01
  7.6542407e-01
 -3.1200621e-01
  4.3902734e-01
  9.3893059e-02
 -9.7645000e-02
 -8.2571107e-01
 -1.0039319e-01
 -2.1102884e-01
 -6.1149683e-02
 -1.5290205e-01
  3.2556108e-01
 -1.9204842e-02
 -1.9383752e-01
  8.2023121e-02
  1.3079637e-01
  6.8248764e-02
  5.3888822e-01
 -1.9397463e-01
 -1.0684418e-01
  1.3033226e-01
  9.8664733e-03
 -1.2770514e-01
 -9.7525176e-03
  1.5670458e-02
  3.0175144e-02
 -8.3132498e-02
  2.1773294e-01
 -1.0632322e-01
  6.4848870e-02
 -1.2652536e-02
  2.5497493e-01
 -3.6160335e-02
  2.4767442e-02
 -5.2475695e-02
 -1.3995482e-01
 -6.5208352e-01
  2.6069871e-01
  2.2570570e-01
 -1.8296131e-01
 -1.1125798e-01
  3.2004127e-01
 -1.9244571e-01
 -3.5519149e-02
 -2.9341802e-01
  3.8812009e-01
  3.9681192e-02
  4.1548431e-02
 -5.8612786e-02
  1.0950328e-01
 -1.6301896e-01
 -4.5079280e-02
  4.5048171e-03
 -9.4926618e-02
  1.4603960e-03
  1.5475929e-01
  4.8185021e-02
 -6.1974503e-02
 -3.9904032e-02
 -4.9313240e-02
  8.8518389e-02
 -1.1307960e-03
  9.1589522e-03
  1.8425651e-02
 -6.3477024e-03
 -3.2336399e-01
  1.7694985e+00
 -2.5245765e-01
 -2.0750034e+00
 -1.5358792e-01
 -2.3811498e-01
 -1.7301021e+00
  4.9534351e-02
  4.2236832e-01
  8.2019437e-03
 -6.7505226e-02
  2.1858333e-01
 -1.7645495e-01
  3.7072214e-01
  5.5101912e-02
 -8.8210350e-01
  2.7841350e-01
  1.7199975e-01
 -8.6733669e-01
  1.3527317e-01
  2.0162961e-01
  2.2170486e-01
 -3.4828421e-01
 -5.7705402e-01
 -4.1556704e-01
 -2.4573509e-01
  1.3349018e-01
  9.4253510e-02
 -3.5325074e-01
 -7.8624718e-02
 -1.7123380e-01
 -1.7500010e-01
 -3.6708155e-01
 -8.0527127e-02
 -1.9428678e-01
  3.8420263e-01
 -6.2394512e-01
 -2.2600856e-01
  2.6492062e-01
 -3.1477548e-02
  2.4692057e-01
 -3.1141549e-01
 -1.3641566e-01
 -1.3577290e-01
 -3.0035847e-01
 -1.3062775e-01
 -5.6117292e-02
 -5.9700195e-02
 -2.9083407e-01
 -1.4202131e-01
 -1.0322347e-01
  1.5803863e-01
  1.6481954e-01
 -2.4333060e-01
  3.0503768e-01
 -5.6273043e-02
  2.0388055e-01
  4.9046457e-01
 -8.7167807e-02
 -8.6405016e-02
  3.5392222e-01
 -5.0967366e-01
 -2.8958067e-01
 -4.1530028e-01
 -2.2204490e-01
 -3.5142535e-01
  2.3932521e-01
 -2.8401587e-02
 -2.7140412e-01
 -1.1348890e-02
  6.9598472e-01
  1.3301970e-01
 -2.8691041e-01
 -3.1491175e-02
  2.1716075e-01
 -3.9570311e-01
  9.7672045e-03
 -3.3628526e-01
 -7.3778339e-02
 -3.3534220e-01
 -2.0746666e-01
 -4.5478138e-01
  1.5237173e-01
 -3.6375412e-01
 -1.6884799e-01
  2.5711045e-01
 -2.7949357e-01
 -1.2654236e-01
 -3.8799921e-01
 -7.1151608e-01
  9.4629729e-01
 -3.9018504e-02
  1.0126206e-01
 -1.9076432e-01
  1.5778743e+00
  6.6832238e-01
 -2.0717148e-01
 -3.9246428e-01
  2.6713049e-01
  2.1468183e-01
 -2.0293488e-01
 -3.5015926e-02
 -2.7835660e-02
 -1.4155704e-01
 -1.4120193e-01
  6.8764076e-02
  4.0955424e-02
  5.0382826e-02
  2.0957392e-01
 -3.6239866e-02
  4.3051219e-01
  3.7435460e-01
  3.3827493e-01
  3.4723994e-01
 -4.1179389e-02
 -2.7015799e-01
 -7.9875302e-01
 -2.1332042e-01
 -8.4361620e-02
  1.0205064e-01
 -7.2831340e-02
  3.3984372e-01
  2.5318518e-01
  1.4592649e-01
 -1.2159204e-01
  4.9582928e-02
 -2.3445840e-01
  1.2303215e-01
 -1.1092474e-01
  1.0200928e-01
  7.8885198e-02
  1.9937076e-01
 -1.3170266e-01
 -6.7796297e-02
 -4.2508641e-01
  7.1315654e-02
  1.8366374e-01
  3.5836216e-02
  1.7688917e-01
 -7.5179033e-02
  2.4478799e-01
  1.5348959e-01
 -1.8752639e-01
 -1.3214304e-01
  9.0561712e-01
  8.1912547e-02
 -2.9566658e-01
  1.4670347e-01
 -2.3151061e-01
  1.4610253e-01
  1.5571927e-01
 -8.9594401e-02
 -4.1923383e-01
 -6.9633365e-02
  1.5377434e-01
  1.0751089e-01
 -2.9993009e-02
  3.4709241e-02
 -1.3010380e-01
 -9.9521399e-02
 -5.5095825e-02
 -3.5834517e-02
 -1.4556390e-02
 -1.3044381e+00
  4.8544833e-01
  6.4836013e-01
  6.5686762e-01
 -5.9072644e-01
  7.4446803e-01
 -1.2657659e+00
 -1.7856026e-01
  1.1794180e-01
 -1.5747224e-01
 -2.6407418e-01
  7.4715608e-01
 -8.5119210e-02
 -6.8627161e-01
 -4.3074167e-01
 -3.2018811e-01
  6.2775975e-01
 -1.0414907e+00
  8.8698894e-02
  2.6850939e-01
  1.2498239e+00
 -4.8437938e-01
 -5.6792420e-01
 -2.6547861e-01
  2.7353562e-02
  3.8403559e-01
  9.2437601e-01
 -1.1074032e-01
 -3.6035857e-01
 -2.1727265e-01
  4.9303897e-02
 -5.4827267e-01
 -2.0222375e-01
  2.5894621e-01
  1.9866422e-01
  2.1065215e-02
  7.1997374e-02
 -6.2868267e-02
 -2.6659074e-01
 -6.9831383e-01
  2.7016991e-01
 -1.3764143e-01
  2.1033964e-01
  8.4176682e-02
  2.5192304e-02
 -1.4859071e-01
  8.0177084e-02
  4.8291199e-02
 -2.0671096e-01
  6.4787194e-02
  3.6823016e-01
  3.3965018e-02
 -7.1858823e-02
  2.7060080e-01
 -2.1228841e-01
  3.1986302e-01
 -1.6685705e+00
  2.0705730e-01
  4.9072659e-01
  1.0831343e-01
  1.4760045e+00
 -7.3613423e-01
  7.0908755e-01
  1.1641648e-01
  3.2357824e-01
 -9.9784441e-02
  6.2499456e-03
  2.9112750e-01
  7.1547036e-03
  6.0970289e-01
  8.0277890e-01
  6.1584383e-01
  8.0479674e-02
 -1.2603919e-02
 -1.8051895e+00
 -1.2068362e-01
 -2.8812093e-01
 -2.2193666e-01
 -7.8008950e-02
  2.3021451e-01
 -1.1216170e+00
  2.3732813e-01
  4.0937483e-02
  2.5494766e-01
 -9.2175148e-02
 -4.8090011e-01
  7.3433913e-02
  6.1491791e-02
 -6.6714890e-02
 -3.2773885e-01
  2.6630059e-01
 -1.4605940e-02
  1.9775568e-01
 -3.8937086e-01
 -1.1482433e-01
 -3.9285470e-02
 -1.9071604e-01
 -1.1162656e-01
 -1.0578950e-01
 -5.2714609e-02
  1.3335004e-02
 -4.2617019e-02
  3.0224669e-01
 -3.6790051e-02
 -5.9716031e-02
  2.3038374e-02
  6.2489831e-01
  1.5044682e-01
  9.4589286e-02
  1.3919301e-01
 -3.6632422e-01
  8.7817624e-02
  4.8582867e-01
  1.0053616e-01
  2.8074071e-01
 -3.8966435e-01
  1.2310172e-01
 -1.3976939e-01
  1.0056675e-01
 -1.4955299e-01
 -2.8770646e-02
  1.7126603e-01
  1.2092906e-01
  5.8044910e-02
  1.0999681e-01
 -4.0110201e-01
 -1.6643791e-01
 -3.4975651e-01
  3.0020406e-02
 -2.1462867e-01
 -6.3217387e-02
  1.2801623e-01
  1.0621843e-02
 -1.5288335e-01
 -1.6167712e-01
 -2.1361133e-02
  1.6158524e-01
  2.9238649e-02
  3.6103067e-01
  5.7818562e-01
  1.9094475e-01
  3.2744080e-01
  9.2845865e-02
 -1.0911396e-01
 -9.5281526e-03
 -5.0904967e-02
  5.3702168e-02
  3.2363150e-03
 -1.4317808e-01
 -1.0838385e-02
 -3.2456312e-01
  2.4510818e-02
 -2.0922837e-01
  1.8071221e-01
 -6.6386946e-02
 -1.2396710e-01
 -8.4323533e-02
 -5.7428796e-02
  1.0494646e-01
 -6.0868654e-03
  8.0655679e-02
  5.1359665e-01
 -3.9970013e-01
  2.1915247e+00
  8.9464879e-01
  9.7482508e-01
 -4.5013860e-01
 -1.2594864e+00
  1.0840354e+00
 -1.9359553e-01
 -3.3195999e-01
 -1.0968542e+00
  1.0981869e-01
  2.1097894e-01
 -3.6710551e-01
 -1.2024628e-01
 -1.1780882e-01
  3.9959890e-01
 -5.6376863e-02
 -3.2449391e-01
 -1.6234180e-01
  3.3597654e-01
  5.0100546e-02
  6.6795701e-01
  4.0894236e-02
 -7.0630297e-02
 -3.7657726e-01
  1.7961596e-01
 -5.1443452e-01
 -5.6197423e-02
 -4.5184803e-01
  3.9688504e-01
  3.5857849e-02
 -9.4651610e-02
  2.9877606e-01
  3.1094831e-01
  4.7524223e-01
  3.3828083e-01
  1.8714440e-01
  4.8592487e-01
 -3.0245963e-01
 -1.4310241e+00
  1.7673732e-01
  2.5826773e-01
  1.7348306e-02
 -2.3584007e-01
 -9.6258625e-02
 -8.9128655e-01
 -3.7422139e-02
 -4.8076887e-02
  1.9488422e-02
  6.0805655e-01
 -1.7934132e-01
  1.2424495e-01
 -1.6249256e-01
  3.3182538e-01
  6.0672544e-02
  1.0769897e-01
 -1.9338587e-02
  7.2474435e-02
  6.0839172e-02
 -8.7297417e-02
  1.8461356e-02
 -4.3907467e-02
  3.0896729e-01
  2.1206599e-02
  1.4522561e-01
  9.7665735e-02
 -4.2821173e-02
  2.5624115e-02
  6.6561192e-02
 -2.9268894e-02
 -1.1557756e-02
 -1.7206353e-01
  7.9158217e-02
 -1.8283141e-01
  5.3218573e-02
 -8.7395683e-02
 -4.3171946e-02
 -7.6460518e-02
 -4.9791127e-02
 -1.3534534e-02
  7.3985267e-01
  1.0981646e-02
  6.5241404e-02
 -2.8191814e-02
 -2.7824299e-02
  3.1972125e-02
  1.2021556e-01
  2.3779158e-02
  2.3994647e-02
 -1.0578509e-01
  1.1690066e-02
 -3.4470428e-02
  8.4293872e-02
 -3.7666287e-02
  4.1527725e-03
 -1.4835072e-02
  2.9924966e-02
 -3.2957383e-02
 -1.4413194e-01
 -8.3625093e-03
  6.5084830e-02
 -2.0816285e-02
  1.1316439e-02
 -9.6887155e-03
  1.2033664e-01
  2.3883805e-02
  9.5230985e-01
 -1.9996034e+00
 -2.7638733e-01
 -6.4515007e-01
 -1.0201749e+00
 -6.5993452e-01
  1.4831642e+00
  2.0227976e+00
 -1.2827386e+00
 -1.7791978e+00
  1.2312163e-01
  4.3515819e-01
  2.4574250e-01
  2.1645846e-02
 -6.0726005e-01
  2.7099183e-01
  3.5456900e-02
 -6.4153188e-01
  3.6868784e-01
 -6.0890836e-01
 -1.8545184e-01
 -1.0723437e-02
  2.0741817e-01
 -3.2544824e-01
 -2.2302090e-01
  2.9527789e-02
 -4.3310989e-02
  2.6913711e-01
  1.4360808e-02
  1.0167729e-01
 -2.0175789e-02
  1.7803130e-01
 -8.6313391e-01
  6.3470593e-03
  1.8396518e-01
  1.8529445e-01
  4.1277665e-01
  4.2668760e-01
  2.3207846e-01
 -6.7514427e-02
 -2.8041297e-01
  1.2030586e+00
  2.4048346e-01
  3.4559986e-01
  1.3569292e-01
  3.5991132e-01
 -6.9238335e-02
  3.5358451e-02
 -7.6695852e-02
 -7.5686008e-02
  7.8310020e-02
  5.2380838e-02
 -7.4220479e-02
  1.3062507e-01
 -2.9233133e-02
 -4.2133981e-01
  1.5488676e+00
 -9.6573770e-01
  1.5697366e-01
 -1.2865156e+00
  1.0958167e+00
 -4.2631185e-01
  3.4309107e-01
  1.5052050e+00
  2.1377933e-01
 -1.7838161e-01
 -8.9887828e-01
 -2.6958168e-01
  6.0073298e-01
  4.0311319e-01
 -6.2872046e-01
  7.3616463e-01
  6.4397299e-01
  2.5182936e-01
 -3.3982214e-02
 -1.2094428e-02
 -1.5156382e-01
  6.3302094e-01
  8.9569777e-01
 -6.1120158e-01
 -5.1911920e-02
 -2.6827505e-01
  5.7726777e-01
 -1.2664405e-01
 -4.5408499e-01
  5.0919640e-01
  1.4997219e-01
 -4.2350584e-01
 -9.7728968e-01
  2.0305226e-02
  1.4013794e-01
 -1.5794445e+00
 -2.3349315e-01
 -2.5608981e-01
  5.8811590e-02
 -9.6789110e-01
 -6.9388700e-01
 -7.2442847e-01
 -2.2438118e-01
 -2.9631451e-01
 -2.0633921e-01
  4.2296316e-02
  1.2242597e-01
 -1.1386639e-02
 -2.5722581e-01
 -4.1900140e-01
 -5.0054763e-02
 -8.2961559e-02
  4.0914260e-02
 -6.4479357e-01
  5.2107114e-01
 -7.7704811e-01
  8.6983126e-01
 -1.5841259e+00
  3.0773622e-01
  4.2804733e-02
  6.9960797e-01
 -4.6101215e-01
  1.9784094e-01
  9.0060215e-03
 -3.2708141e-01
 -2.0295168e-01
 -5.7068359e-02
 -2.1675479e-01
  1.2800367e-01
 -3.2335483e-02
 -2.9163390e-01
 -3.9182341e-01
 -1.2107706e-01
 -2.4045202e-01
 -2.9028798e-02
  6.0705322e-01
 -4.9481359e-01
 -7.7248377e-01
 -2.1137044e-01
 -6.3417435e-01
  1.7748380e-01
 -3.7785032e-01
 -5.1472746e-02
  1.0293866e-01
  2.3832186e-01
 -2.5252199e-01
 -2.7956354e-02
 -5.3715359e-02
 -1.5186739e-01
 -1.0049071e+00
 -8.8813007e-02
 -1.6220860e-01
 -1.4551228e-01
  7.4275271e-03
 -2.4002975e-01
 -1.6860588e-01
 -2.0887111e-01
 -4.0225707e-02
 -1.2914531e-02
 -3.1937733e-01
 -4.5396093e-02
  7.2526664e-02
 -9.8540388e-02
 -8.4943566e-03
  1.6660000e-01
  7.4772350e-02
  6.6106911e-03
  2.1296963e-02
  1.1357186e-01
  3.2491438e-02
 -5.8551665e-02
  1.1235249e-01
  5.6100752e-02
  2.1812130e-02
  1.7538486e-01
  1.0938972e-01
  2.1255189e-03
  9.9231444e-02
 -1.4305857e-01
 -1.7717835e-02
  3.6342278e-02
  3.7974071e-02
 -2.6511505e-01
  7.0421854e-03
  3.9126268e-01
 -6.2919945e-02
 -2.6952982e-02
  7.5986281e-02
 -1.0567480e-01
  5.8196551e-01
  8.5370392e-02
  5.4864373e-02
 -5.9109520e-02
  4.0681124e-02
 -3.1282101e-02
  7.9897590e-02
 -6.6124034e-01
  3.2186043e-02
  3.7626252e-02
 -2.1520207e-02
 -8.1366107e-02
  3.4524806e-02
 -6.6393226e-02
  1.2569368e-01
  5.3492889e-02
 -6.0633542e-03
 -1.0910040e-03
 -1.9687619e-02
 -1.2800758e-01
 -2.5936369e-02
  5.2862603e-02
  3.3271316e-02
 -1.0566076e-02
 -6.4409105e-03
  9.5279016e-02
  3.3297508e-03
  5.3864408e-02
 -8.7127842e-02
  6.1888969e-01
 -1.2641422e-01
  1.7547296e-02
 -7.0464008e-02
 -1.4677750e-01
  6.6067559e-01
 -4.1671866e-01
 -7.6486677e-01
 -6.0863113e-01
 -3.6750683e-01
  4.9917117e-01
 -9.6669132e-01
  2.1958299e-01
  2.0359090e-01
  8.3653189e-02
 -1.3217525e-01
 -3.5777092e-01
  1.3085775e-01
  5.9184730e-02
 -2.5606444e-01
 -1.5100361e-01
  3.0562496e-01
 -1.4866720e-01
 -1.5912040e-01
  1.6947056e-01
 -1.1167787e-01
  2.1257110e-01
  2.3426609e-01
 -1.7712891e-01
 -9.4198398e-03
  2.6210576e-01
  2.7142137e-01
  3.0109817e-01
 -3.9295793e-02
  3.1619444e-02
  2.5442004e-01
  2.0106113e-01
  4.5747671e-02
  8.7550014e-02
 -2.2950573e-01
 -2.6255978e-02
  5.1535207e-01
  1.7157969e-01
  1.1489451e+00
  7.4046820e-02
  2.7486804e-01
 -2.8129098e-01
  8.7562904e-02
 -7.5585604e-02
  2.1336405e-01
  2.9305194e-03
 -2.6064659e-02
  8.7681465e-02
 -3.4533937e-02
 -1.2648532e-01
 -3.5032682e-02
 -1.0885984e-01
 -1.9426919e+00
  4.5434275e-01
 -5.1571614e-01
  4.9159345e-01
 -9.1858482e-01
 -6.4110494e-01
 -3.8600227e-01
  2.5817230e-01
  1.5262583e-01
 -2.9524291e-01
 -6.1359102e-01
  2.8780910e-01
  2.7878773e-01
  7.3013492e-02
 -2.1146707e-02
 -6.8237580e-02
  1.8849424e-01
  2.4207774e-01
  2.8537992e-01
 -1.8101899e-01
  1.8879820e-01
  2.5621830e-02
  1.7840827e-01
  2.1524410e-01
 -6.6345865e-01
 -7.6488659e-02
 -3.9693832e-01
 -1.2738332e+00
 -2.3233750e-01
 -3.8353211e-01
  3.8057211e-01
  4.2805654e-01
 -2.7418628e-01
 -3.5797048e-01
 -2.8301385e-01
 -2.2609752e-01
 -2.3568796e-01
 -1.7259462e-01
 -3.2183489e-01
  8.2818337e-02
 -3.9754555e-01
 -2.0688108e-01
 -1.2660366e-01
 -1.3877732e-01
 -4.8687566e-02
  1.5227714e-01
  1.0121439e-01
  1.6811939e-02
  5.1635033e-03
 -2.7975905e-01
  9.2489831e-02
 -9.9549130e-02
  9.3941204e-03
 -7.7563728e-04
 -4.3264404e-02
 -6.5303987e-01
  2.3037334e-01
 -8.1243700e-01
  3.6933294e-01
  5.0775033e-01
 -2.7153909e-01
 -9.1718304e-01
 -1.3432385e+00
 -3.1353724e-01
 -2.5850379e-01
  1.3829626e-01
  2.1647312e-01
 -5.5503643e-01
 -1.9491468e-01
  2.1670260e-02
 -2.2167605e-01
  8.8613009e-01
 -7.0122433e-01
  1.6405952e-01
  1.1041546e-01
  1.9324557e-01
 -4.5911901e-02
  3.8189586e-02
  9.9565759e-02
 -4.1956329e-01
  2.4749294e-01
  5.4326200e-01
  1.8435074e-01
 -3.5111547e-01
 -6.8796143e-02
  4.3392461e-02
 -6.2826432e-02
  2.2413506e-01
 -5.1066913e-02
  2.5427777e-01
  8.0255908e-01
  3.0820280e-01
  2.7326927e-01
  1.2066011e-02
 -1.4247977e+00
  7.7509135e-01
  6.0480112e-01
  1.1763193e-01
  4.0341976e-01
 -8.2191281e-02
  1.7264715e-01
 -1.5199247e-01
 -2.5852585e-01
 -9.8261787e-03
  6.1386246e-02
 -7.4060805e-02
 -2.3299888e-02
  4.0210652e-01
 -7.0185369e-01
  1.3129602e-02
  1.4066030e-01
 -2.0300147e-01
 -8.7847181e-02
  2.3364916e-02
  1.1654635e-02
 -2.7725038e-01
 -4.4360301e-01
 -3.5008118e-01
  7.3318079e-02
  4.3398794e-02
 -1.6980833e-01
 -5.7219561e-02
 -2.0847250e-02
 -1.2916519e-01
 -2.8164011e-01
 -1.0969105e-01
  2.4531189e-02
  6.0066935e-02
  1.2895192e-01
  3.3895317e-02
 -1.1828543e-02
 -4.9090724e-02
 -1.8893816e-01
 -1.2438469e-01
 -9.4619773e-02
 -1.0585685e-01
 -3.4971572e-02
  1.2605215e-02
  6.2767260e-02
  2.0946528e-01
  1.6256890e+00
  5.6253243e-02
  2.8157780e-01
 -1.3497172e-01
  1.7120342e-01
  2.4977462e-02
  5.6524180e-02
 -1.6611940e-04
 -7.3941730e-02
 -1.9453217e-03
  7.2047740e-02
 -7.3640317e-02
  3.5341021e-02
 -6.1391860e-02
  1.2404132e-01
 -2.2678208e-02
 -1.1235960e-01
 -6.0687508e-02
  8.7913401e-02
  4.8315063e-01
  4.9235981e-02
 -9.4178416e-02
 -3.1687543e-02
  1.1692175e-03
 -7.6748163e-02
  2.1148928e-01
 -3.1279188e-02
  1.1386538e-03
 -2.0559622e-02
 -4.0060319e-02
 -2.1027889e-02
  3.5370089e-02
  9.9024102e-02
  4.9104370e-02
 -5.1588088e-02
 -1.8962255e-02
 -4.4344570e-02
  7.0385113e-02
 -7.6404855e-02
 -9.2503980e-02
  4.4820081e-02
 -2.9743745e-03
  6.5687470e-02
 -2.4851415e-02
  1.5244496e-02
 -1.2515694e-01
 -2.2565847e-02
 -1.5546741e-01
  3.6633667e-02
 -1.9636686e-01
 -5.9465058e-02
  3.2994720e-01
 -1.6976347e-02
  6.1531859e-03
  1.4383769e-01
  7.0370123e-04
 -6.3542008e-02
  9.7817732e-03
  8.0713928e-02
 -6.7806646e-02
 -5.2597526e-02
  3.6731478e-02
  4.1515578e-02
 -8.3873980e-02
 -2.7177045e-01
  8.1824381e-03
 -4.5302566e-02
  3.4134291e-02
 -2.8393511e-02
  8.4104933e-02
  4.1400053e-02
  1.0872026e-01
  2.4696609e-02
 -2.8559711e-02
 -1.5505201e-02
  2.7013004e-02
 -9.6765506e-01
  1.4384944e+00
  8.7503485e-02
  9.3925977e-01
  4.5660278e-01
  1.9884150e-01
 -1.7056721e+00
  1.1841721e-01
 -9.3989655e-02
 -2.3822972e-01
 -7.0120990e-02
 -1.4189966e-01
  1.0609844e-01
 -3.1811614e-02
  1.0298021e-02
 -2.7571386e-01
  2.6792476e-01
 -4.2714784e-01
  1.9891237e-01
  2.4104375e-02
  2.5991184e-01
  2.1443251e-04
  5.3208143e-01
  8.5220404e-02
  1.5401202e-01
  1.2202237e-01
 -1.9525065e-01
  4.9685232e-02
 -1.0827156e-01
 -1.6990711e-01
  1.1281747e-01
 -4.5910117e-01
 -3.3171415e-02
 -1.5176503e-01
  1.1251763e-01
 -3.9753008e-01
 -5.3386271e-01
 -1.0508577e-01
 -2.1765108e-01
 -5.0052565e-02
 -7.0867918e-02
  2.8684527e-01
 -7.5751513e-01
 -6.5902914e-03
 -2.2086728e-02
 -9.8866975e-01
 -2.6385853e-01
 -1.5518014e-02
 -6.5615825e-02
  1.9644374e-01
  8.5982382e-02
  1.5520192e-02
 -7.8208558e-02
 -7.8870900e-02
 -6.6581815e-01
 -1.1458371e-01
  2.9346666e-01
 -7.3605144e-01
  8.6271334e-03
 -1.5819664e-01
  4.2105195e-01
 -1.2423445e+00
 -1.7739871e-01
 -2.9527307e-01
  2.1349204e-01
 -2.8024614e-01
  2.2639051e-02
 -3.3209229e-01
 -2.1604896e-02
  3.6477169e-01
  2.4225018e+00
  4.7293499e-02
 -3.8194752e-03
 -5.0792676e-01
  2.4071258e-01
 -5.3301584e-02
 -4.4747147e-01
  3.6055390e-02
  1.0518561e-01
  5.9253369e-02
  5.3667191e-02
 -5.8810908e-01
 -5.2792740e-01
 -5.2019894e-01
  2.3420352e-01
 -2.1654215e-01
 -2.1503864e-01
 -6.1669748e-02
  1.3953209e-01
 -2.0660862e-01
  3.0229819e-01
 -6.8249241e-02
 -2.4818438e-01
 -1.8924756e-01
  4.9296424e-01
  1.4938709e-01
  1.6326146e-01
  1.8639342e-01
 -1.6011740e-01
  2.2892249e-01
  6.3915193e-02
 -1.4302215e-01
 -2.0068519e-01
  3.8919609e-02
  1.7958590e-01
 -1.8684825e-02
 -8.5575255e-03
 -2.7992505e-01
 -1.2440969e-01
 -1.1636349e+00
 -3.6412054e-01
 -2.7995664e-01
 -5.7120681e-01
  7.9009153e-02
  2.9671535e-01
 -3.2238867e-02
 -3.2796696e-02
  1.4259525e-01
 -2.7679607e-01
 -2.2455269e-02
 -9.5825508e-02
 -1.0977552e-01
  4.6417363e-02
  1.1844053e-01
  2.6505508e-02
 -2.7864212e-01
 -1.5296196e+00
  3.0579773e-01
  2.0545612e-01
 -6.9953993e-02
 -2.4764989e-01
 -1.5762867e-01
 -7.6642118e-02
  8.9285001e-03
 -2.5774635e-02
 -3.2693362e-01
  4.5000348e-02
  6.8754047e-02
 -4.9681541e-02
  3.9420113e-02
 -7.4947566e-02
 -1.1208045e-01
 -5.3561710e-02
 -1.5219744e-01
 -3.7400347e-01
  4.6424281e-02
  1.3071792e-01
  1.5606429e-02
  3.3861193e-01
  3.8640046e-01
 -2.3776530e-01
  6.1551329e-02
  3.5939954e-02
  4.3331208e-03
 -2.7901500e-01
 -5.9950179e-03
  1.0450815e-02
  2.2234966e-03
  7.5035568e-05
  1.2395559e-01
  3.1186370e-02
 -1.1095126e-01
  4.4843191e-01
 -7.7148336e-01
  1.2322153e+00
 -1.1182296e-01
 -2.8397632e+00
 -6.6051990e-01
  6.6329040e-02
  1.9168938e+00
  9.7887337e-01
  5.6181055e-01
  2.9972005e-01
  1.4116327e-01
 -5.9569456e-02
  2.4338808e-02
  1.5096098e-01
 -8.3424941e-02
 -2.4871175e-01
  9.4257360e-03
 -2.3455232e-01
 -9.9388905e-02
 -9.7153857e-02
  2.2319372e-01
  3.3843127e-01
 -4.8682116e-02
 -1.1957840e-03
  2.4969542e-01
 -1.7968832e-02
  1.3706629e-01
  9.7250396e-01
  2.8324756e-01
  1.6729124e-01
 -4.0438809e-02
  1.8825509e-01
  6.2891439e-02
  2.0778967e-01
  2.8605619e-01
 -1.9637808e-01
  1.1083375e-01
  7.6911836e-03
  8.8489756e-02
 -7.6626396e-01
 -4.3764841e-03
  1.5491028e-01
 -9.4349451e-02
 -4.7040995e-02
  3.6650291e-01
  1.5533061e-01
 -3.7396945e-02
 -8.0994144e-03
 -2.2287252e-03
  3.1848821e-01
 -1.1110182e-02
 -1.6911823e-02
 -1.3701887e-01
 -1.0075698e-01
 -5.5021700e-02
 -1.1050034e-01
 -6.5916941e-02
 -2.7481096e-02
 -6.7835353e-02
  7.1506135e-02
  1.7273998e-03
 -5.6454908e-02
 -3.5531141e-02
  8.0001697e-02
 -7.5497195e-02
  5.3711835e-02
 -7.3845163e-02
 -1.8733149e-02
 -8.8963360e-02
  4.8164189e-02
 -1.2940608e-03
 -2.1159455e-02
 -1.8814372e-02
  1.1893001e-01
 -1.3571978e-01
  6.9242917e-02
  1.7608372e-02
  4.0362768e-02
 -8.5682310e-02
  1.4496405e-01
 -7.2005168e-02
 -3.4996983e-02
 -7.8934975e-02
  3.5213489e-02
  5.2990325e-02
  5.7903256e-02
  7.3230967e-02
  8.2493104e-02
 -1.5588388e-01
  6.2098533e-02
 -7.9721585e-03
  1.8442115e+00
 -4.9227871e-02
  1.0025366e-01
 -2.1491041e-02
  1.4006859e-02
  7.7254578e-02
 -6.1996486e-03
  7.1649607e-03
 -1.0500433e-01
 -6.0439289e-02
 -7.1091883e-02
 -1.1759835e-01
 -4.3380866e-03
  3.6504793e-01
 -7.4595064e-03
  4.8063718e-02
  1.2477913e-01
  1.2476740e-02
  1.6179369e-01
 -1.3516195e-02
 -1.8583456e-01
  1.9152097e-02
 -1.8713658e-01
 -1.0561510e-01
  1.0941138e-01
  8.9347601e-02
 -1.7219476e-01
 -1.0069961e-01
  2.1940948e-02
  5.3807758e-02
 -1.4712319e-01
 -8.8789992e-02
  1.9288981e-02
 -4.3115638e-02
 -2.7058950e-02
  1.7718339e-02
 -5.4675287e-01
 -5.1061046e-01
  1.2608208e-01
  6.4438358e-02
  1.2120163e-02
  1.1593917e-01
  3.9709395e-01
  8.5666634e-02
  1.5384397e-02
  3.6104620e-01
 -1.5737619e-01
 -3.3042461e-02
  5.8766338e-04
 -5.8925532e-02
  4.3237749e-02
  8.0082417e-02
 -6.0642827e-03
 -2.3600630e-01
  9.6249752e-02
 -6.9576159e-02
  2.5425658e-01
  4.9279597e-02
  3.2179873e-03
  6.4843774e-02
  2.9482579e-02
  2.0390745e-02
 -7.9565361e-02
 -2.1276174e-03
  9.5715255e-02
  1.8950149e-01
 -6.2222835e-02
  1.2103219e-01
  3.8024295e-02
  4.4872977e-02
 -4.0114546e-01
 -4.2376944e-01
  3.2506713e-01
  3.8330606e-01
 -2.2433960e-01
 -4.0347514e-01
  1.0599766e+00
  1.3148762e+00
  3.0570555e-01
  7.2944856e-01
  1.9048333e-01
 -1.7988355e-01
  2.7459400e-02
  6.1265953e-02
 -4.9979714e-01
 -2.3149402e-01
 -3.5140279e-01
  3.6066794e-01
  1.1678433e+00
 -6.4599223e-02
  6.1420560e-02
 -2.0225234e-01
  2.0809147e+00
  2.3286945e-01
 -7.8409128e-02
  7.7330494e-01
  6.7876649e-01
 -4.0715635e-01
 -1.5256299e-01
  1.8029778e-01
  2.4223577e-02
 -7.7805459e-02
  2.3471531e-01
 -6.9768666e-03
  8.0771029e-01
 -2.4113993e-01
 -8.2400730e-03
 -2.2540586e-01
 -4.3275362e-01
 -1.2685187e-01
 -1.0467160e+00
 -1.3373901e-02
 -2.8846589e-01
  2.4979354e-01
  3.8882250e-01
 -1.8314312e-01
 -2.7721897e-01
 -1.6432406e-02
  3.4482941e-02
 -4.8731306e-01
  5.4924577e-02
  1.8394601e-01
  2.4647076e-02
 -2.7135560e-01
 -1.0907579e-01
  5.2031230e-02
 -3.0627632e-01
  7.9116650e-02
 -1.0672356e-01
  9.7575270e-02
  1.6113222e-01
 -1.7988127e-01
  8.2299776e-02
 -1.8566136e-01
 -5.8478322e-02
 -3.2249235e-02
  4.7700512e-01
  7.2157666e-02
 -4.4817880e-02
 -6.8879855e-01
  2.3303742e-03
 -2.9697314e-01
 -6.6360943e-02
 -3.5671301e-03
 -7.1723171e-02
  4.7514919e-02
 -2.2309025e-01
  2.8646193e-02
 -1.3855049e-01
 -6.7607678e-02
  2.3098385e-01
 -5.6525819e-02
 -1.9169079e-02
  1.2751973e-01
  2.4953572e-02
  1.6236278e-01
  1.0813470e-01
 -4.8272464e-02
  3.6932506e-02
 -3.0826166e-02
 -1.7329987e-02
  5.2027017e-02
 -1.0728880e-03
 -1.2188470e-01
 -1.3492842e-01
 -1.1868055e-01
 -7.8795671e-02
  3.9224010e-03
 -1.2821458e-01
  3.5091281e-02
  2.4793064e-02
 -1.2988110e-02
  1.2102728e-01
  4.0749457e-02
 -2.6120828e-02
  7.2652088e-03
 -6.6922359e-02
 -1.9068511e-02
 -7.9634917e-01
  1.9226910e-01
 -2.7316475e+00
  1.3350985e+00
 -9.7178268e-01
 -1.8458578e-01
 -1.5486902e-01
 -1.0505743e+00
  7.4084991e-01
 -2.0730197e-01
 -9.4317093e-02
 -2.3577464e-01
  4.9839998e-03
 -1.0915328e-01
 -1.7466961e-01
 -6.6545628e-02
  1.9609052e-01
 -4.6701050e-01
 -1.6379695e-01
 -4.3685887e-02
  8.6661793e-02
 -1.4224242e-01
 -5.0868493e-02
 -9.7333953e-02
 -3.9790127e-01
  6.5249264e-02
 -3.8096002e-01
  1.1127951e-01
 -1.3043277e-01
 -1.6464889e-01
 -1.1331888e-01
  1.3520031e-01
 -1.5949418e-01
 -1.3628136e-01
 -1.2183505e-01
 -1.9379443e-01
  5.2843750e-01
 -1.3104105e-01
 -1.4706770e-01
 -1.6194318e-01
  3.2196882e-01
 -1.5013453e-01
 -2.3438415e-01
 -1.2302290e-01
 -2.3443915e-01
 -2.4110492e-02
 -2.0310770e-01
 -2.0744057e-02
  8.9203244e-01
 -1.3248104e-01
 -1.6277610e-01
  1.2813677e-01
  8.9358427e-02
  4.7657888e-02
 -2.9704067e-01
 -1.2866050e-01
 -1.6750063e-01
  3.0740644e-03
 -7.6103345e-02
  1.0845666e-01
 -5.3261001e-02
  6.9974262e-01
 -1.6829318e-01
  2.1480678e-01
  1.4237792e-02
  4.4332564e-01
  6.1754711e-02
  4.9583569e-02
 -1.1908898e-01
 -6.2649012e-02
 -7.9130620e-02
  3.3616297e-02
  5.3792764e-02
 -1.0674048e-01
  5.8329087e-02
  1.3627290e-02
  4.2392053e-02
 -1.9844096e-02
  1.3355201e-02
 -2.8339000e-03
  4.5648763e-01
 -5.6579594e-02
 -1.5534133e-01
  4.5698192e-02
  6.4544544e-02
 -7.2577201e-02
 -1.9589175e-02
 -1.0101865e-01
  1.3334963e-01
  3.7978243e-02
  2.4168089e-01
 -2.6967920e-02
 -1.8486241e-02
 -8.4073968e-02
  3.1854799e-01
 -6.2404096e-02
  1.7064642e-02
 -2.1829513e-01
 -5.1209118e-02
  1.8668424e-02
  4.9001377e-02
  4.4693392e-02
  2.7177295e-02
 -3.4939246e-03
  6.7246661e-02
  9.5629856e-02
 -1.3001795e-01
 -4.1148812e-02
 -1.1648698e+00
  8.8895476e-01
  8.5489351e-01
  1.1264194e-01
 -4.1485190e-01
 -4.8519504e-01
 -2.0293969e-01
  6.2243485e-01
 -5.3067231e-01
  9.6390414e-01
  3.9777100e-02
  1.2669706e-01
 -1.8985672e-02
  2.6860914e-01
  6.1543792e-01
 -6.3626707e-02
 -2.8471678e-01
  4.6343067e-01
  2.3719183e-01
  1.8984236e-01
 -1.9421941e-01
  1.3384299e-01
  1.5073029e+00
  2.7899256e-01
 -9.1774903e-02
  1.3913894e-01
 -3.8474441e-02
  1.9195671e-01
  2.2440329e-01
  1.2158208e-01
 -1.4396319e-01
  1.9363856e-01
  5.3828758e-01
  2.1786132e-01
  5.7708599e-02
  4.5613340e-01
 -1.1603410e+00
  2.6633772e-01
  1.7125629e-02
  2.0014599e-01
 -1.1083650e-01
 -7.0891970e-01
  4.5943221e-01
  1.4610997e-01
  1.4066072e-01
 -2.5720125e-01
  2.5974688e-01
 -2.2397002e-02
 -6.2295594e-03
 -5.1834721e-02
  1.6204488e-01
 -7.0286274e-01
  3.0853827e-03
 -2.5374183e-02
  2.9030001e-01
  4.5844960e-01
  9.7753280e-01
 -1.4628053e+00
  6.1012453e-01
  6.7507595e-01
  2.1504626e+00
 -1.0029237e+00
 -1.3316874e-01
  2.2632313e-01
 -2.1707234e-01
 -9.8115698e-02
 -2.2218069e-01
 -4.0692881e-01
 -5.0506973e-01
  1.2858891e+00
  7.4193788e-01
  8.5278057e-02
  3.9447066e-01
  5.8013999e-01
 -4.3939242e-01
  2.0644444e-01
 -3.1966627e-02
  8.0689818e-02
  6.9659215e-01
  4.1909587e-01
 -3.7923855e-01
  1.0748322e+00
 -3.0388394e-01
 -4.4724834e-01
  7.3384143e-02
  8.6915147e-01
 -1.8138109e+00
 -1.0728188e+00
  3.9821199e-01
  8.5661083e-02
  3.8682163e-01
  1.2202708e-01
 -9.0850882e-02
 -4.6190825e-01
  8.7541366e-01
 -2.9298407e-01
 -3.6990219e-01
  4.4273213e-02
  9.8974913e-02
  3.2175618e-01
 -6.2618643e-01
  2.8259956e-04
  1.4657313e-01
 -3.3021000e-01
  4.0341858e-02
  2.0999154e-02
  1.1212403e-03
  1.0012341e-01
 -6.6270894e-01
  8.3659655e-01
 -2.8231719e-01
  8.2553938e-02
 -6.1581892e-01
  6.2321872e-01
 -6.5163720e-01
 -3.0747999e-02
  7.2954422e-01
 -5.7265353e-01
 -4.0133566e-01
  1.5909548e-01
  1.8497482e-02
  2.6775545e-01
  3.1211730e-02
 -2.1115022e+00
  2.7591062e-01
 -3.3990929e-01
  3.9745578e-01
 -6.1668283e-01
  8.8584512e-02
 -2.2206694e-01
 -1.8464133e-01
 -1.0605872e-01
 -1.9132887e+00
  3.6194736e-01
 -4.2510119e-01
 -4.8920444e-01
 -6.0423274e-02
 -1.1342568e+00
  6.0943824e-01
  6.6543406e-01
  4.3197017e-02
 -1.3838823e+00
  1.5377191e-01
 -6.9680935e-01
 -1.5475900e-01
 -4.2606854e-01
 -3.5259196e-01
 -1.2252216e-01
  4.4135967e-01
  5.6071973e-01
 -1.2628143e+00
 -2.1699207e-01
 -1.2947062e-01
  9.6334934e-02
 -4.9727905e-01
  1.9223455e-02
 -3.7252586e-03
  6.3500576e-02
 -8.4758446e-02
  4.7341076e-01
  1.4261085e-01
  1.2642018e-01
  9.1134913e-02
 -1.0789499e-01
 -1.6702898e-01
  1.0965680e-01
  4.9097493e-02
 -2.7787006e-02
  2.1616552e-02
  3.4175810e-01
  1.0042507e-01
  2.1879731e-01
  3.8926549e-02
 -7.3765360e-02
 -3.2231841e-02
 -2.7692292e-02
  7.8328565e-02
  8.7833494e-02
  6.5749787e-02
 -1.0289456e-01
  1.6329125e-01
 -2.2864714e-02
  1.9365621e-01
 -8.8626221e-02
  6.5864533e-02
 -8.8103756e-02
 -4.1888308e-02
 -1.2551250e+00
 -9.7055197e-02
 -2.0007540e-02
  1.3993567e-01
 -6.4418428e-02
 -5.3639490e-02
 -2.2817630e-01
 -8.7102614e-02
 -6.9778167e-02
  2.5660895e-02
 -3.1479102e-02
  8.1912950e-03
 -1.7150247e-01
 -4.7869194e-02
 -1.7154835e-02
 -5.1431876e-01
 -4.1211277e-02
 -8.1656694e-02
  1.0615015e-01
 -1.6803287e-01
 -1.2856762e-01
 -2.5387335e-01
 -2.7858615e-01
  8.7563522e-02
  7.9001989e-03
  3.1051852e-02
  1.1156707e-01
 -6.9286048e-02
  3.7851822e-02
  1.1415455e+00
 -7.0086443e-01
 -8.1969041e-01
 -4.9894419e-02
  1.0927650e+00
  5.6109655e-01
  2.7086067e+00
  2.0532746e+00
 -7.9386246e-01
  1.4899395e+00
 -7.8099459e-02
  1.0971906e+00
  1.6390724e-01
  4.3504372e-02
 -4.4174454e-01
  2.2261828e-01
 -1.4235500e-01
  1.7610487e+00
 -4.1064149e-01
  4.7339684e-01
  3.6354285e-01
  6.2119793e-03
  7.8354418e-01
 -2.9803321e-01
  9.6335225e-02
 -6.3972197e-02
  4.9846324e-01
  2.8558391e-01
  5.2641791e-01
  1.7440876e-02
  4.3868490e-02
 -5.0634879e-01
  5.6943677e-02
  2.7538753e-01
  2.4342544e-01
  1.8796010e-01
  1.5150452e-01
  9.6236281e-02
  3.5621789e-01
 -2.3557371e-01
 -1.7060875e+00
  6.6347325e-01
 -2.7761239e-01
  1.1140195e-01
  5.7954383e-01
 -2.5904296e-02
 -1.2615687e-01
 -1.5861654e-01
 -6.8970881e-03
 -2.5634825e-02
 -1.1835094e-01
  3.1024584e-01
 -1.1725099e-02
  1.2973098e-01
 -2.0209740e-01
 -2.1394180e-01
  1.9634319e-02
 -5.8449786e-02
  1.0044146e-02
 -5.7951737e-02
  5.3970292e-02
  3.5180517e-02
 -4.3916783e-01
 -2.4956475e-01
 -1.1044396e-01
  5.2686475e-02
 -1.1500687e-01
  1.7773438e-01
  6.2861890e-03
  2.8253026e-02
  3.2172039e-02
 -2.6257378e-01
 -1.1413869e-01
  6.7808166e-02
  4.3179400e-02
  9.3604429e-03
 -2.6500598e-01
  2.7361542e-01
  6.7661725e-02
  4.9874425e-02
 -4.3167822e-02
 -9.3271576e-02
  1.9691419e-02
  5.8266763e-02
  3.2893918e-02
  1.0255251e-02
 -1.2901438e-02
  1.8060586e-01
 -2.7616875e-02
 -4.0518876e-02
 -1.1400756e-01
  5.6820791e-02
  1.5480621e-01
  3.2141976e-02
 -3.4298071e-01
  1.2764034e-01
  1.1217471e-01
  5.8386430e-02
  5.4450858e-01
 -6.5339856e-02
  1.3189544e-01
  1.4674260e-01
 -2.7149821e-02
 -5.6798536e-02
 -1.2078293e-02
 -5.3382132e-02
  7.0107207e-02
  2.6432514e-02
 -2.6268864e-01
 -1.6825745e-01
  1.4048757e-01
 -2.1249135e-01
  1.0547777e-01
 -1.2671952e-01
 -6.8784438e-02
 -1.6681835e-01
 -3.5157774e-02
 -3.3304755e-02
 -4.6845756e-02
  4.4123609e-02
  1.0205696e-01
  4.7825180e-02
  5.5537993e-01
  7.1491547e-02
 -4.0343203e-02
  1.0118295e-01
 -7.2459534e-02
 -8.7499507e-02
 -3.1290982e-02
  1.0263750e-02
 -5.1527418e-02
 -2.5195226e-02
  5.0170734e-03
 -2.4806349e-01
 -6.8140991e-02
  1.3873694e-02
  3.7080143e-02
  7.6079078e-02
 -3.5444107e-02
  7.6747559e-02
  1.4731415e-01
  5.3338815e-02
 -1.6058408e+00
 -1.4732671e-02
 -7.0541769e-02
  4.1381314e-01
 -3.9265826e-02
 -4.2664573e-02
  1.0693324e-01
  2.2658331e-02
  2.1485249e-02
  4.4910349e-02
 -2.8859688e-02
 -2.0068820e-01
  1.2048047e-01
  6.6218421e-02
  4.7165867e-02
  6.8231799e-02
 -9.1116823e-02
 -4.3514036e-02
  2.1844011e-02
 -2.0164747e-02
  7.0570117e-01
 -8.1684810e-01
 -2.5715360e-01
 -1.5034981e-01
 -2.7571955e-01
  9.3343484e-01
 -2.0724149e-01
  1.3726813e-01
  6.3315231e-01
  3.0118248e-01
 -8.3089277e-02
  2.5781322e-01
  8.7137464e-03
  1.5260880e-01
  3.0876681e-01
  6.6364235e-01
  1.5918651e-01
 -1.1570992e-01
  1.3372214e-01
 -9.9694192e-02
 -2.3486434e-01
 -2.8543925e-02
 -2.5199508e-02
  7.1795844e-04
  6.8646455e-01
 -8.8237725e-02
 -2.6064150e-02
 -1.3057931e-01
 -1.5648274e-01
 -5.8986250e-02
  7.0338652e-02
  3.7350976e-01
  1.0204521e-02
  1.6909184e+00
 -4.0198404e-02
 -1.1213028e-01
 -7.1750617e-01
 -4.4523548e-02
 -8.3189890e-02
  2.0294397e-01
  2.6910481e-01
 -9.3467310e-02
  6.7803666e-02
 -2.0622681e-01
 -1.7123178e-01
  3.8793656e-01
 -4.2062056e-01
 -3.6660522e-02
 -2.7351750e-02
  1.3014400e-01
 -2.6435427e-02
 -1.5172745e-01
  7.5713262e-02
  1.2399385e-03
 -1.6841468e-01
  2.8238580e-01
  2.6648493e-02
 -5.9894556e-01
 -2.9722843e-01
 -7.2947122e-02
  5.5088496e-01
  4.5063198e-01
  3.4787212e-02
 -5.4110635e-02
  6.1208215e-02
  3.0709583e-01
  8.8750482e-01
  1.7567675e-01
  2.0935205e-01
 -3.2337025e-01
 -2.3912647e-01
  5.3453660e-01
  3.2471821e-02
  2.2975668e-01
  1.1122644e-02
  3.6001214e-01
  6.3099378e-01
  5.2242041e-01
  4.9973655e-02
  1.6290516e-01
  3.8855445e-01
 -6.3726145e-01
  3.0251241e-01
 -1.6784696e-01
  1.0965034e-01
 -1.2942325e-01
  2.9213130e-01
  2.0861772e-01
  1.2861839e-01
 -5.4898268e-01
 -5.2914590e-01
  3.5990223e-01
  5.5629544e-02
  2.1873149e-01
 -2.1080283e-02
 -1.0166120e-01
  1.9692707e-01
 -2.1653447e-02
 -3.5069516e-01
 -8.2983874e-02
  2.2657329e-01
  1.8815163e-01
  9.1200389e-02
  1.2755634e-01
  2.0948395e-02
 -7.3627450e-02
  7.9661690e-02
 -6.7516468e-02
 -3.7092465e-01
  1.3579409e-01
 -4.6898681e-03
 -1.2475234e-02
  8.2251936e-02
 -1.1523847e-01
 -1.2269044e+00
 -1.6154164e-02
  4.8310463e-03
  1.6761719e-01
  5.7009097e-02
  7.0608631e-02
  3.0434148e-03
 -1.0607524e-01
  7.9124048e-02
 -8.9078151e-02
  2.4657264e-02
 -8.5193895e-02
  2.6720598e-02
 -1.2499788e-02
 -1.3270539e-01
 -4.4135250e-02
 -2.3749938e-02
  1.0678402e-01
 -2.7898252e-02
  3.2939117e-02
  2.8892976e-01
 -1.4615005e-02
 -8.8448279e-02
  1.2416130e-01
 -4.5135189e-02
 -3.3459768e-02
 -8.2242161e-02
  2.1125233e-02
  5.2930206e-02
  1.2463833e-01
 -3.8336802e-02
 -5.9902180e-02
 -1.5975593e-02
 -3.2967318e-02
 -1.9912302e-01
  2.5806677e-01
 -7.1463808e-02
 -1.7498413e-02
 -3.8494653e-01
 -1.6340153e-02
  1.1102200e-01
 -7.0713144e-03
  5.0237369e-02
  7.7501282e-02
  3.8897600e-02
 -1.4789826e-02
  5.2132282e-02
 -4.0252198e-02
  1.7313090e-01
  9.6620417e-01
  6.9523588e-02
  1.1482470e+00
 -1.1757237e+00
 -1.3377613e+00
 -1.2198991e+00
 -3.8313323e-01
  1.2671320e+00
 -6.3370327e-03
 -2.7020359e-01
 -5.9256423e-01
  5.1189595e-01
  5.7634109e-01
  2.6938289e-02
 -3.1485820e-01
  1.1883272e+00
  4.4416946e-01
  1.4704664e-01
  7.1530920e-01
  9.4854310e-02
 -2.0348348e-01
  5.6645912e-01
  1.6864445e-02
 -1.3056250e-01
 -4.6164766e-03
  1.7456140e-03
 -1.7152195e-01
  1.0036517e-02
 -5.1683482e-02
  6.1714690e-02
  1.1157948e+00
 -3.9675450e-01
 -2.5448978e-01
 -4.9570495e-01
 -4.8346800e-01
 -3.8401577e-01
  2.9886419e-01
 -1.8788047e-01
 -1.4053227e-01
 -1.3939670e+00
  4.7585569e-02
 -3.7147406e-01
  3.3815664e-01
 -2.0146830e-01
 -1.9951874e-02
 -1.9921260e-01
  8.3753310e-02
 -8.9192457e-02
 -2.0078281e-01
 -6.6683374e-02
  5.4363910e-02
  4.2283366e-04
  5.5246539e-02
  7.9403973e-01
 -7.2589642e-01
  7.5744301e-01
 -8.5430992e-01
 -2.2255208e-01
 -1.1179574e+00
  4.5679876e-01
  1.2540936e+00
 -1.2904521e+00
  9.4724965e-01
 -8.2856691e-01
  1.5660327e-02
 -4.6294788e-01
  3.2339582e-01
 -1.8413510e+00
  8.5838205e-01
  2.7409634e-01
  4.1504154e-01
  1.0740653e-01
  1.7349671e+00
 -2.0601226e-01
 -2.7820638e-01
 -5.8822262e-01
  7.9627490e-01
  1.0046097e+00
 -9.3244493e-02
  4.0296400e-01
  6.3044882e-01
  3.4433815e-01
  1.1699786e-01
 -6.1820114e-01
  1.8576311e-01
 -3.2044101e-01
  3.6172068e-01
 -2.0416430e-01
 -3.2044359e-02
 -4.2172596e-01
 -6.5298110e-02
  6.9539863e-01
  1.2930636e-01
 -3.1249884e-01
  1.9106494e-01
  3.6462256e-01
  3.6643171e-01
  3.3028436e-01
 -2.7911538e-01
 -4.2245388e-01
 -6.1069173e-03
  1.5082818e-01
  2.4405128e-01
 -1.2925301e-01
  8.6064510e-02
  5.7707507e-02
 -1.2655369e-02
  7.2051883e-01
  6.6066504e-02
  2.2954336e-01
  2.9393047e-01
  1.9865488e-01
  6.0195852e-02
  3.0296403e-01
  7.3450619e-01
  3.4823540e-01
  2.2541369e-01
 -1.8670751e-01
  4.6739316e-01
  1.2432281e-02
  2.1088333e+00
 -2.1408971e-01
  2.1052782e-01
 -9.0227388e-02
  5.8678353e-01
 -1.6483319e-01
  6.1724760e-02
 -2.2135909e-01
 -1.6390068e-02
  2.8216076e-01
 -5.9566554e-02
  1.0013285e-01
  3.4522813e-02
 -2.5778564e-02
  2.8593799e-01
  1.2526877e-01
  3.8940009e-01
 -1.5103005e-01
  4.7179455e-01
  1.8137451e-01
  1.3775522e-01
 -7.4127316e-02
 -1.1209768e-01
 -4.1831363e-02
  4.0252421e-02
 -1.8428080e-02
  9.9964075e-02
 -1.5162270e-01
  6.9568969e-02
 -5.0975396e-03
 -1.1845694e-01
  2.4204764e-01
 -1.8095280e-01
  1.2168169e-01
  6.5384321e-02
  1.4507884e-01
 -4.7663357e-02
  4.1781798e-02
 -7.9779021e-02
 -8.6083122e-02
 -2.2423540e-03
  4.5213905e-01
  4.6050325e-01
  1.2912365e+00
 -4.9374425e-01
 -1.1588977e-01
  1.4211494e+00
  2.1398809e+00
  7.7001613e-01
 -1.3158561e+00
 -4.9533214e-02
 -2.1730256e-01
  3.6021256e-01
 -4.8439485e-01
 -1.2714359e-01
  4.4975835e-01
  1.9996020e+00
 -3.5950842e-01
  2.5150695e-01
  7.3942697e-01
  8.0823526e-02
 -3.0469280e-01
  3.7155738e-01
  9.9384916e-01
 -1.0051853e-01
  1.2319171e-01
  2.9646367e-02
 -6.3149202e-01
 -1.0206888e-01
  7.8635715e-02
  6.4805031e-01
  4.6430802e-01
  8.0032206e-01
 -2.8830232e-02
  1.9129130e-01
 -8.2205755e-01
 -4.4895324e-01
  1.8940957e-01
  2.9775283e-01
 -9.4246656e-01
  1.4336638e-01
 -2.7216884e-01
  6.7749202e-01
  5.5104691e-01
 -1.4172573e-01
 -7.5997589e-03
 -1.2522371e-01
 -1.5842657e+00
 -1.3714321e-01
  2.1782063e-03
 -9.9020474e-02
 -5.5132285e-02
 -1.4651996e-01
 -1.8487738e-02
 -3.7120891e-01
  4.6387529e-01
  2.3129882e-01
  1.0414326e+00
  5.4737687e-01
 -9.6745580e-01
  1.4673846e+00
  1.6035601e+00
  1.4121598e+00
 -5.3506154e-01
  9.5262714e-02
  7.8673136e-01
  1.5151968e-02
  1.3856295e-01
  1.3743585e+00
  2.9780942e-01
  8.0355227e-01
 -3.4553990e-01
  2.8697079e-01
 -7.2352368e-01
  1.0754912e-01
  2.4777691e-01
 -5.1820174e-02
  1.3687853e+00
  1.6882107e-01
  1.9355272e-01
  1.2703189e-01
 -2.3320010e-01
  3.9850220e-01
  6.9292158e-01
 -1.9902477e-02
  2.4119683e-01
  5.2614059e-02
 -2.7787611e-02
  1.4464365e-01
  4.1075912e-01
  2.0680219e-01
 -7.1395552e-01
  2.3507784e-01
 -3.3186820e-01
 -1.6486919e-02
 -1.0472747e-01
 -2.7819949e-01
 -4.0853161e-02
  6.9935523e-02
 -6.0290761e-02
  2.4433187e-01
 -2.7976853e-01
 -9.0744793e-02
 -6.6350617e-02
 -7.4428551e-02
  2.1765551e-01
  8.6503677e-02
 -2.7364070e-02
 -7.6701090e-02
 -7.6631300e-02
  2.3754852e-02
 -2.0450462e-02
 -7.6980948e-02
  5.8217477e-02
 -1.1289579e-02
  3.9438045e-01
  1.4656723e-02
  6.0909003e-02
 -6.5173195e-03
 -4.3822609e-02
 -9.8872960e-02
 -2.2330351e-02
  1.2078634e-02
  3.6410451e-02
 -2.2287222e-02
  4.7600966e-02
 -2.9640713e-01
 -2.7599363e-02
  1.1760801e-01
  6.9847465e-02
 -9.5560692e-02
  7.6212853e-02
 -9.2456728e-02
  4.8136458e-02
 -2.6242794e-02
 -6.7154311e-02
  8.3722830e-02
  2.6541185e-02
 -5.4826315e-02
  4.4929039e-02
 -5.6553919e-02
 -8.2624227e-02
 -3.4767989e-02
  3.7963390e-02
  2.9291177e-02
  4.9146302e-03
  4.8009504e-02
 -4.2430077e-02
  2.8958386e-02
  1.9613460e-01
 -1.4795712e-02
 -2.4163890e-01
  7.1201667e-02
 -1.4254926e-02
 -7.3627636e-02
  6.6902516e-03
 -1.1018426e-01
  1.6210109e-02
 -3.1893387e-02
 -9.3264423e-02
  1.0681843e-02
 -3.2892309e-02
 -1.3985011e-02
 -3.4907377e-01
  4.0116243e-02
 -2.5810230e-01
 -9.1569340e-01
  5.6811403e-02
  9.0010792e-02
  5.0982226e-02
  1.1887408e+00
  1.2608958e+00
 -9.9647520e-03
 -4.9931541e-01
 -1.7317906e-01
 -5.9897399e-01
  4.4516349e-01
  3.5132688e-02
 -9.5449555e-01
  3.1391868e-01
 -8.3764839e-01
 -1.0525160e-01
  8.5030115e-01
  3.3491001e-01
  6.0952497e-01
  7.6349467e-01
  2.2616668e-02
 -9.0759706e-01
 -2.0154901e+00
  5.7797441e-03
 -4.7728026e-01
  4.0957719e-01
 -2.1598753e-01
  6.0405552e-01
  6.1180186e-01
 -1.4345030e+00
  3.1592023e-01
 -9.9343169e-01
  5.6336891e-02
 -1.6708504e+00
 -1.1513270e-01
 -1.1262773e+00
  4.6512187e-01
  4.6303578e-02
  1.3312345e+00
 -8.4352916e-01
  9.3114167e-02
 -1.2277458e+00
 -2.6202926e-01
  1.1697620e+00
  6.0203318e-02
  4.3602830e-01
  2.2147746e-01
 -5.7711267e-01
  8.6855413e-03
  1.9073673e-01
 -5.7243454e-01
  2.6329499e-01
  8.7660104e-01
 -2.0742206e-01
 -1.3625995e+00
 -8.9056695e-01
  3.9372665e-01
 -8.5279208e-01
  5.3668404e-01
  3.9763594e-01
  9.0859723e-01
  9.6287951e-02
  4.9758476e-01
  1.4656696e+00
 -7.0459831e-01
  2.2144880e-02
  5.9818226e-01
  1.4928248e+00
  7.6990819e-01
  7.1188504e-01
 -6.0540377e-03
 -4.6203759e-01
 -1.0042897e+00
 -2.6509440e-01
  2.9312652e-01
 -7.1405791e-02
 -1.5736991e-01
 -7.2147167e-01
  3.4191334e-01
 -1.3705342e-01
 -1.6887948e-01
  8.5738367e-01
 -9.7811830e-01
 -1.2893418e+00
 -2.3122555e-01
 -1.2141358e+00
  4.9734953e-01
  1.6520901e-01
  4.9037087e-01
  9.7849554e-01
  7.3445402e-02
 -9.6498156e-01
 -2.3261328e+00
  3.1145978e-01
  1.1749709e+00
 -8.3675730e-01
 -6.2371258e-02
  1.0194610e+00
 -2.4871083e-01
  1.5719703e-01
  2.3191826e-01
 -1.3205208e-01
 -8.7239873e-01
 -3.3523387e-01
 -1.2274336e-01
 -9.7511172e-02
  2.1919266e-03
  1.5672557e-01
  6.2503323e-02
 -5.8179729e-02
  2.3975375e-03
  1.1643592e-01
  7.7745646e-02
  6.0670683e-03
 -1.1148859e-01
  9.7774461e-02
  4.1925184e-02
 -4.6785802e-02
  2.2925659e-01
 -4.7209449e-02
 -1.1662720e-01
  5.4040801e-02
  3.6444638e-02
  1.8027559e-01
 -4.4388793e-02
 -1.0986766e-01
  8.5993998e-02
 -1.4925373e-01
  2.2534234e-02
  2.5773495e-01
  9.5516304e-03
  7.1058929e-02
  1.2365684e-01
 -1.0176121e-01
 -6.3590378e-02
  2.8809566e-02
  1.2140541e-01
 -5.4469168e-02
  7.4074678e-02
 -1.0791966e-01
 -5.0528038e-02
  9.1614641e-02
  9.3065299e-02
  4.0807322e-02
  7.8253858e-02
 -7.4147679e-02
  5.5847567e-02
 -1.3087098e-02
  4.9009945e-02
  1.4954896e-02
  9.9076331e-02
 -5.9479606e-01
  7.9129738e-01
  1.1477895e-01
 -1.9477510e-01
  7.9305586e-04
 -5.9940976e-01
  2.9471357e+00
  1.5582249e+00
  1.1668098e+00
  3.5743773e-01
  3.1515589e-01
  1.1792526e+00
 -7.2188240e-01
 -2.2801412e-02
  4.1574454e-01
 -2.1142875e-01
 -6.5686309e-01
  3.9480338e-01
 -3.9957961e-01
 -5.8237708e-01
  2.2308129e-01
  1.3369784e-01
 -1.7570141e-01
 -3.9566264e-01
  2.1782921e-01
 -9.4965741e-02
 -3.2502708e-01
 -2.8114513e-01
  4.7951084e-02
 -1.6096987e-01
 -2.4430045e-01
  7.9224646e-01
  5.8413166e-01
 -6.3138674e-03
 -8.8901591e-01
 -6.2930274e-01
 -7.8705078e-01
 -1.1194181e+00
 -1.2653066e+00
  4.4211617e-01
  4.1822305e-01
 -1.1939948e+00
  2.9184475e+00
 -7.9803783e-01
 -2.8332174e-01
 -7.5600319e-02
  2.1226108e-02
  3.3736613e-02
 -3.8466647e-02
  1.1122733e-01
  3.0368969e-01
 -2.7349368e-02
 -1.1443445e-01
 -1.0306726e-01
 -7.3561662e-01
  5.9989637e-01
 -2.2243644e-01
  2.5115016e-01
  7.2504544e-01
 -1.0922582e+00
 -9.1637623e-01
  2.1471329e-01
 -1.0658889e-01
 -3.7123561e-02
 -1.9250576e-01
  5.9833016e-02
  8.9141019e-02
  4.4939410e-02
 -3.1366758e-02
  6.8372354e-02
 -1.4381090e-02
 -3.3496562e-01
 -6.5223902e-02
 -6.9196180e-02
 -3.5670772e-04
 -1.2933885e-01
  3.3280689e-01
 -8.1593826e-02
 -3.8528055e-02
 -3.4213147e-01
 -2.3793785e-01
 -1.9377306e-01
 -3.4730142e-01
 -4.9361306e-01
  2.9178950e-01
 -2.5099692e-01
 -7.7492470e-01
 -3.3785018e-01
 -2.0592639e-01
  1.3104557e-01
  7.6080084e-02
 -7.6996759e-02
  2.3693690e-01
 -4.5496947e-01
  3.0191207e-01
  2.2222233e-01
  1.0144425e-02
 -1.4965290e-02
 -7.3953986e-02
 -1.2007324e-01
 -4.4808857e-02
 -1.5757000e-01
 -8.2494996e-02
 -1.1790492e-01
  5.1883183e-02
  4.4955853e-02
  1.2295242e-01
 -2.6965870e-02
 -6.7602074e-01
  8.0303691e-02
 -5.4720867e-01
 -4.2115778e-01
 -3.8924748e-01
  1.2687469e-01
 -4.3033385e-01
 -1.0871140e+00
 -3.9807698e-01
  5.9208881e-02
 -4.6684828e-02
 -2.6572305e-01
  6.1301652e-02
  7.4908108e-02
 -6.8516448e-02
 -3.0470271e-02
 -4.0358710e-01
 -2.8843147e-01
  1.4483644e-02
 -4.4644400e-01
  4.6628263e-02
 -1.6554970e-01
 -7.0126034e-02
  8.4120691e-02
  2.0273292e-02
  3.2000965e-01
 -1.6420275e-01
  9.2968933e-02
 -3.4107238e-01
  3.3589993e-02
 -1.2767898e-01
  2.7470729e-01
  3.0728933e-01
  2.0220309e-01
 -5.2556042e-02
 -1.7979763e-01
  3.7830353e-02
  1.3126451e-02
  1.7785554e-01
 -2.1109435e-01
  3.2658595e-01
  2.7838624e-01
  1.9143425e-01
  1.4039187e-01
 -1.1517366e-02
 -5.7804536e-02
  4.6998162e-02
  8.4061831e-02
 -5.3275466e-02
  3.7672523e-02
  2.0811787e-01
 -3.7248343e-02
 -3.2305203e-02
 -5.5958096e-02
  1.8816321e-01
  2.3718970e-01
 -2.1327953e-01
 -3.2172310e-01
  1.1253052e-01
 -8.4120788e-02
  6.4555988e-02
 -2.5744569e-01
  2.6236510e-02
  4.7099624e-02
  4.8105675e-03
 -7.5416833e-02
  1.6120358e-01
  3.4955431e-02
  1.2152687e-01
  2.6442608e-01
  1.1676957e-01
  2.0801054e-01
  1.7241457e-02
  5.8546890e-02
  3.4315428e-03
  6.2377013e-02
 -7.6495238e-02
 -1.4056993e-01
  1.4961880e-02
 -8.0448270e-02
  7.5828764e-03
  8.5409261e-02
  1.0812419e-01
  1.9873137e-02
 -2.2625135e-01
  2.2018933e-01
 -3.9340493e-01
  4.7808673e-02
 -5.1773563e-02
 -1.3931271e-03
  8.0020048e-02
  1.4634715e-01
  6.6162489e-02
 -3.8949214e-02
  3.3992901e-02
  2.4268723e-01
 -7.7030845e-02
  9.0017304e-02
  1.6687252e-02
  3.7213460e-02
  5.5250349e-03
  2.5180439e-03
  2.1642245e-02
  3.2557048e-02
 -6.1282046e-02
 -2.2685304e-01
 -3.1352177e-02
 -3.9253946e-02
 -2.3951648e-01
 -1.0627503e+00
  8.7967402e-01
  9.1608904e-02
 -4.0123740e-01
 -1.5699024e+00
  4.4441792e-01
 -3.4480661e-01
  1.7052814e-02
 -3.9084759e-01
 -9.0801224e-02
 -8.6839664e-01
  7.5320028e-02
  8.9310580e-01
  3.0554667e-02
  1.0147219e-01
 -3.9905140e-01
  4.6830241e-02
  2.2525138e-01
  7.7837354e-01
 -1.4034328e-01
  9.7799158e-01
 -2.5649655e-01
  1.0988045e-01
  1.0109174e-01
 -1.7397713e-02
  6.7906544e-02
  2.5485519e-01
  5.8750284e-01
  6.9068778e-01
 -1.9704111e-01
  3.6156055e-02
 -1.7018574e-01
 -5.7992943e-02
  1.2239739e-01
  3.1160182e-01
  2.6133078e-01
  7.4997582e-02
  3.5818434e-01
  7.1118571e-02
 -8.9031351e-01
 -1.4145528e+00
  6.2424260e-01
 -3.9486963e-01
  1.6883609e-01
  2.3983426e-02
  4.4894263e-01
 -5.6998692e-02
 -3.6909901e-02
  6.7187540e-02
 -1.4738534e-01
  1.3338307e-01
  1.1466026e-02
 -6.7572288e-02
 -1.2929463e+00
 -1.1987550e+00
 -8.0142617e-01
  1.4031830e-01
 -2.3189321e+00
  7.7325010e-01
  1.7295254e+00
 -5.0081128e-01
  6.2070000e-01
 -2.5931197e-01
  1.3032950e+00
 -5.0172889e-01
  6.3812298e-01
 -2.2954924e-01
 -2.7503717e-01
 -7.0548296e-01
  4.6286988e-01
 -4.1433540e-03
 -4.4926014e-02
  3.8558377e-03
 -1.7101818e-01
  3.0535364e-01
  2.5571567e-01
 -8.1961900e-01
 -2.0529386e-01
 -2.2733432e-01
  2.9018202e-01
  7.0532995e-01
  4.9577144e-01
  5.2533132e-01
 -2.2405286e-01
  1.7652903e-02
  1.6215768e-01
 -1.1579335e+00
  1.6196075e-01
  4.0664092e-02
  5.1265603e-01
 -7.6883987e-02
  5.5366665e-02
 -3.0002433e-01
  8.8301063e-01
 -8.5425973e-02
 -9.4324178e-01
 -9.7651497e-02
  8.5230845e-01
  9.0236701e-02
 -1.3959602e-01
 -2.5189078e-01
  4.1558340e-02
  4.1276477e-03
  3.5298992e-02
 -4.6230409e-02
 -1.6506256e-01
 -6.4814903e-02
 -2.0965248e-02
 -9.7493842e-02
 -3.6520302e-01
  7.1592748e-02
  6.2127296e-02
 -7.1602359e-02
  2.3307543e-01
  2.4214229e-02
  8.8561319e-02
  6.7873565e-03
 -8.0276984e-01
  2.4153358e-01
 -8.2250692e-02
 -1.3745648e-01
 -7.3172487e-02
  2.4265228e-02
  5.8466904e-02
  1.2716931e-01
  1.3020154e-02
  8.4343158e-02
  1.2296037e-01
  3.9826311e-02
 -1.2842590e-01
 -3.7744947e-02
 -2.7967920e-03
 -2.0253834e-01
  5.1542091e-01
  6.4815372e-01
  1.4015597e-01
  1.5065652e-01
 -1.0510303e-01
  1.3273515e-01
 -7.9159506e-02
 -2.5300385e-02
 -2.2980043e-01
  6.7372724e-02
 -4.5594145e-02
 -2.6195729e-01
  1.1919498e-02
  3.5903105e-01
  7.8008555e-02
 -2.0271069e-01
 -2.5185738e-02
 -1.0791124e-01
  2.3658313e-01
 -4.2255662e-02
  4.9550645e-02
 -1.0710638e-02
 -4.3868955e-02
 -5.0591905e-02
  4.3098685e-01
  4.8464607e-03
  4.1421536e-02
  3.2241415e-02
  6.6242218e-01
 -8.5137188e-01
  1.8581852e-03
  4.0108836e-01
 -1.5202288e-01
 -4.1101385e-02
  7.2958601e-01
  1.0038823e-01
 -2.8719178e-03
  1.2627050e-01
  3.2038420e-01
 -4.5278575e-02
  5.8748931e-02
  8.4365219e-02
  5.9344776e-02
  8.7412260e-02
  3.0733743e-01
  7.3377770e-01
  1.5567346e-01
 -7.7135511e-02
  1.3256507e-01
 -5.3270135e-02
 -8.5400246e-02
  6.5488398e-02
  6.1763369e-02
  1.6307436e-02
 -7.9271555e-02
  1.0617807e-01
  6.4383991e-02
  1.0610440e-01
 -1.2202958e-01
  1.0355614e-01
  3.3250576e-01
  9.6145093e-02
 -4.5936942e-02
 -2.6111688e-02
 -1.1610994e-01
  6.6521406e-02
 -8.6935885e-02
  2.2418870e-01
 -8.3643887e-03
  2.9714087e-02
 -6.5541074e-02
  1.6349533e-01
 -4.3262012e-02
  9.0919152e-02
 -7.4990341e-03
  6.2284525e-02
 -9.0163931e-02
 -7.0734344e-02
  1.0364845e-02
  6.2564224e-02
 -1.5704876e-02
 -1.2956405e-01
 -9.0285428e-02
 -2.9185768e-02
  6.5536916e-01
  1.7612601e-02
 -8.3303995e-02
  5.0722294e-02
 -2.5777139e-03
  7.6932982e-03
  1.5142067e-02
 -7.2583683e-02
 -3.1964194e-02
 -5.4130636e-02
  7.5170651e-02
 -3.6350995e-02
  2.9015090e-02
  1.1153572e-01
 -5.4657977e-02
  2.1958189e-02
  3.6000829e-02
 -1.1519656e+00
 -7.9549514e-02
 -4.6309005e-02
  2.6863042e-02
 -8.7794503e-03
 -9.7863257e-02
 -2.5104162e-01
 -4.8289411e-02
 -7.0493519e-02
  1.8959832e-01
  4.4514481e-02
 -6.6727288e-02
 -1.8977789e-02
 -2.6782311e-02
  3.4036454e-02
  6.1460327e-02
 -8.9421123e-02
 -3.1880390e-02
  2.9280372e-02
 -5.8042321e-02
 -6.1856791e-02
  9.0205945e-02
 -5.9738081e-02
  5.2224375e-02
 -1.5607172e-01
 -1.4951031e-02
 -2.3521956e-02
  7.9265647e-02
  1.8617256e-01
  7.3879391e-01
  6.5471283e-03
  1.0331515e-01
  2.6340540e-02
 -4.8905239e-02
  9.4196953e-02
 -1.0519990e+00
  6.1790890e-01
 -1.8432416e-01
 -1.3697620e-01
 -6.2453961e-01
 -4.7003403e-01
 -6.0279202e-01
  2.7275842e-01
  7.1187901e-01
  5.9141625e-02
  4.4064936e-01
  4.0602800e-01
 -4.0571005e-03
  1.0724773e-01
  1.6379753e-01
  5.0537132e-02
  1.1173388e-01
 -2.2152737e-01
 -1.2401418e-01
  1.4144921e-01
  1.1008088e-01
 -1.5378075e-02
  3.3717373e-01
  1.5113883e-01
  1.1021763e-01
  3.9907880e-02
 -2.1297218e-01
  9.9824987e-02
  3.5738146e-01
 -4.3750048e-01
  1.1662767e-02
 -1.1870010e-01
  1.6050607e-01
  2.3850398e-01
  3.0409250e-01
 -8.7589025e-02
  5.7607603e-01
  2.2338855e-01
  8.5538387e-02
 -3.7101549e-01
 -1.2987417e+00
  2.3036525e-01
 -4.7702637e-02
  2.1084931e-01
  1.1431114e-01
 -3.5115164e-02
 -1.3599493e-01
  6.6623233e-02
  2.4315743e-02
 -4.3065637e-02
  2.2202720e-01
 -1.9268909e-02
 -1.1667470e-02
 -1.8201315e-01
 -1.0885185e+00
  1.2536736e+00
  1.9844830e+00
 -9.3496746e-01
  7.3006618e-01
 -8.2034373e-01
  2.9588342e-01
  2.7829981e-01
  4.7398353e-01
  2.9932496e-01
  2.9057658e-01
 -1.0837007e-01
 -3.1013647e-01
  3.3703160e-02
  2.0459786e-01
 -4.2277262e-01
  1.3954778e-01
 -5.3068858e-01
  1.8735041e-01
 -1.3934718e-01
  3.3612609e-01
  2.2245984e-01
  1.7931291e-01
  2.3523088e-01
  5.2112287e-01
  4.0668389e-01
 -1.3519363e-01
  8.0123506e-02
 -1.0196773e+00
 -1.6354837e-03
  3.2552212e-01
  1.9806984e-01
  5.9712863e-01
 -7.5566851e-02
 -1.3839363e-01
 -7.7148944e-02
 -2.3564939e-01
 -1.4573228e-01
 -6.7511573e-02
  1.8540612e-01
 -7.7473307e-01
 -5.0158954e-01
  9.6762037e-01
  4.8660684e-01
  3.0347598e-01
  7.4165106e-02
 -8.1542842e-03
 -1.4279130e-01
  2.1134745e-02
  8.1873380e-02
 -7.3161580e-02
  7.1267478e-02
 -8.6867176e-02
  1.0871325e-01
  1.4737000e-01
 -3.5195944e-01
  6.8021260e-02
  3.4389898e-01
 -3.9746556e-01
  1.0979647e-01
  7.8814679e-01
  3.5408221e-02
 -5.5228853e-01
  1.9425906e-02
 -7.4889809e-01
  9.5856391e-02
 -7.4094623e-02
  2.5141589e-02
 -1.2669326e-02
  1.1323434e-01
 -6.8362817e-02
  5.0577283e-02
  4.9653225e-02
 -5.0421717e-04
  1.0498615e-01
 -4.8954301e-02
 -1.3210763e+00
 -3.1263742e-01
  6.2086366e-02
  1.8190753e-01
  2.2062482e-02
  2.5282007e-02
  1.2226132e-01
  1.6453421e-01
 -6.7392491e-02
  4.5453440e-02
  1.4671606e-01
  2.2979759e-01
 -9.9873595e-02
  1.4859948e-01
  7.5931989e-02
 -7.8746659e-01
  8.1576183e-03
  1.3464240e-03
  1.4919785e-01
  3.9724737e-01
  1.0783822e-01
 -5.7717329e-01
  2.5302760e-02
 -5.5729445e-02
 -3.1684116e-02
 -2.7163457e-02
  4.7950097e-03
  4.8260193e-02
 -4.0633842e-02
 -2.8682685e-01
  9.6172407e-02
  5.2002914e-02
  3.9461918e-02
  6.6284701e-02
  1.7229993e-02
  3.1892560e-02
 -1.3614951e-01
 -3.7687865e-01
 -2.5151808e-02
 -1.2982926e-01
  4.5368701e-02
  2.7170476e-02
  1.0328529e+00
 -1.0968587e+00
 -2.6247520e-02
 -5.1283211e-02
  1.4089086e-02
 -8.4143378e-02
 -3.5541318e-02
 -4.7049881e-03
 -3.1327106e-02
 -9.1758324e-03
 -4.7475311e-01
  9.1525815e-02
 -6.4649239e-02
  4.6153892e-02
 -3.2089289e-02
  1.8602308e-02
 -3.6271676e-02
 -8.2652678e-04
  8.3357535e-02
  2.8885530e-02
 -2.1613142e-02
  4.2564692e-03
  4.9785774e-02
  2.6565181e-02
 -1.0737117e-01
 -1.1705571e-01
  1.9634491e-02
  1.8338043e-02
  1.1162217e-01
  6.6640764e-02
  2.6582785e-02
 -4.2703889e-02
  6.0826421e-01
 -4.4566181e-02
  1.2818320e-01
  2.6266187e-02
  5.0042175e-02
 -5.6923306e-01
  2.3734247e-02
  1.1517494e-01
 -2.0592293e-02
 -1.9442223e-02
 -3.7510797e-02
 -1.2563002e-01
  8.5155898e-01
  5.4215664e-01
  6.4610767e-01
 -4.1459692e-01
 -9.3957715e-02
 -2.3545653e-01
 -3.1102097e-01
 -4.5383784e-01
  3.6014155e-02
  1.3796639e-01
 -2.6595467e-01
 -4.6627301e-01
 -2.7539241e-01
 -2.4460325e-01
 -1.2290319e-01
 -2.3551926e-01
 -7.7373236e-02
 -3.2959557e-01
 -1.2767093e-01
 -4.9823397e-01
 -1.4569452e-02
  1.0470630e-01
 -9.0997621e-02
 -1.0732644e-01
  2.3974839e-01
  3.7799802e-01
 -3.8936365e-01
  1.7377584e-01
 -5.1757479e-01
  1.9980893e-01
 -5.9937328e-02
 -1.5562764e-01
 -1.2319319e-01
 -2.5056571e-02
  1.6163754e-01
 -2.2274667e-01
 -1.2069941e-01
 -1.9676328e-01
 -3.9134988e-01
  8.9247916e-03
 -9.7529985e-02
 -1.4351711e-01
  7.5117511e-01
  6.2055066e-02
 -6.6825576e-02
 -6.2817834e-02
  6.6435337e-02
  9.7075731e-02
 -1.5601247e-02
 -1.1295048e-01
  2.4545850e-02
 -8.8937089e-02
  1.3671631e-01
 -2.8415465e-01
  1.2630868e-02
 -5.9590012e-02
 -1.5774406e-01
 -3.7319273e-02
 -1.2708907e-01
  2.9838759e-02
  3.9157104e-02
 -1.0668927e-01
 -4.0293895e-02
 -1.4709101e+00
  8.5177951e-02
  1.3078023e-02
 -7.0884508e-01
 -5.0643910e-02
 -1.2803087e-02
  5.9126606e-03
  3.6440268e-02
  9.0026863e-02
  1.3372065e-02
 -5.7663001e-02
 -6.6540651e-02
  9.1704436e-02
 -3.1304568e-02
  1.2852731e-01
  4.6865705e-02
  2.9050516e-02
 -3.7105822e-03
  1.8162105e-02
 -3.4011367e-01
  1.0245997e-01
 -4.3208790e-01
  6.8761118e-02
  7.7452540e-02
  1.3055038e-02
  1.1258760e-01
 -7.4896149e-02
 -5.2495436e-03
 -1.5675976e+00
  1.3144985e-01
 -6.1292406e-02
 -4.0373027e-02
 -4.1732773e-02
  4.4496126e-02
  9.9354737e-02
  1.4568225e-02
 -5.2708481e-02
  2.3144711e-02
 -2.5139453e-03
  6.5033890e-02
  7.7840588e-03
  3.1293768e-02
  6.2832654e-02
 -4.1329148e-03
  7.5812019e-02
  1.2111130e-01
  2.4697173e-01
  2.9918242e-01
 -2.3181431e-02
 -2.7340373e-01
 -1.0475652e+00
  2.2039302e-01
 -2.2956535e-01
 -4.9229462e-02
  3.0520958e-01
 -2.8790238e-01
  1.9921491e-01
  7.2894715e-02
  9.8382914e-03
 -4.2414898e-01
  2.4632475e-01
 -1.1063521e-01
  3.8879582e-01
  3.2912108e-01
  6.7862058e-01
 -7.8164553e-04
 -3.1911781e-01
 -2.2561443e-01
  5.5204850e-01
  2.5704420e-01
  1.2804307e-01
  2.5257033e-01
  2.8827991e-03
  8.3953875e-01
 -3.3498031e-01
  2.6632690e-01
 -1.9058204e-01
  1.2049985e+00
  6.6543102e-01
  5.4717356e-01
  2.5110558e-01
  3.4513733e-01
  3.7568340e-01
  2.0369253e-01
 -3.2246158e-02
  1.8115383e-01
  4.7307026e-01
  4.5321986e-01
  1.7611955e-01
 -5.1225848e-02
  4.1733291e-03
 -5.8122378e-02
  5.5463560e-02
  7.9238536e-03
 -2.1618614e-01
  2.1277597e-02
 -7.8042202e-02
 -1.2553205e-01
 -6.7396432e-02
  5.5953515e-01
 -1.1295866e+00
 -4.6188521e-01
  2.8957263e-01
  4.1242629e-01
  4.5368758e-01
 -4.6412849e-01
  1.0322472e-01
  1.0696732e-01
 -1.6388951e-02
  3.0924678e-01
  4.9474230e-01
 -4.0223876e-01
  7.4055918e-02
 -5.6406356e-02
  1.4796980e-01
 -7.8672305e-02
  2.1256615e-01
  1.6031496e-02
  1.8174979e-01
 -1.9300616e-01
 -1.6608253e-02
 -4.0293926e-01
 -4.6727650e-02
 -1.4517370e-01
  7.6721288e-02
  4.4226475e-02
 -2.0870734e-02
 -9.4520658e-01
  5.1773671e-04
  1.1020103e-01
  1.3457821e-01
 -6.7765325e-02
  1.8099273e-02
  3.2070354e-01
  3.4878504e-01
  1.1747666e-02
  3.7464546e-03
 -2.0527343e-01
  2.6218465e-01
 -2.7782303e-01
 -8.3097947e-01
  3.7533913e-02
  3.2832825e-01
  1.3925144e-01
  7.6139726e-02
  8.6340092e-02
 -1.2012781e-01
  9.3586922e-02
  4.1606028e-02
 -1.3741939e-01
 -2.1395084e-02
  2.1847054e-02
  1.3423440e-01
 -8.1135064e-02
 -1.9419178e-01
 -1.3249595e-01
 -2.8567156e-02
 -9.1383889e-02
 -1.1400122e-03
  1.3057928e-02
  2.8919724e-01
  8.4291035e-03
  1.8609930e-02
 -3.3941732e-03
  1.3085982e-01
 -2.2060016e-02
 -1.5372977e-02
  6.9180652e-03
  7.1316384e-02
 -3.2962013e-02
  9.9231891e-02
  2.0650674e-01
 -4.3567244e-02
  3.0291663e-02
 -1.6026201e-02
 -1.5014127e-01
 -9.0287052e-02
  2.8976409e-02
  9.5767379e-01
 -2.2687675e-01
 -9.9530905e-02
 -1.7665634e-01
  4.9521949e-02
 -8.0442734e-02
  2.3439927e-02
  1.7967609e-01
  2.3367794e-02
  1.7113160e-01
 -3.2142047e-02
  1.0834572e-01
 -6.8257600e-02
  1.7894406e-02
 -5.5436365e-02
  1.0698564e+00
  1.7405897e-01
 -2.6128119e-01
 -2.5848845e-02
 -3.0123839e-01
  5.8687609e-02
  8.3355829e-02
  1.3516323e-01
  2.8180186e-02
 -1.0791215e-03
  7.6632544e-02
 -5.3915054e-02
  5.6052562e-02
  6.0406014e-02
 -7.2900124e-02
  7.9976276e-02
 -2.3343697e-02
 -9.4830304e-02
  1.0263692e-01
 -1.5029101e-02
  3.4731727e-02
 -1.6529275e-01
 -8.3693583e-03
  1.7363162e-01
  2.8676189e-02
 -3.5870254e-02
  1.0609884e-02
 -2.2124670e+00
 -1.1934659e+00
  6.7954504e-01
  9.8866671e-02
 -7.2159111e-02
  5.4076392e-02
 -1.2656207e-04
  3.7965454e-02
  4.4178143e-02
 -6.0279500e-02
 -5.5729091e-01
 -9.3919396e-02
 -5.0463744e-02
 -8.3975822e-02
  7.5539790e-02
 -5.6281161e-02
  1.2724049e-02
  7.1255907e-02
 -1.4119640e-03
 -4.8689663e-02
  2.1875346e-01
 -3.7091937e-02
  6.3597076e-02
  4.0697351e-01
  4.0035713e-02
 -3.9315578e-02
 -2.7380211e-02
  5.3243209e-02
  3.1402409e-02
  3.2911379e-02
 -2.9288663e-02
 -1.2223734e-01
  2.4537822e-02
  9.7277097e-02
 -1.9193396e-02
  1.3264456e-02
  1.7505169e-02
 -1.2775089e-02
  5.8859780e-02
 -2.3706354e-02
  5.3742924e-03
 -4.2794999e-01
  6.2600367e-02
  1.5242785e-01
 -6.2758990e-02
 -2.7680358e-01
 -2.6227677e-01
  4.8629227e-01
  2.5955063e-01
 -1.7391859e-01
  6.5876514e-02
 -3.7092794e-02
 -2.1061656e-01
 -5.5141252e-02
  6.2030326e-03
 -2.4859369e-01
 -8.6627543e-02
 -3.0860940e-01
  2.3317793e-01
 -4.0771492e-02
  5.9058559e-01
  2.3387548e-01
 -1.7450026e-01
  2.2704040e-01
  4.2814460e-01
  2.0387353e-01
  5.8405060e-01
 -7.2295837e-02
  3.0140147e-01
  1.2472868e-01
 -1.1676158e-01
  1.9054990e-01
 -5.8804203e-02
 -2.6826227e-01
 -1.4047588e-01
  1.2161426e-02
 -5.1949572e-02
  6.5628290e-02
  1.8101463e-01
  1.0215377e-01
 -7.4765317e-02
  8.3231613e-02
 -9.6832836e-01
  2.5075129e-01
  6.3114695e-02
 -7.8591496e-02
 -8.3198018e-02
 -6.1558624e-04
 -4.8526555e-02
 -7.6490529e-02
  3.7717741e-02
 -8.7698109e-02
 -2.1798577e-02
 -3.2483045e-02
 -3.7853759e-02
  1.3533327e-02
  8.2579029e-01
 -2.8987801e-01
 -5.3120667e-01
  9.4054604e-01
  2.6334736e-01
  3.9128491e-01
  1.7099331e-01
 -7.0852679e-01
  1.4494295e-01
  7.0085698e-01
 -2.4106927e-01
  7.4275355e-03
  2.6212659e-01
  5.8318626e-02
  1.4827016e-01
 -5.7681733e-01
 -1.8419255e-01
 -1.1349399e-01
 -2.2179747e+00
  4.7242727e-02
 -1.0307004e-02
  1.4438215e-01
  1.1358794e+00
  1.4076665e-01
  7.9786408e-01
 -1.1391850e+00
  1.3790916e-01
 -1.1395496e+00
 -1.2208246e-01
  6.0537046e-01
 -1.9817166e-01
  7.9992181e-01
 -2.0454727e-01
  4.6783021e-01
 -5.4315156e-01
 -1.8561521e-01
 -1.9977158e-01
  3.7442571e-01
 -4.4906265e-01
  3.7653387e-01
  8.0726141e-01
 -2.8832456e-01
  4.8312512e-01
 -2.8539982e-01
 -1.4015497e-01
 -2.4020970e-01
 -1.1724278e-01
 -8.5086554e-02
 -5.7018057e-02
  2.6836601e-01
 -2.5614474e-03
  1.6136417e-01
 -2.1498582e-01
 -1.7470078e-01
  1.3361062e-01
 -3.0247597e-02
 -9.0153277e-02
 -1.0036778e+00
  3.1126896e-02
 -2.9663977e-01
 -1.9051586e-01
 -1.3542214e-02
  5.5765845e-02
  1.3061348e-01
  3.2582037e-02
  6.3936673e-02
 -3.0862615e-02
 -8.5731998e-02
 -5.6049403e-02
  1.0664687e-01
 -2.1862440e-01
  5.1453300e-03
 -1.3953216e-01
 -1.5951453e-01
  8.2685702e-02
 -8.1949746e-03
  3.9241098e-02
  9.6594431e-02
  1.2389708e-03
 -1.8974442e+00
 -1.0699891e-02
  4.9755882e-02
 -5.2744657e-02
  1.3584445e-02
  1.4525968e-02
  7.4604852e-03
 -2.3920778e-02
  2.9171997e-01
 -1.2825875e-01
  4.5735408e-02
  2.5499770e-01
  9.5652476e-02
 -1.2387063e-01
  1.3397901e-01
  2.0213118e+00
 -1.0285570e-01
  6.3772857e-02
 -5.1627051e-02
 -8.1201419e-02
 -7.2221108e-02
 -7.9000099e-03
  5.1046815e-02
  1.5785621e-02
  1.0396287e-01
  1.0600542e-01
 -1.6983064e-01
  1.7096661e-02
  6.6709888e-01
  2.8170214e+00
  9.0785313e-01
  2.4686638e-01
  4.7338426e-01
 -3.6480397e-01
  4.8387215e-01
  2.0320764e+00
  6.2706292e-01
 -1.6398554e-01
 -5.1534528e-01
 -4.5443758e-01
  6.9499344e-02
  1.8210070e-01
  2.0769364e-01
  8.0671412e-01
  2.9678673e-01
  6.9846028e-01
  3.2617682e-01
  4.7115487e-01
  7.4663363e-02
  2.6700348e-01
 -6.7863697e-03
  3.0739555e-01
  2.5861686e-01
 -2.2943886e-01
  4.8690188e-01
  2.2294872e-02
 -4.4025528e-01
  9.8136812e-02
  9.8338621e-03
  1.6768366e-01
 -2.0785639e-02
 -2.5572848e-01
  4.0993884e-02
  3.0189770e-01
 -4.9839232e-02
 -1.4070328e-01
  3.1095147e-01
  5.4512429e-01
  3.5909969e-01
 -1.2811539e-01
 -5.8358739e-04
 -5.1583755e-01
 -4.2330660e-02
 -4.7270861e-03
  1.8928632e-02
  1.1856674e-01
  7.0663095e-02
 -3.2488290e-02
 -2.4616115e-01
 -6.3328728e-02
  1.7247843e-02
  4.7078303e-01
 -6.3194729e-02
 -2.7870039e-02
  3.9141204e-02
  9.3406990e-02
  3.2417759e-02
  2.8314773e-02
  2.5033969e-01
  5.4353482e-01
 -9.4262622e-02
  1.2594374e-02
  6.8885833e-02
 -6.6936120e-02
 -8.2861207e-02
 -6.2547512e-03
 -1.4020376e-02
 -4.5893542e-02
 -7.3902652e-02
 -8.8528814e-03
 -5.8867730e-02
  4.1421618e-02
  5.0174527e-02
  1.9462422e-02
  2.8079279e-02
 -1.3608682e-03
  5.6598436e-02
  5.0263226e-02
  3.5621237e-03
 -6.3089110e-02
 -3.6034286e-02
  1.4992221e-02
  1.6322864e-02
 -1.8646376e-02
 -4.6721745e-02
  1.2038118e-02
  1.3339625e-01
 -7.4840717e-02
  2.7646086e-01
  1.1330170e-01
 -7.6488674e-02
 -2.0441752e-02
 -5.3780641e-02
 -1.2982513e-01
  3.6378562e-02
 -3.4230951e-02
 -7.1392387e-02
  9.7995676e-02
  5.9953198e-02
  3.0198259e-02
 -1.6122481e-01
 -5.9145357e-02
 -2.2855990e-02
 -1.1704496e-01
  3.9025079e-02
  3.7459891e-02
 -1.3826294e+00
  8.2521893e-02
 -4.6989906e-01
 -5.9712965e-02
 -8.3409125e-01
  5.1697618e-01
  8.0497664e-01
 -7.2129256e-01
 -8.1313080e-01
 -2.0514505e-02
  5.5541676e-01
  4.0694210e-01
  2.6193693e-01
  1.6942504e-01
 -1.4660409e-01
 -6.4832509e-01
  3.2460573e-01
  5.9531301e-01
 -3.6750275e-01
 -4.1610244e-01
 -3.0413216e-02
 -1.1246571e-01
  1.0792251e-01
 -3.4088695e-01
 -1.4784403e-01
 -9.0466365e-02
  4.4449374e-01
 -2.8504598e-01
 -5.4015439e-02
  3.1057629e-01
 -2.7511325e-01
 -5.8086928e-02
  4.1515645e-01
 -3.8826084e-01
  4.1630521e-01
  5.5821002e-01
  1.9373807e-01
  5.3460276e-01
  6.9480818e-03
 -1.5276849e-01
 -9.0092379e-01
  5.0703073e-01
  6.6843528e-01
  2.4959314e-01
  4.8382962e-01
  1.2079810e-01
 -7.5675346e-02
 -2.2793600e-01
  1.1786317e-02
  1.0594163e-01
  1.5338305e-01
  1.2383030e-01
 -1.0733718e-01
  8.0261946e-02
 -1.4592825e-01
  6.2691830e-02
  1.3736486e-01
  1.4048055e+00
 -4.1324532e-01
  8.7349230e-01
 -1.1152873e+00
 -2.0356047e+00
 -1.0054009e+00
  1.7697899e-01
  1.4694963e+00
 -2.3705861e-01
 -2.7351615e-01
  4.3689811e-01
  3.3637735e-01
 -6.5417886e-01
  4.5364773e-01
  2.1850920e-01
 -1.5582936e-01
  6.5180606e-01
 -4.8443413e-01
  1.8924187e-01
  2.2583786e-01
 -1.7389456e+00
 -1.5576901e-01
  2.5191825e-02
  1.2121655e+00
  3.1705201e-02
  1.0446802e+00
  1.2215917e-01
 -3.9152059e-01
  1.4880170e-01
  6.6456491e-01
 -2.6503417e-01
 -1.5574129e-01
  6.2601447e-01
  3.1599391e-01
 -3.0301499e-01
  1.5146767e-01
  7.3624307e-01
  5.6863278e-01
  1.1531650e+00
 -8.9491419e-02
  7.1854847e-03
  5.8766252e-01
 -6.6050544e-02
 -1.7315120e-01
 -7.3868096e-02
  1.3277239e-01
  2.8589308e-01
  9.8531532e-01
  4.7586146e-01
 -9.8116413e-02
 -5.9660979e-02
  6.7458045e-01
  1.8981638e+00
 -7.1050704e-01
  1.3566592e+00
 -5.9648937e-01
 -2.3111105e-01
 -2.2619900e-01
 -9.1969615e-01
 -2.1682657e-01
 -5.5256897e-01
 -2.8289932e-01
  2.1202004e-01
  1.5198325e-01
  2.5884202e-01
  4.7684684e-02
  4.0757680e-01
  6.7097515e-01
  6.5039700e-01
  1.6708858e-01
  3.7484601e-01
  3.7939239e-01
 -7.4893035e-02
 -9.3182929e-02
  3.3228546e-01
 -1.7939977e-01
 -5.7837433e-01
 -4.6415743e-01
  4.1761540e-02
 -1.4793402e-01
 -9.3905523e-02
 -1.0085092e-01
  7.1389802e-02
 -3.7931734e-01
 -9.9947393e-02
 -2.4269477e-01
  3.3537811e-01
  1.0836329e-01
 -1.1971801e-01
  1.7982829e-01
  3.4927526e-01
  1.1951574e+00
  4.6986498e-02
 -2.9600155e-02
  5.2005261e-01
  4.4038907e-02
  7.8014292e-02
  2.2683582e-01
  1.5221864e-01
 -4.3065388e-02
 -1.6176145e-01
 -4.1995716e-01
 -1.8773110e-01
  1.2578273e-01
  7.2925165e-02
  1.5929643e+00
 -1.4313130e-01
  5.3444058e-01
  1.2483926e-02
 -2.5911710e-01
 -1.8479940e-01
  1.2384938e+00
 -3.4084305e-01
  8.6347491e-01
  3.4781748e-01
 -6.4397979e-01
 -1.8848601e-01
  1.4911093e-01
  1.0269164e-01
  4.4557466e-03
 -6.4971066e-01
  1.4335833e-01
 -1.6645592e+00
  1.2326890e-01
 -1.0696323e-01
 -3.4877366e-01
 -4.2060253e-01
 -7.6795720e-02
  1.3579819e-01
 -2.6955268e-01
 -4.2156902e-01
 -8.5646826e-01
  3.1081665e-01
 -3.1131767e-02
 -1.3976893e-01
  2.9325750e-01
  5.6541231e-02
 -5.9612513e-01
  2.9667497e-01
 -6.7415990e-02
 -1.4700351e+00
  1.6674140e-01
 -6.0557449e-01
  1.2840457e-01
 -5.6359529e-02
  5.1762760e-01
 -1.4727910e-01
  1.4334755e-01
 -3.3542952e-01
 -5.0936007e-01
 -7.1469247e-02
  1.8920736e-01
 -9.3770690e-02
 -1.3684712e-01
 -2.8821040e-02
 -5.7101145e-02
 -6.3455112e-02
  7.4946702e-01
 -3.4882796e-01
  9.1656494e-01
 -2.9999712e-01
 -4.2009419e-01
 -3.7849642e-02
  3.9837691e-01
 -1.7781609e-01
  2.5216911e-02
  8.8104075e-01
  1.3324717e-01
 -2.3323557e-01
 -6.3954657e-01
  2.0413522e-01
 -4.6004891e-01
  2.6259872e-01
  3.6645651e-01
  4.8453093e-01
 -2.2496866e-01
  2.2689740e-01
  3.0237687e-01
  4.0624088e-01
 -3.0501947e-01
 -8.9768760e-02
 -1.0227862e-01
  3.9847574e-01
 -1.1802772e-01
  2.8244382e-01
  1.7090525e-02
 -6.4341933e-02
 -2.6800202e-02
 -5.1676720e-02
  8.4092565e-02
  2.2306687e-01
  3.4534255e-01
  1.0780656e-03
 -2.7696890e-01
  9.5455721e-02
 -3.6835395e-02
 -1.0118888e-01
 -3.8926665e-02
  4.8719403e-01
 -1.6226675e-01
 -9.3480504e-01
 -1.7867637e-01
 -3.4488040e-01
 -1.5340644e-01
 -7.7406220e-02
  7.3492175e-01
  9.8496722e-03
 -8.9202851e-02
 -2.4329357e-02
 -1.7790200e-01
  2.6727238e-01
  1.3785078e-01
  6.2554553e-02
 -5.7527468e-02
 -2.3603158e-02
  9.4135590e-03
  9.2348471e-02
  5.9171185e-02
 -7.7158630e-02
 -7.3667780e-02
 -8.3093615e-03
  4.8479524e-02
  1.0797863e-01
  3.0710828e-02
 -7.0094727e-02
 -5.2582905e-02
  2.5269803e-02
 -1.3632773e-01
 -4.5544174e-02
  6.1457134e-03
  5.3476624e-02
  2.1218590e-02
 -4.3758415e-02
  1.9832434e-02
 -9.0087987e-02
  1.1082977e-01
 -4.1497644e-02
  3.1140079e-03
 -5.6173276e-02
 -4.2990830e-02
 -7.1172811e-02
  4.7835469e-02
 -3.7175953e-02
  3.6733262e-02
  5.2400790e-02
 -9.9969065e-01
  4.6205805e-03
  5.8996500e-03
 -1.6374322e-02
 -1.7492738e-01
 -5.8148056e-02
  7.4032351e-02
  3.2190505e-02
  4.6506575e-03
  1.1827246e-02
 -4.9157485e-02
  2.3533110e-01
  7.9732455e-02
  1.4072080e-01
  9.7304778e-03
  1.2092135e+00
  5.7597753e-02
  5.6430306e-02
 -1.3970708e-02
 -6.5433450e-02
  9.6967369e-03
  5.9446996e-01
 -1.2067096e-01
 -2.1469809e-01
  4.6992379e-01
 -2.9643908e-01
  1.5813279e-01
  1.8368907e-01
  4.3230450e-01
 -2.1756712e-01
  1.6813199e-03
  1.2350087e-01
 -1.0786077e-01
 -2.2664595e-01
  1.8191244e-02
  2.7911279e-01
 -1.0863899e-01
 -1.4366771e-01
  2.1972744e-01
 -1.7835535e-01
 -2.2926008e-02
  3.3486053e-02
 -1.0854112e-01
 -3.3727542e-02
  1.2166440e-01
  7.3065184e-02
 -5.4772869e-02
  1.8708780e-01
  4.0265750e-02
  3.1851128e-02
  3.4117928e-01
 -1.9108424e-01
  6.7962408e-02
 -1.0493193e-01
  5.1087420e-03
 -6.8076454e-02
 -5.8994168e-01
 -2.8688341e-01
 -1.1410635e-01
  3.6334977e-02
  1.3595447e-01
 -1.4221509e-01
  2.8778661e-02
 -1.7883804e-01
  1.9993214e-01
 -1.7009789e-02
 -1.1069845e-01
 -5.5472270e-02
 -3.3095407e-03
 -3.2221731e-02
  4.9837623e-02
 -4.6331022e-02
  1.6005906e-01
 -4.2468446e-01
 -5.8300078e-02
  7.3879268e-03
  8.6045182e-01
  5.3923118e-01
  1.0994325e+00
  1.0182843e+00
 -2.6425022e-01
  5.3101933e-01
  1.8787581e+00
  8.1593585e-01
  3.3685184e-01
  1.7355834e-01
  2.6670519e-01
  9.0671062e-01
 -1.7468835e-01
  1.4343259e-01
 -4.6970230e-01
  4.8031706e-01
 -1.0714911e+00
  1.5993138e-01
 -3.9043680e-01
 -2.3295203e-01
  3.1466541e-01
 -5.9837031e-01
  2.1804465e-01
 -4.0055910e-01
  5.0268758e-02
  4.6098119e-01
 -1.1243616e-01
  6.9412571e-01
 -1.0086939e+00
 -2.1170644e-01
 -2.1767016e-01
  3.0112076e-01
 -4.2580700e-01
  4.3025535e-01
 -1.9649152e-01
 -1.9926310e-01
 -6.7260373e-01
  1.4218158e-01
  1.1189631e+00
 -2.4252396e-02
  3.1358224e-01
  6.2411547e-01
  8.8015479e-01
 -8.0451006e-01
 -2.9633972e-01
 -5.8206707e-02
 -7.1421899e-03
  1.9338140e-01
  1.1058759e-01
 -8.4531158e-02
  1.1901928e-01
 -1.6479850e-02
 -2.1171294e-01
 -1.3342728e-01
 -5.4882127e-01
  4.7511321e-01
 -7.7854246e-01
  5.7655185e-01
  1.5039950e-02
 -7.7912605e-01
 -6.6641414e-01
  6.3341033e-01
 -3.4224626e-02
 -4.4217777e-01
 -5.1487970e-01
 -3.6473912e-01
  2.6880679e-01
  1.3998319e-01
 -3.3700818e-01
  2.6318341e-01
 -6.9998175e-02
  2.0920815e-02
  3.9376992e-01
  9.4444019e-01
 -1.4468648e-01
 -3.3216986e-01
 -1.5831620e-01
  1.9023816e-01
 -3.8267866e-01
  3.0140003e-02
  4.4352254e-01
  1.5365322e-01
 -2.7581024e-01
 -1.1837449e-01
 -1.7551650e-01
  3.4130812e-01
  1.2305630e-01
  9.6755952e-02
  8.9541012e-01
  4.6847883e-01
  1.2936921e-01
 -3.5941249e-01
  3.2405886e-01
  2.7326506e-01
  2.3079757e-01
  4.8425293e-01
  3.2224792e-01
  8.7457918e-02
  1.7950277e-01
 -1.3045861e+00
  7.3174134e-02
 -3.5639391e-03
 -2.4015157e-02
  6.2073741e-02
 -1.3067451e-01
  3.7029907e-02
  5.0582975e-02
  1.3828266e-01
  2.4088667e-01
 -1.9333351e-03
  1.4494847e-02
  4.9163409e-02
 -2.4345113e-01
  1.0415038e-01
 -1.4730060e-01
 -4.7304910e-02
 -1.0389204e-01
  1.0103597e-01
  7.3665013e-03
  5.3327683e-02
 -1.9826419e-03
 -1.4926936e-01
  4.0777456e-02
  2.4292989e-02
  1.5187624e-01
  8.4152132e-02
  9.4073099e-01
  4.0400680e-02
  1.5559905e-02
  3.2289278e-02
  4.5534719e-02
  1.7795290e-01
  3.8926385e-02
 -3.0680437e-02
  1.7576322e-02
  3.6720554e-03
 -2.8132313e-01
  8.3378494e-02
 -7.2309850e-03
  1.7835245e-01
  1.5929741e-01
 -4.6190728e-02
 -3.2546166e-02
 -4.4474185e-02
  1.0185239e+00
  5.2319407e-02
  3.9498147e-02
 -5.7961784e-02
  1.4076311e-02
  6.2833764e-02
 -4.2388026e-02
 -2.6865441e-01
 -5.9318565e-02
  1.1181795e-01
 -3.5395272e-02
  3.6097817e-02
 -1.0730638e-01
 -4.3435924e-02
 -6.6221476e-02
  1.2418538e-01
  1.3672763e-02
 -2.9257173e-02
 -1.1345809e-02
 -1.1022579e-01
  9.7910338e-04
  5.4501845e-03
 -1.5969571e-01
  9.3147002e-02
 -3.0264050e-01
 -9.6789896e-02
 -2.6961347e-02
  5.0042760e-02
  4.0008064e-02
  1.7222082e-02
  6.7578353e-02
  6.2430441e-02
  4.2259660e-02
  1.0919574e-02
  7.7926233e-02
  2.3804817e-02
 -4.7776431e-02
  2.5982002e-02
  2.3958584e-02
  1.0675287e-01
 -9.3312830e-02
 -7.9800926e-02
  1.0707527e-01
  7.8171439e-02
  2.9185245e-02
 -1.5308627e-02
 -1.2506858e-01
 -1.3581125e-02
 -3.2281626e-02
  1.0634059e-01
  3.0046888e-02
 -5.3650204e-02
 -3.0494750e-02
 -4.4338532e-02
  5.6115732e-02
 -6.5474644e-02
  1.1611638e-03
 -3.2268129e-02
 -1.1398473e-01
  2.4950385e-02
 -8.8714631e-03
  6.8321981e-02
  8.2133971e-03
 -1.2668025e-01
 -4.4941742e-02
  4.3721400e-02
  1.3605434e-02
 -5.2828290e-02
 -5.9091125e-02
  1.3831356e-01
  1.5735799e-03
 -4.7571186e-02
  9.0836626e-01
  3.2073954e-01
  6.1696148e-03
 -7.6952323e-02
  9.8530110e-03
  2.7926028e-01
 -5.2866793e-01
  1.9175487e-02
 -2.4814211e-02
  8.5987180e-01
 -4.6230248e-01
 -2.0223649e-01
 -1.2414500e-02
 -2.9326001e-01
 -7.4635589e-01
  1.7591125e+00
  3.6531091e-01
 -5.5413544e-01
 -2.0691782e-01
  1.9757231e-01
  2.1295068e-01
 -1.0479658e-01
  7.4010527e-01
 -9.4741058e-01
 -4.5061484e-02
 -1.4886725e+00
  3.9575022e-02
  1.2233731e-01
 -6.6909653e-01
 -1.3712975e-01
 -1.8564702e+00
 -1.5770682e+00
  2.0458941e-01
 -1.2329631e-01
  6.2429011e-01
 -6.0877877e-01
 -2.2141555e-01
  3.6786342e-01
 -3.1731930e-01
 -1.4532562e-01
  2.2051521e-01
 -1.0004832e+00
 -3.0283013e-01
  2.6236033e-01
 -2.5835380e-01
 -1.6262723e-02
 -5.7368465e-02
 -5.1998075e-02
 -1.2730533e-01
 -1.7973529e-01
  1.0172690e-01
 -3.3060107e-02
  9.1408201e-02
 -5.5809554e-02
 -1.3215299e-01
  2.0252578e-02
  4.5184728e-02
 -1.7909776e-01
 -7.1707480e-02
  7.1137153e-02
 -2.5829295e-02
  6.1905082e-02
 -6.2053186e-01
  6.5295987e-02
  1.3461453e-01
 -1.2230407e-02
  6.5218039e-02
 -7.2111182e-02
  1.8797045e+00
  4.2085983e-02
  1.0344520e-01
  3.3949547e-02
  3.5346776e-02
 -4.9097940e-02
  2.2470934e-02
  3.6185026e-02
 -7.2171852e-02
  1.6452547e-02
 -7.4831806e-02
 -1.7126133e-01
 -1.2023346e-01
  1.5777113e-02
  1.0099518e-01
  1.1398183e+00
 -1.0442428e-01
 -1.5819401e-01
  2.8414970e-02
  2.6908942e-02
 -1.5349838e+00
  7.4859142e-02
 -4.9375761e-02
 -2.5194198e-02
  6.3247606e-02
 -5.1669683e-03
 -3.4584084e-01
  5.0343659e-02
 -5.4422624e-02
  8.6552845e-03
 -1.0054932e-02
 -4.2556800e-02
  3.4902643e-02
 -3.3191778e-02
 -5.3152002e-02
 -2.3047214e-02
 -6.1129432e-02
 -1.4043382e-01
 -1.2259227e-02
 -2.2871338e-02
 -1.6915259e-01
 -1.2129577e-01
  1.6372353e-02
 -6.8784438e-02
  9.9154994e-02
  1.3378003e-01
  2.4139123e-01
  3.7603248e-02
 -6.6685371e-02
  1.6852036e-02
  9.4579548e-02
 -1.4853239e-01
 -1.8451646e-02
  1.0048836e-02
  3.3812538e-02
 -2.1048749e-02
 -5.7134710e-02
  2.9182788e-02
 -1.1144777e-01
 -1.3656528e-01
 -2.9493108e-02
 -3.9192319e-02
  2.5303692e-03
 -8.2354885e-01
 -2.9932452e-02
  3.0533012e-02
 -3.6564782e-02
  6.4110351e-03
  4.5395467e-02
 -9.4827272e-02
  7.0195816e-02
  3.2553986e-02
 -1.2387975e-01
  5.8739021e-02
 -3.1795051e-02
 -7.5014398e-02
  2.6744317e-02
  2.8698314e-03
 -2.4059718e-02
 -3.7639905e-02
 -6.1858886e-01
 -1.4841108e-01
 -5.0541800e-02
 -5.7199012e-02
 -9.9882536e-02
 -5.7006955e-02
 -8.5800163e-02
 -3.6948079e-03
 -7.7538043e-02
  1.2837520e-02
  3.3112893e-01
 -6.0192753e-02
  4.4341691e-02
  1.4100038e-02
  1.4154562e+00
  6.0327864e-01
  1.6398259e-01
  1.1644430e-01
  1.1941738e-01
 -7.6409400e-01
  1.3049698e+00
  1.5816770e-01
 -4.8687553e-01
 -3.3147776e-01
 -1.0722188e+00
  1.3067324e+00
 -2.5192228e-01
  1.7791273e-01
  4.9875015e-01
 -7.6346034e-01
  1.0572835e-01
 -2.8039151e-01
  2.2231942e-01
  1.2764339e-01
 -1.1331110e-01
  1.3243997e-01
  1.1159118e-01
 -2.5390196e-01
  6.5842859e-02
 -9.8275334e-01
  1.4239976e-01
 -1.6930716e-01
 -3.4181702e-01
 -6.8484741e-01
  3.9684343e-01
  3.9937422e-01
 -3.6372018e-01
 -8.5550076e-01
 -7.2481954e-01
  5.2037710e-01
  7.2393501e-01
 -5.3004932e-02
  3.8069439e-01
 -2.6355211e-02
  8.3598900e-01
  4.8026569e-02
  1.3653792e+00
  2.9519105e-02
  1.8879050e-01
  2.9328927e-01
  3.1586254e-01
 -3.0205756e-01
 -1.0645680e-01
  1.1917252e-01
 -5.4377276e-01
  1.6842523e-01
 -1.4671737e-01
  3.3422765e-01
 -1.6676980e-01
 -6.1068647e-02
 -9.9652223e-02
 -1.0904179e-01
  1.4127260e+00
 -6.0437483e-01
  5.7702791e-03
 -6.9518036e-01
 -3.6207072e-02
 -2.6218509e-03
  1.9192934e-03
  2.2781070e-01
  1.0244912e-01
  1.2396491e-01
  8.8281790e-03
  1.0540343e-01
  8.3886743e-02
  1.3704541e-01
 -2.9982368e-02
  1.3962851e-01
  5.1708696e-03
  6.4452052e-02
 -5.7208356e-03
  7.8082740e-02
 -1.8969098e-02
 -1.2900776e-01
  3.9000016e-02
  3.3646651e-02
 -1.1622138e-01
  1.5648919e-01
 -1.0658216e-01
 -6.6976100e-02
  9.3314745e-02
 -1.0223974e-01
 -5.0940167e-02
  1.1774163e-01
  2.4110902e-02
 -5.9593979e-02
  2.2565451e-02
  1.2320342e-01
 -1.1953925e-01
  6.0887355e-01
  1.9411044e-01
 -4.3682732e-02
  3.3826120e-02
  8.6595267e-02
  1.0852155e-02
  4.2916471e-01
  8.6995423e-02
  1.5086979e-02
 -6.0652733e-02
 -1.1626507e-01
 -4.4913534e-02
 -1.3525763e-01
  5.0647177e-02
  4.5565200e-01
 -1.7040201e-01
 -2.0674725e-01
  2.2469877e-01
  1.7067297e-01
 -3.8523239e-01
  4.8145890e-01
  6.7862876e-02
  1.9929419e-01
  1.1599643e-01
  9.3802206e-02
 -1.5639213e-01
 -1.1408422e-01
  2.3112223e-01
 -1.9267741e-01
 -2.7045175e-01
 -2.0068695e-01
 -1.5708306e-01
 -3.2347590e-01
 -1.1339274e-01
  2.4945088e-01
 -5.5818651e-02
 -1.3999623e-01
  5.6708418e-02
 -3.2417542e-01
 -2.6835138e-01
  4.3329433e-02
  4.2320278e-02
  2.2383182e-01
  1.4406958e-01
 -3.3837319e-03
  1.4419077e-01
  6.7028224e-02
 -2.0444912e-01
 -2.0235176e-01
 -5.2417810e-03
 -8.4277518e-02
  3.0846156e-03
  3.0125033e-03
  2.6533985e-01
 -3.1740901e-01
 -1.0920019e-01
  1.7372852e-02
  1.0135504e+00
  9.5896674e-03
 -1.4045531e-01
 -4.3564077e-02
  6.4155442e-01
 -7.7939682e-02
  1.8521710e-01
  6.8389974e-03
 -6.7571986e-01
 -1.3125397e-01
  1.0395098e-01
  1.4445657e-01
  6.6974452e-03
  1.0222212e-03
 -1.9279240e-02
  2.3110542e-02
  1.6782195e-03
 -3.1803962e-02
  1.9228026e-02
 -1.6693518e-02
 -9.4200291e-02
  4.4048000e-02
  2.1132814e-02
  8.0561213e-02
 -1.2641825e-01
  3.8798809e-02
 -2.3876175e-02
  1.0283260e-01
 -1.0474383e-01
 -3.1006986e-03
  4.2878918e-02
  6.6651747e-02
 -1.2594194e+00
  1.1144964e-01
  9.3193687e-02
 -1.5525158e-01
  2.1504620e-03
  4.3747563e-02
  5.7931945e-02
  1.3760152e-01
  3.1493197e-03
  5.4941069e-02
 -1.7246531e-02
  1.4812971e-02
 -9.4925284e-02
  3.2797612e-02
 -6.6187002e-02
  1.1734089e-01
 -3.5488009e-01
  2.9988913e-02
 -3.6093514e-02
 -6.0950454e-02
 -1.1412375e-02
 -3.7813209e-02
 -1.0699861e-01
 -3.2418136e-02
 -2.6263244e-02
 -6.3805796e-02
  8.5018657e-02
  6.5830253e-02
  7.3890038e-02
 -4.0630743e-02
 -7.0028864e-02
  4.3637775e-02
 -1.1220883e+00
 -1.6923730e+00
  2.6230166e+00
  8.7945849e-01
 -8.2767624e-01
 -1.0911437e+00
 -1.0064129e+00
 -1.1311401e+00
  9.2872307e-02
 -5.4282022e-01
 -9.4887894e-01
 -9.1835332e-01
 -1.3581870e-01
  2.6335746e-01
 -3.3150598e-01
 -3.7097264e-02
 -2.3194629e-01
 -3.5478541e-01
  6.4956151e-02
 -4.1923085e-01
 -6.4107293e-01
 -2.7642587e-01
  5.0519443e-01
  2.3053763e+00
  4.6678010e-01
 -7.6204911e-02
 -2.5127782e-02
 -1.1429270e-04
 -1.3035150e-01
 -6.9243655e-02
  6.4110154e-01
 -5.4333436e-01
  1.2488420e-01
 -3.5588467e-01
 -2.1909820e-02
  1.4816917e-01
  3.9581116e-02
  6.2712324e-01
  4.3665189e-01
 -3.9171106e-01
 -7.0184505e-01
 -1.0984491e+00
 -1.1800476e+00
  3.3752757e-01
  9.2443889e-03
  5.4119911e-02
 -7.2121054e-02
 -2.1603681e-01
  5.9507359e-02
 -2.4354288e-03
  3.6237171e-01
  3.3175670e-02
  1.2935480e-01
  3.2889716e-02
  1.6649723e+00
 -7.1551573e-01
  3.7382960e-01
  1.8396243e-01
  4.6238133e-01
  1.3373712e-01
  6.4347231e-01
 -1.2924957e+00
  5.0490987e-01
  8.4556431e-02
 -2.2180890e-01
 -6.4412162e-02
  9.0176286e-03
 -1.3224189e-01
 -2.5562784e-02
 -1.2042446e-01
  3.0852014e-01
 -9.1996767e-02
 -8.7678999e-02
 -3.9316946e-01
 -1.9978029e-01
  2.5232083e-01
  8.4094070e-02
 -8.5464015e-04
  6.0259305e-02
  1.7401222e-02
  2.6109675e-01
  1.6479166e-01
  3.4775877e-01
  5.4008305e-01
  3.7199804e-01
 -3.5517153e-01
 -1.4362516e-01
 -4.0946034e-01
 -7.5681150e-02
  3.7766248e-01
  1.6102873e-02
  2.0332687e-02
 -6.1331815e-03
  5.9981104e-02
  4.0650913e-01
 -6.1795674e-03
  2.2360244e-01
 -1.5921347e-01
 -4.3173507e-02
 -2.3792540e-01
 -9.8134190e-02
 -7.9510793e-02
  1.9393960e-02
 -3.1848115e-01
  4.2312336e-03
 -8.0261660e-01
  5.7379913e-02
 -1.3341863e-01
  1.6045439e-01
 -5.0857600e-02
 -1.8222375e-02
 -1.3328898e-01
 -1.2792066e-01
 -1.0178595e-01
  1.5628223e-01
 -2.8945541e-01
  5.4624651e-02
 -8.8721570e-03
  7.7190556e-02
 -7.8928478e-02
  5.4141771e-02
  1.2448738e-01
  1.0138329e-02
 -5.4598745e-02
  7.9545379e-02
  1.3728996e-01
  1.9598596e-02
  1.6309705e-02
  2.0088363e-02
  1.3228951e-01
 -1.9753641e-01
 -1.7474066e-01
 -4.9951643e-02
 -4.7015436e-02
 -3.4952618e-02
  2.7253073e-02
  5.8388654e-02
  1.9389765e-02
 -3.2184932e-02
  4.6251211e-02
 -1.9320644e-02
 -4.4855807e-02
 -5.7363894e-02
 -5.4737270e-02
 -2.7683098e-02
  1.9396695e-01
 -1.5002316e-01
  3.7741426e-02
 -4.8835564e-02
 -2.0068853e-01
 -1.1464006e-01
  6.2508985e-02
  9.0588197e-02
  3.5471652e-02
  1.7730479e-01
  3.8971819e-02
 -3.6550499e-02
  3.3158898e-01
 -5.5270124e-02
 -1.2345623e-01
  8.1172955e-01
  7.0067957e-02
  2.7183011e-01
 -2.7890533e-01
 -1.6283635e-02
  4.5138199e-02
 -2.1087183e-01
  2.6724609e-02
  5.4352984e-02
  3.5865557e-01
 -2.2825599e-02
  1.8500049e-02
  1.5427449e-01
  1.1386531e-01
 -7.0854403e-02
 -1.1093031e-01
  1.3793825e-01
  2.7671605e-02
 -4.0341623e-02
  2.4454270e-01
  6.5059960e-02
 -7.0467345e-02
  3.1311989e-01
  9.0675272e-02
 -1.5081960e-01
 -9.7219601e-02
 -4.3529831e-02
  2.4890581e-01
 -5.2212328e-02
  4.3181950e-04
  1.8545882e-01
 -8.7831840e-02
 -2.0927520e-01
  5.9548683e-02
  3.1443566e-01
 -8.3013894e-03
 -1.9324213e-01
  3.0777779e-01
  5.8819737e-02
  6.9548145e-02
 -1.3421944e-01
  3.8962297e-02
  6.2052943e-02
  1.1693804e+00
 -5.0030265e-04
 -6.1322272e-02
  6.8865903e-02
  1.7526829e-01
  1.1130519e-01
  5.4157670e-03
 -3.1276986e-02
  3.3082366e-02
 -1.8394512e-01
 -4.9673353e-04
  5.6790642e-02
  6.8392135e-02
 -3.9683599e-02
 -1.4613847e-02
 -2.5567908e-03
  8.8601254e-02
 -1.3443767e-02
 -7.0056478e-03
 -4.9270809e-01
  7.9027981e-02
  6.1476002e-03
 -3.7309684e-02
 -7.0060752e-02
 -1.4852819e-01
 -2.6662875e-02
  4.0607791e-02
 -4.1698884e-02
 -1.3661107e-02
  2.3150939e-02
 -8.4270850e-02
  1.3362105e-02
 -4.4840023e-02
  1.2543719e-01
 -1.0211843e-01
 -7.2827458e-02
 -1.4154524e-02
  1.5765600e-02
  7.8160822e-02
 -6.0348123e-01
  3.5299268e-02
 -4.6640065e-02
 -9.9864667e-03
  1.0477638e-02
 -9.0770401e-02
 -8.3263740e-02
  9.9744678e-02
 -5.0033428e-02
  1.2462122e-01
 -1.7532745e-02
 -5.5164071e-03
 -2.7675284e-02
 -2.5311485e-02
 -4.2591713e-02
 -1.2048488e-03
  6.0106050e-02
 -7.4154422e-02
  7.1398574e-03
  8.7364636e-02
 -4.5452178e-02
  1.0000538e-01
  5.9196673e-02
 -1.4413075e-01
  8.2542248e-02
  4.3345186e-01
 -7.4533708e-02
  7.6266721e-02
 -1.8439525e-01
 -3.0079398e-01
 -3.2373530e-01
 -4.3134564e-01
  4.3252948e-01
  1.9874254e-01
 -1.1441834e-01
 -7.8853995e-01
  5.0308096e-01
  2.2242065e-01
  2.0066109e-01
 -4.4013876e-02
  2.1637911e-01
  8.9732754e-01
  4.2452648e-02
 -1.4987019e-01
  6.3530403e-01
 -1.2345773e-01
 -9.6106187e-02
 -4.6755108e-01
 -3.5629600e-02
 -2.3569347e-01
  1.7717226e-01
  1.1956216e-01
  1.9626101e-02
  2.8214130e-01
  2.2918263e-01
 -1.7666018e-01
 -6.0337257e-01
 -1.6848734e-01
  1.0306478e-01
 -3.3277723e-01
  4.0031750e-02
 -2.7098092e-01
 -3.2522902e-01
 -1.0510816e-01
  2.7394626e-02
 -7.7191249e-02
 -8.9725748e-02
 -1.9424105e-01
 -4.3065727e-01
 -4.7242615e-01
  3.1714369e-02
 -3.4719217e-03
 -9.9320337e-02
 -1.0213123e-01
  1.8693125e-02
 -5.5640755e-04
 -3.4118667e-02
  1.7078478e-02
  1.5871873e-01
 -5.0788853e-02
 -2.6062218e-02
 -4.7647141e-02
  1.0473981e-02
  1.9425899e-02
 -4.1871991e-02
 -1.2897672e-02
 -1.3622402e-01
 -1.5860155e-02
 -5.7146039e-02
 -4.2719492e-01
 -6.8599870e-04
  3.1457927e-02
 -2.8400248e-01
  1.3075425e-01
  2.2526843e-02
 -3.7753433e-02
  7.4195318e-02
  7.0659049e-02
  6.4002894e-02
  2.8145047e-02
  3.1762373e-02
 -1.5386848e-01
 -7.0765488e-02
  3.1907480e-02
  1.7597154e-02
  6.9293268e-02
 -3.6223147e-02
  8.7257005e-02
  3.3259487e-03
  2.5224139e-03
 -4.9659867e-02
  2.3105365e-01
  5.5677775e-02
  1.5572050e-02
 -4.9372020e-01
  7.2007440e-02
 -1.1066473e-01
 -1.8255401e-01
  9.2195429e-02
  5.0114519e-03
  2.8629497e-02
 -4.0209554e-02
 -6.3486196e-02
 -8.7066449e-02
  7.7274449e-02
 -1.5091832e-02
 -4.1481029e-02
  2.2299834e-02
 -5.3775098e-02
  9.5564984e-02
 -8.5974120e-02
  7.5609679e-03
 -2.2542678e-02
  2.6775591e-02
 -1.5365503e-02
  1.0584293e-01
  2.5838051e-02
 -8.1650949e-01
  1.4396741e+00
  3.3652759e-01
 -2.3361944e-01
 -1.0577263e+00
  2.6555365e-01
  2.8873226e-01
 -1.4847206e+00
  2.9503803e-03
 -1.0865093e+00
 -1.6570510e+00
 -9.5703858e-01
 -1.3860926e-01
 -4.3622866e-01
 -4.2302709e-02
  1.6527334e+00
  2.2535703e-01
 -1.6376060e-02
 -5.5747875e-03
  5.5690253e-01
  1.0444620e-01
 -2.8640658e-01
 -2.5386557e-01
  5.4833642e-03
  1.5596939e+00
  5.5833340e-01
  6.0146803e-01
 -2.0243006e+00
 -1.7710119e-02
 -1.5653161e+00
 -9.2393585e-02
  2.9917139e-01
 -2.3050022e-01
 -4.3739218e-02
  1.0789898e-01
 -4.0342730e-01
 -6.5616436e-02
 -4.5202665e-02
  7.6882464e-01
  3.9921690e-02
  9.2608368e-01
 -3.3141408e-02
 -1.4261099e+00
 -9.1705060e-01
 -9.4819641e-01
 -6.8784314e-01
  3.6023054e-02
  9.0892249e-01
  6.1840110e-02
  1.7402984e-01
 -4.7942060e-01
 -3.5704121e-01
 -2.2245891e-01
  1.9862886e-01
  4.5559388e-01
  7.2989714e-01
  2.2573504e-01
  1.6598885e-01
  2.1639854e-02
 -1.1368048e+00
  1.1773233e+00
  1.2303687e-01
  3.0064786e-02
 -4.3271527e-01
  1.2043409e-02
 -1.1021633e+00
  4.7638163e-01
  1.3994263e-01
 -2.7252899e-02
 -4.3454769e-01
 -6.5931714e-01
 -1.2474335e-01
  3.7997982e-01
 -7.1706675e-02
  5.3769070e-01
 -1.6161149e+00
  7.4784410e-01
 -6.5039432e-01
  4.6767506e-01
 -2.9315356e-02
 -2.2257228e-01
 -1.3178530e+00
  5.9653515e-01
  7.1089610e-02
  4.2535745e-02
 -5.5547380e-01
  1.3224176e-02
 -4.9372979e-02
  1.6426420e+00
  1.9885570e-01
 -5.2511758e-01
  3.0290617e-03
  5.0344992e-01
 -5.1500291e-01
  2.7310809e-01
  2.4452135e-01
 -2.2393899e-02
 -3.0759209e-01
  4.5031417e-02
  1.3348520e-01
 -1.9531357e-01
  4.7651562e-01
 -7.1523833e-01
  1.0156294e+00
  3.2399568e-01
  8.3190131e-01
 -1.3023582e-01
 -1.1566430e+00
  1.4731673e+00
 -1.2425057e+00
 -1.2238129e+00
  1.9895679e+00
  1.3869622e+00
  8.6437613e-01
 -4.9869642e-01
 -7.9104936e-01
  4.0318707e-01
 -6.2505430e-01
 -2.1604044e+00
 -1.1366346e+00
 -1.0708075e+00
 -7.6558048e-01
  1.3941672e+00
  7.5122356e-01
  3.0645645e-01
  3.0573383e-03
  4.1547099e-01
  6.2381297e-01
  2.0704205e+00
 -2.8737938e-01
  2.2006036e-01
 -7.1784616e-02
  6.5300059e-01
  3.7581584e-01
 -1.1571991e+00
  2.0097515e-01
  3.6068279e-01
 -1.3922666e-02
  7.6041095e-02
 -1.3497800e+00
  1.3669021e+00
  7.4243140e-01
  6.0786748e-01
 -1.6921618e+00
  1.1414047e+00
 -3.2447356e-01
  3.0336896e-01
  1.3049768e-01
  2.3581481e-02
 -1.2911967e+00
 -2.9795110e-01
 -1.7205065e-01
  5.4541439e-01
  1.0536287e+00
  9.4861096e-01
 -7.1580008e-02
 -2.1350878e-01
 -5.5669135e-01
 -5.3994083e-01
  1.1721848e+00
 -2.4837873e+00
 -8.5302371e-01
 -7.2048002e-01
 -2.0222628e+00
 -1.2888908e+00
  1.2208121e+00
  7.8806877e-01
 -9.8530161e-01
  5.1163498e-02
  3.1777185e-01
  1.0127830e-01
 -1.3509067e-02
 -9.8273396e-01
 -8.1728768e-01
  1.2188059e+00
  1.7485678e-01
 -1.6772354e-01
 -1.6835104e+00
  2.2819062e-01
 -9.1722190e-01
  8.7641311e-01
 -8.9610612e-01
  2.1646953e+00
 -8.6937743e-01
 -1.1204634e-01
  5.9096700e-01
  1.5839171e+00
  1.0297917e+00
 -1.3263400e+00
  1.6705009e-01
  7.8151692e-03
 -3.6212862e-01
 -3.5238914e-02
  1.5337509e+00
 -1.7586579e+00
 -5.3018272e-01
 -8.6526424e-02
 -1.0137811e+00
  6.8361872e-01
 -1.2042104e+00
 -8.1385225e-02
  1.3696738e+00
 -1.7407095e+00
 -1.1450441e+00
  1.8768541e+00
  6.5448248e-01
  2.5112709e-01
  6.4348000e-01
  2.5618088e-01
 -1.2786604e+00
 -6.3409889e-01
  1.2436986e-01
  1.2663244e+00
 -3.3166945e-01
  1.4788105e+00
 -1.8153387e-01
  6.0113817e-01
  7.9270464e-01
  6.1130273e-01
  1.4221070e+00
 -1.7775564e-01
  1.1674193e+00
 -1.7606871e-01
 -1.9912151e-01
  4.8170903e-01
  4.7582087e-01
  1.5222856e+00
  7.1522212e-01
  6.3585699e-01
  1.6085060e-01
 -7.0870101e-01
 -8.4906346e-01
  4.9927464e-01
 -8.5623199e-01
 -1.8686238e-01
 -5.6020504e-01
 -8.2762587e-01
 -5.9760720e-01
  7.2884983e-01
  1.7612772e-02
  6.4326930e-01
  3.9991203e-01
 -1.7789851e+00
 -7.3501863e-02
  4.4594082e-01
 -4.2631358e-01
  1.2920743e+00
 -9.8409124e-02
  8.0113280e-01
 -3.6966458e-01
  9.0557146e-01
  7.8419977e-01
  7.5688380e-01
  8.8647866e-01
 -1.3424540e+00
  1.1037703e+00
 -7.5420368e-01
  3.3972088e-01
  1.7218670e-01
  8.0558908e-01
  6.5357983e-01
 -4.3609571e-01
  8.8379174e-01
  1.1610093e+00
 -7.7906179e-01
 -3.0411947e-01
 -1.6368175e+00
 -7.5387247e-02
  9.0539920e-01
 -9.1413558e-01
 -7.1908116e-02
  1.3940316e-01
 -3.9941203e-02
  4.6050912e-01
 -9.4853342e-01
 -1.1018373e+00
  2.2140978e-01
  7.1527129e-01
  1.4783903e+00
  1.1366034e+00
  2.3821822e-01
 -1.3103957e-01
 -6.9106841e-01
  1.6125469e-01
  3.0048034e-01
 -1.9410948e-01
  1.1886376e+00
  7.4659520e-01
  8.6648273e-01
 -8.9884676e-02
  3.4349605e-01
 -1.1662474e+00
 -5.1187378e-01
  1.0104306e+00
 -1.7512560e+00
 -1.0093994e+00
 -7.8459591e-01
 -5.4638892e-01
  2.7664384e-01
  1.4653537e+00
  3.5936350e-01
 -2.4188875e-01
  6.1624682e-01
  1.9326823e+00
  6.8644708e-01
  1.8516279e+00
 -1.5014793e+00
 -8.2364187e-02
  3.8096422e-01
 -5.0063735e-01
 -4.7574052e-01
 -1.4599028e+00
 -3.2760617e-01
 -5.0568813e-01
  2.0828235e-01
  8.7192351e-01
  1.2613311e+00
 -3.0259603e-01
 -2.0325787e+00
 -1.6232134e-01
 -1.0812371e+00
 -6.9040650e-01
  4.6137580e-01
 -4.0499169e-01
 -1.0859359e-01
 -6.9382116e-03
 -3.7766445e-01
  3.8547778e-01
 -2.0322056e+00
  3.1939045e-02
 -9.4494700e-01
  5.0799131e-01
  3.3983997e-01
  5.9095937e-01
 -3.1259024e-01
  1.0241940e+00
 -1.7228475e+00
  2.3116171e+00
  1.6132635e+00
 -1.0063641e+00
 -1.1870242e+00
  5.3035831e-01
 -2.9866973e-01
  8.5785531e-02
  1.0979295e+00
  1.7058931e-01
  2.1312428e+00
  5.0291312e-01
  3.1765413e-01
 -1.3217362e+00
 -9.7466469e-01
  1.6691320e-01
 -4.1498277e-01
 -1.8424469e-01
 -1.5592571e+00
  2.4478813e-01
 -1.1229739e+00
 -2.4780238e-01
 -1.9309330e+00
 -3.5516840e-01
  6.2742114e-01
  5.0150657e-01
  4.5270863e-01
 -5.4715496e-01
 -1.7794302e+00
 -1.7740870e+00
 -6.8612069e-01
 -3.6059701e-01
  2.0139554e-01
  2.2615650e+00
 -3.0072749e-01
 -4.4364810e-01
  4.8772293e-01
 -8.3372903e-01
 -9.6729565e-01
 -1.4174783e+00
  1.0370152e+00
  6.1813068e-01
 -5.4716927e-01
 -1.0609080e-01
  4.0041164e-01
  4.1741900e+00
 -1.0909903e+00
 -1.7926230e+00
 -2.1265209e+00
 -1.6628374e-01
 -6.4847112e-01
  2.3031883e-02
  1.0480878e+00
  2.5426513e-01
 -1.9271548e-01
  1.1359283e+00
 -9.4543886e-01
  9.9181277e-01
  1.1992733e+00
 -1.3087209e+00
 -1.6484301e+00
  1.4569547e+00
 -2.3122219e-02
  1.0052406e+00
 -2.8055356e+00
 -2.7917424e-01
  3.5193663e-02
 -7.0709485e-01
 -1.1926856e+00
  7.1426028e-01
 -3.9065802e-01
 -2.5333184e-01
  2.5375001e+00
  7.7248800e-01
 -1.0917684e+00
 -2.6577136e-01
  7.9465812e-01
  5.1798803e-01
 -1.5020289e+00
 -1.3448407e-01
 -7.5736493e-01
 -5.4135269e-01
  5.9107101e-01
  3.1126961e-01
 -8.7465197e-01
 -7.5918192e-01
 -1.4600477e+00
 -1.0764699e+00
  2.0196540e+00
  1.3265051e+00
 -1.3801092e+00
 -1.1881889e+00
 -2.2111118e+00
  9.8194361e-01
 -5.6226522e-01
  1.6570400e+00
 -6.5841866e-01
  1.4249412e+00
 -3.4565601e-01
 -1.7371827e-01
  9.7406471e-01
  1.5119515e-01
 -1.6654259e+00
 -9.8283523e-01
 -1.3044515e+00
 -4.5229527e-01
  3.1877354e-01
 -5.9625906e-01
  1.0956382e+00
  3.4466878e-01
  1.6085333e+00
  1.3704957e+00
 -5.2632481e-01
 -3.0202907e-01
 -2.7797583e-01
 -3.4209719e-01
 -1.7336266e+00
  4.6366197e-01
  4.1062668e-01
  1.1032711e+00
 -3.9298002e-02
  4.1396001e-01
 -3.5558388e-01
 -4.2048144e-01
  2.6183307e+00
  1.2669784e+00
 -9.8938793e-03
 -3.2047722e-02
  3.2932925e-01
  9.0931255e-01
 -5.6267064e-02
 -3.8142672e-01
  1.2099292e-01
 -1.6315982e-01
 -6.1830401e-01
 -1.5773478e+00
  1.6037550e+00
  8.5996187e-01
  9.1327047e-01
 -1.7929381e+00
 -2.9784389e-02
 -2.8101027e-01
 -2.5735688e-01
 -1.0183375e+00
  1.2608216e+00
 -7.1255976e-01
 -5.8803576e-01
 -8.2055646e-01
 -1.3198730e+00
 -1.2565288e-01
 -8.1454843e-02
 -1.9253342e-01
  8.1205887e-01
  1.2811687e+00
  9.1747129e-01
 -4.4497603e-01
 -6.8898380e-01
 -6.3599330e-01
 -5.7276778e-02
  7.5366341e-02
 -2.1308722e-01
 -5.4059589e-01
 -8.4462506e-01
 -1.2449131e+00
 -4.4947585e-01
  6.0247970e-01
 -2.0996541e-01
  1.0227113e-01
  8.2692635e-01
  5.7446849e-01
 -1.5913159e-01
 -2.4197713e-01
 -1.5475057e+00
 -7.2628021e-01
 -2.3804626e-01
 -2.1580468e-01
  2.2367594e-01
  6.1730671e-01
  9.4005662e-01
 -8.0960691e-01
  1.8382388e+00
  4.4550925e-01
  9.1524959e-01
  5.7556927e-02
 -1.2885721e+00
 -1.1527340e+00
 -1.2423562e+00
  1.8231294e-01
  9.5260531e-01
  7.5024223e-01
 -2.6123703e-02
  6.5890795e-01
 -5.8579701e-01
 -4.8217535e-01
  2.3981171e-02
  2.2203353e-01
 -1.3335885e+00
 -1.0106281e+00
 -7.7003884e-01
 -2.8723013e-01
 -1.0044895e+00
 -8.6402935e-01
 -3.4571666e-01
 -3.8182762e-01
  4.0820459e-01
 -4.8831978e-01
 -6.6902965e-02
  6.9486529e-01
 -8.2231700e-01
 -3.1825095e-02
  1.4734741e+00
  4.0653449e-01
 -4.7095102e-01
 -1.2223655e+00
 -6.0310555e-01
 -9.1782564e-01
 -2.8687384e+00
 -1.8232101e-01
  1.2759844e+00
 -2.7302960e-01
 -1.5547052e-01
  1.3832884e+00
 -4.6241158e-01
 -3.3354235e-01
  2.8771931e-01
  3.1884634e-01
 -4.2519435e-01
 -2.7627420e-01
  6.5876069e-03
 -8.5843122e-01
  1.6367631e+00
  8.9100164e-01
  4.3277478e-01
  1.0078304e+00
 -1.3809370e+00
 -6.2339032e-01
 -8.0040139e-01
  6.2663412e-01
 -3.5062540e-01
  2.8267717e-02
 -5.1729125e-01
 -2.1738283e-01
  9.3304211e-01
  5.7960707e-01
  3.1619200e-01
 -4.7411251e-01
  1.0231967e+00
  4.8285604e-01
  3.2885703e-01
  8.3394593e-01
 -2.0354737e-01
  4.2257813e-01
  3.5714167e-01
  2.2165243e-01
  5.8323711e-01
  3.7577948e-01
 -9.4786656e-01
 -5.8537823e-01
  1.1793344e+00
  2.4703953e-01
  1.0268239e+00
  3.0456868e-01
  1.1694962e+00
  7.9283261e-01
 -8.7650132e-01
  1.6315162e-01
 -6.6238660e-01
  1.9982241e-01
 -6.8129778e-01
  6.8839025e-01
 -6.5955800e-01
  8.7943649e-01
  1.0264251e+00
  4.5661199e-01
  1.4571406e+00
 -7.9430497e-01
 -4.5681149e-01
 -9.4556987e-01
 -1.1022265e+00
  7.3891616e-01
  1.4311342e+00
  1.0100610e-01
  4.1047546e-01
  7.2109425e-01
  3.8755062e-01
 -2.3754528e-02
  6.2247825e-01
 -6.6595469e-03
 -9.8336384e-02
  1.0372056e-01
  1.1572582e-01
 -9.5462002e-02
 -8.3159363e-01
  9.5490232e-02
  5.0965148e-01
 -3.9861351e-01
 -2.6167456e-02
 -6.5998882e-02
 -1.0984842e-01
  7.0850916e-02
 -3.1376192e-01
 -7.3391563e-01
  1.6619827e-01
  3.3086151e-01
 -7.4736083e-01
 -1.2170856e-01
  3.4980074e-01
 -6.0262764e-01
  9.9151307e-01
  7.1004277e-01
 -5.4858595e-01
 -1.2232475e+00
 -4.4516569e-01
 -6.5271562e-01
  1.8807511e+00
  8.3566308e-01
 -8.1126124e-02
  8.3643848e-01
 -9.6199268e-01
  1.6950829e-01
 -1.7411219e+00
 -1.9517684e-02
  7.2769046e-01
  7.9341394e-01
 -5.1162083e-02
 -6.3360387e-01
  3.5725394e-01
 -1.1911841e-01
  1.3258519e+00
 -2.0968597e-01
 -7.0865405e-01
  3.7165028e-01
  4.0055129e-01
 -1.6484578e-01
  3.4245813e-01
 -1.9500080e-01
 -3.2116020e-01
 -5.8381230e-01
  1.0303066e+00
 -2.4096218e-01
  7.9670005e-02
  7.8760457e-01
 -6.4058238e-01
  1.2929536e-01
 -3.3385310e-01
  2.8550120e-02
 -4.4926029e-01
  5.4876000e-01
 -4.7507682e-01
  5.7083064e-01
 -1.6865120e+00
  5.6150634e-02
  3.5202178e-01
 -3.5055205e-01
 -2.7780043e-02
  1.4325294e+00
 -2.2044115e-01
 -1.1895176e+00
 -1.0829250e+00
  3.0009004e-01
  1.5369963e-02
 -1.1801093e+00
  3.8726911e-01
 -7.3942043e-02
  2.2368352e-01
 -1.9708844e+00
  1.5715590e+00
 -1.6156371e-01
 -1.0267681e-01
 -2.3741381e+00
 -1.4543135e+00
 -1.0280949e+00
 -1.0012125e+00
 -6.2878758e-01
 -9.6735245e-01
 -9.5073521e-01
 -1.8423904e-01
  1.0109230e-01
 -8.3031875e-01
 -3.6886987e-01
 -2.3734675e-01
  3.8169286e-01
  1.3505919e-01
 -9.6675706e-01
 -9.4546545e-01
 -2.0627081e+00
 -9.4434273e-01
 -3.3281034e-01
  1.2527429e+00
 -7.5018093e-02
 -2.4637479e-01
  7.1502888e-01
 -2.6118567e+00
 -2.1156354e+00
 -1.0120858e+00
 -1.0634578e+00
 -3.7943074e-01
 -1.0782440e+00
  1.2769649e+00
  5.1433825e-01
 -2.1755068e-01
 -8.9924788e-01
  3.1751022e-02
 -3.8126397e-01
  6.2915033e-01
  1.8796648e-01
 -1.7075434e+00
 -7.3223138e-01
