nep4 2 Te Ge 
cutoff 7 5 67 26
n_max 8 8
basis_size 10 10
l_max 4 2 0
ANN 50 0
 -2.0751336e-01
  9.7829886e-03
  7.2505805e-03
 -4.2583056e-02
 -1.4835214e-02
  5.2674022e-03
  5.8739702e-03
 -1.1888864e-03
 -3.4451094e-02
 -8.1451889e-03
  1.7079955e-02
  1.5128485e-02
 -3.7175754e-01
 -7.2411220e-03
  1.2394197e-02
  4.5602503e-03
  1.4422198e-02
  2.4421816e-03
  7.5452207e-03
  2.3964007e-04
  1.9700043e-02
  1.2825060e-02
 -7.9243345e-04
 -7.9849066e-04
  3.0437585e-03
  1.1131032e-02
  4.7218925e-03
 -2.2950310e-03
 -8.4670549e-03
  9.6593201e-03
  7.1607851e-03
 -9.1409199e-03
 -3.3047928e-03
 -2.1066910e-02
 -6.5666460e-03
  2.1833510e-03
  1.6569381e-03
 -1.4419447e-02
  9.4194757e-03
  3.0528232e-03
 -2.5802756e-02
  1.7363053e-02
 -2.0929307e-03
  6.2627024e-03
  9.1021797e-03
 -9.2241801e-03
  8.1882915e-03
  1.1700632e-02
 -5.8286972e-03
  8.7752817e-03
 -2.1620028e-02
  8.0112889e-03
  1.9571528e-02
  2.1712296e-02
  2.4301912e-01
 -5.3085953e-01
 -1.3177888e-01
 -2.7016060e-02
  2.9733363e-01
  3.4873483e-01
 -1.0188412e-02
  5.6489265e-01
  2.6058117e-01
  2.0005976e-01
 -3.4449798e-01
  8.9467123e-02
  4.0277770e-01
 -2.1544562e-03
 -3.4319200e-02
 -4.8135053e-02
  4.7285166e-01
 -9.7035840e-02
  5.0267238e-02
  1.9413282e-01
  1.1632344e-02
  1.9276752e-01
 -2.3152910e-01
 -1.5598080e-01
 -2.9119141e-02
  6.0070936e-02
  3.1336065e-02
  1.9163322e-01
 -8.5597105e-02
 -3.2279696e-02
  7.9376087e-02
 -1.3692492e-01
 -3.3633283e-01
  9.4138511e-02
  7.8018302e-01
  5.6231834e-02
 -6.7921273e-02
  4.9949914e-02
 -9.0488149e-03
  4.2736750e-02
  2.3732875e-02
  9.0113944e-01
 -9.2140146e-02
 -3.4301019e-01
  6.2929183e-02
 -3.1497691e-02
 -2.4917234e-02
  2.9239701e-03
  2.8552735e-02
 -1.7689984e-02
 -2.5612894e-02
 -2.4109902e-02
 -3.6957253e-02
 -3.8236901e-02
 -1.4145583e-02
  5.3286098e-04
  1.5514088e-02
 -6.4999443e-03
  1.6996683e-01
  1.6808011e-02
  6.4741801e-03
  3.9590462e-03
  1.8643191e-02
  1.6805185e-02
  1.2406895e-02
  1.6218115e-02
 -1.6142601e-02
  6.2684733e-03
 -1.0114502e-03
 -5.1953979e-03
 -6.5000891e-03
  4.7256961e-02
  1.1091762e-04
 -1.4989262e-02
 -4.3691462e-01
  3.5415951e-02
 -4.4898689e-03
  6.7038913e-03
  1.2629249e-03
 -3.3090897e-02
  4.4444101e-03
 -2.1845389e-03
  4.8683905e-03
  3.7983679e-03
 -4.3864683e-03
 -7.7699916e-03
  4.6569109e-03
  9.9312421e-04
  1.5595592e-02
  1.2311743e-02
  2.3567824e-02
  5.1236176e-03
  4.1042981e-03
  6.4978977e-03
  1.2860708e-03
  6.2666875e-03
 -2.3032662e-02
  4.2604129e-03
  3.4766257e-02
  1.2896743e-01
  2.1991688e-03
 -1.2752471e-02
 -6.1308998e-03
 -6.3801631e-03
 -2.5105912e-02
 -1.9505084e-02
 -1.0843465e-02
 -1.3070929e-02
  3.3838755e-01
  3.9012112e-02
  2.3501725e-01
  1.1280752e+00
 -2.3732610e+00
 -7.9990983e-01
  6.1820596e-01
 -2.9428706e-01
  7.8769493e-01
  4.7621927e-01
  3.0129665e-01
 -4.0447181e-01
  1.8653895e-01
 -7.2786249e-02
  2.4619751e-01
 -6.6190824e-02
 -3.4915829e-01
 -7.9755312e-01
  3.4471533e-01
  3.1581741e-02
  7.9313564e-01
  1.2905066e+00
 -1.0500611e-01
  6.4478718e-02
 -1.7809128e-02
  4.2590353e-01
  4.5770922e-01
  2.5704658e-01
  8.5608482e-02
  2.7612403e-01
 -7.4118769e-01
  1.7287688e-01
  1.0592959e-01
  1.0967906e-01
  3.6758345e-02
  4.2346323e-01
 -4.0825975e-01
  8.2278624e-02
 -1.8766965e-01
 -9.3795621e-01
  2.9409194e-01
  1.5804897e-01
 -5.7524081e-02
 -1.4970522e+00
  6.4326681e-02
 -4.5571100e-02
 -1.1319427e-01
  2.1961138e-02
 -1.2129416e-01
  1.5207712e-01
  4.1973442e-02
  1.3998628e-02
  8.8715814e-02
  8.8091101e-03
  5.7083014e-02
 -6.0594261e-01
  1.2430624e+00
 -1.6473271e-01
 -5.8612903e-03
  2.2608995e-01
  4.5734605e-01
  3.5658470e-01
  6.0467511e-01
 -2.4536384e-02
 -2.8154033e-01
 -1.3030340e-01
  1.9872006e-02
 -3.2339294e-02
  8.5584708e-03
 -3.8457125e-01
  1.4486234e-01
  1.1823472e-01
  2.2046966e-02
  1.7590597e-01
  1.7296444e-01
  1.9792803e-02
 -2.9749230e-01
 -1.9693884e-01
 -2.8495449e-01
 -7.7865738e-01
  7.4457332e-02
 -5.8065180e-02
 -1.2326601e-01
 -6.5510035e-02
 -1.7956854e-01
 -8.7412350e-02
 -9.9350676e-02
 -2.6084635e-01
 -5.3487492e-01
  2.7871850e-01
  2.4272758e-01
  2.4280724e-01
 -1.1811969e-01
 -2.2334509e-01
 -1.6411926e-01
 -6.8923153e-02
 -1.7815793e-01
 -9.3725109e-01
  1.4920689e-01
 -1.4733982e-01
  1.3540348e-01
  4.5674622e-02
  8.2451619e-02
 -2.4459462e-01
 -3.2881681e-02
 -7.2335298e-03
 -6.8848372e-02
 -2.5830146e-02
 -1.1897068e+00
 -1.8548168e+00
  8.9959556e-01
 -1.2434441e+00
  2.0482561e-01
  1.9162187e-01
  2.6726183e-01
  2.4664854e-01
 -1.1882781e+00
 -1.0839438e-01
 -4.5494619e-01
 -3.9086875e-01
 -9.5982857e-02
  2.2997439e-01
 -4.0427491e-01
  1.7394771e-01
  2.9610496e-02
  1.8685539e-01
  1.0404139e-01
 -3.3487329e-01
 -3.5944530e-01
 -3.1840333e-01
  7.3187061e-02
 -1.6852477e-01
  4.5789760e-01
  7.2226399e-01
  1.1862135e-02
 -1.8654765e-01
  2.8038522e-02
 -8.7669209e-02
 -3.0297092e-01
 -1.6731042e-01
 -1.2659191e-01
 -3.5985821e-01
 -1.6460998e-01
 -1.2187409e-01
 -5.2151060e-01
 -1.1348040e-01
  9.3893689e-01
  4.5544112e-01
 -1.0116987e-01
 -1.7764702e-01
  8.2527392e-02
  1.0896153e+00
  4.8651555e-04
  5.2112874e-02
  1.6993697e-01
 -4.5101590e-02
  6.6236801e-02
  1.3565769e-02
 -6.3144088e-02
  9.4999388e-02
 -2.0616647e-02
  2.2031758e-03
 -1.9706410e-01
  1.6229361e+00
 -5.9972835e-01
 -1.3506937e-01
 -4.6216214e-01
 -2.9540670e-01
  1.7402232e+00
  1.0595618e+00
  7.1089649e-01
 -3.4324937e-02
  2.9179201e-01
 -1.8493789e-01
 -5.3112179e-02
  1.0815659e-01
  4.2611754e-01
 -3.7992528e-01
 -1.8709281e-01
  1.8713051e-01
 -1.2677917e-01
  1.4166121e-01
 -1.6140255e-01
 -9.9208043e-04
  2.0683716e-01
  3.4061688e-01
  1.9952981e-01
 -7.0297390e-01
 -1.2457991e-01
  3.4296349e-01
  4.6365392e-01
 -2.6582554e-01
 -2.1229418e-01
  3.7926668e-01
  3.6256504e-01
 -4.2815357e-01
  1.1271704e+00
 -1.5816514e-01
  1.4972077e-01
  1.5471484e-01
 -7.5784838e-03
 -6.9733538e-02
  1.3720523e-01
  2.7653217e-01
 -6.9139495e-02
  7.5025344e-01
 -7.3859410e-04
 -3.6455216e-04
  5.5321312e-01
  1.5214701e-01
  2.3037901e-02
  2.0458942e-02
  4.0797811e-02
  9.4350949e-02
  2.9651375e-02
  5.3628094e-02
  4.1732922e-01
  2.7862145e-02
 -6.9580293e-01
  1.6305813e+00
  3.9142287e-01
 -1.1567698e+00
  4.3537460e-02
 -1.6004050e+00
 -9.0727699e-01
 -2.9461104e-01
 -7.9148626e-03
  8.5622025e-01
 -2.1897361e-01
 -1.7524861e-01
 -5.3199226e-01
  7.6189086e-02
 -1.7363194e-02
 -3.6139227e-02
  5.1782876e-02
  3.6833617e-01
 -3.2399705e-01
  6.8374895e-02
 -7.0596054e-02
 -3.8358459e-01
 -9.9818432e-01
 -1.2203105e-01
  1.3699079e-02
 -4.0487486e-01
 -7.9066426e-02
  2.8704146e-01
 -9.7758740e-02
 -5.9336996e-01
 -3.6333287e-01
  1.3676204e-01
 -3.6440912e-01
 -2.1218282e-01
 -7.9157031e-01
 -9.3473494e-02
  1.8264481e-03
 -9.7675115e-01
 -6.7076653e-02
 -2.4645399e-01
  2.7850127e-02
 -8.7053436e-01
  9.8965265e-02
  1.3484558e-01
 -3.6225924e-03
 -8.4863819e-02
 -2.1048309e-01
  2.1513458e-02
 -8.2882546e-02
 -1.3974358e-01
  7.9636157e-01
  2.9546829e-02
 -3.9628673e-01
  6.3090748e-01
 -1.0482646e+00
 -1.1650365e-01
  9.4704342e-01
  2.3738371e-01
 -9.5238492e-02
 -7.5012900e-02
 -3.7250233e-01
  6.1985105e-01
 -3.8626701e-01
 -6.4575002e-02
  9.0015739e-02
 -3.0175666e-03
  1.0803524e-01
 -1.5739800e-01
  3.6062983e-01
 -6.0809728e-02
 -2.0282811e-01
  2.5536987e-01
  1.6188016e-02
  3.4900445e-02
 -2.2051436e-01
  1.1736862e-01
  2.6965308e-01
  1.5101852e-01
 -1.5819078e-02
  4.4421855e-02
  1.6446204e-01
 -3.2388639e-01
 -2.4546529e-01
 -4.0351566e-02
  2.7680323e-01
 -5.2240986e-01
 -1.2723371e-01
 -6.2519032e-01
 -5.0366682e-01
  1.8590432e-01
 -7.5580671e-02
 -1.9520646e-01
  8.0072440e-02
  1.1306503e-01
 -1.3417265e-01
  1.1053456e-01
 -1.2728657e-01
  2.7233973e-02
 -1.3301368e-01
  1.5548044e-01
  1.2180048e-01
 -9.0319403e-02
 -2.4876041e-02
 -3.4876984e-02
 -2.6989856e-01
 -2.8303489e-02
 -4.9404591e-02
  3.3479985e-02
 -6.6415712e-02
  2.3738652e-02
 -9.7553194e-02
  1.4384969e-02
  3.0700749e-01
  6.0693018e-02
  7.1692623e-02
  1.1434788e-02
  6.2870935e-02
  1.4473567e-02
  1.7338676e-02
  5.9643202e-02
  1.7438215e-01
 -5.4633468e-02
 -3.7789729e-01
 -3.3482909e-02
 -6.3620210e-02
 -3.0635819e-02
  4.3165840e-02
  4.0633466e-02
  1.9935384e-02
  8.0869548e-02
  6.4461441e-03
 -2.1968976e-02
 -2.7157852e-02
  1.9410826e-02
  8.7635852e-02
 -5.8207359e-02
  4.8394952e-02
  1.7513489e-02
  3.7917748e-02
 -5.5874836e-02
  1.2791398e-02
 -2.8258765e-02
 -3.6625784e-02
  4.2865770e-03
  2.1068987e-02
 -2.3212554e-02
  5.9165177e-03
  2.0522427e-02
  2.4293907e-02
 -1.0050271e-01
 -1.0659430e-02
  1.6014995e-02
  4.3214764e-03
  3.0730980e-02
  3.4792430e-04
  4.9785912e-01
 -3.6520509e-03
 -1.8347448e-02
  5.8073774e-03
 -3.4512598e-03
 -1.0797729e+00
 -4.3241820e-01
 -1.5925379e+00
 -6.2850013e-02
 -8.5426670e-01
  6.7693508e-01
  6.0282074e-02
 -1.7414242e-01
  5.0765634e-02
 -8.7393254e-02
 -1.1134482e-01
  1.4089772e-01
 -5.4791223e-02
  3.0542189e-01
  6.6124663e-02
 -2.7376646e-01
  5.5426544e-01
 -1.8340583e-01
 -3.3433980e-01
  1.8601435e-01
 -3.0109739e-01
  1.7735155e-01
 -2.9469699e-01
 -2.9017755e-01
 -3.0834863e-01
 -1.0567092e+00
 -6.2054705e-02
  1.9260532e-01
  9.8902941e-02
 -5.4414952e-03
 -1.2113763e-01
 -1.5151086e-01
  8.0548814e-03
 -4.9944818e-02
 -6.6926708e-03
 -9.2323981e-03
  6.9518581e-02
  1.1755057e-01
  9.7563602e-02
 -2.7514750e-01
  1.0945530e-01
 -1.6473374e-01
  2.7214760e-02
 -5.0773853e-01
  3.9712459e-02
 -1.6689147e-01
  4.9374629e-02
 -2.9902097e-02
  7.6350138e-02
 -3.2373378e-01
 -6.2730156e-02
 -1.1917928e-02
 -1.1940283e-02
  1.7915335e-02
 -1.6938739e-02
  2.6910359e-02
  5.8252849e-03
  6.8247445e-02
 -2.1371866e-02
 -1.9425090e-02
  1.8356340e-04
 -8.6823115e-03
  2.7517935e-03
 -4.7395923e-03
  2.6236877e-02
  2.2730626e-02
 -1.6039645e-03
  1.9835399e-02
  1.0390054e-02
 -3.3367146e-02
  1.9015716e-02
 -2.0278940e-02
 -1.8566128e-02
  1.4290629e-01
  2.3484521e-02
 -1.7926862e-02
 -4.9896378e-02
  1.8769016e-02
  5.8007049e-03
 -7.1689412e-02
 -6.1101154e-03
  3.5215451e-03
  2.3694960e-02
  6.9086067e-03
  1.5456465e-02
 -9.9303332e-05
  1.6581953e-02
 -3.1512637e-02
 -1.3689721e-03
 -1.4416385e-02
 -7.0454581e-03
  2.1557715e-03
  7.7205556e-03
 -3.7005130e-02
  6.9164712e-04
 -1.6251383e-03
  1.1301633e-02
 -3.5663527e-02
  1.1643630e-02
  5.8621657e-03
 -6.2111937e-03
 -8.9101400e-03
  9.9840760e-04
  1.5196101e-02
  2.5125101e-02
 -2.7881263e-02
  5.9473224e-04
 -1.3134182e-04
  5.5661783e-02
  1.9410846e-01
  6.8623358e-03
 -2.5345212e-02
  3.4757029e-02
 -1.6199836e-03
 -1.9292508e-01
  6.9982624e-03
 -1.1642609e-02
  1.9160915e-02
 -2.2166047e-02
 -7.3930295e-03
 -1.1891685e-03
 -9.1443555e-03
 -9.5632374e-03
  4.0735916e-04
  2.5632497e-04
 -1.9280596e-02
  1.3614325e-02
  3.4601663e-04
 -1.4277064e-02
 -8.6809117e-03
 -9.2547154e-03
 -1.4807633e-02
 -3.5590834e-03
 -2.6311412e-02
  4.5821858e-03
 -2.0642023e-04
 -1.7505243e-02
 -3.2440908e-03
 -1.5721137e-02
 -1.5209551e-02
 -1.2836678e-02
  1.2561830e-02
 -4.3826355e-04
  2.2527685e-02
 -5.0614327e-03
  1.4854208e-02
 -2.2881689e-02
  2.8010527e-02
  7.4559529e-03
  1.4264996e-02
 -1.0591198e-02
 -1.3189377e-03
 -7.9934467e-03
  1.3994737e-02
  7.3447034e-02
  2.9575828e-04
 -5.2780183e-03
 -2.7858729e-02
 -1.2007751e-02
 -2.2795249e-04
  1.0240796e-02
 -9.6061053e-03
  1.8172507e-01
  9.5664553e-02
  9.0503946e-02
 -3.9506966e-01
  4.5224778e-02
 -2.7540961e-01
 -2.2430614e-02
  3.6907651e-02
 -2.1214075e-01
 -4.6811961e-02
 -2.5420162e-01
 -7.3300391e-02
  1.5035436e-01
 -1.2560356e-01
 -2.3379339e-02
  3.7782859e-02
 -1.2473933e-01
  1.8460849e-01
  1.8652622e-01
  2.1953180e-01
  6.2220059e-03
  1.4569882e-01
 -1.0069408e-01
 -1.7699406e-01
 -1.0931954e-01
  6.6778362e-02
  1.6588104e-01
 -1.0864271e-01
 -2.7287951e-01
 -1.1133152e-01
  2.5988545e-02
 -1.3694395e-01
 -1.1484823e-01
  1.9139720e-01
 -1.1897425e-01
  8.2154788e-02
 -2.6997538e-02
  2.7399824e-03
  5.5693883e-02
  2.2050434e-01
 -3.7921723e-02
 -1.1432809e-01
 -1.1198305e-01
  2.1832862e-01
  7.8226365e-03
 -7.3309943e-02
  1.8255739e-01
 -4.6056766e-02
  1.7017895e-02
 -4.5968968e-02
  1.2442193e-03
 -5.1927037e-04
 -8.4064556e-03
 -5.3707536e-02
  5.1764572e-01
 -1.0939237e+00
 -1.3886750e-01
  3.1811643e-01
  2.4856740e-01
  3.1983474e-01
 -7.4444860e-01
  1.5865777e-01
 -5.5367067e-03
  3.1995437e-01
 -2.7336100e-01
 -2.2719556e-01
 -2.3152338e-01
 -2.5838029e-02
  1.6235377e-01
  1.9033164e-01
 -2.9132998e-01
 -3.9160389e-01
 -4.1415420e-01
 -2.1456341e-01
  2.1277753e-01
 -6.3693980e-03
  1.3760817e-01
  2.5973323e-01
  8.1319012e-02
  6.2180060e-01
 -3.8037653e-04
  1.0394024e-01
  1.8317921e-01
 -2.1268316e-01
 -5.6126084e-02
  2.4849874e-01
  2.2148666e-01
 -2.4154915e-01
  4.0914106e-01
 -1.3918938e-01
  9.3539059e-02
  1.3284011e-01
 -7.2466588e-01
  1.1992616e-01
  2.9559794e-01
  1.8064359e-01
  1.1211849e-02
 -6.7865449e-01
 -1.2426169e-02
  6.7600980e-02
  4.6688888e-02
 -3.0581638e-01
 -1.1921451e-01
  9.6670352e-02
 -3.7308203e-03
  5.1916137e-02
  1.4030449e-01
 -7.3014639e-02
 -4.2045650e-01
 -5.7754016e-01
  5.9337270e-01
  1.4146432e-01
 -2.7804831e-02
  2.3537549e-01
  1.1240263e-01
  7.0519693e-02
 -2.4412645e-01
  1.6314904e-01
 -1.0812460e-01
  6.7874514e-02
  1.1933938e-01
 -1.0160081e-01
  8.2848534e-02
  1.7757729e-01
  5.0976913e-02
  1.8492021e-01
 -3.6113027e-02
  1.2362789e-01
 -2.5999960e-01
 -2.0009613e-01
 -1.2868847e-01
  2.7647725e-01
 -1.8176773e-01
 -9.1352299e-02
  3.1999696e-02
 -1.0040653e-01
 -2.3909133e-02
  6.3685350e-02
  2.4034096e-01
  1.7952597e-01
  1.7377201e-01
  6.0624905e-02
 -1.6363955e-03
 -2.3767342e-01
  1.0548542e-01
 -3.8762752e-03
 -4.0887099e-02
 -3.6075971e-01
  2.0386870e-01
  1.9049023e-01
  8.8249266e-02
 -1.0787200e-01
 -1.1678393e-02
  4.2061105e-02
 -1.2282702e-01
 -4.0817868e-02
 -7.6799072e-02
 -2.5119552e-02
  5.9935067e-02
 -4.3077514e-02
 -8.3442852e-02
 -8.3246790e-03
  9.2272097e-03
 -1.6212581e-02
  4.7034591e-02
 -6.1519813e-02
  6.0935826e-03
 -2.5980262e-02
 -5.2324603e-03
 -9.2198653e-03
 -8.6536482e-02
 -3.3110094e-03
 -5.5483442e-02
  1.1125580e-02
  1.0212553e-02
 -1.9529046e-02
 -1.7266268e-02
  4.6523843e-02
 -1.2311766e-01
  1.3039509e-02
  6.4115070e-02
  3.7293501e-02
 -6.2468380e-02
 -5.3272243e-03
  4.0803365e-02
 -5.8648918e-02
 -1.0305649e-03
  6.0490075e-02
  2.6206085e-02
 -2.5173154e-02
 -9.1741383e-02
  1.5951816e-02
 -3.4892358e-02
 -1.4545368e-02
 -3.9417531e-02
  6.7645870e-02
  8.1656910e-03
  1.9576713e-02
  2.1412149e-02
 -4.8815622e-03
  3.4246690e-04
 -7.0904559e-03
  6.0136830e-03
 -4.0181573e-02
 -1.9189002e-02
  1.8603206e-02
  1.0366835e-02
  9.1095373e-02
  1.4995770e-02
 -3.6451379e-03
  1.0128490e-02
 -2.4718126e-02
 -3.4832645e-02
  1.6877322e-02
 -4.5840852e-03
 -1.3954043e-02
  3.2046116e-03
 -3.0588623e-02
  1.4264045e-02
 -4.4688117e-02
 -1.8138541e-01
 -1.3361314e-02
 -1.3492373e-01
  3.4248706e-02
  1.2552007e-01
 -2.5090242e-02
 -1.6566837e-02
 -3.6774650e-02
 -4.0704563e-02
 -8.3456589e-03
 -4.0399343e-02
  8.8420529e-03
 -7.9072323e-03
  1.6541084e-02
  3.7817258e-02
  1.1249764e-02
 -6.1003342e-03
  1.1549599e-01
  1.8401628e-02
 -2.3149604e-02
  8.2774060e-03
  6.3044794e-02
  8.1055509e-03
  2.1035485e-02
 -1.8081317e-02
  1.6644128e-02
  3.6741238e-02
  4.7039241e-03
 -2.1526719e-02
 -6.7235832e-03
 -1.6621870e-03
  3.3063732e-02
 -1.0793209e-02
 -2.3182749e-03
 -2.5187671e-02
 -5.6602582e-03
  8.2114479e-03
 -3.2436233e-02
  4.7153202e-03
  9.3877194e-03
  1.8242537e-03
 -2.6772680e-02
  2.1484954e-02
  3.5990898e-03
 -3.0205537e-02
 -9.0605192e-02
 -1.1696515e-02
 -1.6321687e-03
 -7.0364131e-03
 -1.5870567e-02
 -8.0825381e-02
 -2.3032516e-02
 -2.4774183e-02
  3.7520757e-01
 -3.0602640e-02
  1.4353514e-02
 -4.9061168e-02
  2.2000825e-02
  1.9016623e-02
  3.6784142e-02
  7.2815746e-02
  1.4136763e-02
  1.9751333e-02
  3.5837937e-02
  1.1661838e-02
 -6.4767405e-02
  3.8095936e-02
 -4.8134014e-02
 -1.2456865e-01
 -2.8487796e-02
  5.1297180e-02
 -4.6711888e-02
 -1.4270879e-02
  1.0844582e-01
  5.0003775e-03
 -6.6332400e-02
 -2.1872886e-02
  4.2692188e-02
  1.2367992e-01
 -2.7313737e-02
  3.4269858e-02
  1.4394677e-02
  5.4370437e-02
 -6.9318742e-02
  9.9506807e-03
 -1.4857858e-02
 -1.3038279e-01
  1.5040383e-02
  4.0980082e-02
  4.5963850e-02
 -1.2198276e-02
  3.2812528e-02
  2.3398513e-02
 -6.1521973e-02
 -9.2290202e-03
  3.0351385e-02
 -7.5086053e-03
  1.2894367e-02
  1.9665150e-02
  3.8541660e-02
 -1.0113204e-02
 -2.1620601e-02
 -1.3779500e-02
 -2.7465742e-02
  3.7646480e-02
 -1.7167981e-01
  1.3921018e-02
 -9.4945565e-02
 -5.6391824e-02
 -3.0339766e-02
 -3.2882243e-02
  7.8527359e-03
 -3.6387336e-02
  1.5822712e-02
 -1.5548911e-02
 -2.9418675e-02
  2.5154069e-02
  8.0397306e-03
 -9.5994361e-03
 -1.3792790e-02
  1.3745584e-02
  3.5528060e-02
  6.9127098e-02
  5.9283912e-02
 -5.8921386e-02
  7.4890330e-03
 -5.4784319e-03
 -3.7702877e-02
 -1.8202053e-02
  2.2135166e-02
  1.6834164e-02
  8.8349087e-03
 -7.0009321e-02
 -4.9787029e-03
 -1.3909522e-02
 -2.2433497e-02
 -3.2537673e-02
  5.1591076e-02
 -7.2005698e-03
 -1.2675625e-01
  4.0293973e-02
 -1.0538406e-02
 -4.7873776e-02
 -3.9831974e-02
 -9.5539959e-03
 -2.6645882e-02
 -2.1646826e-02
 -1.2344423e-01
  2.1835402e-02
 -1.5096446e-02
  3.1236389e-03
 -1.4877227e-02
 -1.2163064e-02
 -1.5970718e-02
 -2.6266780e-02
  2.2405586e-03
  7.4579963e-03
  2.4341198e-02
 -7.1976203e-01
 -4.0483940e-01
  1.4112052e-02
  1.7920217e-01
 -5.4984093e-01
  4.8704553e-01
  1.6175494e+00
  1.0170470e+00
 -2.0025492e-01
 -1.3390937e-02
  5.8825451e-01
 -3.5340753e-01
 -3.7287387e-01
  6.5257049e-01
  6.4263892e-01
 -6.8860069e-02
 -3.0132663e-01
  3.3961818e-01
 -2.8911713e-01
 -1.5835100e-01
 -3.7574804e-01
  3.4662479e-01
  9.4954828e-03
  5.3790736e-01
 -2.1598974e-01
 -4.1782254e-01
 -1.7734106e-01
  1.9600537e-02
 -1.5754604e-01
 -3.1110626e-01
 -3.7099028e-01
  6.8861865e-02
  5.8653462e-01
  1.6673367e-01
  1.8792039e-01
  6.2252092e-01
  2.7311936e-01
  1.2901719e-01
 -6.3574505e-01
 -1.2374981e-01
  5.2883005e-01
  3.9346221e-01
 -4.5384321e-02
  1.8177791e-01
 -7.5000718e-02
 -2.1781355e-02
 -1.7509869e-01
  8.3037309e-02
  1.0872351e-01
  4.0012460e-02
  1.4923523e-01
  2.7588693e-02
  2.5524879e-01
 -1.1104234e-01
 -4.8529536e-01
 -2.8331229e-01
 -8.2492501e-02
  2.3905443e-01
  1.7395576e-02
 -1.0591713e+00
  7.5875068e-01
 -9.9298519e-01
 -4.5431897e-01
  2.4366033e-01
  2.7121016e-01
  1.2007793e+00
  1.4547236e-01
  5.2772596e-02
  1.7789988e-01
 -2.1258004e-02
  6.8461406e-01
 -5.9269094e-03
  7.0074111e-02
 -1.2578484e-01
 -3.6971599e-02
 -2.8769544e-01
  1.0792371e-01
  4.8332280e-01
 -1.7279853e-01
  3.4902148e-02
  1.8336055e-01
  1.2741125e-01
  2.1237837e-01
  3.8989987e-02
  3.6896637e-01
  2.7769506e-01
  1.1431063e-01
 -1.7334999e-01
 -3.0178732e-01
 -4.9755916e-02
 -1.3335079e-01
  1.3110149e-01
  6.6596568e-01
 -8.1677660e-02
  1.1049692e-01
  1.7495899e-01
 -1.2373674e-02
 -4.5922756e-01
 -1.0715283e-01
  9.0088785e-02
 -2.0199196e-02
  2.3875593e-03
 -1.7539689e-02
  6.4882845e-02
  2.0967806e-05
 -4.5303401e-02
  3.3536160e-01
 -2.3098797e-02
 -3.0747719e-02
 -2.9846731e-01
 -2.8862467e-02
 -2.3722738e-01
 -1.7243765e-02
  1.4529139e-02
  8.7192832e-03
  2.1248331e-02
  4.3834940e-02
  2.4911808e-02
  7.8122243e-03
 -7.9638585e-03
  8.4069734e-03
 -2.2472034e-03
  5.1346552e-03
 -2.2636885e-02
  5.6609705e-02
 -2.7913824e-02
 -4.7395259e-02
 -5.1832639e-02
  1.4818258e-02
  2.6131129e-02
 -1.1653237e-02
  2.5504172e-02
  1.5857186e-02
  6.0753399e-03
 -5.3578921e-02
 -1.3818576e-02
 -9.5409108e-03
  1.8883772e-02
  1.5652597e-02
  6.7952923e-03
  2.0384973e-02
 -2.2672400e-02
 -2.7882839e-02
 -1.3125641e-02
 -1.8164720e-02
 -1.0585716e+00
  8.3210498e-02
 -7.1701780e-03
 -6.1480920e-03
  1.4286708e-02
  1.7092304e-02
 -4.2373519e-02
 -1.5974034e-02
  1.8493470e-02
  1.1211925e-01
 -1.2446634e-02
  5.9665106e-03
 -8.4382872e-04
 -4.5997119e-03
 -4.7388766e-03
 -1.5933145e-02
 -5.4601799e-03
 -1.3517933e-01
  1.1093061e-01
 -5.5684346e-01
  1.2984726e-01
 -5.2765425e-02
  7.6749593e-02
  2.2939777e-01
  4.2046923e-02
  2.1878141e-01
  7.2507247e-02
  1.1316407e-01
  1.7517044e-01
 -3.2524895e-02
  1.1995613e-01
  1.0100739e-01
 -1.7518674e-01
  3.6650339e-01
 -9.6572831e-02
  7.3223419e-02
  2.6685616e-02
  2.0612139e-02
  1.1097552e-01
  7.5553643e-04
  1.4274980e-01
 -5.4181889e-02
 -3.4322420e-01
 -1.0174887e-01
  1.1111426e-01
 -5.2091070e-02
 -2.0721913e-03
  1.6628748e-01
  1.1143545e-02
  1.7096591e-01
 -2.2647505e-01
  1.2481182e-01
 -1.9554766e-01
 -5.9859902e-02
 -1.4585187e-03
  1.1325186e-01
  1.0147417e-01
 -2.7616208e-02
  7.5743355e-02
  5.8748286e-02
 -2.5967497e-01
 -9.2562817e-02
  7.0308171e-02
 -2.1475257e-02
  6.2742397e-02
 -1.4412158e-02
  4.4821993e-02
  4.3490115e-03
 -4.8900925e-02
 -8.6321771e-02
 -3.7282813e-02
 -1.7036311e-02
  1.2052150e-02
  1.9424640e-03
  2.5848698e-02
 -4.4719460e-03
  2.8287031e-02
 -5.2844612e-03
  5.5109798e-03
 -2.4368486e-03
  6.0549816e-03
  3.1791371e-04
  7.7531892e-03
 -7.2500393e-02
  1.1679241e-02
  1.1080970e-02
 -3.7377395e-02
 -1.3898725e-02
 -2.1346930e-02
 -1.0968482e-02
  3.8320981e-05
  1.5070523e-02
  1.4646520e-02
  1.9561464e-02
  1.9107392e-02
 -5.9183468e-03
  9.3096737e-03
 -1.0673738e-02
  1.0971731e-02
  2.1738306e-02
 -9.4797965e-03
  1.6389636e-02
  7.9028271e-02
  7.2824499e-03
  4.8810313e-03
  4.0248060e-03
 -1.4427887e-02
  1.3918069e-02
  4.9169636e-03
  2.6568078e-04
 -1.3366307e-01
  1.2872168e-02
  9.7247185e-03
  2.8261207e-02
  3.0169766e-02
 -2.7893714e-03
  1.2354521e-02
  1.4731427e-02
 -2.1832753e-02
 -2.3546193e-02
  1.6439890e-02
  9.0062087e-03
 -2.0075191e-02
 -1.2676397e-02
 -3.7564018e-03
 -1.0664106e-01
 -7.2386324e-01
 -1.7406084e-01
  1.1118657e-01
  1.2330527e+00
 -7.9043753e-02
 -1.3395186e-01
 -3.5502884e-01
 -4.1503575e-01
 -1.1145355e-02
  1.1263006e-01
  1.8255177e-01
 -1.0978497e-01
 -7.3249720e-02
 -5.2311784e-03
 -1.3638653e-01
 -3.1091943e-01
 -5.6619309e-02
  3.0358024e-02
  1.1012182e-01
 -1.2438915e-01
 -1.9286580e-01
 -8.6686462e-02
 -5.9736963e-02
 -6.9282524e-02
  9.6755177e-03
 -9.2575654e-02
 -9.7562727e-03
  1.2915511e-01
  4.2476529e-01
  1.3364863e-01
  1.0513071e-01
 -1.0983244e-02
  7.9348192e-02
 -2.7202548e-02
 -5.3331047e-02
  1.8615793e-01
 -6.4277317e-04
 -7.9226166e-02
  2.3291868e-01
 -2.9048426e-02
  1.1964655e-02
  2.7018545e-02
 -2.1575555e-01
 -8.6493231e-03
  1.1946604e-02
 -2.2346219e-01
  3.2014232e-02
  9.8086834e-02
  2.4932327e-02
  2.4590066e-02
 -4.6525277e-02
 -3.5977907e-02
 -4.1347492e-02
 -3.0786791e-01
  1.8140897e+00
 -9.5452845e-01
  1.2332773e+00
 -1.2906597e+00
 -1.3404747e+00
 -1.1101139e-01
  9.3510604e-01
 -2.5167411e-02
  2.1689762e-01
 -3.6989531e-01
 -8.1656516e-02
  5.3368497e-01
 -2.7124959e-01
 -2.4899085e-01
  3.2745808e-01
  6.6275924e-01
  8.7215096e-01
  1.1509309e-01
  1.1126964e-01
  2.2412181e-02
 -3.8428763e-01
  2.0485090e-01
  2.0268539e-02
  1.2805882e-01
  4.2633167e-01
 -2.6968271e-01
 -2.2825261e-03
  1.4913040e-01
  2.9869255e-01
  2.6407188e-01
  3.2372889e-01
 -2.5412753e-02
 -2.6897392e-01
  6.3767904e-01
 -4.5811665e-01
 -1.1979277e+00
 -2.0458091e-02
 -1.1901174e+00
 -6.1038512e-01
  2.1076667e-01
 -1.1688985e-01
  1.0428883e-01
  7.7596001e-02
  6.7634448e-02
 -5.6927111e-03
  1.1423098e-01
 -1.6451891e-01
  3.4112703e-02
 -7.5152516e-02
 -4.6419676e-02
  2.2320120e-02
 -2.9216522e-01
 -5.0376360e-03
  1.2542658e-02
 -1.7871317e-02
 -3.8496547e-03
  2.7346401e-03
  2.0717638e-02
  1.5292226e-02
 -9.4623188e-04
 -3.4473592e-03
  8.3342949e-03
 -1.6524174e-03
 -1.0974713e-02
 -2.7931886e-02
 -8.5819419e-03
  1.6752264e-02
  8.3889291e-03
  1.3893877e-02
 -2.6230896e-03
  9.4365742e-04
 -1.4855853e-02
  7.4893556e-04
 -5.0567416e-03
 -2.4737291e-02
  4.2173304e-02
 -2.1205279e-03
 -8.0144303e-03
  3.1561551e-03
  1.5672559e-02
  3.6255158e-03
 -1.0175682e-02
  1.0366955e-02
  1.6295239e-02
 -1.0881694e-02
  4.0226011e-03
  3.4656259e-04
 -2.2060027e-02
  1.3095954e-02
  7.5339621e-01
 -1.5360120e-03
 -1.9409275e-02
 -1.8748483e-02
  1.1312868e-02
 -8.8154580e-03
 -5.0975787e-03
  5.7121465e-04
 -5.1893044e-02
 -1.4002722e-02
  2.5836272e-02
 -2.9641637e-03
  1.8844724e-02
  1.5265835e-02
 -6.6016549e-03
 -1.0572740e-02
 -5.2726851e-03
 -1.1861215e-03
  1.9330120e-02
 -2.6222700e-02
  1.9119767e-03
  1.5083497e-02
 -4.9906718e-03
  1.6218272e-01
  8.5443407e-02
 -4.3331599e-01
  5.7766591e-03
 -1.2136263e-02
 -1.3025216e-02
  7.2178016e-03
 -3.3500700e-03
  5.1224749e-03
  6.6522602e-03
 -1.3523062e-03
  3.9905753e-02
  1.9046121e-03
 -1.7809989e-02
 -9.4943009e-02
  4.1020340e-03
  1.7543055e-02
 -1.3321200e-02
  4.6324297e-03
 -6.5957448e-03
 -1.9182200e-02
  5.8939136e-03
 -6.8471585e-03
  1.5697543e-02
  8.2813756e-04
  5.0833500e-03
 -7.8546824e-03
 -4.0069390e-02
  8.1505235e-03
 -4.3523726e-01
  3.2766424e-03
 -5.2618491e-04
  7.5323489e-03
 -3.0407178e-01
  1.8686375e-04
  1.1081308e-02
  1.9292304e-03
 -3.1666770e-03
 -5.8206962e-03
 -1.1305504e-02
  1.2343200e-02
 -1.0450029e-02
  2.5629532e-01
  1.2855525e-02
  3.1775096e-03
  3.8998798e-04
  9.2302747e-03
 -3.2509498e-03
  1.0045674e-02
  2.4208304e-01
  9.7071201e-02
  1.0531046e+00
 -9.5292205e-01
 -1.0650781e+00
  4.3027940e-01
  9.4912536e-02
  1.1409597e+00
  1.8633032e-01
  1.1360341e-01
  2.6063907e-01
 -2.4171872e-01
 -9.3995899e-02
  3.2401881e-01
  1.7769423e-01
  1.0618307e-01
  5.6161505e-01
  6.0268197e-02
 -1.4672738e-01
 -1.7902006e-01
 -1.4840350e-01
  2.2578369e-01
  2.9170537e-01
  1.3282290e-01
 -2.5599933e-01
 -1.1399768e-01
  5.2178238e-02
  2.2992672e-01
  4.7654191e-01
  7.5862519e-02
  1.2406255e-01
  3.9950001e-01
  1.7112657e-01
 -3.5962814e-01
  3.5655978e-01
 -8.2310759e-02
  3.4539539e-01
  1.3726558e-01
 -2.1807720e-01
 -1.5519781e-01
  2.4761561e-01
  1.2097105e-01
  3.1712569e-02
 -5.9415299e-01
 -5.0607994e-02
 -7.9062833e-03
  7.3378332e-02
  6.5010957e-02
  5.8408722e-02
 -2.9370937e-02
  5.0040605e-03
  4.9451858e-02
  1.5601149e-01
  8.6828150e-02
  4.9587253e-02
 -2.1802056e+00
 -5.3120720e-01
 -5.3600407e-01
 -8.4366679e-02
  9.4323719e-01
  3.2216126e-01
 -1.1309860e+00
 -1.0242249e+00
 -1.3306318e-01
 -6.9159269e-01
  3.4192654e-01
 -1.8198353e-01
  1.9267167e-01
  1.1217615e-01
  1.5415615e+00
 -1.4250023e+00
 -1.8303609e-01
  2.5816935e-01
 -1.7686991e-02
  1.4825866e-01
 -3.2038093e-03
 -3.4354964e-01
 -3.6487299e-01
 -5.1074350e-01
 -3.4347430e-01
  3.1485653e-01
 -2.4048514e+00
 -5.9514683e-01
 -6.3456511e-01
  1.0307881e+00
 -3.8617328e-01
 -9.3295082e-02
  1.7399679e-01
 -2.2036394e-01
  4.3977454e-01
  1.0217028e+00
 -1.6673011e-01
 -2.6351535e-01
  2.3610804e-02
 -5.0817609e-01
 -1.0993461e-01
 -1.5862790e-01
 -7.2237581e-01
  2.3736095e-01
  2.7110171e-01
  1.1061151e-01
  1.1565010e-01
  6.5820694e-02
 -1.5045813e-01
 -2.5943549e-02
  2.3016421e-02
  3.0093846e-01
 -6.8594545e-02
 -5.6373581e-02
  1.0934205e-01
 -1.6782623e-02
  9.7262308e-02
  4.4173375e-02
  5.8422930e-04
 -1.3299689e-03
  5.7119657e-03
  8.6532338e-03
  4.8399637e-03
  2.0862175e-03
  1.6434571e-02
 -2.1700757e-02
  4.0663697e-02
 -6.7611379e-03
 -1.1083542e-02
  1.2179678e-02
  9.4657093e-03
 -1.5301591e-02
 -1.8882167e-02
  3.8039137e-02
 -7.7042868e-03
  1.9435802e-02
  5.6375962e-02
  8.7756086e-03
 -3.5621610e-02
  6.1669983e-03
  8.1546158e-03
  1.7887609e-02
 -1.0204262e-02
 -5.3589307e-02
  1.4483403e-02
  2.6847845e-02
 -4.6544742e-02
 -1.2573736e-02
 -1.7388044e-02
 -2.9077983e-02
 -9.6596824e-04
  2.2075353e-02
  1.5798617e-02
  1.6901009e-03
  6.0106494e-02
  3.0176777e-02
 -2.8486248e-02
 -1.8554881e-02
  1.7417460e-03
 -2.5394432e-02
  3.1365618e-02
 -9.0876939e-03
  3.4573298e-02
  2.8881615e-03
 -1.2371724e-03
 -1.5240462e-03
 -8.6805243e-03
 -2.3093647e-01
  1.2662659e+00
 -1.2782542e-01
  1.2334108e-01
 -4.9173594e-01
 -9.7498924e-02
  4.1019860e-01
 -5.7203833e-02
  1.3497753e-01
  2.1764044e-01
  1.1902203e-01
  3.2759195e-03
 -1.9552162e-01
  6.9977500e-02
  1.3609669e-02
 -2.6644927e-02
  5.4664560e-02
 -9.0904854e-02
 -1.5484658e-01
 -1.2956725e-01
  1.7436153e-01
  2.4669360e-01
  6.5647840e-02
  1.2204275e-01
  1.0565855e-01
 -6.5680087e-01
  3.3991903e-02
  2.0650050e-03
  1.1399104e-01
 -5.2634470e-02
 -9.5138744e-02
 -3.1559739e-02
  7.4968047e-02
 -1.8723905e-01
 -5.6529315e-03
 -9.9223189e-02
 -4.2791657e-02
  7.3944025e-02
  1.2121341e-01
 -4.8792399e-02
 -2.7173826e-02
  5.0964139e-02
  2.5000952e-02
 -2.0043123e-01
  4.5763822e-03
  2.7785728e-02
  4.7331087e-02
  6.9553000e-01
 -1.2803928e-02
  2.7276196e-02
  4.8533818e-04
  3.0036155e-02
 -7.6741636e-02
 -2.0291287e-02
 -4.3823525e-01
  9.1944736e-01
 -5.5285573e-01
 -1.7932339e-01
  1.1987250e+00
  3.5536629e-01
 -1.2072502e+00
 -6.6011453e-01
  3.3110711e-01
 -1.0046678e-01
  3.0279931e-01
  3.1873712e-01
 -1.1217532e-02
  2.7774280e-01
 -3.1622317e-01
 -4.6143705e-01
 -6.6128772e-01
 -3.6907521e-01
 -1.8799771e-02
 -4.5857853e-01
  8.8554412e-02
  5.6646478e-01
 -2.4625205e-02
 -1.0445684e-01
  3.1968933e-01
  5.1014501e-01
  9.7070327e-03
  2.0278387e-01
  2.3642191e-01
  4.5959103e-01
  7.8578733e-02
 -7.5923413e-02
 -6.6209219e-02
 -4.2634597e-01
 -3.0797973e-01
 -1.0050649e-01
 -3.1636372e-02
 -1.5321673e-01
  2.6397040e-01
  3.1683323e-01
 -6.1654294e-01
 -1.5484960e-01
  1.2807979e-01
 -7.9504758e-01
 -4.2623293e-02
  8.3536573e-02
  9.3654536e-02
  8.8392049e-02
  1.0794474e-01
  7.6011218e-02
 -9.1150597e-02
 -1.8748255e-02
 -7.3636644e-02
  2.0455668e-02
  1.0546765e+00
 -7.0482755e-01
  4.6332377e-01
  1.0846079e-01
  2.7224469e-01
  2.9432470e-01
 -3.3394933e-01
  6.1067098e-01
 -9.6255779e-02
  4.4688129e-01
 -1.7543137e-01
  9.7079992e-02
  3.5382241e-02
 -1.0294466e-01
 -6.9625214e-02
  2.5441894e-01
  2.2867693e-02
 -2.3026942e-01
  2.6413050e-01
  2.7345268e-02
  7.0061374e-01
  6.1213590e-02
 -7.7916741e-02
 -1.1709795e-02
  1.6863169e-01
  6.8082142e-01
  1.3127074e-01
 -2.1946182e-02
 -2.5022557e-01
  1.5741542e-01
  2.7243897e-01
  1.8664682e-01
 -1.1906374e-01
  3.5730067e-01
  7.2105473e-01
  1.5879332e-01
  4.2002931e-02
 -1.5224116e-01
 -2.6386514e-01
  3.4254366e-01
  3.6346130e-02
  1.4943878e-02
  3.6785898e-03
  4.4300637e-01
  2.9950589e-01
  8.4159523e-03
  5.4737093e-04
  8.3834484e-02
 -1.6256092e-01
  1.0601360e-01
 -5.4528940e-02
 -1.6704196e-02
 -1.1939205e-01
  9.7582834e-03
 -4.6911219e-01
  1.1583841e-01
 -1.7147414e-01
  2.0183128e-01
  3.9127859e-01
 -2.2134514e-01
 -7.1357536e-01
 -7.2280079e-02
  2.2640321e-02
  8.4205195e-02
  6.7148112e-02
  3.9464291e-02
  2.7209371e-02
  8.1088580e-02
  3.6043022e-02
 -1.2931259e-01
  1.0786548e-01
 -1.0889582e-01
 -1.7048083e-01
 -1.4871091e-01
  3.7503040e-01
 -1.6307178e-01
 -1.5116015e-02
  1.2696645e-01
 -6.0117943e-03
 -1.3998879e-01
 -7.7957444e-02
  2.8189646e-02
  1.6389900e-01
  4.5513180e-03
  4.2476833e-02
  2.8832443e-02
  7.4388556e-02
 -1.5718214e-01
 -2.0447280e-03
 -8.1599064e-02
 -1.1222437e-02
 -1.6229687e-02
  1.4694363e-01
  8.5756078e-02
 -6.0227718e-02
  5.9031233e-02
  1.4360741e+00
 -1.0282666e-01
 -1.7903844e-02
  5.7444438e-02
 -6.2433565e-03
  3.7274320e-02
 -5.3571505e-03
  3.5811484e-02
  4.9686688e-03
 -2.7985657e-02
  3.4173861e-02
  2.4515362e-02
  5.4368639e-01
  1.0903365e-01
 -7.8296578e-01
 -1.0465652e+00
  1.7896180e-01
  1.3780916e-01
  9.8014325e-01
 -1.2756318e+00
 -2.8655502e-01
 -3.5250401e-01
 -2.2567497e-01
  2.5853676e-01
  7.7020295e-02
  4.5365328e-01
 -2.0239833e-01
 -1.3582867e-01
  1.5342695e-01
  1.9185114e-01
  2.8857988e-01
 -3.8253975e-01
 -2.0654905e-01
  3.3236239e-02
 -2.2464607e-02
 -2.9552570e-01
 -6.6619001e-02
 -8.3581096e-01
  2.1454457e-02
 -1.9871874e-01
 -4.6183318e-01
 -1.4545017e-01
 -9.6381061e-02
 -4.4068095e-01
 -1.7092706e-01
  1.2043546e-01
 -1.8351661e-02
  1.2190892e-01
  2.0861094e-01
 -1.7338316e-01
 -1.2347932e+00
 -6.6640362e-02
 -3.0975899e-01
 -2.8577837e-01
 -1.3921046e-01
 -1.5303545e-01
  1.3739835e-01
 -2.0042120e-01
 -5.0193995e-02
  2.0430677e-01
  1.5595140e-01
 -1.6069466e-01
 -4.9838629e-02
  5.2556694e-01
  1.1353006e-01
  4.5778427e-02
 -4.5819172e-01
 -1.8525535e-02
 -8.6871290e-01
  4.1009241e-01
  5.5908906e-01
 -8.5977733e-02
  1.6230352e-01
 -1.9883855e-01
  2.4598296e-01
  5.9462748e-02
  2.4624053e-01
  3.4661153e-01
  3.0883977e-01
 -3.9974172e-02
  5.2880727e-02
 -3.1903499e-01
 -7.1016788e-01
 -1.0566394e-01
 -4.7068712e-01
  8.7486766e-02
 -2.2018792e-02
 -1.0067239e-01
 -1.1156693e-01
  1.2031218e-01
 -4.2179488e-02
 -3.0362570e-01
 -2.3279192e-02
 -6.5622494e-02
  2.2994712e-01
  2.4529061e-01
 -2.3938477e-01
  1.9592790e-02
  6.3243076e-02
 -1.8197374e-01
 -3.4644045e-02
  1.2415978e+00
 -1.7754029e-02
 -3.4709559e-03
  5.4985827e-01
  2.5014836e-01
 -7.8820199e-02
  5.5058394e-02
 -1.8843198e-02
 -4.0985107e-01
  6.9198169e-02
  1.0294185e-01
 -4.5833971e-02
  3.8446680e-02
 -4.7425646e-02
  3.7067927e-02
  2.9676976e-03
  1.7982866e-03
 -1.9093373e-01
 -3.7562277e-02
 -2.1812098e-02
 -1.7430602e-02
  7.8247622e-02
  3.1929672e-02
 -1.5005083e-02
  1.6005451e-02
 -1.1621049e-02
  9.7709813e-04
  1.5162338e-02
  1.6963730e-02
 -6.4982171e-03
  1.8216126e-02
  3.8358923e-03
  1.4969354e-02
  1.1297944e-02
 -4.8937597e-03
  1.7294541e-02
 -2.2704212e-02
 -3.1154349e-03
 -2.4348190e-02
  1.9999422e-02
 -1.9100856e-02
 -8.2904994e-03
  2.5536822e-02
 -9.3026934e-03
 -3.2685895e-02
 -6.3974164e-02
  1.9800294e-02
  4.2749044e-02
  1.1463102e-02
  1.9333156e-02
 -1.9273774e-03
 -1.2483591e+00
 -1.0997619e-02
 -4.1865208e-03
 -9.8419199e-03
  1.3703763e-02
  1.4474546e-02
 -1.6794175e-02
  1.7598344e-02
 -7.5798011e-03
  2.8433615e-02
  2.9553620e-02
 -7.7742279e-01
 -4.3180240e-03
  1.0539437e-02
  4.6989825e-03
 -5.0492704e-01
  1.9746503e-02
 -5.6359423e-03
  1.4198008e-03
  4.7455946e-01
 -1.5903240e-02
 -6.5876367e-03
  4.0499259e-02
 -2.9139284e-02
  1.8998748e-02
 -4.6637252e-02
  9.6347695e-03
 -5.5523659e-03
 -2.7089221e-03
 -1.0019373e-02
 -3.6850180e-02
 -1.2767018e-02
 -2.2551699e-02
 -3.4474090e-02
 -5.0770375e-04
 -1.3929117e-02
 -4.7562164e-04
  4.0608011e-02
  5.3699138e-03
  2.8645208e-02
  3.9753355e-02
 -1.7661124e-02
 -2.4152594e-02
  2.0474132e-02
  3.7070696e-04
 -3.2333691e-02
 -2.9946694e-03
  2.6122162e-02
 -1.7224994e-02
  1.5083021e-02
 -3.7639700e-02
  5.6017931e-03
 -1.3200365e-02
 -2.0053320e-02
 -3.4129381e-02
  4.2999357e-02
 -2.1945579e-02
  2.8471202e-02
  2.2787420e-02
  9.3609290e-03
 -4.9470447e-02
  2.3085169e-02
  7.7622393e-03
 -9.7412355e-03
 -3.4383189e-02
  4.6532430e-02
  1.0944876e-02
 -1.5785921e-02
  2.4551310e-02
 -3.8070921e-03
 -1.4340607e-02
 -5.6881695e-03
  3.0829746e-04
  7.1521327e-02
  6.0838563e-03
  1.8197695e-02
 -7.9306535e-02
 -1.6861244e+00
 -7.9816115e-01
  1.1581880e-02
 -1.8897863e-02
  5.3873891e-01
 -2.4699694e-01
 -8.3704227e-01
 -6.2384439e-01
 -3.0048168e-01
 -3.9238146e-01
 -1.3432312e-01
  4.9543899e-01
 -2.3159263e-01
 -5.9789002e-01
 -1.6856493e-01
 -3.0536601e-01
  2.2068834e-01
 -1.7900433e-01
  3.0677897e-01
  4.9395350e-01
 -1.6410310e-02
 -4.1329216e-02
  9.4043419e-02
 -8.2278267e-02
  5.8769304e-01
 -2.2483204e-01
 -1.5282352e-01
  1.2157045e-01
  1.9910342e-01
  2.8850725e-01
 -3.5463676e-01
 -7.7995017e-02
  2.0106024e-01
 -5.1584864e-01
  6.5426581e-02
 -3.0446020e-01
 -2.5970119e-01
 -1.7948037e-01
  1.1394266e-01
 -1.7481112e-01
  4.6079289e-02
  9.3935698e-02
 -8.3361879e-02
  1.4786771e-01
  6.4379662e-02
 -3.0869827e-01
 -1.3339789e-01
 -7.6000333e-02
  9.7760268e-02
  1.0012093e-02
 -1.8015119e-01
 -1.2499338e-01
 -1.1998955e-01
 -2.2833082e-01
  5.7711083e-02
 -5.0124806e-01
  3.4317136e-02
  1.1630455e+00
  6.2721676e-01
 -1.6892208e+00
 -4.5819852e-01
 -1.6157733e-01
  1.9524376e-01
  2.2433588e-01
  2.1820742e-01
  3.7153233e-02
  8.4354736e-02
  7.1660973e-02
 -1.8102813e-01
  2.1476276e-02
 -2.7225316e-01
 -1.5825543e-01
 -3.2827777e-01
  9.7438313e-02
 -1.0216754e-01
 -1.3539024e-01
  5.2190308e-02
  1.1491325e-01
 -1.3338009e-01
 -1.1421183e-01
  1.0535141e-02
 -1.6522856e-02
  1.5337817e-01
  7.0432876e-03
 -2.2082484e-01
 -3.2796007e-02
 -1.5862219e-01
 -3.3379894e-01
  6.0991433e-02
  1.0907631e-01
 -9.0232462e-02
  2.8129226e-01
  4.8558646e-01
 -1.5684350e-01
  5.8619447e-02
  6.4219788e-02
  1.0520547e-02
 -1.1407498e-01
  6.9389015e-02
  1.5789341e-02
  3.0381696e-02
  5.8356099e-02
  6.6783309e-02
  5.6472041e-02
 -4.3796271e-02
  1.5263299e+00
 -3.2744764e-03
  6.1318463e-01
  1.4347823e+00
  2.3101488e-01
 -4.2419031e-01
 -1.3455172e-01
 -7.2226071e-01
 -1.0148882e+00
  1.4853778e-01
 -3.0321056e-01
 -5.3655475e-02
 -7.4231274e-02
 -5.0321780e-02
  1.1378910e-01
 -1.5992339e-01
 -2.4118597e-02
  4.7521457e-02
 -3.6468741e-01
  1.3818289e-01
  3.1825796e-01
  1.9974566e-01
 -1.7869288e-01
  2.5312614e-01
 -4.2293712e-02
 -8.2825385e-02
 -6.7465022e-02
  1.7559014e-01
  4.3174572e-02
 -1.0881621e-01
 -7.0639916e-02
  1.1062483e-02
 -7.0862502e-02
  9.1343053e-02
 -6.9841921e-02
  1.8537883e-01
 -4.6549973e-01
 -2.0306125e-02
  1.8588403e-01
  3.5710175e-02
  1.4787601e-01
  3.0738685e-01
  9.1517583e-02
  3.1531854e-03
 -5.8085967e-02
  7.3178399e-01
 -1.8197277e-03
  3.6076292e-01
 -2.4804290e-02
 -6.7663781e-02
  2.0225041e-02
  1.0285005e-02
  9.4126370e-03
  8.8597583e-03
 -4.5858797e-02
 -3.9251197e-02
 -1.0289473e-01
 -4.5264462e-01
 -1.6568956e-01
  1.4821820e-01
  3.5066731e-02
 -5.5689897e-02
 -2.5120720e-01
 -3.3501419e-01
  7.7715963e-03
  1.0836059e-02
  4.8906755e-02
  1.0336490e-01
  1.8248342e-02
  6.1393980e-02
  1.1123443e-02
 -7.5856239e-02
 -9.6384913e-02
 -1.1985976e-01
 -7.3466137e-02
  1.7954969e-01
  7.8732312e-02
 -8.6267017e-02
 -6.0444176e-03
  3.3503562e-02
 -1.2957717e-02
 -2.4502043e-01
 -5.3168368e-01
  1.4850892e-02
  1.7839934e-01
 -2.5225480e-03
  5.9814663e-03
  3.5434328e-03
  3.2664038e-02
 -5.0829202e-02
  9.1098081e-03
 -4.2339131e-02
  1.4849173e-02
  3.5478032e-01
  3.1162828e-02
  1.9787727e-02
 -4.6082556e-02
  9.4808256e-03
  4.1270617e-02
 -1.1238882e-01
 -2.8072815e-02
  3.5072319e-02
  1.9634501e-03
  8.8481111e-03
 -1.4748048e-02
  3.3063460e-02
  8.8760024e-03
 -1.1411524e-02
 -3.1039365e-02
 -1.4587985e-02
 -4.0354359e-01
 -4.2717713e-01
 -8.1072196e-02
  1.9486259e-01
 -1.5713310e+00
 -1.0973758e+00
  1.7997046e-01
 -6.6420859e-01
  4.1470282e-02
 -3.4921601e-01
 -2.0110399e-01
 -1.7854095e-01
  9.5846638e-02
 -3.6193115e-01
  5.6903780e-01
 -5.6951928e-01
  8.6842608e-01
  9.9637270e-02
 -1.3049164e-01
  2.1021701e-01
  6.2512529e-01
  5.3888407e-02
  1.0235900e-01
  8.7664723e-01
 -7.7107963e-03
  1.1465020e+00
  3.3273715e-01
  1.8665414e-01
 -1.9450644e-01
 -2.5705346e-01
  2.6898500e-01
  3.4862733e-01
  7.6976794e-01
 -4.8075292e-01
  1.2725093e+00
  1.5195689e-01
  1.8342243e-01
  4.9779385e-01
 -9.4044678e-02
  3.7039962e-01
 -1.1430858e-01
  8.9924401e-01
  1.0534677e-01
 -1.2978069e-01
  2.1786597e-01
 -1.6797509e-03
  9.0744495e-02
 -9.5189273e-02
  9.6283846e-02
 -1.4600122e-01
  1.4763698e-01
 -2.7055291e-02
 -4.7097218e-01
 -6.6205755e-02
  1.0224428e-01
 -1.3238294e-01
  2.2499175e-01
 -1.9174866e-01
  2.9765901e-01
  1.3519549e-01
  1.8118139e-01
 -8.2187855e-01
 -3.4296492e-01
  2.5032347e-01
  1.7507230e-01
  2.6876947e-01
  2.2976084e-02
 -2.2679496e-01
 -2.6850894e-01
  2.2689652e-01
 -3.6127350e-01
  4.7565822e-02
  1.3388152e-01
 -1.0018798e-01
  1.8259756e-01
  2.2534311e-01
 -3.1468555e-01
 -5.5905968e-01
  2.9444304e-01
 -4.0588889e-01
  8.6051255e-02
  4.3261337e-01
 -2.8105471e-01
  4.3284279e-01
  1.9676556e-01
 -1.5084869e-02
 -2.9933035e-01
  1.9543655e-01
 -2.9310003e-01
 -3.0685659e-03
  3.3313125e-02
  1.5133340e-02
 -3.6069316e-01
 -1.9120242e-02
 -8.9874260e-02
  6.0809290e-01
 -8.4069028e-02
  3.4795823e-03
 -9.9330200e-03
 -6.1762184e-02
 -1.7617377e-02
 -5.5228837e-02
  1.5491296e-02
 -1.0562380e-01
 -7.3853277e-02
 -5.2231704e-03
  1.6238330e-02
  5.7189457e-02
  2.7593886e-02
  2.4540518e-01
  4.9291383e-02
 -8.0573499e-02
 -4.4713363e-02
 -4.1996315e-02
  1.6923781e-02
  3.1615372e-04
 -3.9714396e-02
 -3.8091326e-03
 -4.8487904e-03
 -7.8206867e-01
  3.9844204e-02
 -2.2647759e-02
 -2.0824589e-02
  2.9931948e-02
 -3.5907847e-01
  1.5769104e-02
  5.6671195e-02
  4.5252182e-02
 -4.2424396e-02
  2.4678318e-02
  7.6165851e-03
 -4.0350128e-02
 -3.5414815e-02
  1.4725563e-01
  3.1303655e-02
 -2.1283450e-02
 -5.4509357e-02
 -2.2381905e-02
 -4.3237828e-02
 -5.9475517e-03
 -2.2988163e-02
  7.1458921e-02
 -7.7519916e-02
  3.5328209e-02
  2.9305648e-02
  7.7547696e-03
  2.2155441e-02
 -6.9613054e-02
  1.4255336e-02
  2.1818772e-02
 -4.1388585e-03
  8.6407505e-02
  1.1576199e-02
 -4.6587178e-01
  1.4107962e-03
  1.1231898e-03
 -7.1781944e-04
 -3.9170541e-02
  7.6520592e-03
  1.4453799e-02
  2.9993141e-03
 -1.6303791e-02
 -3.6045158e-01
  1.4580210e+00
  1.1113108e+00
 -2.7027231e-01
 -3.7449446e-01
  1.1827780e-01
  8.4884331e-02
  1.3569994e+00
  1.0382454e+00
  7.4672692e-02
  3.2472095e-01
 -1.2409096e+00
  3.9115950e-02
  1.0461277e-01
  3.5901853e-01
  1.8288733e-01
  5.9692806e-01
 -1.7912908e-02
  2.0460658e-01
  1.0964171e+00
 -5.0550961e-01
 -3.2135595e-02
  8.5288316e-01
  9.3162082e-02
  2.9432401e-01
 -7.5045466e-01
  2.6470475e-02
  7.7580899e-01
  3.7091315e-01
 -9.7894800e-01
 -3.2283640e-01
  9.0917206e-01
  4.7423273e-01
 -5.6946552e-01
  6.5333205e-01
  3.2065302e-01
 -4.1246355e-01
  5.4144484e-01
  3.1559026e-01
 -2.3494076e-02
  5.9647006e-01
  1.0056325e-02
 -2.1408951e-01
  3.7439612e-01
  3.5492335e-02
 -1.8174422e-01
  3.0947503e-01
 -5.9980448e-02
 -4.3099049e-02
 -2.5886613e-01
  4.6589151e-02
  2.4321763e-01
  2.8594634e-01
  6.0599566e-02
 -2.8079721e-01
  9.1185141e-01
 -4.4438949e-01
 -3.1919342e-01
  7.9433173e-01
 -5.7970488e-01
  1.3766806e-01
 -2.0503204e-01
 -1.8637669e-01
 -5.9178071e-03
  6.7594297e-02
 -2.9601243e-01
 -2.3869103e-01
 -2.6550716e-01
 -4.5516860e-02
 -6.5124303e-02
 -5.8011860e-01
 -1.1953553e-01
 -2.4452442e-02
 -7.6098949e-02
  7.2997820e-04
 -2.3571910e-02
  1.6929963e-01
  2.1224758e-01
 -1.1979118e-01
  1.5192633e-02
  1.1287627e-01
 -2.5968286e-01
  2.1221250e-02
 -3.2346246e-01
 -1.9251369e-01
 -3.8536139e-02
  4.7582332e-02
 -3.5380971e-01
 -5.0405508e-01
 -1.8099664e-01
  7.2166339e-02
  1.0540346e-01
  2.0247813e-02
 -3.9463824e-01
  1.3420765e-01
  1.2600912e-01
 -9.4980493e-02
  3.9116931e-01
 -2.0996456e-01
  6.1777879e-02
  3.8879164e-02
 -1.1771480e-01
 -8.2006663e-02
 -5.4989628e-02
  2.8046882e-02
  1.6382527e-02
 -5.2269298e-01
  6.8680771e-02
 -1.4040561e-01
 -3.4219652e-01
  1.5044762e-02
  1.2191062e-01
 -2.9146516e-01
  2.0297876e-02
 -3.6018643e-01
  1.4733832e-01
  2.3630919e-02
  3.8780056e-02
  3.0580312e-02
  4.6980893e-03
 -3.8421545e-03
  1.2313399e-02
  4.8167668e-03
 -2.0745641e-02
  2.0162592e-02
 -3.4126796e-02
 -8.5093997e-02
 -1.6774112e-02
  3.4855887e-02
 -3.1500414e-02
  3.3259805e-02
  1.0597834e-01
  8.2877399e-03
  1.9450352e-02
  1.5399107e-01
  4.2539869e-02
  6.8814635e-02
 -1.0360850e-02
  4.8771579e-02
  2.6028141e-02
  7.9430789e-02
 -6.1723579e-02
  5.4013524e-02
 -2.0509329e-02
 -6.7705661e-03
  1.6844725e-02
  1.1963912e-01
 -2.4812052e-02
 -1.3829841e-02
  3.7863266e-02
  1.2741193e-02
 -6.4081743e-02
 -2.1548603e-02
  1.4029026e-02
  1.1300459e-02
  2.5832674e-02
 -3.1352241e-02
  2.8486250e-02
 -1.6645677e-03
 -2.5556926e-03
 -1.8690092e-02
 -4.9289547e-02
  7.7742720e-03
  1.4231499e-01
  2.2483440e-04
 -3.5918114e-01
  1.7325011e-01
 -1.7185418e-01
  1.0724375e+00
 -1.3900192e+00
 -1.1367345e+00
  2.4542562e-03
  7.3341250e-01
 -1.8997570e-02
  2.9658187e-02
  6.1835670e-01
 -1.0968934e+00
  6.0916322e-01
  4.9099443e-03
  1.3861233e-02
 -3.4088396e-02
 -3.7470873e-02
 -4.9341649e-01
  5.9839571e-01
  8.2181934e-03
 -3.0606681e-01
  1.2007275e-01
  2.9153697e-02
 -1.0448652e-02
 -1.9731449e-02
 -5.4650638e-02
  1.1533326e+00
 -1.5076823e+00
  3.3806735e-03
  1.3322059e+00
  8.4496218e-01
  6.1333787e-01
  1.4418526e-01
  1.1235835e-01
 -2.8966668e-01
  9.1027869e-03
  3.5986344e-03
  3.7785083e-01
  6.9661885e-01
  2.7736759e+00
 -1.1463890e-02
  2.1306100e+00
 -9.0527290e-01
  4.0091747e-01
 -2.8331381e-01
 -9.6696305e-01
 -7.7917515e-03
 -2.1027684e-02
 -4.6317476e-01
  6.6813757e-03
  8.9605153e-01
 -9.9209809e-01
 -6.3613051e-01
  6.8636143e-01
 -1.1789579e+00
  1.2005632e+00
  1.8897900e-01
 -1.3915957e+00
  6.5059572e-02
 -4.5085069e-02
 -5.8187068e-01
  5.9901989e-01
  1.2458237e+00
 -1.8701552e-01
 -6.7184761e-02
  2.5099754e-01
 -1.5521896e-01
  7.8289044e-01
  6.4540207e-01
  1.0218589e-01
  5.1359361e-01
  1.8023878e-02
  5.0319362e-01
 -1.1544462e+00
 -3.8757760e-03
  1.9099234e-02
  5.7925820e-01
 -7.0212358e-01
  9.0769231e-02
  2.5981900e-01
  5.7478720e-01
 -1.0070214e+00
  3.4814301e-01
 -6.6450357e-01
  3.5501412e-01
  3.4695327e-02
 -1.3438042e-01
  1.9235779e+00
  4.9402887e-01
 -2.5330356e-01
  1.7394479e-01
  1.0652101e+00
 -9.2679465e-01
 -1.3281013e-01
 -2.4580593e+00
  1.0721018e+00
  1.7227241e-01
  9.0758830e-01
 -1.1383011e+00
 -8.6775005e-01
  2.0071244e-01
 -4.5049304e-01
 -3.7992257e-01
  2.6432002e-01
 -1.3220571e+00
 -6.1812066e-02
 -1.0184283e+00
  6.5107328e-01
  9.3185472e-01
  6.1635619e-01
  1.7786491e-01
  1.0381360e-01
 -2.5480735e-01
 -2.5328180e-01
 -9.1497457e-01
  8.7033021e-01
 -3.0037357e-02
  3.0092779e-01
 -3.4784775e-03
  5.5970186e-01
  3.4996754e-01
 -3.9226165e-01
 -2.2523305e-01
 -5.6932926e-01
 -7.8445750e-01
  3.5977438e-01
  5.0647914e-02
  2.7120283e-01
  2.6299639e-02
  4.4905993e-01
  1.2696500e-01
  4.1976079e-01
 -2.4305730e-01
 -6.5917477e-02
 -5.7625778e-02
  1.1155062e-01
  1.7065473e-01
 -2.1606633e-01
  2.7101427e-01
 -2.6611337e-01
  3.8268942e-01
  1.8115218e-01
  6.3955514e-03
  1.8097556e-01
 -8.0257177e-02
  6.2640041e-02
  3.0877335e-02
 -4.2248163e-02
  2.2901211e-02
  5.9078891e-02
 -2.1107223e-02
 -1.9733076e-01
  1.9747569e-01
  2.6222160e-01
 -1.1515722e-01
 -1.8121919e-02
  8.0868679e-01
  1.0551894e+00
 -9.8830849e-01
 -7.5252235e-01
  2.1027313e-01
 -3.5724121e-01
 -4.1155753e-01
  1.2289956e-01
  5.7034045e-01
 -9.4367294e-03
 -2.9786965e-01
 -2.9260349e-01
 -1.1181815e-01
 -4.6481112e-01
  9.2271410e-02
  2.7133802e-01
 -3.5060134e-02
 -4.6907753e-01
 -1.1150540e-01
 -2.5079301e-01
  2.3839480e-01
  1.1724274e-01
 -2.7421302e-01
 -2.6398227e-01
 -3.1343732e-02
  4.2609495e-01
 -2.3516192e-01
  7.0015526e-01
  8.5487768e-02
 -2.0267208e-01
 -1.2940975e-03
 -1.6424672e-01
 -3.1997013e-01
 -6.2793031e-02
  1.6910473e-01
  4.6635520e-01
  6.5778792e-01
 -1.2272026e-01
  1.7722537e-01
  9.7170398e-02
 -3.1661767e-01
  1.3947448e-01
  3.1592429e-02
  8.2933016e-02
  1.2543723e-01
 -7.6507047e-02
  4.7753368e-02
  1.0008661e-01
 -3.4775287e-02
  8.7272540e-02
  4.8374858e-01
 -3.6041623e-01
  2.6563385e-01
 -3.7766796e-01
 -7.0381486e-01
 -5.9849572e-01
 -1.0408841e+00
  3.6063787e-01
 -3.4404448e-01
  4.4196075e-01
 -1.2179691e+00
 -7.8155595e-01
 -4.5287052e-01
  3.8063699e-01
  2.0258938e-01
  9.3810952e-01
 -1.0953180e+00
  5.1543854e-02
  4.2636576e-01
 -1.2645084e+00
 -1.0159417e+00
  2.5308323e-01
 -1.5465419e-01
  9.5055342e-01
 -8.5867263e-02
 -8.2913983e-01
 -2.9282230e-01
 -1.9536890e-01
 -5.1221359e-01
 -8.2352591e-01
 -4.6702293e-01
  4.3832052e-01
 -4.9248230e-01
  7.6326519e-01
  2.1522935e-01
  7.0990652e-01
 -6.8403280e-01
 -6.2910277e-01
  5.3089015e-02
 -7.9742715e-02
 -1.0781684e+00
 -7.5022346e-01
 -3.7868455e-01
 -3.5674760e-01
  1.7800829e-01
  1.1834970e-01
  2.0739980e-01
  9.9079356e-02
  3.4975204e-01
  1.8497251e-01
 -1.0409644e-01
  7.5106509e-03
 -5.4699820e-02
  2.8857753e-02
  3.1495981e-03
  2.0129940e-02
  9.5175969e-04
 -1.3177096e-02
 -1.5347441e-02
  2.3375774e-02
  1.0458779e-02
 -1.8568287e-02
  4.3007772e-02
 -2.0450565e-01
  1.3556834e-02
  2.7279649e-02
  2.2161208e-02
  4.5111254e-02
  3.2619853e-02
 -4.8373183e-03
  4.1506402e-04
 -1.0184151e-02
 -1.1741878e-02
  6.8652211e-03
  1.1080685e-01
  1.3979887e-02
  1.5963208e-02
 -1.1663226e-02
  6.1710011e-03
 -1.3281140e-02
 -2.4268414e-01
 -1.8175069e-02
 -3.7787559e-03
  2.2222891e-02
  6.7289948e-02
  3.7927697e-03
  3.1270809e-03
 -5.7646045e-03
 -7.1510458e-01
 -3.0850491e-02
 -2.6775038e-02
  1.1581036e-02
  3.7034690e-02
 -6.0385861e-03
 -4.0260039e-02
  6.1001051e-03
  1.9624280e-02
 -1.1941563e-02
  4.6101026e-03
 -7.1723671e-03
 -2.2466691e-02
  3.4907517e-01
 -1.1681122e-03
  4.0909013e-01
 -2.3205467e-01
 -2.0555572e-03
 -4.6566203e-03
 -1.9528814e-01
 -4.3340948e-01
 -1.1609440e+00
 -6.1536121e-01
 -1.9146355e+00
 -3.3912200e-01
 -1.0481117e+00
  8.9369170e-02
 -6.9096255e-01
 -7.6932436e-01
 -5.8829463e-01
  2.1725241e-02
  5.7508355e-01
  7.4076259e-01
  3.8883227e-01
  3.1175214e-01
 -3.5312352e-01
 -1.6452497e-02
  1.5411769e-01
  1.6123545e-01
  4.1988216e-02
 -1.1416507e-01
  4.8062965e-01
 -2.1046586e-01
 -5.3000093e-01
  2.7374411e-01
  2.9396769e-01
 -5.8534247e-01
 -7.1917659e-01
 -4.8384407e-01
  2.1891457e-01
  7.4131012e-01
  6.0930389e-01
  1.9336528e-01
  8.2338437e-02
  1.0403578e+00
  7.8632846e-02
 -2.0051931e-01
 -3.1241614e-01
  3.2738113e-01
 -6.0648519e-01
  3.5866958e-01
 -3.5531491e-01
  1.4783807e-01
  5.4123033e-02
 -3.5264868e-01
  9.7783618e-02
  5.1827107e-02
  5.9021547e-02
  3.0723560e-01
  1.9301994e-02
  9.8148584e-02
  1.7751887e-01
 -8.8669937e-03
 -3.1472537e-01
 -1.3921738e-02
  1.0026834e-02
  7.2363138e-02
 -2.5418960e-02
  5.5677231e-02
 -4.9729429e-02
 -2.1961896e-02
  2.5746426e-02
 -1.3114706e-01
  4.2983342e-02
  5.7424991e-03
 -5.0721359e-02
 -2.9561277e-02
  1.4719781e-02
 -7.0965565e-03
 -2.3872025e-02
 -9.5934058e-03
 -1.3570454e-02
  4.5813709e-02
  9.4117232e-02
  1.0544215e-02
  2.5467214e-01
 -3.3862386e-02
 -7.0420261e-03
  4.2361984e-01
  1.9291941e-05
  1.4400068e-05
  1.7434905e+00
 -1.7898656e-02
 -6.2279917e-02
  1.6800370e-02
  1.9853856e-02
 -2.3739116e-02
  4.0737595e-02
 -2.1688160e-03
  3.5447523e-02
  3.0447900e-02
 -2.4481384e-02
 -1.3974628e-02
 -3.4984779e-01
  7.0839278e-02
 -2.1956337e-03
 -6.3811974e-03
  2.9313320e-02
  1.0088971e-02
  2.5447980e-02
  2.6043067e-03
  1.0337037e-02
  1.1085171e-03
 -1.0508900e-03
 -2.1035476e-03
  1.4388843e-02
 -1.1930085e-02
  5.6653179e-02
  1.9810742e-01
 -8.2029171e-02
 -2.6856458e-02
 -1.9485402e-01
 -1.1997030e+00
  8.0742002e-02
 -9.0925179e-02
 -1.6651839e-01
  2.7974585e-01
  1.4760715e-01
  1.6520266e-01
  6.8811074e-02
  3.2429516e-01
 -3.8050581e-02
  5.1725958e-02
  2.5679920e-02
  4.2403884e-02
 -4.2421743e-02
 -1.8863758e-01
  2.6188582e-01
  1.0165651e-01
  2.5153580e-01
 -8.9949742e-02
 -2.7510436e-02
  2.0463388e-02
 -6.2314956e-03
  1.4191951e-01
  2.0812689e-03
  1.8694742e-01
  6.1176408e-02
  2.9044190e-01
  5.4564778e-02
  5.9206549e-02
  4.4379760e-02
  6.0653668e-02
 -3.7993643e-01
 -1.2475347e-01
 -8.3739750e-02
  4.5784533e-02
 -2.7468109e-01
 -2.4861303e-01
 -2.7073668e-02
  1.4429691e-02
 -3.7699353e-02
 -3.0303771e-02
  1.1580974e+00
 -5.1966291e-02
  1.9133350e-02
  1.8033056e-01
  2.4385413e-02
  1.4399185e-02
  3.6236558e-02
 -1.9989263e-02
  1.9160636e-02
 -6.0101200e-02
  1.8874756e-03
  3.0614477e-01
 -2.6625587e-02
 -2.1086762e-02
 -2.9109074e-02
  3.5489082e-02
  1.7528060e-01
 -6.0188301e-02
  5.4320399e-02
 -1.6934481e-02
 -2.9020295e-02
 -4.0010266e-02
 -2.2601655e-02
 -1.2015129e-02
 -3.4482824e-03
 -1.0875574e-02
  1.6760448e-02
  1.4478440e-02
 -1.9769393e-02
 -2.2815295e-02
  3.1923965e-02
  5.3686262e-03
  8.5020554e-01
 -1.5698669e-02
  3.1163104e-02
 -1.0425742e-02
 -2.4432208e-02
  4.8460450e-02
 -5.3102329e-02
 -9.2389071e-03
 -8.2552144e-03
 -1.7539918e-02
  1.4400114e-03
 -2.1433247e-02
  3.6940683e-02
  1.3479560e-03
 -5.5492155e-02
 -3.4176685e-02
 -7.0254407e-03
  7.2686419e-02
  4.7494888e-02
 -3.2451853e-02
 -2.4129761e-02
  3.5327580e-02
  1.6828086e-02
  4.1424009e-04
 -7.9695946e-03
 -1.7259622e-02
 -7.1964366e-03
 -1.5952103e-02
 -1.2214801e-02
 -1.7758751e-02
 -2.3103772e-01
  4.3609425e-01
 -1.2633908e-01
 -3.0114079e-02
  2.7739850e-01
 -5.2802485e-01
  1.2632622e-01
 -5.2283818e-01
  1.2060099e-01
  1.2608081e-01
  4.0822122e-02
  2.1284547e-02
  8.8752238e-03
  1.6776176e-01
 -4.3760287e-03
 -1.5125478e-02
  1.2109677e-01
  2.3573393e-01
  3.4108290e-01
 -3.2238442e-01
  1.4027216e-01
  9.3807779e-02
 -2.1014704e-01
 -8.3226062e-02
 -2.2469566e-03
  5.9467379e-02
 -1.4800900e-02
 -5.6282677e-02
 -1.2504666e-01
  7.3406078e-02
  1.0986947e-01
  1.1968706e-02
  2.2529021e-02
  8.2217701e-02
  1.8464546e-01
  2.7172873e-03
 -1.2986353e-01
 -1.5515660e-01
 -9.2088073e-02
  1.1346243e-01
 -9.6451931e-02
  2.8592568e-02
 -3.2773953e-02
  3.3310235e-02
 -5.6800161e-02
 -4.4723336e-02
 -3.8650833e-02
 -2.6433986e-01
  5.3522237e-02
  8.3659030e-02
  6.1143612e-05
  6.0396079e-02
  2.5984798e-02
  5.9602869e-01
 -6.1672747e-01
  2.3868644e-01
  1.3433932e-01
  2.3308457e-01
 -4.1986552e-01
  4.6848369e-01
  1.6782504e-01
  4.7475672e-01
  1.3733564e-01
  1.4792964e-01
 -2.5789571e-01
 -2.4145500e-01
  2.2974497e-01
 -1.2202355e-01
 -1.0147502e-01
  1.0022148e-01
  1.9828399e-01
  1.6109495e-01
 -5.3320122e-01
 -2.0106970e-01
  1.3824390e-01
  1.2440830e-01
  2.8619731e-02
 -6.4264769e-03
 -1.0163713e-01
  5.7983924e-02
 -5.8438752e-02
  1.8271422e-01
 -8.8430114e-02
  1.3207367e-01
  1.9571580e-01
  2.5628710e-01
 -5.0738698e-01
  1.3326016e-01
 -1.0208910e-01
 -6.4765257e-01
 -1.1267549e-01
  3.8736880e-01
  1.3267493e-01
  2.3302297e-01
 -3.0593845e-01
 -2.7764863e-01
 -1.3271923e-01
  6.0581956e-02
  3.1485084e-02
 -1.1747433e-01
 -1.0823942e-01
 -4.9252279e-02
 -1.8327916e-02
 -1.9418659e-02
 -1.3984260e-02
  2.2592850e-02
  2.7734956e-02
  7.2905719e-02
 -2.8460462e-02
  7.2955310e-02
 -3.4656484e-02
  5.8598693e-02
  1.1664858e-01
  1.7309435e-02
 -6.3359290e-02
  2.7485925e-01
  8.5155182e-02
  5.1010621e-01
  1.2361350e-01
 -1.6752655e-02
 -9.0036988e-02
  2.0762775e-02
  6.3017055e-02
 -3.4109537e-02
 -2.9278560e-02
  1.5287689e-02
  6.5436333e-02
  8.4609594e-03
 -6.4117156e-02
 -2.8116621e-02
  5.0927378e-02
  3.0694736e-02
  7.9720683e-02
 -2.7605344e-02
 -2.9332130e-03
 -2.0369050e-01
 -7.4781805e-02
 -1.0561140e-02
 -1.2888983e-01
 -1.4097403e-01
  6.4137511e-02
 -5.8338523e-02
  6.1362796e-04
 -1.0021845e-01
  5.3073864e-02
  2.6105832e-02
 -4.7769602e-02
 -1.0913298e-01
  5.3670391e-02
  1.4240378e-01
  4.8534308e-02
 -7.2633125e-02
 -1.8306088e-02
  2.3728302e-02
  4.0984523e-02
  1.1509515e-02
  4.4805780e-03
 -4.9373560e-02
  1.1288728e-02
  1.6084714e-01
 -8.3929934e-03
 -2.5911199e-02
 -8.4881550e-01
  8.4341174e-01
 -9.9284500e-01
  9.1581531e-02
 -1.0709101e+00
  7.9180002e-01
  3.8264480e-01
  1.7649301e+00
 -3.8299939e-01
 -6.6742837e-01
 -4.2530172e-02
  1.1294740e+00
  4.0890014e-01
  7.9739004e-02
 -8.5338461e-01
  1.4758807e-01
  4.8346642e-01
  4.2058438e-01
 -6.1267978e-01
 -4.6016082e-01
  2.4935761e-01
  6.4158708e-01
 -3.2650024e-01
 -2.7675885e-03
  1.5422249e-01
  3.7518018e-01
 -2.2200752e-02
  5.7117686e-02
 -2.7774674e-01
  7.2365260e-01
  2.0187236e-01
 -5.9293365e-01
 -3.1718618e-01
  3.4217387e-01
 -1.8344137e-01
  7.1288280e-02
 -6.8593574e-01
 -9.3952619e-02
  8.7568158e-01
  3.2026470e-01
  6.2522203e-01
 -1.4845200e-01
 -4.1914172e-02
  2.0195532e-01
  5.8023628e-02
 -2.1500926e-01
 -2.5865361e-01
 -3.7709829e-01
 -3.4142505e-02
 -9.1221839e-02
  1.0291120e-01
 -8.7771555e-03
 -4.6846282e-02
  6.6264376e-02
 -1.5077050e-01
  8.3602197e-02
 -6.7383850e-01
  4.5034656e-01
 -3.1387280e-03
  1.5765812e-01
 -1.7099118e-01
  1.2979373e+00
 -8.5787028e-02
 -4.9079177e-01
  4.6663308e-01
 -4.5930311e-01
 -1.1537523e-01
 -1.0143914e+00
  6.3973182e-01
  3.6015767e-01
  3.2621327e-01
  1.6488998e-01
  2.0547938e-01
  1.3491450e-01
  5.8454746e-01
  1.6078202e-02
  8.5847296e-02
 -4.5543890e-02
  7.0689440e-02
  1.4521368e-01
 -1.3116481e-02
 -3.1644449e-01
  1.6753496e-01
  4.7498742e-01
 -1.6596048e-01
 -6.3826090e-01
 -8.3651423e-02
 -1.7415406e-01
  2.9266346e-01
  1.2470835e-01
  3.9008334e-02
  1.2124775e-01
 -8.0593601e-02
  2.0700876e-01
  7.0405376e-01
 -1.9407302e-01
 -8.9464419e-02
 -1.6389158e-02
 -1.3124824e-01
  1.2949643e-01
  1.1537718e-01
 -1.3736774e-01
 -2.6449213e-02
  1.3262609e-01
  4.6549112e-02
  8.9491732e-02
  5.5363312e-02
 -2.3090908e-02
 -1.5985899e-02
  4.0154118e-02
 -3.5180748e-01
  4.8564309e-03
  1.3029949e-03
  2.1689752e-02
  1.2224034e-02
  1.7500330e-02
 -3.9042898e-02
  3.4578890e-02
 -5.6370422e-02
  2.2120491e-02
  2.6035203e-02
  7.0780776e-02
 -2.1468079e-02
  2.5092132e-02
  5.1689404e-03
 -1.7968237e-03
  1.8121159e-02
 -6.3995696e-03
  7.1856114e-03
  1.6870588e-02
  1.0689755e-02
  7.3877792e-03
 -1.8970512e-02
  1.4572471e-01
  3.1585034e-03
  8.2575780e-01
  8.2687745e-03
  5.0226990e-03
  5.0029089e-03
  8.7358328e-03
 -1.4761469e-02
  2.4484107e-02
 -2.0418553e-02
  1.1060835e-02
 -2.1901680e-02
  1.8403729e-03
  1.7057514e-02
  3.4223445e-02
  1.0690577e-02
 -5.0309934e-02
 -2.5036957e-02
 -1.1743018e-03
  1.0606094e-02
 -1.1674465e-02
  1.2594813e-03
  2.5674971e-02
 -2.4932839e-03
  7.5474572e-03
  3.0189021e-03
 -4.8047951e-03
  8.4533412e-03
  9.8205982e-03
  4.0074053e-01
  1.4319882e-01
  1.2649032e-01
 -8.4253259e-02
 -1.4072401e-02
 -1.3605116e-02
  5.0128005e-02
 -6.9723107e-02
  1.1072781e-01
  7.4441217e-02
 -1.1287451e-01
 -7.7135479e-03
  1.0037585e-01
  1.0000606e-01
 -3.7649445e-02
  2.6908519e-02
  2.9903334e-02
  2.2433080e-02
 -2.5358597e-02
  3.3281310e-03
  7.0262298e-02
  4.5523565e-02
  1.1991693e-02
  2.0581169e-02
 -5.9525125e-02
  3.5130378e-02
 -2.4939990e-03
 -6.6943504e-03
  1.3778911e-02
  1.4404062e-02
  1.3060962e-01
  1.4079057e-01
  1.3107153e-02
  4.6198089e-02
 -2.8986568e-02
  5.8053724e-02
  1.4397142e-02
 -4.9344100e-02
  2.5012100e-03
  9.4987594e-02
  1.4890641e-01
 -2.5692630e-01
 -5.2729737e-02
  6.3772596e-02
 -8.5749766e-03
 -3.5033930e-02
 -2.9913401e-02
 -1.6022297e-02
  9.2485454e-03
  3.6304850e-02
 -1.7337455e-01
  2.2484429e-02
  3.2790184e-02
 -6.1284238e-03
  1.1986010e-01
 -4.8985866e-01
  3.5441041e-02
  1.7052791e-01
  2.9646090e-01
  1.6290620e-01
 -1.7178973e-02
  2.8006166e-02
 -5.6756884e-01
  3.7815332e-01
  6.0237002e-01
  7.9472840e-02
 -5.1634680e-02
  3.7383994e-01
  3.7705891e-02
 -1.0059200e-01
  5.7879124e-02
  1.3514040e-02
 -1.1452858e-01
 -5.2960496e-02
 -4.5033494e-01
  3.1518230e-01
  4.9213296e-01
 -1.2271143e-02
  1.3558808e-01
 -2.3731300e-01
 -2.6434647e-02
 -8.3402228e-01
 -4.8243836e-01
 -7.9973030e-01
 -1.8075557e-01
 -6.5104514e-01
  4.0457401e-01
  2.8836440e-02
  3.6449797e-02
 -2.4296524e-01
 -8.7752908e-02
  1.1633997e-01
 -1.8047883e-01
 -1.6692150e-01
 -4.5960867e-01
 -5.0446111e-01
 -5.2298028e-02
 -8.7809242e-02
 -3.8673628e-02
  2.5403801e-01
  2.5300494e-01
  9.2835702e-02
  1.9714497e-02
  1.4892931e-02
  6.3024405e-03
 -3.3418708e-02
 -2.4876941e-02
 -3.3443317e-02
 -1.8955391e-02
 -8.5366659e-02
  1.4138141e-01
  2.4883689e-01
  8.1142664e-02
 -2.8149089e-01
 -2.6640037e-01
  8.6246349e-02
 -1.3841090e-01
 -4.8525047e-02
  2.3847651e-01
 -7.2009765e-02
 -3.5161498e-01
 -1.9018918e-01
  1.7960785e-01
 -1.1448253e-01
 -8.2125790e-02
 -6.9563806e-02
 -2.1719287e-01
 -3.1525636e-01
 -1.9338536e-01
 -8.3607636e-02
  6.2020000e-02
 -1.7654185e-01
  1.5412244e-01
 -1.9750306e-01
 -9.5634907e-02
  1.1304331e-01
  2.1587214e-01
  1.7169081e-02
 -3.1522596e-01
  5.0279695e-01
  1.1164543e-01
 -9.0629153e-02
  8.2473643e-02
  4.4481033e-03
  4.5833057e-01
  1.3539335e-01
 -1.0093104e-01
 -6.5417930e-02
 -3.0059293e-01
  2.7423552e-01
  1.4798220e-01
 -4.4077136e-02
 -1.4728241e-02
  1.2478950e-01
 -9.3505740e-02
  2.7376261e-02
  1.1805193e-02
 -1.0779274e-01
  8.2084145e-03
 -4.1894715e-02
 -8.2959116e-02
 -4.0633015e-02
  1.3806866e-01
  4.8544598e-01
  1.2317553e+00
 -1.1173490e+00
  4.1060737e-01
 -3.7275153e-01
 -8.7456495e-02
  4.1668347e-01
  3.2098573e-01
  6.6528454e-02
 -9.8471902e-02
 -7.5076967e-02
 -8.8196397e-02
 -3.7608629e-01
  3.2415989e-01
  4.1859601e-02
  1.3030070e-01
 -2.2010052e-01
  4.7071066e-02
  2.6723659e-02
  1.8282817e-01
 -1.0588874e-01
 -6.6865027e-02
 -4.5245016e-01
 -1.0891961e-01
  2.0622741e-02
  3.7628964e-03
  3.0490693e-01
  2.2476211e-01
  1.4631487e-01
 -7.7731609e-02
 -7.9206906e-02
 -3.5731521e-02
 -1.2222185e-01
  1.1108229e-01
  7.5030863e-02
  2.0034505e-01
  1.1196891e-02
  9.2939228e-02
 -1.3898941e-03
  4.4368228e-01
  6.9118094e-01
  1.0013144e-02
 -5.2439395e-02
  7.0937000e-02
 -5.5387605e-02
 -2.0036165e-02
  6.2674540e-03
 -1.5588743e-02
 -2.6950667e-02
  8.7056339e-02
 -5.8336366e-02
 -6.3500893e-03
 -5.4539186e-03
  3.8436365e-01
  7.3601896e-01
 -1.6402194e+00
 -1.0692873e+00
 -1.2843912e+00
 -5.1652241e-01
 -5.8249992e-01
 -1.4281699e-01
 -1.5779287e-01
 -6.3925481e-01
  5.7373405e-01
  1.8031984e-03
 -2.1100894e-01
  1.1381079e+00
  1.2597904e-01
 -2.7780855e-01
  5.3777475e-02
 -5.1867658e-01
  5.3999919e-01
 -2.2055486e-01
  3.7279937e-01
  3.2679987e-01
  7.0757665e-02
  2.2988426e-02
  1.2627025e-01
 -6.4747643e-01
  1.7427903e-01
  5.1754427e-01
  3.4007889e-01
  2.3629077e-01
  1.3726552e-01
 -6.2366062e-01
  1.1885049e-01
  2.7851894e-01
  6.2841392e-01
  8.5204609e-02
  5.0475395e-01
 -4.8542809e-01
 -7.1432114e-01
  3.6669451e-01
  5.0397009e-01
 -1.0321749e-01
  1.6009185e-01
  1.5182121e-02
 -1.9975683e-01
  9.4428815e-02
  1.4246577e-01
 -5.5258859e-02
  8.3769917e-02
  3.7785608e-01
  1.0572220e-02
  4.0968116e-02
  1.3517803e-01
 -6.8330988e-02
  2.5484619e-01
  1.3677654e-01
  6.4478678e-01
 -6.4776272e-01
  2.1076746e-01
 -7.9793257e-01
 -2.8122687e-01
  9.0639591e-01
  1.4220214e-01
  2.0061898e-01
  5.7084227e-01
  1.5846865e-01
 -1.1934526e-01
 -3.8974029e-01
  1.7089283e-01
 -3.9810249e-01
  2.7703893e-01
 -6.8257838e-02
 -4.0854710e-01
 -5.5394316e-01
 -8.5046345e-01
 -3.3067595e-02
 -5.8785325e-01
 -2.1821868e-01
 -3.5764027e-01
  1.3015206e-01
 -3.6578044e-01
 -8.1430465e-01
 -5.0026691e-01
 -8.4100326e-04
  1.8952098e-01
 -8.2391989e-01
  1.5819544e-01
  4.3952342e-02
 -2.7901253e-01
  2.1812702e-03
 -1.3798884e-01
 -4.8544452e-01
  5.9250362e-02
  2.6328316e-01
 -1.7952022e-01
 -2.6164782e-01
 -1.7861858e-01
 -1.9592175e-01
 -1.4299290e-01
 -1.1691405e-01
  1.1408849e-01
  1.6012923e-01
 -7.1837544e-01
 -1.3577878e-01
  1.2377166e-01
 -4.8183743e-02
 -3.1864285e-03
  9.4525948e-02
  2.9376706e-01
  1.8660982e-01
  2.5683516e-01
  4.2692965e-01
  7.9779930e-02
 -1.0555560e-01
  8.6546555e-02
 -1.1212474e+00
  4.0038285e-01
  2.0883963e-01
  3.0261481e-02
  1.6558477e-01
 -1.3624051e-01
 -2.6062976e-03
 -2.4114637e-02
 -6.6669181e-02
 -1.1136500e-01
 -8.8832878e-02
 -2.8924844e-01
 -1.4566609e-01
  1.0416298e-01
 -1.7767073e-01
 -2.6784375e-01
  3.2624027e-01
  2.6066814e-02
  8.5704930e-02
 -1.7438211e-02
  4.0991974e-01
 -2.8986621e-03
  5.9155282e-02
 -1.3760030e-01
  5.0875199e-01
 -1.0193553e-01
 -9.8374985e-02
 -3.6001123e-02
 -1.4075179e-02
 -1.3330841e-01
  7.0055082e-02
  3.8181845e-02
 -1.4450397e-01
  7.6158106e-01
  8.6547923e-01
 -1.0610952e-01
 -6.2484421e-02
 -4.4877920e-01
  6.5658391e-02
 -2.7488584e-02
  1.2115837e-03
 -1.5559580e-02
 -9.7406968e-02
 -4.1993868e-02
 -1.1354195e-02
 -3.5052355e-03
 -1.1926007e-01
  5.3164876e-01
 -5.7749796e-01
 -8.1706597e-03
  1.5326871e-01
 -5.0151777e-01
 -5.3949094e-01
 -2.0859960e-01
  4.3131265e-01
 -1.8895198e-02
 -3.4585601e-01
 -1.5682890e-01
 -2.7100779e-02
  3.8136505e-02
  1.6837889e-01
  1.5795302e-01
 -1.3627768e-02
 -2.1891031e-01
 -4.5731191e-02
  2.1794046e-01
  2.7261218e-01
 -9.2751616e-01
 -1.5221244e-01
  2.0386498e-01
  1.3376078e-01
 -1.5976837e-01
 -2.6155198e-02
  9.3804583e-02
  1.7142901e-01
  1.3110471e-01
 -1.3006148e-01
 -1.8916334e-01
  6.5822773e-02
  1.5419258e-01
 -5.4557629e-02
 -1.0476475e-02
  2.6092906e-02
 -3.7457574e-02
  1.1972606e-01
 -5.0271529e-01
 -1.3059455e-01
 -4.5905247e-01
  7.1147525e-01
 -2.1530384e-02
 -2.4504310e-02
  5.2467309e-02
 -3.2632090e-02
  1.4409901e-01
  6.2773906e-02
  3.4403354e-02
  7.8241952e-02
  4.1573867e-03
  1.5301290e-02
  2.6924171e-02
 -2.5048763e-02
 -2.2066167e-01
  3.0665958e-01
 -2.0717816e-01
  1.8853265e-01
  3.6105432e-04
 -9.0366095e-02
 -1.8124376e-01
 -2.4771303e-01
  8.1697303e-01
 -3.2849962e-01
  2.0050427e-01
  5.8132117e-03
 -2.5712737e-01
 -7.2931968e-02
  3.2121553e-03
 -8.6641937e-02
  3.2048919e-03
 -6.7218363e-02
 -6.5522548e-03
 -6.2273484e-02
 -2.4346368e-02
 -3.7782670e-03
  7.9410613e-02
 -5.2307557e-02
  5.3615786e-02
 -7.1390994e-02
  2.0529475e-02
 -1.5386389e-01
 -4.3570615e-02
 -5.8660015e-02
 -1.8150415e-01
 -3.9947671e-01
  4.6859134e-02
 -1.2490577e-01
  9.4693564e-02
 -4.9910855e-02
  4.3177877e-02
  1.4178214e-02
 -6.2785827e-02
 -1.2147286e-01
 -3.2592759e-01
  1.8192941e-01
  4.6446998e-02
 -5.2905403e-02
  9.7124241e-03
  6.4906634e-02
  1.9815376e-02
  2.0795347e-02
 -9.8816454e-03
  2.2029500e-02
  2.9163513e-02
 -1.6199857e-02
 -3.9698150e-02
 -1.6928125e-02
 -2.4118468e-01
 -3.1185606e-03
  9.3972906e-02
 -3.7869042e-01
  2.1746580e-02
 -4.1874275e-01
  1.5025638e-01
  3.0019337e-02
 -4.1583344e-02
  2.0750964e-01
 -2.4186933e-02
 -3.8409669e-02
  1.7309885e-01
  2.5519013e-01
  2.5528255e-01
  8.7438270e-02
  5.5268593e-02
  8.5444063e-02
 -2.4372516e-02
 -5.0439212e-02
  2.3554513e-01
  1.2371635e-01
 -3.7983660e-02
 -3.1440984e-02
  3.9207321e-02
  9.6264727e-02
 -9.9623159e-02
  5.3622294e-02
 -1.2002408e-01
  4.7834331e-01
  1.7912981e-01
  5.0342947e-01
  1.2161621e-01
  6.8709910e-02
 -8.7941214e-03
  3.1051753e-02
  8.6822346e-02
 -9.7845517e-02
  1.0227115e-01
  1.5650354e-01
  2.9184900e-02
 -5.8048743e-01
 -5.9123211e-02
  6.3944072e-02
 -1.0833880e-02
  5.5085318e-03
 -5.7577312e-02
 -4.6697315e-02
 -1.1475505e-02
  3.4430645e-02
  1.3321356e-02
  5.4515235e-02
  5.8352418e-02
  8.3081843e-03
 -2.1609271e-02
  3.2446187e-02
  7.6125778e-02
 -3.4111477e-02
  1.1286830e-03
  1.1796313e-02
  2.9693680e-02
 -2.0290718e-03
  1.3283383e-02
  4.7620613e-02
 -7.2956577e-02
 -4.0662340e-03
  4.8871551e-02
  3.2733794e-02
 -5.2118979e-02
  2.3390008e-03
 -3.5477527e-03
  2.3394272e-02
  8.6437566e-03
 -8.4957778e-03
  6.5346356e-03
 -9.4832424e-03
  4.9205213e-03
  2.7792310e-02
 -6.1938543e-02
  4.5675885e-02
  5.7877880e-02
  4.1853566e-02
  2.6369577e-02
  4.1780047e-02
  9.9299870e-02
  2.9935922e-02
 -1.0192160e-02
  2.6722338e-02
 -2.2452172e-02
  2.8776554e-02
 -4.8512004e-02
 -2.2890123e-02
  3.3170786e-02
  8.8279143e-02
  9.9338666e-03
  8.6034209e-02
 -4.2426325e-02
  4.1946966e-02
  4.9499823e-03
 -1.9095981e-02
 -1.5292509e-02
  7.3948982e-03
 -1.5883273e-02
  3.3075598e-03
 -7.3590544e-03
  1.5363782e-02
 -1.0970044e-02
  3.4836293e-03
  1.1551005e-02
 -2.8323501e-01
  2.8334532e-02
  6.8534720e-03
 -5.6727645e-03
 -1.1176862e-02
 -4.1307407e-04
 -2.2160292e-03
  2.5554882e-02
 -3.1115880e-02
  1.4205829e-03
 -3.2301422e-03
 -1.7092798e-02
  6.3309590e-03
  1.5310443e-02
 -1.8005980e-02
  1.2548202e-02
  2.3119388e-02
  9.2026936e-03
  3.9072586e-03
  6.1763753e-03
 -1.1097626e-02
  1.4273899e-02
 -1.2234872e-02
  7.7681001e-03
 -2.1562552e-02
  8.5776569e-03
 -1.0169568e-02
  1.4742331e-02
 -7.2396831e-03
 -4.3647774e-03
 -2.1228401e-02
  8.6991293e-03
 -1.5406726e-02
 -5.2849860e-03
 -1.4643241e-03
  1.0175058e-02
 -1.0877788e-02
 -2.2345927e-02
 -1.1192539e-02
  3.4048412e-02
  4.5466516e-02
 -1.3415595e-02
  7.8516211e-03
  9.5826080e-03
 -4.4673402e-03
  7.3361071e-03
 -1.2255708e-02
  5.4943194e-03
 -1.4025252e-02
  4.1361661e-03
  7.9974398e-04
 -1.2364173e-02
  2.9243666e-01
 -1.5912360e+00
 -8.2718831e-01
  2.1100986e+00
 -9.6514684e-01
  4.7426978e-01
  6.6119719e-01
  1.0027528e+00
  1.3704464e-01
 -2.1581681e+00
  7.1651185e-01
  4.9931139e-01
  3.9225432e-01
  1.2015977e-01
  2.3178972e-01
 -5.0413281e-01
  3.0641508e-01
  1.3896839e-01
  1.7397581e-01
  1.1933380e-01
  3.4053437e-02
  1.9588630e-01
  1.0499081e-01
 -1.1761233e+00
 -4.1353226e-01
  3.1867284e-01
  3.2878137e-01
  2.5220733e-02
  6.2264907e-01
  1.0072351e-01
  2.9625919e-01
 -6.2578702e-01
  1.0396402e-01
  5.9314906e-03
  2.3753129e-01
 -3.4815708e-01
 -1.4133587e-01
  1.9961309e-01
  4.6487506e-02
  3.6073670e-01
  2.7153114e-02
  5.7577020e-01
  5.9697773e-02
  2.5989369e-01
 -1.2420798e-01
 -5.4801069e-02
  2.5004053e-01
 -1.2057137e-01
 -1.0835787e-01
  7.5744122e-02
 -2.9900733e-01
 -1.9180842e-02
 -1.5762528e-02
 -1.5011422e-02
  5.0040063e-02
  1.5219266e-02
 -1.0047534e-05
 -6.4320466e-03
 -4.3119933e-03
  3.9474946e-01
 -1.5560730e-02
  4.8208088e-02
 -4.2567356e-03
 -3.2125500e-01
 -5.8019916e-03
 -7.0267138e-03
 -1.4309336e-02
  2.2474786e-02
  1.5883414e-01
  2.9711432e-03
  8.0706617e-03
 -1.1989058e-02
 -1.3703808e-02
 -1.1877671e-02
 -1.1942563e-02
  2.4427308e-02
 -1.5888661e-03
 -1.2325819e-02
 -1.5604240e-04
 -8.6945379e-03
  1.6290173e-02
 -1.5870762e-03
  2.0005073e-02
 -1.5322644e-02
  1.1649581e-02
  6.3308040e-03
 -1.8226765e-02
 -8.0678152e-04
 -2.7716663e-02
  1.0563513e-03
 -1.2559659e-02
  1.2238322e-02
  1.3648171e-02
 -2.4569100e-02
 -3.9867498e-03
 -1.1310642e-02
 -1.7379701e-02
 -2.7321655e-02
  1.5805992e-03
  1.9930862e-02
 -7.2036661e-02
  1.2959754e-02
  3.1853821e-02
  7.8047672e-04
 -3.4644303e-03
 -2.5828280e-02
  1.0445540e-02
  1.0195127e-02
 -8.3023338e-03
 -1.3177398e+00
 -4.9810056e-02
  1.9811462e+00
 -3.3557862e-01
  6.1972743e-01
  1.3367778e+00
 -1.6280530e-01
  8.9463860e-01
 -1.3413723e+00
 -1.6622177e-01
  3.9235979e-01
 -8.6992666e-02
  3.4415435e-02
  2.3546262e-01
 -7.0872709e-02
  5.1568955e-02
  3.9133420e-03
 -5.4107014e-02
  2.3669937e-01
  4.2193866e-01
  7.2388619e-02
  9.3254662e-01
  2.0999634e-01
 -2.8950804e-01
  3.1256031e-02
  8.5496455e-03
  1.2281931e-01
  2.9788205e-01
  4.3287608e-01
  5.8218252e-02
  6.3865446e-02
  2.1746710e-01
  2.7586576e-01
  1.1090688e-01
  3.2405689e-01
  1.8186751e-01
  6.0022801e-01
  3.7066919e-01
 -3.2230452e-02
  1.7611635e-01
  5.4262012e-01
 -4.2931849e-01
  3.7933283e-02
  1.2798361e-01
  5.0016053e-02
 -1.0555133e-01
  2.8892152e-02
 -7.2750216e-04
  4.5562368e-02
  1.6209866e-01
  3.1084787e-02
  1.1326008e-02
  1.0575420e-02
  8.3787050e-03
 -5.8818895e-02
  3.9302286e-02
 -8.1017308e-02
  1.6652881e-01
 -1.7584102e-02
  6.4290568e-02
  3.5205156e-02
  4.7899086e-02
 -1.3167080e-01
 -2.6783058e-01
  3.0826595e-01
 -2.4547640e-02
  3.5763677e-02
  4.8136227e-02
 -3.0021003e-02
  3.0801812e-02
 -1.2757486e-02
  2.4941051e-02
 -7.4261032e-02
  2.6475992e-02
  2.8088827e-02
  9.9593652e-03
 -4.4711344e-02
  2.2489490e-02
 -6.7304231e-02
  3.1407438e-02
 -1.9596741e-02
  1.1951512e-01
  8.6847052e-02
  7.3151223e-02
  1.1845787e-01
  6.2279422e-02
  6.0816221e-02
  7.5935081e-02
  3.0705781e-04
  8.1778750e-02
 -3.3481453e-02
 -4.3578167e-02
 -6.3091666e-03
  7.2242983e-02
 -1.1331022e-02
 -2.3031579e-01
 -5.3979635e-02
  4.7013626e-02
  1.0843601e-02
 -3.0674811e-02
 -4.3151681e-03
 -6.9122124e-03
 -3.4160132e-03
  1.7567718e-02
  1.4150830e-01
  3.0769356e-02
  1.4063568e-02
 -3.4817394e-02
 -1.7280390e-02
  3.1193711e-02
 -8.8041276e-03
  4.8406541e-04
  1.0075741e-02
 -1.2625793e-02
  4.0575191e-02
 -2.3879495e-02
 -3.2851737e-02
  5.9874877e-03
 -6.0274146e-02
 -1.7672921e-02
  3.4507420e-02
  8.9733135e-03
 -1.2128591e-02
  2.4378572e-02
  1.1844947e-02
  7.9749459e-03
  6.5392014e-03
  2.8816422e-02
 -7.5802295e-03
  8.0382108e-04
  1.4350045e-02
  5.0023384e-02
 -6.4699403e-03
  3.1514455e-02
 -6.4846035e-03
  1.5700264e-01
  4.2778039e-03
 -2.4891707e-01
  3.3696555e-02
  2.0264270e-02
  6.3692890e-02
 -3.8193282e-01
 -1.6622589e-03
  1.7874379e-02
 -2.7287673e-02
 -3.8227480e-04
  4.5097675e-02
  2.1664390e-02
  3.0318270e-02
 -7.2240576e-02
 -1.3673636e-02
 -5.6652346e-04
  1.3471279e+00
 -5.4495078e-01
 -5.0327377e-03
  2.9336313e-02
  1.3268393e-02
  1.3102495e-02
 -2.2487612e-02
 -9.2290286e-03
  2.6810579e-03
  1.1040384e-02
 -1.0917314e-02
 -2.7237737e-01
  4.6675436e-02
 -6.3507509e-01
 -3.0712509e-01
 -1.3373208e-01
 -4.4482157e-01
 -1.7827937e-01
  1.8809807e-01
  7.7447766e-01
 -2.5700408e-01
  4.8946045e-02
  1.2832744e-01
  1.0379075e-01
 -7.3113285e-02
  3.2947674e-02
  9.6069492e-02
  4.1494209e-02
  5.7122414e-03
 -1.3983533e-01
  9.1041110e-02
 -1.4732654e-02
 -4.9155229e-03
  2.5613135e-01
 -7.3757008e-02
  1.1727896e-01
 -3.5497930e-02
  1.0785040e-01
  2.3579441e-03
  2.7162814e-01
  1.5310721e-01
  1.9099671e-01
 -1.1750817e-01
  1.0965975e-02
 -1.3360943e-01
  1.7025730e-02
  2.5848467e-02
 -5.7379209e-02
  1.3725697e-01
  1.0922418e-01
 -5.2040625e-01
  1.0987833e+00
 -6.4597890e-02
  5.8332454e-02
  3.6881699e-03
 -9.1086946e-02
 -6.0616624e-02
  1.0061584e-01
  2.5244568e-02
  5.9927432e-03
  4.0726573e-03
  1.3123836e-02
  2.9261049e-02
  1.6980682e-02
  9.8518975e-02
 -3.5398975e-01
  7.8738052e-01
  1.8944379e-02
  9.3689346e-01
 -1.3737582e-01
  8.0717963e-01
  1.6049099e+00
 -2.6453817e-01
  2.9950187e-01
 -1.0148650e-01
  5.5379820e-01
  3.9984497e-01
  4.5425171e-01
  1.1287267e-01
  4.4761011e-01
 -4.4316852e-01
  3.5681199e-02
 -6.7340215e-03
  9.9650991e-01
  3.2904378e-01
 -1.1645970e-01
 -7.9605448e-01
  2.9214334e-01
 -3.6141623e-02
 -1.3633613e-01
  9.8459758e-02
  5.3414613e-02
 -8.8892058e-02
  1.3669474e-01
 -2.7627630e-02
  3.5884458e-01
  2.8034845e-01
  2.2715947e-01
 -4.7065642e-01
 -1.0394261e-01
 -1.1330470e-01
 -3.9590327e-03
  2.2007598e-01
 -2.2455379e-02
  5.4139447e-01
 -3.4133530e-01
  3.8732973e-01
 -7.2262138e-02
  3.6642235e-02
  1.8275115e-01
 -8.8091224e-02
 -3.2453969e-02
 -9.3473226e-02
 -3.6518416e-01
 -9.7930767e-02
 -4.5225747e-02
 -1.3786316e-01
  3.2729346e-02
 -1.1433472e-01
  5.1298165e-01
 -4.6199515e-01
  3.3281001e-01
  2.6430300e-01
  6.2750019e-02
 -1.0308069e-01
  5.4488796e-01
 -1.7518732e-01
 -3.1441984e-01
  6.0047779e-02
 -9.9327482e-02
 -1.6964516e-01
 -4.8727208e-01
  1.6806036e-01
 -1.6032006e-01
 -2.2671258e-02
 -8.0604635e-02
  4.9581472e-02
  3.3808374e-01
 -2.2289528e-02
 -1.3919894e-01
  2.5315633e-01
 -1.7205836e-01
  1.6744061e-01
 -1.7110990e-01
  3.6672484e-02
  6.3472456e-01
  1.6138774e-01
  1.3196628e-01
 -2.2848111e-01
 -2.4906826e-01
  1.0107246e-01
 -8.5381806e-02
  1.9272830e-01
 -4.4101190e-02
  7.3445922e-01
  5.6235766e-01
  3.3642033e-01
 -1.1158814e-01
 -1.0155530e+00
  9.7749519e-01
  8.5179985e-02
 -3.2807898e-02
  4.3803155e-02
  1.0390057e-01
  7.1619913e-02
 -2.8550470e-02
 -1.5280711e-02
 -9.5061615e-02
 -1.1132473e-02
 -2.6141427e-02
 -2.8299168e-02
 -6.1995368e-02
  2.4175543e-02
 -1.2041848e-01
  6.3726351e-02
  9.5446460e-02
  1.6675542e-04
  1.6299310e-01
 -4.2189173e-02
 -1.9991614e-01
  1.9102337e-02
 -5.5436571e-03
 -3.4167221e-01
 -1.7336226e-03
 -2.1993857e-02
  9.9524520e-02
  1.5089265e-01
  6.1055880e-02
  5.3709395e-02
  3.2960117e-02
  1.5035057e-02
 -3.7221096e-02
  4.1346688e-02
  3.1869814e-02
  7.8986071e-02
 -2.2028074e-05
 -3.9576855e-02
  6.0610734e-02
 -4.8476554e-02
 -4.0091734e-02
 -3.8334750e-02
  1.1182112e-01
  1.3853389e-01
  1.7640604e-01
  3.8247913e-01
  6.9660105e-02
 -9.6274048e-02
  5.8153383e-02
  1.9264548e-01
 -1.1076281e-02
  1.0543912e-01
  1.5993239e-01
 -1.3508001e-01
 -1.5033780e-01
 -6.9242820e-02
  4.9801048e-02
 -1.7867777e-02
 -3.8334627e-02
  1.5475253e-03
 -1.1248967e-02
  1.0222546e-02
 -1.5023156e-02
 -3.8699871e-03
  2.6329456e-02
  2.1632377e-02
  3.0880820e-02
  1.1090098e-01
  5.7193089e-01
  6.7304343e-01
 -1.7467763e-01
  3.8389689e-01
 -6.6653967e-02
  2.6660298e-03
 -1.6915739e-01
 -6.9907594e-01
 -1.0658294e+00
 -8.1050411e-02
 -3.3355117e-02
  1.4190093e-01
 -2.3983322e-01
  4.5976032e-02
  1.4396319e-01
  5.3201500e-02
 -4.9319598e-03
  5.2390945e-01
  4.2617044e-01
  2.3196486e-01
  1.0013669e-01
  4.3834853e-01
 -1.4237048e-01
 -2.0678844e-02
 -1.7913636e-02
  1.5467608e-01
  2.1631078e-01
  1.0897237e-01
  1.8104775e-01
  1.3050231e-01
 -9.9994883e-02
  1.6578889e-01
  9.4798788e-02
  1.3914900e-01
  1.4610437e-01
 -6.0776390e-02
  4.1101012e-02
  2.1817865e-02
  1.6516481e-01
  3.1463496e-02
 -3.7908560e-01
 -2.6610127e-02
  1.1529185e-01
  3.2585401e-02
 -3.0062974e-03
  1.8972034e-02
 -6.3393801e-02
 -2.9246246e-02
  3.2399669e-02
  4.3802705e-02
  3.1298760e-02
 -1.0973843e-02
 -4.7322395e-03
  1.3844707e+00
 -9.1863692e-01
 -6.1620337e-01
 -7.5360024e-01
 -1.1560067e+00
 -4.5615748e-01
 -2.7556462e-02
 -1.2333717e+00
  3.2311177e-01
 -7.5901501e-02
  9.8919244e-03
 -1.0824855e-01
 -8.7924279e-02
  4.3812647e-01
  5.6387234e-01
  9.9907450e-02
 -1.6055579e-01
 -3.0061013e-01
 -2.1555398e-01
 -4.3161407e-01
 -5.1199466e-01
 -4.0819767e-01
  2.5681654e-02
 -9.9688627e-02
  2.0558630e-01
 -1.6855115e-01
 -7.2914958e-02
 -4.4783661e-01
 -3.0676237e-01
 -1.8085527e-01
 -3.4362084e-01
 -3.0997977e-01
  7.1652436e-01
  9.2638014e-03
  4.7928739e-01
  1.3218260e-01
 -3.0678949e-01
 -2.8681490e-01
 -7.1303236e-01
 -3.4793323e-01
  2.1486305e-01
 -2.9894349e-01
  7.4726013e-03
 -1.1215726e-01
 -1.5741064e-01
 -1.5669310e-01
  2.4748233e-01
 -1.3903132e-02
  3.6679212e-02
  1.9488685e-01
  2.4718277e-02
  3.5815176e-02
  2.7883878e-02
 -1.0248645e-01
 -2.8411482e-02
 -1.9148897e-04
  2.4522822e-03
  5.4612346e-03
  7.5079961e-04
 -4.6382272e-03
 -2.0767026e-02
 -2.9703306e-02
  1.5776257e-03
  3.2143092e-03
 -3.2835975e-02
  7.9098968e-03
 -2.7686495e-02
  3.0342687e-02
 -6.5130000e-03
  1.7961253e-03
 -2.3036165e-02
 -3.2585777e-02
  3.6488950e-02
 -9.4369249e-03
  1.9324727e-02
  4.5595787e-02
  2.1000523e-03
 -5.8349581e-03
  1.1218953e-04
  4.6371897e-03
 -4.1237064e-02
  2.3683693e-02
 -2.1070011e-02
 -3.3783987e-02
  1.1214197e-02
 -3.8524523e-02
  6.7802786e-04
  6.8993312e-03
  4.5979726e-03
  6.5836003e-03
 -1.1671441e-04
  1.0633048e-02
 -8.2473261e-03
  2.4389157e-03
 -6.1522736e-03
  9.1757188e-03
 -9.0270247e-03
  5.5637755e-03
 -7.7705774e-03
 -2.5992841e-02
 -8.4178755e-03
  3.7763463e-03
 -4.2304127e-03
 -4.7051632e-03
 -1.9243306e-02
 -3.3638600e-02
 -2.0639397e-02
  1.2200796e-03
  4.6284355e-02
  8.5228734e-02
 -4.2811435e-01
  6.0467744e-01
  3.0470043e-01
  4.8010641e-01
 -4.3759120e-01
  8.9322758e-01
  8.9065242e-01
  2.0620766e-01
  1.0084686e+00
  9.6834473e-02
  3.4831040e-02
 -3.2678358e-02
 -5.0453953e-02
  2.0756687e-01
  1.7712057e-01
  3.1249383e-01
  9.5095560e-02
 -3.0860883e-01
  8.7562315e-02
 -1.9515733e-01
 -2.0085397e-01
 -4.3687442e-01
 -4.5534696e-02
  1.9507810e-01
  1.5919366e-01
  2.6061782e-01
 -3.6444753e-01
  1.7724861e-01
  1.4279364e-01
  3.5220820e-01
 -3.6186397e-01
 -5.4536238e-02
 -2.2254133e-01
  1.4390381e-01
  1.7649096e-01
  4.5008102e-01
 -3.3806726e-02
  8.2727343e-02
  2.9648685e-01
  2.2640452e-01
 -2.5492549e-01
  4.7292873e-02
  9.4726486e-03
  1.0811783e-01
  2.6756680e-01
 -1.2712888e-01
 -9.0181744e-03
 -1.2050523e-01
 -1.0185961e-01
  7.8790165e-02
  1.8302879e-01
 -1.8792111e-02
 -5.6210178e-01
  1.3536620e-01
  9.5495987e-01
 -1.1188683e-01
  1.1044695e+00
  1.1036738e+00
  1.6236345e-01
 -5.1999396e-01
  3.2384026e-01
  4.1359738e-01
 -2.6157135e-01
 -1.9893000e-01
 -5.3408157e-02
 -1.7539851e-01
  1.6615678e-01
 -2.9117947e-02
  9.6444085e-02
 -1.7598258e-02
  3.5227552e-01
  2.0137537e-02
  2.4652233e-02
  1.8858707e-01
 -1.0831736e-01
  4.9458437e-02
  8.0831021e-02
  2.3680073e-01
 -1.5412366e-01
  4.8648274e-01
 -1.6466883e-01
  1.8917000e-01
  3.4100303e-01
  5.8482260e-01
  1.3857928e-01
 -8.3554629e-03
 -1.4799979e-01
 -9.5424242e-02
  8.7617606e-01
 -1.4422673e-02
  4.0608004e-01
  3.7131178e-01
 -1.7921440e-01
 -1.1984260e-01
 -7.2133198e-02
 -1.4723737e-03
 -1.0519935e-01
  1.5991189e-01
 -6.5919288e-02
  3.1987581e-02
 -4.3714881e-02
 -1.4464588e-01
 -1.5510401e-01
  3.1814162e-02
 -2.1293582e-02
  7.4999295e-02
 -7.6968879e-03
 -1.2485771e-02
  7.0067230e-03
 -1.2433444e-02
  1.4509518e-03
 -3.0553849e-02
  3.2176152e-02
 -1.9497680e-02
  2.5983721e-03
  1.3936418e-03
 -6.3029975e-03
  9.6879490e-03
 -1.4508761e-02
  2.1963805e-02
  2.3992143e-03
  6.7619991e-04
 -2.4049234e-02
 -4.0567887e-04
 -1.3974315e-02
  1.1273914e-02
 -6.0636867e-03
  2.4982376e-02
 -3.2198634e-03
  1.1208951e-02
 -6.4269644e-03
 -1.4805148e-03
  1.5894480e-02
  1.6314225e-02
  7.1736448e-03
 -1.3002021e-03
  7.6673765e-05
 -3.5968672e-03
 -3.3747137e-03
 -1.2339921e-02
  8.1438115e-03
 -1.6530365e-04
 -1.5273343e-02
 -3.4697969e-02
 -8.1888055e-03
  1.1836805e-02
  1.0085972e-02
 -2.4002109e-02
  5.8707427e-03
  1.8551661e-02
 -4.0721230e-02
  7.2422214e-03
 -5.5862567e-03
  1.1071564e-02
 -1.4382750e-02
  1.3979352e-02
  5.1783235e-03
 -1.4410533e-02
 -7.2252252e-03
  1.1757994e-02
  5.8882400e-02
 -1.3618836e+00
  1.2480810e+00
  5.8913946e-01
 -3.5429683e-01
  1.2167910e+00
 -1.1578777e+00
  1.1013571e+00
 -1.3292965e+00
 -6.6676718e-01
  9.3846828e-01
 -1.0086505e-01
 -2.1246554e-01
 -3.8497531e-01
 -2.3595771e-01
 -1.1989778e-01
  3.2256186e-01
  3.7655360e-01
  2.3490719e-01
 -1.6791834e-01
  5.7357115e-01
  3.8180870e-01
  6.6541922e-01
  1.0303251e-01
  1.8391788e-01
 -1.6491120e-01
  1.1726452e-01
  7.3777562e-01
  5.7654613e-01
  3.5717565e-01
 -2.7958226e-01
 -1.0493941e+00
 -5.4742355e-02
  4.2174440e-02
 -4.7237888e-01
  2.7586693e-01
  1.0126022e-01
  4.4611126e-01
 -1.2362336e-01
  4.7255170e-02
  2.3590900e-01
 -3.7734181e-01
 -2.3611908e-01
  2.2035965e-01
  7.8336801e-03
  1.8940973e-01
  7.8518659e-02
 -1.1671727e-01
  5.5149388e-02
  3.8360831e-01
  2.5882274e-02
  6.8758175e-02
  4.6974905e-02
 -5.6470919e-02
 -7.7578224e-02
  4.2555541e-01
  5.3968608e-01
  2.0344372e-01
  5.8575012e-02
  1.3442763e+00
 -1.4585640e-01
  7.5696737e-01
  2.4189799e-01
 -7.9819232e-02
  1.5462635e-01
  4.1971352e-02
  8.5647292e-02
 -1.5571611e-01
 -5.8776386e-02
  1.8740489e-01
  2.1832475e-02
  2.4353569e-02
  4.0635473e-01
 -1.4386511e-01
  3.6990917e-01
 -6.0906872e-02
  1.8539566e-01
 -2.4095045e-01
 -1.1542259e-01
 -1.4772409e-01
  9.5737360e-02
  4.3405584e-01
  2.8067186e-01
  3.6127198e-01
  1.2095200e-01
  1.2351720e-01
 -5.4163244e-02
 -2.6805127e-02
  1.7189345e-01
  1.9430803e-01
  6.1061349e-02
  4.2768564e-02
 -4.1925922e-02
  1.4150971e-01
  4.8328096e-01
  5.9718919e-01
 -4.8141606e-02
  1.1937734e-01
  1.7064586e-02
 -5.4147221e-02
 -9.2536598e-02
 -4.8447449e-02
 -5.8338400e-03
  8.0535315e-02
  2.3394268e-02
  2.9390112e-02
  3.2842342e-02
  5.7143969e-03
 -1.7807625e-01
 -1.1448580e+00
  5.5120844e-01
 -2.6653722e-01
  3.8584998e-01
 -7.2906512e-01
  4.3594182e-01
 -3.7607643e-01
 -3.6325178e-01
  2.0335694e-01
  7.5859293e-02
  1.3485667e+00
  1.8117957e-01
 -3.3738488e-01
  7.8572385e-02
  4.2851392e-02
 -1.6942759e-01
 -2.8220468e-04
  2.6089493e-02
  8.7987101e-01
  5.2805966e-01
  7.0532465e-01
  9.7719318e-01
  2.1472286e-02
 -2.0122671e-01
  6.6835892e-01
 -2.8888166e-01
  1.5997140e-01
  1.4614275e-01
  1.2053287e+00
  6.9662601e-01
  3.0091193e-01
 -2.6902878e-01
  1.2340063e-01
 -4.6825416e-02
  4.9104910e-02
 -9.5926384e-03
  1.9066702e-01
  6.2067890e-01
  3.0834347e-01
 -8.1816036e-01
  1.0623445e-01
  1.0599830e-01
  3.9521441e-01
  1.4699976e-01
 -7.6698497e-02
 -1.6800649e-01
  1.4664251e-01
 -3.7210662e-02
  5.1315453e-02
 -1.2904017e-01
  2.5761365e-03
  4.1937955e-02
  7.3714264e-02
  5.8505502e-02
 -1.5395179e-01
 -5.2508030e-02
  3.5711792e-01
  7.8546435e-02
 -1.6631031e-01
 -8.8611707e-02
  1.8463966e-01
 -1.0363004e-01
 -3.9773902e-01
  1.0319955e-01
  2.8518518e-02
 -4.1784573e-02
 -3.2676801e-02
 -3.7856675e-03
 -3.1687893e-02
 -2.1394802e-02
  9.1393776e-03
 -7.5837262e-02
  2.6221156e-02
  7.6100871e-02
 -2.8516811e-03
 -1.6482241e+00
 -4.9104214e-02
  1.7818613e-02
  1.1300478e-01
  9.9788783e-03
  2.1943161e-01
  8.9817911e-02
  9.1509931e-02
  1.0594261e-01
  2.3402846e-01
  9.9702962e-02
  2.7218107e-02
  1.6737878e-02
  5.2734528e-02
 -2.3463087e-01
 -3.1755231e-02
  3.7760273e-02
  3.3674821e-02
  1.3849606e-01
 -7.6877303e-02
 -4.1366797e-03
  4.7646542e-03
 -2.9458178e-02
  1.9456702e+00
 -2.4345430e-02
 -7.3807716e-02
 -2.1871038e-02
  3.2580443e-02
 -1.0936486e-02
  1.4472608e-02
 -1.2313722e-02
  2.9652050e-02
  9.8383260e-01
  1.1251475e+00
  7.9412669e-01
  9.3288016e-01
  6.5245700e-01
  2.6823649e-02
 -8.8162087e-02
  4.1745704e-01
  8.9229740e-02
  9.5580339e-02
  1.5344536e-01
  3.0426383e-01
  3.3819768e-01
  3.2085708e-01
 -1.5286927e-01
  2.2254770e-01
  7.5805813e-02
  3.9940184e-01
  1.1583081e+00
  3.3553842e-01
  2.9607883e-01
  7.5756326e-02
  7.1756524e-01
 -7.0475340e-02
  1.6634025e-01
  9.0262368e-02
  1.4866778e-01
 -1.0756494e+00
 -7.3549122e-02
  3.9942551e-01
  1.2085677e-01
  2.0854127e+00
 -3.6974457e-01
  9.3056962e-02
 -5.4953679e-02
  8.8123173e-02
  2.4865772e-01
 -3.7120584e-02
 -5.3698003e-02
 -1.8840751e-02
  6.5873697e-02
 -2.0076467e-01
 -2.2859605e-01
  6.4937338e-02
  1.7538616e-02
 -7.3511582e-03
  1.2908119e-01
 -4.9076762e-02
 -1.2555482e-03
  9.9794328e-02
  5.1551450e-02
  8.6122543e-02
  1.7896745e-01
  8.6238375e-03
  3.8682327e-02
 -1.6769966e-02
 -3.9303143e-02
 -2.1359758e-02
  3.1777266e-02
  1.3329336e-01
 -6.4827368e-02
  9.8347433e-02
  7.3460318e-02
 -5.7416178e-02
  1.0435942e-01
 -4.6118395e-03
 -9.0568431e-02
 -7.6103471e-02
  5.2438907e-02
 -2.7042175e-02
 -3.8592720e-03
 -1.4319297e-02
  6.4478591e-02
 -2.2651305e-02
 -3.6671072e-02
 -4.9851120e-02
  1.7320821e-02
 -4.6220951e-02
  9.3375064e-02
 -3.5063997e-02
 -3.2798487e-03
 -9.2261150e-02
 -5.3242072e-02
 -6.1065625e-02
 -1.1492336e-01
 -4.4869535e-02
 -1.7646676e-02
 -2.8726745e-02
  4.1954927e-02
 -5.0751995e-02
  1.8965026e-02
  1.3194843e-02
 -5.2219193e-02
 -8.6485878e-02
  1.3207114e-01
  2.2169492e-01
  3.1871885e-02
 -4.1468222e-02
 -3.8557122e-03
  4.8732698e-02
  2.2994146e-02
 -2.6334911e-03
  8.4674954e-03
 -3.7660528e-02
 -1.9638912e-01
 -3.1176647e-02
 -9.3722129e-03
 -2.6363090e-02
 -8.0336489e-02
  8.4944844e-02
 -6.3146102e-01
 -4.5390335e-01
  5.0641578e-01
 -2.0592062e-01
  2.5099387e-02
  1.0219670e-01
 -1.9044057e-01
  1.9198418e-01
  1.1199862e-01
  1.0017037e-01
  1.0007733e-01
  3.5976371e-01
  1.3365021e-01
  1.0065159e-01
  4.0804360e-02
  4.9165983e-02
 -8.0482706e-02
 -7.4463256e-02
  2.5162965e-01
  1.7131060e-01
  1.1047734e-01
 -1.1260692e-01
  8.5516430e-02
  3.7833501e-02
  3.5967354e-02
  2.4590369e-01
 -2.6145050e-01
  3.1018439e-01
  1.3680373e-01
  4.4910130e-01
  3.1254548e-01
  1.0394107e-01
  3.9703671e-02
 -6.1165739e-02
 -1.4504695e-01
 -2.2569743e-01
 -6.5742441e-02
  1.2974408e-01
  1.4456917e-01
 -3.1161684e-01
 -6.3884936e-02
 -4.9439043e-02
 -1.1375845e-01
 -1.2068231e-02
  4.5474134e-02
 -7.8712672e-02
  1.1192642e-02
  7.7759758e-02
 -2.6483871e-02
  8.0998214e-03
  7.4830562e-02
  2.2101942e-03
 -4.3786159e-01
  8.4122938e-01
 -1.2795547e-01
 -5.8626574e-01
 -2.5204277e-01
  2.2234523e-01
  5.9671628e-01
 -5.4013747e-01
  1.0888571e+00
  6.9639468e-01
  3.5603747e-01
  4.9933985e-02
 -1.4269117e-01
 -9.1250474e-03
 -8.1074849e-02
 -6.2562779e-02
  2.4871926e-01
  7.8870907e-02
  3.7298288e-02
 -7.3717254e-01
  2.6733962e-01
  2.2924127e-01
 -4.4636941e-01
 -3.0525881e-01
  1.5221027e-01
 -1.1556859e-01
  2.9900351e-01
 -4.6858434e-02
 -1.7197793e-02
 -1.1360854e-01
  3.2200895e-02
 -3.0966219e-01
 -1.0101403e-01
  8.6466737e-02
  1.8900234e-01
 -3.0118711e-03
 -2.1984571e-01
 -1.4246547e-01
 -1.1563969e-01
  2.5915185e-01
 -2.7464464e-01
 -1.3521573e-01
 -1.7884931e-01
  5.9847873e-02
 -8.4772684e-02
  5.0654028e-02
 -1.5820891e-01
 -1.2853369e-01
 -2.1381993e-02
  1.4698529e-01
 -9.0301568e-03
  6.7007564e-02
  2.1534806e-02
  2.3896793e-02
  1.4173551e-01
 -3.5162336e-01
 -1.5112247e-01
  1.6991313e-01
  1.1654770e-01
  4.7992706e-02
 -8.4873639e-02
 -1.1554751e-01
  1.5439399e-01
 -1.0875843e-01
  5.4292269e-02
 -1.6849767e-02
 -9.7132377e-02
 -8.9180782e-02
  4.7468148e-02
 -4.7916651e-02
 -1.8091562e-03
  6.7833671e-04
  3.5910007e-02
  3.8425457e-02
 -5.3180862e-02
 -5.3471237e-02
  7.1731329e-02
 -2.8777290e-02
  7.6172121e-02
 -3.5252899e-02
  2.0526310e-02
 -1.1709829e-02
 -7.6557055e-02
 -3.1821530e-02
 -1.2865004e-01
  2.5669245e-02
 -4.9461988e-03
 -7.1517318e-02
  2.8387880e-02
 -6.2437959e-02
 -7.0417249e-03
  6.0521957e-02
 -5.4688472e-02
 -1.3019228e-01
 -4.2768144e-03
  2.8333563e-01
  6.3583218e-02
 -2.9978132e-01
 -3.5527803e-02
  6.1464872e-02
  2.4464011e-02
  3.4829220e-03
 -1.4517705e-02
 -1.8142274e-02
  4.3581510e-03
 -2.4272997e-02
 -2.1910377e-02
 -2.2383561e-02
  4.6390033e-01
 -1.2184618e+00
 -1.6358299e+00
  4.6039377e-03
  4.5373210e-01
  1.2604876e-01
  7.4136639e-01
  2.2697058e-02
  6.6711165e-02
  1.3870385e-01
  1.8981113e-01
  5.1271737e-01
 -6.1887103e-01
 -3.1761359e-02
 -9.1911815e-03
  7.7975589e-01
  5.7992774e-01
  1.8106867e+00
  2.8629845e-01
 -5.5279028e-01
 -2.4263384e-02
 -3.4920910e-01
 -7.8569597e-01
  6.8936896e-01
 -2.0783888e-01
 -8.6590489e-03
 -3.1100014e-01
  5.2066986e-04
  6.9193417e-01
 -4.4866231e-01
 -2.0960815e-02
 -2.4241136e-01
  1.6333674e-01
  4.6488035e-01
  5.9262919e-01
 -3.0113238e-01
 -1.9914196e+00
 -1.9617634e-02
 -7.2589338e-01
  9.7412527e-01
 -9.1222646e-03
 -1.5731728e-01
 -5.8409679e-01
  1.6636100e+00
 -4.0080959e-01
  2.6042918e-02
  4.7497764e-02
  1.2993248e+00
 -5.5162293e-01
  2.8242037e-02
  1.0427082e+00
  9.0892363e-01
 -1.5842352e+00
  4.7327779e-02
  1.0537729e+00
 -9.5822036e-02
  3.6797541e-01
 -9.7924642e-02
  3.6246857e-01
  5.5623281e-01
 -2.5481120e-01
  9.8823744e-01
  1.2353863e+00
  7.0545040e-02
  2.7038023e-01
 -3.8865125e-01
 -5.9295177e-01
 -4.6591017e-01
  9.6683335e-01
  1.2710080e+00
 -3.5341763e-01
 -3.6746621e-01
 -3.0377877e-01
  4.7578806e-01
  1.8211444e-01
 -1.8836871e-02
 -1.0726624e+00
  6.1619137e-03
  1.7386016e-01
  2.5699478e-01
  7.0606910e-02
  2.5853962e-01
 -1.3042319e+00
 -4.5649254e-01
  4.0878379e-01
  3.4456250e-01
 -1.3391689e+00
  9.9509656e-03
  1.0486213e+00
  6.0484189e-01
  1.6121950e-02
  1.0245113e+00
  5.4430532e-01
  1.2368275e+00
  1.4720121e-01
  5.4691935e-01
 -2.2041856e-01
  7.5411111e-01
  4.4855171e-01
 -2.8023502e-01
 -2.0920591e-01
  6.3389915e-01
  8.0505377e-01
  3.4780195e-01
  5.2437145e-01
  2.7482265e-01
 -1.8539540e-01
 -1.0054533e+00
 -6.8727177e-01
  9.2741907e-01
  5.4356652e-01
  2.5690961e-01
  1.3739977e+00
 -1.0139586e+00
  5.0514621e-01
  1.6578613e-01
  3.6570239e-01
  5.0839786e-03
 -4.2761138e-01
 -2.0892160e+00
 -7.1240664e-01
  1.0877320e+00
  6.8064559e-01
  1.7640285e+00
  2.2470973e-01
 -5.9394693e-01
 -1.3562118e-01
  1.5557723e-01
 -1.3934559e-01
 -1.8361677e-01
  9.0517694e-01
 -6.5095741e-01
 -1.7043915e-02
 -5.2813995e-01
  9.9402696e-01
 -9.6299469e-01
 -1.0459466e+00
  8.9813012e-01
 -2.7026588e-02
  4.9079505e-01
  1.0948604e+00
 -2.3976797e-01
 -1.0255489e+00
  3.2453725e-01
 -4.5206720e-01
  4.5936862e-01
  1.3618252e-01
 -7.1527010e-01
 -4.2993703e-01
  6.4558762e-01
  1.2076910e+00
 -1.2336838e-01
 -3.5780808e-01
 -6.0552841e-01
 -1.7171355e+00
 -2.1981488e-01
  2.8838003e-01
  7.4182552e-01
  1.7362847e+00
 -7.7947810e-02
 -8.5569417e-01
  1.6864320e+00
  1.3571775e+00
  2.7068508e-01
 -9.4292355e-01
  2.0512789e-01
  2.0827569e-01
  1.7053168e-01
  3.4429002e-01
  1.2928791e+00
 -8.9042872e-01
 -6.5111583e-01
 -9.6945345e-01
 -4.0557030e-01
  1.1697032e+00
  6.2057489e-01
 -3.1056470e-01
 -1.2369028e+00
  1.3807411e+00
 -6.6382867e-01
  4.7925937e-01
  1.7355508e-01
  2.0867707e-01
  2.9704204e-01
 -1.4198937e-02
  9.2926711e-01
  9.0971959e-01
  3.3425055e-02
 -3.2762760e-01
  7.8818482e-01
 -2.7626324e-01
 -4.3919232e-01
  6.5431404e-01
  4.4768894e-01
  4.4317654e-01
  9.5971674e-01
  9.1750991e-01
 -2.5925761e-01
 -8.8424522e-01
 -1.7881784e+00
 -9.1698205e-01
 -3.1389284e-01
 -1.4525493e+00
 -2.1322632e-01
  5.5959880e-01
  6.7063940e-01
  1.1083167e+00
  1.2074715e+00
  1.5012600e+00
  9.4387174e-01
  3.5847768e-01
 -1.2596506e+00
 -6.9154948e-01
 -5.9430408e-01
 -1.6451080e-01
 -1.6210890e-01
 -1.9313607e-02
 -4.8769535e-03
  2.1733086e+00
  1.3978955e+00
  7.8431314e-01
 -1.5011787e-01
  5.4071856e-01
  1.0278895e+00
 -5.8290017e-01
 -1.0051782e+00
 -2.4055876e-01
 -2.1275271e-01
  2.9339501e-01
 -1.3190007e-01
  5.0514799e-01
  1.3776127e+00
 -6.3908547e-01
 -3.7147042e-01
 -8.0136299e-01
 -5.9868556e-01
 -1.1140648e-01
 -6.4563736e-02
 -1.7490874e-01
 -2.3330562e-01
  4.6183329e-02
  3.3214968e-02
 -1.0077200e-01
  3.8517994e-01
  8.0839448e-02
 -3.4676656e-01
 -8.6070615e-01
 -4.3009140e-02
 -2.2585382e-01
 -7.2005130e-02
  8.1867713e-01
  9.7492896e-02
  2.2228930e+00
  2.9697430e-01
 -8.3203493e-03
  1.0210906e+00
  3.8163044e-02
 -9.8283045e-02
  4.6195856e-01
 -1.0044941e-01
 -4.4944528e-01
  8.6927652e-01
 -6.3929325e-01
 -3.9640197e-01
 -2.0288184e-01
 -9.4261837e-01
  5.5680680e-01
  6.0973559e-02
  2.6890627e-01
  1.3747190e+00
  2.7881884e-03
 -4.8096329e-01
 -4.8311359e-01
  6.1331016e-01
  5.3074121e-01
 -1.1883324e+00
  3.3705771e-01
 -1.4844468e+00
 -1.0050792e+00
  5.4463261e-01
 -9.9641788e-01
 -3.0290261e-01
 -4.5013659e-02
  6.6211843e-01
  9.7023869e-01
  2.3478906e-01
  2.2108983e-02
 -1.5212549e+00
  2.3133634e-01
  2.7556604e-01
 -2.4539575e-01
  9.6916306e-01
  6.2616742e-01
 -1.4810776e+00
 -9.1110468e-01
  7.6796263e-01
 -2.4521601e-01
  5.6329870e-01
 -9.5244877e-02
 -4.1222450e-01
  1.3013525e+00
 -8.4450197e-01
 -2.0449243e-01
  6.7888612e-01
  6.5697724e-01
 -4.0460005e-01
 -1.4786642e+00
  1.2726493e+00
  8.0725521e-01
  9.2178601e-01
 -1.0576931e+00
  1.1087116e+00
 -2.7151266e-02
 -4.5857283e-01
  5.1426095e-01
 -1.0097432e+00
 -1.6310053e+00
 -1.1971804e+00
  8.5342747e-01
 -8.5469258e-01
 -2.3016751e-01
  5.8323181e-01
 -1.1255893e+00
  1.7865191e-01
  1.0107825e-01
 -3.0582801e-01
  4.4681367e-02
 -3.0462975e-03
  3.8447186e-01
 -6.3445216e-01
 -1.1262338e+00
 -2.1865793e-01
 -2.1113613e+00
  2.0120052e-01
  7.9648042e-01
 -1.1234901e+00
 -2.9398891e-01
 -8.8095474e-01
 -1.9035667e-01
  2.0217700e+00
  4.2189613e-01
 -8.6102623e-01
  6.2550384e-01
  5.6093521e-02
 -7.4998647e-01
  1.5330704e-01
 -7.7279079e-01
 -1.1985947e+00
  4.9626732e-01
 -3.9741841e-01
  3.7309849e-01
  6.6939545e-01
  1.7895561e+00
 -8.4681705e-02
  5.5949795e-01
  3.5234484e-01
 -5.4902703e-01
 -7.0075911e-01
 -8.5904449e-01
 -6.0353941e-01
 -1.3219309e-01
 -9.3617678e-01
 -3.9337823e-01
 -3.5657823e-01
 -1.0733765e+00
 -3.3793226e-01
 -1.0157111e+00
 -6.0665578e-01
 -8.4762627e-01
 -7.3472355e-03
  4.8684800e-01
 -3.9347500e-01
  5.0168788e-01
 -1.2784500e-01
 -3.7246180e-01
 -1.6908491e+00
 -2.2091825e+00
  9.2787409e-01
  2.0614728e-01
  2.3254024e-02
  1.0527840e-01
  6.7292261e-01
  6.1704206e-01
  4.0762183e-01
  2.1495022e-02
 -1.4095331e+00
  8.3197936e-02
  2.8709927e-01
  7.0171309e-01
 -7.9930353e-01
 -8.9314407e-01
  4.9420896e-01
  3.8835406e-01
 -2.6679620e-01
  2.0787998e-01
  3.0276549e-01
  1.8187191e-01
  1.3251981e+00
  5.0482345e-01
 -4.9265435e-01
  5.1467195e-02
 -1.7202623e+00
 -1.2688487e+00
  5.5186307e-01
  1.1214255e+00
 -7.5214261e-01
 -4.1698775e-01
  1.2131927e-01
  6.0762603e-02
 -1.3025342e+00
  6.7059673e-02
  1.5541728e+00
  1.1875660e+00
  5.5342346e-01
  1.6425569e-02
  8.7156719e-01
  1.3656386e+00
 -9.5595554e-02
 -2.2514420e+00
 -1.0563190e+00
 -7.4429356e-02
 -6.5345281e-01
  8.6448699e-01
  1.7002487e+00
 -8.6590230e-01
  1.2124497e+00
  2.2618506e+00
 -5.7136208e-01
 -3.6709026e-01
 -3.7025133e-04
 -1.6334977e+00
 -3.3581907e-01
 -2.9967347e-01
 -1.5630469e-01
  8.2838482e-01
 -5.3326726e-01
  4.1099784e-01
  6.5594316e-01
 -2.1753477e-01
  6.2600374e-01
  7.3830068e-01
  1.2057580e+00
  1.4357579e-01
 -2.7811807e-01
  1.1548744e+00
 -7.7462155e-01
 -1.1055288e+00
 -4.7046173e-01
  1.4285280e-01
  3.3886742e-02
 -6.1812681e-01
  9.0023220e-02
  3.1261939e-01
  1.0796643e-02
 -8.2949483e-01
 -5.8045292e-01
  1.2547460e-01
  3.1210902e-01
  9.3758887e-01
 -5.4689664e-01
 -6.4025205e-01
 -1.6415222e+00
 -1.3878528e+00
  5.5289018e-01
  1.4780146e+00
  6.1125636e-01
  7.3662692e-01
 -1.3635718e+00
  9.5730495e-01
  1.1537780e+00
  2.1501184e+00
 -7.4437284e-01
 -2.0472047e+00
 -1.5349326e+00
 -6.5674943e-01
  5.6188542e-01
  1.8253712e-01
  5.8145565e-01
 -2.1331683e-01
  4.9647272e-01
  9.5289099e-01
  1.0468905e+00
 -6.9799918e-01
  9.4793916e-01
 -9.6135968e-01
 -3.3923328e-01
 -2.7947038e-01
  7.9361773e-01
 -8.9067036e-01
 -2.8687361e-01
  1.3073460e+00
 -8.5501802e-01
 -6.4089680e-01
 -5.5159283e-01
  3.2480586e-01
 -2.9272789e-01
 -6.7710173e-01
  3.2094762e-01
  1.4417037e-01
 -1.2420719e-01
  1.0197554e-01
  1.0413101e-01
  4.6759751e-01
  9.0323903e-02
 -5.5218196e-01
 -1.0994879e+00
  7.1524882e-01
  1.7954301e+00
  6.5229672e-01
  3.0460858e-01
  3.5683912e-01
 -8.7122995e-01
 -1.0143198e+00
 -1.2934841e+00
 -8.1281638e-01
  1.0071173e+00
 -2.5912738e-01
 -1.8218851e-01
  1.0947797e+00
  8.4605694e-01
 -1.5902379e-01
  2.3098205e-01
  1.0210361e+00
 -2.1130562e+00
 -8.9689058e-01
 -1.7659871e-01
 -8.4443694e-01
  4.8332295e-01
  8.2818389e-01
  1.3824195e+00
  2.2586195e-02
 -7.6074833e-01
  2.4445090e-01
  7.1640432e-01
  2.9956660e-01
 -1.8068208e+00
 -6.3205338e-01
 -3.3660972e-01
  3.5183606e-01
 -1.0817795e+00
 -5.5404490e-01
 -3.3123180e-02
  1.0925093e-01
  1.1592992e-01
 -4.5834103e-01
  6.6216809e-01
  2.9889986e-02
 -5.8477587e-01
 -1.7360482e-01
 -4.0810594e-01
 -3.2791594e-01
  1.5565993e-01
  6.4010292e-01
  1.1224091e+00
 -2.2422665e-01
 -1.0062574e+00
 -1.8964499e+00
 -1.7308974e+00
 -7.4817967e-01
 -9.1364568e-01
 -1.2046524e+00
  5.6862772e-01
  5.0785285e-01
  1.0652477e+00
  3.0672398e-01
  1.1594229e+00
  7.7876467e-01
 -7.5274253e-01
 -3.9092064e-01
 -4.6777287e-01
  4.3731087e-01
 -3.8728282e-02
  8.2109356e-01
  1.0273031e+00
  2.4996451e-01
  1.3595195e-02
  6.8629104e-01
  8.0796331e-01
 -3.7302762e-01
 -3.0555871e-01
 -4.2734230e-01
  3.8307822e-01
 -1.8404543e-01
 -2.6122550e-02
 -1.8906921e-01
 -6.7564511e-01
 -8.3269399e-01
  1.4770406e+00
  9.2196286e-01
 -1.2551589e-01
 -3.5262191e-01
  8.4689623e-01
  7.1041840e-01
  7.5359255e-02
 -3.3138385e-01
 -1.5478758e+00
 -1.0634502e+00
 -1.5965173e+00
 -6.7268908e-01
  1.3456773e+00
  3.9182118e-01
  1.3185364e+00
  1.1892837e+00
  1.1880066e+00
  7.9540300e-01
 -1.5207503e+00
 -2.5498423e-01
 -1.6656584e+00
 -5.2306968e-01
  1.7158633e-01
 -9.6437195e-03
  1.5506500e-02
  2.1248968e-01
 -6.0076475e-01
  8.5724622e-02
  9.6396261e-01
  4.4885632e-01
 -6.8681127e-01
 -5.7003999e-01
  2.1977249e-01
  2.7376708e-02
 -5.7789750e-02
 -8.2664996e-01
 -7.2494701e-02
 -2.5255504e-01
  1.9510819e-01
 -8.0825925e-01
  4.7163802e-01
  5.1533811e-02
 -1.6759253e-01
 -1.5414550e+00
  6.8056470e-01
  5.4190737e-01
 -5.2980993e-02
 -5.3819203e-01
 -1.0195246e+00
 -6.5147090e-01
 -1.6040856e-01
 -8.8191527e-01
 -2.1040415e-02
  1.6759437e-01
 -1.0867712e-01
 -2.4395695e-01
  7.8967828e-01
 -1.6403012e-01
 -3.2626534e-01
  1.1413185e-01
 -2.2881773e+00
 -1.8387887e+00
  3.2141194e-01
 -2.5262671e+00
  1.5357858e+00
 -1.7633878e-01
 -6.9021112e-01
 -1.0297544e+00
  1.5197147e+00
  5.1870304e-01
  3.7632665e-01
  5.9243399e-01
 -8.7348229e-01
 -6.3136882e-01
 -2.8981051e-01
  3.8123018e-01
 -1.5057188e+00
 -6.2831986e-01
 -4.3806532e-01
  8.1164800e-02
 -2.4903017e-01
  5.3326821e-01
  4.1339469e-01
  3.2330570e-01
 -1.8789127e-01
  5.5138415e-01
  2.6152998e-01
 -1.5710709e+00
  6.0486771e-02
  6.4202565e-01
 -4.2754194e-01
 -1.3236192e+00
  9.7880840e-01
  8.4638840e-01
 -6.0382521e-01
  8.7952852e-01
 -1.4379414e+00
 -6.2020618e-01
 -1.2385911e+00
 -2.2157040e-01
  2.5191712e+00
  1.3909857e+00
 -3.5666758e-01
 -1.2849277e+00
 -7.8466332e-01
 -4.9343294e-01
 -1.2804703e+00
  1.1733350e+00
  7.2334629e-01
 -3.3809793e-01
 -6.1829484e-01
  9.8192561e-03
  5.5849355e-01
  4.2291966e-01
  2.8856134e-01
 -1.8696237e-01
  5.6833655e-01
  7.9244715e-01
 -8.1807636e-02
 -1.0503733e-01
  9.4790113e-01
  7.8344268e-01
 -1.2139636e+00
 -6.7327422e-01
  5.8450490e-01
 -4.6972819e-02
 -1.3319144e-01
 -6.1729670e-01
  8.5788876e-02
 -4.1675195e-01
 -9.1429156e-01
  6.5689430e-02
  1.1559415e+00
  6.7579228e-01
 -7.8192055e-01
 -8.2178628e-01
 -7.6521277e-02
  3.1336468e-02
  1.1037211e+00
  7.8927189e-01
  9.5091981e-01
  2.7747464e-01
 -8.8901162e-01
  1.1079711e-01
  6.8275338e-01
  3.5474905e-01
 -7.4417305e-01
  9.8275810e-01
 -4.2500240e-01
  1.1786347e-01
  1.0935448e+00
  8.5026044e-01
  1.8244146e+00
  6.5313536e-01
 -1.2734864e+00
 -5.9008044e-01
 -2.9087529e-01
  1.1898657e-01
