nep4 2 Te Ge 
cutoff 7 5 67 26
n_max 8 8
basis_size 10 10
l_max 4 2 0
ANN 50 0
  7.0147894e-02
  9.8906450e-02
 -1.6373658e-01
 -7.7272505e-01
  9.8937705e-02
  5.2660912e-02
 -1.4118597e-05
 -5.9396017e-02
 -1.2165591e-01
 -9.4559208e-02
  1.0961659e-01
  4.2580098e-02
  2.7072415e-02
  6.6414021e-02
 -1.6534735e-02
  2.9302089e-02
 -3.2516699e-02
  6.1553475e-02
  6.6663079e-02
  7.2363734e-02
 -6.8930790e-02
  2.3434775e-02
  7.4064720e-01
  6.7063525e-02
  2.5418986e-02
 -1.3837929e-01
  3.1979002e-02
 -9.1653047e-03
  3.3803219e-01
 -4.0499374e-02
  8.6183190e-02
  9.5487364e-02
  1.5463139e-01
  5.7616845e-02
 -4.7580630e-02
  3.7419854e-03
  8.5551478e-03
  1.1909115e-01
 -9.1605913e-03
  3.6797166e-02
 -1.1868186e-01
  2.2471890e-02
  6.9119374e-04
 -3.4252360e-01
  7.3454827e-02
 -3.9684534e-02
  4.2130068e-02
 -2.1486901e-02
  3.4597108e-01
  1.2885081e-02
  2.3698708e-02
 -5.2755862e-02
  4.8728310e-02
  5.3230976e-04
  9.5539039e-01
 -1.8495241e-02
 -2.9774082e-03
  3.0813489e-02
 -4.0952857e-03
  2.3336294e-03
 -6.9201211e-03
  6.1957329e-03
 -2.1447924e-01
 -1.4537108e-02
 -4.7330197e-04
  1.2455932e-02
 -2.2246895e-02
 -1.3294641e-02
  1.5699234e-02
 -3.3829261e-02
 -1.8838440e-03
 -6.6184163e-02
  3.8924024e-02
  1.5515012e-03
 -1.2331339e-02
  7.1014580e-04
  1.1460529e-02
 -3.6011141e-02
 -2.8047575e-02
  1.3279963e-03
 -3.9084010e-02
  7.1339514e-03
 -8.2556568e-02
  1.0927002e-02
  8.5087242e-03
 -7.8937477e-03
  1.4794798e-02
 -2.5572591e-02
 -1.1118501e-03
  1.0826962e-02
 -3.5562408e-03
  2.6283172e-04
  5.9640675e-04
  5.4305501e-04
 -5.0591724e-03
  9.2613902e-03
 -4.2338492e-03
  8.2164463e-03
 -2.5221318e-02
 -1.5819523e-02
  1.2779984e-03
 -7.1196523e-03
 -1.8913835e-02
 -3.2077841e-02
 -3.1052202e-03
  2.6916662e-02
  4.8166119e-02
 -7.7499519e-03
  9.5266633e-02
 -4.3003850e-02
  7.9798967e-02
 -5.3067864e-03
  2.9208229e-03
  1.8625739e-01
  7.1355753e-02
  1.9227877e-02
 -1.4699161e-01
 -7.6167309e-03
 -3.4983449e-02
  2.6634488e-02
 -2.6907194e-02
 -3.0334724e-02
 -4.6844119e-03
 -9.5267437e-04
  3.5950705e-02
 -2.1929145e-02
 -7.0263408e-03
 -4.0451683e-02
  4.4625379e-02
 -9.6427780e-03
 -2.7325603e-03
  3.2694928e-02
 -3.2193590e-02
  8.9333560e-03
 -3.7053853e-02
  2.8323548e-02
 -6.6668682e-02
  1.0072139e-02
 -3.1991310e-02
 -6.1246786e-02
  5.7917394e-02
 -4.8629530e-02
 -1.5392828e-01
 -2.9849675e-02
  1.6992191e-02
 -9.7330622e-03
  1.8291848e-02
 -4.3073422e-03
  7.2869877e-03
 -4.6237232e-03
  1.3751842e+00
  7.1068453e-03
 -3.7849188e-02
  1.5174869e-02
 -2.7522625e-02
  1.5259014e-02
  2.3286927e-02
 -2.8642891e-02
 -5.1682740e-03
  5.0582759e-02
 -3.2984184e-03
  1.5346463e-03
  1.0422088e-01
  1.8509491e-01
 -9.7988211e-02
 -5.2940238e-01
  4.0710568e-01
 -4.0562278e-01
 -2.5649014e-01
 -6.0412709e-02
 -5.5148125e-01
 -4.6687378e-03
  1.8883558e-02
 -1.0804335e-01
  2.5949439e-03
  5.6689758e-02
 -2.1426275e-01
  5.3462252e-02
 -4.2249113e-02
 -3.9053395e-01
 -6.4072788e-02
  1.6859525e-01
 -1.6040048e-01
 -4.0252041e-02
  2.1517145e-02
  1.0794717e-01
  3.6264692e-02
  4.0183672e-01
  1.1340914e-01
 -1.0507350e-01
 -1.1340615e-01
 -3.4483384e-02
  1.4948059e-02
  7.0197865e-02
 -2.4152619e-01
  9.8090440e-02
 -2.8180251e-02
  4.7888484e-02
  3.3750407e-02
 -1.2043793e-01
 -9.5425025e-02
  1.1066964e-02
 -1.0095484e-02
 -8.7077878e-03
  1.0332099e-01
  1.0167973e-01
  1.1737728e-01
 -3.9439607e-02
  2.4758257e-02
 -2.1802424e-02
 -8.5931122e-02
  2.2769582e-02
  4.4273935e-02
 -3.5009462e-02
 -2.8500888e-02
  1.3433866e-02
  5.0723243e-01
 -1.0102821e-01
 -3.8966203e-01
  8.2342905e-01
 -1.3861151e+00
 -1.7997235e-01
  2.7619200e-02
 -1.8331046e-01
  1.0635524e-01
 -1.0418115e-01
  2.0292386e-01
  9.8263714e-03
  2.6498046e-02
  6.2778026e-02
 -6.8498082e-02
  3.7665524e-02
 -1.9301526e-01
 -6.1172051e-03
 -2.6124220e-02
  2.4457231e-01
 -5.9100475e-02
  7.7890836e-02
  1.3691600e-02
  3.0371875e-03
  1.5697029e-01
  6.5666877e-02
  5.2387740e-02
 -5.4409679e-02
  3.6714810e-01
  1.0212146e-01
  1.9628373e-01
  5.9249091e-01
 -2.6688746e-01
  1.1808532e-02
 -6.2745713e-02
 -8.3231339e-03
 -1.2835383e-01
 -5.2311850e-01
  3.6917794e-02
  6.4707518e-02
  2.8020928e-02
 -4.0804051e-02
  6.7316197e-02
 -8.4645608e-03
  1.7640506e-01
 -6.4864904e-02
 -1.0485454e-02
  2.3015669e-02
 -2.9603781e-02
 -1.1168099e-02
  5.5562939e-02
 -2.8503472e-02
 -3.0788319e-02
  3.2596581e-02
  2.3615705e-03
 -1.5655724e-02
  3.6420955e-03
 -3.9329119e-02
 -1.5088283e-02
 -5.4660351e-03
  1.0206059e-02
  1.4961318e-02
  1.5187197e-02
 -2.6793839e-02
 -1.7365310e-02
  9.4557507e-03
  1.1072565e-02
  9.3202600e-03
  1.6544037e-02
  3.6069490e-02
  6.4481418e-03
  1.6843349e-02
  5.0887936e-03
  8.4536552e-02
 -2.0060970e-03
 -1.5440773e-02
 -1.8722991e-02
  1.7427141e-02
 -5.9461584e-03
 -1.0658380e-02
 -2.0727691e-01
 -7.2227921e-03
 -1.2846081e-02
  5.3363662e-02
  5.3723380e-03
  2.2228220e-02
  2.9724993e-02
 -1.2714735e-02
 -3.1878710e-02
  2.6797730e-02
  1.2774558e-02
  1.4746787e-02
  4.4543862e-02
 -1.0494111e-02
 -2.9408872e-02
 -1.3744647e-02
  2.0912606e-02
 -1.0887937e-02
 -2.8533814e-02
 -4.1024629e-03
 -1.3425167e-02
 -1.3750236e-02
 -1.4370770e-02
 -8.3843127e-02
  1.4589673e-03
  1.1923182e-02
 -7.5469948e-03
  1.4141316e-02
  3.6056556e-02
  3.5394438e-02
 -1.2477408e-02
  5.4480594e-02
 -3.6220361e-02
  3.4298070e-02
 -9.9234330e-03
 -1.4817840e-02
 -5.4872334e-02
 -1.1641678e-02
 -1.7565161e-02
 -4.5784999e-04
  5.6552175e-03
  1.4435072e-02
 -1.5536192e-02
  1.1604408e-02
 -6.6951145e-03
  8.5212113e-03
 -9.3633365e-03
  6.0940560e-02
 -4.9570664e-03
  4.3120332e-02
 -1.3631201e-02
 -2.5620801e-02
  3.5954352e-02
 -2.5386300e-03
  4.3623513e-03
 -2.0273780e-02
  7.9791345e-02
  8.0873080e-02
  2.5861863e-02
  5.9905734e-02
 -5.4387059e-02
  2.4045095e-02
 -3.5578270e-02
  4.3804679e-02
  2.5351851e-03
  6.2685437e-03
 -5.2106630e-02
  1.4166241e-02
  2.3015497e-02
 -7.3977867e-03
  2.5314348e-02
 -3.5099585e-02
 -3.4076199e-02
  8.2746362e-03
 -2.3416957e-02
 -7.4632973e-03
 -1.1506183e-02
  2.2550069e-02
  1.1707409e-03
 -9.1199903e-03
  1.5356900e-01
 -3.4477906e-03
 -1.6808739e-01
  4.6400480e-02
 -2.6481589e-03
  1.1151627e+00
  1.7794816e-01
  1.9590110e-01
 -2.2608042e-01
  2.1973512e-01
 -1.6890508e-01
  6.3173324e-02
 -2.1189830e-01
  9.8333796e-03
 -3.9387163e-02
 -1.7252448e-03
  1.7249562e-01
 -7.2130099e-02
  8.7861322e-02
 -7.5586080e-03
 -1.0348231e-01
  4.6505705e-01
  4.5807570e-02
 -7.3513232e-02
 -2.1438140e-02
  1.5314503e-01
 -9.9679828e-02
  2.8653178e-01
  1.2400060e-02
  6.2745266e-02
  1.0836604e-01
  2.5602413e-02
 -1.2899536e-01
 -3.2719921e-02
  7.1562314e-01
 -1.0960571e-01
  2.8766116e-01
 -1.4805867e-01
 -1.7400658e-02
  1.0452540e-01
  8.9837708e-02
 -9.3815677e-02
 -1.1370103e-01
  4.0162232e-02
  3.2274079e-02
 -1.7040172e-01
 -1.0471006e-01
  8.8100642e-02
  1.4434454e-01
  2.1911824e-02
  2.7818801e-02
 -6.5205514e-02
 -1.3537714e-01
  3.3395793e-02
 -1.5920243e-01
 -6.0956582e-02
  3.6191821e-01
  1.1543354e-01
 -7.4241884e-02
  1.1888189e+00
  4.8849183e-01
 -9.2605686e-01
 -4.2702785e-01
  3.4830451e-02
 -5.8870417e-01
 -1.8455510e-01
  2.1606568e-02
  8.2799278e-02
  7.0554286e-02
  1.5147516e-03
 -2.8175583e-02
 -6.4134210e-02
 -5.9870281e-03
 -1.2358699e-01
 -2.2376750e-01
 -3.2695061e-01
 -1.2186975e-01
 -7.2652899e-02
 -1.6843444e-01
 -2.8487310e-01
 -9.5077649e-02
 -1.5064184e-01
  2.5561735e-02
  7.6211117e-02
  1.6094609e-01
  2.4334142e-01
 -2.1034656e-03
 -3.2956077e-04
 -6.1853942e-02
 -1.4118023e-01
  1.8477017e-01
  8.1224605e-02
  6.1430663e-02
 -6.4311303e-02
  1.3149208e-01
 -1.0653130e-01
 -2.6376283e-01
 -1.5883884e-01
 -1.3242134e-01
 -5.7748830e-01
  1.3273427e-02
  1.8370194e-02
 -4.3628976e-02
  1.4112495e-01
  7.3027454e-02
 -3.5433953e-03
 -5.7207271e-02
  6.3917451e-02
 -4.6378350e-01
  1.8852446e-02
 -4.4009361e-02
 -9.3894117e-02
  4.8434697e-02
 -6.3157499e-02
  5.7786778e-02
 -2.8712969e-02
  6.3856445e-02
  1.7704373e-02
  1.5270077e-01
  7.0411704e-02
 -1.9975539e-02
  3.0682605e-02
  3.6152524e-03
 -4.4376027e-02
  4.5003980e-02
 -1.4229665e-02
 -8.1939466e-04
 -2.3936812e-02
 -3.8023561e-03
 -4.6684467e-03
  1.9740010e-02
 -2.5565678e-03
  5.3952201e-03
 -5.9894454e-02
 -4.0049586e-02
  3.6826041e-02
 -4.9260203e-02
  2.6019670e-02
 -6.4172223e-02
 -6.7930939e-03
 -3.4609292e-02
 -4.2077664e-02
  6.6634059e-02
 -1.6246051e-02
  1.3485071e-02
 -2.2080395e-02
 -7.4276803e-03
  9.9993192e-02
  1.8942002e-02
  1.8997261e-01
 -4.8242196e-02
  4.3437682e-02
 -3.0700633e-02
 -3.1465027e-01
 -6.4306527e-02
 -2.7800226e-01
 -2.4430113e-01
  7.6150801e-03
  8.5517456e-04
 -2.4798227e-02
 -3.6530808e-02
  2.8566675e-02
  6.0818838e-03
  3.2762062e-02
 -3.0958850e-02
 -2.7108433e-02
 -1.1821598e-02
  6.9908905e-01
 -2.5940700e-02
 -6.6768168e-04
  1.1953636e-02
 -4.2857514e-03
  9.6468991e-03
 -1.1387018e-02
  2.3207681e-02
 -1.2075295e-02
 -3.8388792e-02
  2.5825448e-02
 -1.2691647e-02
 -4.9370397e-03
 -1.1300010e-02
  1.1022119e-02
  1.9451816e-02
  8.5901273e-03
 -1.1242201e-02
  9.9140434e-03
 -4.6394309e-03
  1.8351667e-03
  7.2998409e-03
  2.2372371e-02
  4.7184214e-02
 -3.2551453e-02
  1.3728236e-01
  1.4778010e-02
  2.1502547e-02
  3.0893143e-02
 -7.3402114e-03
 -9.2277028e-02
 -1.3031721e-03
  1.6878763e-02
 -2.5445137e-03
  2.8314272e-02
 -1.4539699e-02
  2.8564171e-03
  6.9096559e-03
 -4.6693593e-02
  1.7011048e-03
 -1.4760458e-01
 -1.3838362e-02
 -1.8023508e-02
 -1.6126139e-02
  7.2499318e-03
 -2.5329389e-02
  5.9470511e-03
 -1.5809948e-02
  7.0095533e-03
  2.3857940e-03
  3.2525588e-02
  3.5616776e-04
 -3.5049435e-02
  1.5508634e-02
 -1.6871180e-02
  1.1989131e-02
 -1.8617081e-02
  1.7524499e-02
  1.0804145e-01
 -3.7568759e-03
  4.5052905e-02
  4.8625176e-03
 -1.8211326e-02
  7.7528781e-03
 -1.6873918e-02
  1.4747973e-02
 -1.1591378e-02
  1.3578975e-03
  5.0453353e-01
 -8.9020524e-03
 -1.1306069e-02
  1.7263737e-02
  8.9701721e-03
 -1.6622123e-04
  2.9689150e-03
  8.0778636e-03
  2.2931514e-02
 -1.6711937e-02
 -8.1187016e-01
 -2.2005407e-02
  8.3217947e-03
  6.3129943e-03
 -1.5206178e-02
 -5.3299968e-03
 -8.2852645e-03
  1.0615297e-02
 -3.2980740e-02
  3.4286086e-02
 -1.3506295e-02
  6.2735276e-03
 -1.1776704e-02
 -1.3620254e-02
  3.1015300e-03
 -8.3386672e-05
 -1.3315222e-02
 -3.9907411e-02
 -6.4793378e-03
  3.6817589e-01
 -3.3344419e-03
  8.3406875e-03
 -7.7127195e-03
  9.3432916e-03
 -7.7649071e-03
  1.3438199e-02
  7.2841793e-02
  1.1833270e+00
 -2.6946351e-01
 -1.5594546e+00
 -9.1779679e-01
 -1.0092055e+00
 -5.8696103e-01
  1.1381117e-01
  5.6519759e-01
 -7.0797674e-02
 -4.1079032e-01
  6.0975051e-01
 -6.6180095e-02
  3.3894416e-02
 -1.9516552e-02
  6.7469910e-02
 -1.2240665e-01
 -2.5983542e-01
 -2.2148193e-01
 -1.6243544e-01
  5.1790941e-01
 -6.0327385e-02
 -2.6951810e-02
  1.0564525e-01
  6.3177936e-02
 -1.1284880e-01
 -1.0418138e-01
  1.6988787e-01
 -4.1301217e-02
  1.2119849e-01
  1.8569636e-04
 -9.8667674e-02
  1.1532994e-03
 -2.7495468e-01
 -1.8791412e-01
 -3.0707148e-01
 -1.9323403e-01
  7.9534195e-02
 -2.7985327e-02
  9.8244898e-02
 -1.8958382e-01
 -1.6445424e-01
  2.0487063e-01
  6.6453069e-02
  3.7164839e-03
  1.4046896e-01
 -5.2106888e-03
  8.2549967e-02
  9.2507228e-02
  1.0519569e-01
 -4.8277251e-02
 -1.5379319e-01
  2.3688266e-02
 -8.9637689e-02
  1.8759115e-02
  5.8434445e-01
  2.4852359e-01
  4.0865919e-01
  2.9788801e-01
  1.5731890e+00
 -5.0164604e-01
 -1.2567601e-01
 -1.8018879e-02
  1.5881437e-01
  8.9772962e-02
  2.5890628e-01
 -1.1380102e-01
  9.8068118e-02
  9.6434265e-02
  4.9064186e-01
  1.2440893e-01
  1.8584673e-01
  1.0897075e-01
  4.7329787e-02
  3.1006789e-01
 -2.5402900e-02
  1.8621020e-01
  1.0787889e-01
 -1.0455024e-02
  3.7960615e-02
  2.2285712e-01
  1.6568890e-01
  7.6253526e-02
 -1.6886212e-01
 -1.6503587e-01
  7.6012596e-02
  9.3689814e-02
 -7.0148371e-02
  2.8454128e-01
  5.9979211e-04
  6.7195661e-02
 -4.0824585e-02
  6.7689337e-02
 -7.3751636e-02
  1.0070678e-01
 -2.1397907e-01
 -8.4790826e-02
  5.6611970e-02
  2.2340274e-01
  1.0184948e-01
 -5.0130930e-02
  1.6771389e-02
 -6.4710647e-02
 -6.9098756e-02
  4.6302318e-03
  9.4378129e-02
 -4.8366603e-02
  5.1831096e-02
  9.2437677e-03
 -1.7982936e-01
  8.3243090e-01
 -1.2697996e-01
 -9.7555417e-01
 -1.0897436e-01
 -5.0208157e-01
 -1.3214757e+00
 -2.5766709e-01
 -1.6465886e+00
 -7.6084994e-02
 -1.3521683e-01
  4.1722712e-01
 -8.0603778e-02
  3.7159428e-01
 -1.3337098e+00
  3.2225791e-01
 -3.7010643e-01
 -4.0688239e-02
 -9.4598867e-02
  2.0686474e-01
 -1.2266885e+00
  2.9884622e-01
 -1.0208806e+00
  4.3611532e-01
  1.2743205e-01
  9.3028712e-01
  2.1620786e-01
 -1.4078315e-01
  1.2920611e+00
 -1.4024894e-02
 -3.0613797e-02
  1.6939391e-01
 -8.4609801e-01
  2.4208422e-01
  4.4232273e-01
 -2.7460715e-02
 -6.6367760e-02
 -5.6497365e-01
 -2.6886669e-01
  2.7394731e-02
 -2.3878515e-01
 -3.3230820e-01
  2.0434703e-01
  5.6617093e-01
  2.7416354e-01
 -1.0705674e-01
 -5.4952525e-02
 -1.1104865e-01
 -8.5050479e-02
  4.8870739e-02
  1.4355505e-01
 -1.6382571e-01
  1.7980536e-02
 -3.5517983e-02
  1.6393930e-01
  6.3688108e-03
 -2.9955253e-01
  6.2560511e-01
 -4.5673543e-01
  5.2549797e-01
  5.1375836e-01
 -1.3185930e-02
  3.3711115e-01
 -7.2990552e-02
  5.0910197e-02
  1.2789856e-01
  4.8712350e-02
  8.1828147e-02
 -1.0499404e-01
  9.3190208e-02
 -8.5301712e-02
  2.2184053e-02
 -1.3492844e-02
 -1.3692495e-02
 -1.1299839e-01
  5.1238503e-02
 -2.1319838e-02
  3.2859620e-02
  6.6986687e-02
  1.1545239e-01
  3.2988865e-02
 -5.7805888e-02
  3.3068103e-01
  9.6636847e-02
  1.1585543e-01
  2.0813555e-01
 -1.0085485e-01
  4.8580393e-02
  1.1008981e-02
 -6.4994032e-03
 -2.6874484e-03
  8.0023147e-02
 -7.4442232e-04
  4.5581114e-02
  7.7664182e-02
 -2.2482086e-02
 -1.7245066e-01
 -1.0176119e-01
  1.3143548e-01
 -7.7633858e-02
 -1.9112330e-02
  1.0034832e-02
 -7.3138043e-02
  4.6329774e-02
  4.0814836e-02
 -4.0937331e-02
 -1.5820216e-02
  1.2682957e-02
  2.3654109e-01
  2.5587416e-01
  1.3246694e-01
  3.7403107e-01
 -4.5849401e-01
  2.7642235e-01
 -5.2169818e-01
 -7.3766565e-01
  7.9685289e-01
 -7.0922919e-02
  4.7705400e-01
  6.6903770e-02
  3.3812046e-02
  1.4766173e-01
 -2.0358035e-01
  4.4923518e-02
  1.3932881e-01
  9.0987340e-02
 -5.4462880e-02
  2.8265190e-01
 -1.1558931e-01
  1.1026625e-02
 -6.3631348e-02
  5.1735044e-01
  8.9392655e-02
 -1.3796190e-02
  6.1753865e-02
  1.1313397e-02
  1.6976693e-01
  9.3624100e-02
 -1.0108741e-01
  2.3128469e-01
 -1.4595838e-01
  1.0413474e-01
 -5.1071536e-02
  1.1412790e-01
 -2.5129586e-02
  8.6452916e-02
  1.8999262e-02
  8.8902384e-02
  6.7455694e-02
 -9.4254442e-02
  9.7825184e-02
 -3.3991791e-02
  2.6945651e-01
 -5.7709351e-02
 -7.7467499e-04
 -2.5273379e-02
 -3.2692421e-02
  9.9807801e-03
 -1.0321767e-03
 -5.5303358e-02
 -6.3995443e-02
 -1.0133114e-03
  2.3178149e-02
 -2.6450899e-01
 -8.5313702e-03
 -7.7532895e-02
 -1.8978238e-01
  6.5693505e-02
  8.8216484e-02
  1.6663861e-02
 -6.5029526e-01
  6.7788482e-02
  2.5275576e-01
  2.6404334e-02
 -6.9830030e-02
  6.1116055e-02
  9.6569896e-02
  1.2808314e-02
  4.4613346e-01
 -1.6982383e-01
  4.2765263e-02
 -2.4713016e-01
  2.2659028e-01
 -1.0347928e-01
 -2.4904856e-02
  4.1410506e-02
  1.2091895e-02
  9.3182962e-04
 -9.1391608e-02
  1.0837456e-01
 -2.0618065e-01
 -1.9197812e-02
  6.7996299e-03
 -2.1255314e-01
  5.7273481e-02
 -1.6331138e-01
 -6.4684637e-02
 -2.6851494e-02
  1.6175821e-02
 -1.1464014e-01
  1.1728159e-01
 -6.1841514e-02
 -7.8310832e-02
 -3.7943635e-02
 -1.3687314e-01
 -3.3146806e-02
 -1.7506242e-01
  5.7062712e-02
 -5.1617302e-02
  1.9142160e-02
  1.2886782e-02
 -2.3551730e-02
 -8.2037374e-02
  6.3661024e-02
 -1.4983598e-02
 -2.7516739e-02
  3.8864285e-02
  1.9114971e-01
 -3.7222173e-02
  2.2777596e-01
 -1.8721856e-01
  7.1316771e-02
 -3.4978437e-01
  4.8589915e-02
  1.5882403e-01
  1.9498030e-02
  8.8899799e-02
 -2.1853669e-01
  5.3812996e-02
  6.8851486e-02
  1.4928342e-02
  6.4343140e-02
  1.9276439e-01
  6.6851325e-02
 -8.8485843e-03
  1.8883117e-01
 -1.6187778e-01
 -4.1488774e-02
  9.3145186e-01
  1.6919403e-01
  7.0415840e-02
 -8.4527272e-01
  6.0748927e-02
 -7.4906968e-02
  7.7879891e-02
  1.5498702e-02
  3.3738080e-02
  1.4634749e-01
 -1.4635360e-01
  7.3334984e-02
 -2.2280812e-01
  1.2982817e-02
 -2.3538632e-02
  1.1807909e-02
 -5.1337250e-02
  3.5600718e-02
  7.2224490e-02
  4.8604358e-02
  8.0903031e-02
  3.3385542e-01
  1.1128892e-01
 -7.4561544e-02
 -3.3761747e-02
 -3.7054241e-02
 -1.7119501e-02
  5.7013784e-02
  5.1697854e-02
 -4.7463886e-02
 -6.2142208e-02
 -1.3197083e-02
 -7.2294228e-02
 -6.4000063e-02
  1.3993251e-01
 -6.9731697e-02
 -2.3961341e-02
 -5.0468044e-04
  7.2139464e-02
  7.0472276e-03
  1.1423283e-01
  1.6747825e-02
 -3.7288349e-02
  1.6672269e-02
 -1.3935946e-02
 -4.7776215e-02
 -3.0289641e-02
 -1.1167116e-02
 -4.8147976e-02
 -2.2521862e-03
  1.1707821e-02
 -2.0834723e-02
  3.2553986e-02
  2.0855069e-03
  3.4601055e-02
  1.5148243e-02
 -5.0273452e-02
  2.7584901e-02
 -4.5324050e-02
  1.8148741e-02
 -5.2847791e-02
 -2.2055186e-02
 -3.0826722e-04
 -7.3605500e-02
  1.2210416e-02
 -2.9337725e-02
 -3.6446624e-02
 -2.6639851e-02
  3.7387996e-03
 -1.2464697e-02
 -9.9049543e-04
 -5.5864523e-03
 -2.3356911e-02
  1.7637929e-02
 -2.4114637e-02
  1.3031955e-01
  8.4913103e-03
  4.7823167e-03
 -8.7625002e-03
  3.6496462e-03
 -1.9503253e-02
 -1.4647283e-03
 -1.6063899e-02
  2.1904496e-02
  1.2782002e-02
 -6.5212236e-03
  1.4435746e-01
  1.0979908e-01
 -1.3529506e-01
 -8.1278551e-01
 -7.4596453e-01
 -4.8921692e-01
  2.7212793e-01
 -1.8471983e-01
 -7.6743257e-01
  7.4317887e-02
  2.4708582e-01
 -5.4039508e-03
 -3.8677227e-02
  3.0629689e-02
 -2.0364659e-01
  1.0118876e-01
  6.4346725e-03
 -2.9117547e-04
 -1.3781419e-01
 -5.1438832e-01
 -9.5355436e-02
  9.8611668e-02
 -1.7399362e-01
 -6.6508019e-01
  1.8529822e-01
 -3.5368577e-01
 -1.9792076e-04
  2.8737994e-02
 -5.2652676e-03
  1.2217946e-01
  1.5223941e-01
  1.5676059e-01
  8.4391665e-03
  2.1593209e-01
 -3.9368105e-01
  3.0567318e-01
 -1.3291738e-02
 -1.4654398e-01
  9.9692692e-04
  1.5157646e-01
  1.7977211e-01
 -8.0883138e-02
  5.3734840e-03
 -2.0028806e-01
  4.1653883e-01
 -2.9459078e-02
 -2.8267282e-01
 -6.3378908e-02
 -7.4851297e-02
  7.1580157e-02
  1.4680785e-01
 -4.4159438e-02
 -7.2251058e-01
  4.6666112e-02
  5.1404440e-01
  3.0153084e-01
 -2.5506359e-01
  1.5339705e+00
  4.1078922e-01
 -2.2738118e-01
 -1.5858296e-01
  1.1146791e-01
 -3.1211928e-01
 -7.7719435e-02
  3.3560136e-01
 -1.1758117e-01
 -3.6906138e-02
  3.0559593e-01
 -2.7053108e-02
  1.2256263e-01
  4.4914988e-01
 -5.5515900e-02
 -1.1592609e-01
  5.2480963e-03
 -2.7795114e-02
 -4.4604294e-02
 -4.9724422e-02
 -6.2739521e-02
  8.6659014e-02
  4.7002386e-04
  1.4194266e-01
 -8.9638151e-02
  1.2755083e-01
  2.4285592e-01
  4.7887430e-02
  1.0321333e-01
 -3.7733123e-01
  1.4954557e-03
  2.2573508e-01
  8.1217602e-02
  6.1363954e-02
 -9.8694339e-02
 -2.6630763e-02
  2.2975551e-02
 -1.7320849e-01
 -3.3300333e-02
  5.5504009e-02
 -2.7539444e-01
  1.7931280e-01
 -2.8186796e-02
 -4.2288825e-03
 -1.0385314e-02
 -5.0698803e-03
  2.0482173e-02
  4.3254204e-02
 -6.5860696e-02
 -1.2039024e-01
 -9.3344199e-03
  2.3770618e-01
 -1.0144980e-01
 -1.2751201e-01
  1.5932207e-01
  1.1662543e+00
  1.5004602e-01
 -7.2047865e-01
 -8.7419070e-02
  3.7802052e-01
  2.8767364e-02
 -1.1527263e-02
  9.6902885e-03
  3.2184064e-02
 -6.6005498e-02
  5.6209922e-02
 -5.3074259e-02
 -3.7191302e-01
 -7.3098645e-02
  2.3019398e-02
  2.7471736e-02
  2.8264210e-02
  9.2137652e-03
 -7.7347003e-02
  1.6076101e-02
  5.7872985e-03
  1.2257370e-01
 -1.1984508e-02
 -9.8360125e-03
  5.4356176e-02
 -2.3425508e-03
 -8.0709420e-02
 -3.3170775e-02
  1.5413684e-01
 -8.7531462e-02
  3.8421735e-02
 -8.4631413e-02
  2.7280670e-02
  9.1478594e-02
  1.0309574e-01
 -7.2226718e-02
 -7.3684447e-02
 -2.1898016e-01
 -4.1741207e-02
  6.7856394e-02
  1.7878217e-01
  1.2754136e-02
 -2.1467030e-02
  6.1985042e-02
  2.4524873e-02
 -1.3916610e-02
 -6.6738807e-02
  2.2212803e-02
 -3.2587186e-02
  8.4934756e-03
 -6.6365730e-03
  2.3530159e-02
 -2.3991887e-02
  3.5013752e-03
  1.4273941e-02
  1.5714530e-02
 -1.1292152e-02
 -1.4133854e-02
  7.0721069e-03
 -1.0205612e-02
  2.4877039e-03
 -2.9070968e-02
  2.8266780e-02
  1.5842985e-02
 -1.3570431e-02
 -1.5965343e-03
  2.7193962e-02
  8.7314369e-03
 -5.3827735e-03
  1.7930556e-02
 -1.5284044e-02
  1.1446959e-02
 -1.0999194e-02
 -1.7834205e-02
  1.0761796e-02
  9.3229311e-03
  2.5106333e-02
 -1.3756766e-02
  3.8395587e-02
 -2.3178754e-02
 -2.4540249e-02
 -1.1745363e-02
  7.9336464e-03
 -1.9530959e-02
  1.7041616e-02
 -2.7233807e-03
  4.5884368e-03
 -2.5492510e-02
 -9.2532625e-03
  1.7694890e-04
 -3.7564084e-02
 -1.3380351e-02
  2.1302935e-02
 -3.4613300e-02
  2.7444040e-02
 -1.4023631e-02
 -2.4698593e-03
 -1.5331186e-02
 -7.4784276e-03
  3.9148014e-03
  1.9876091e-02
  1.1772564e-02
  9.2077088e-03
 -4.7463318e-03
  2.4522236e-01
 -1.7992128e-01
 -3.5498079e-02
  7.5325191e-01
 -3.2831600e-01
  6.2020433e-01
 -1.3199329e-01
 -1.0862628e-02
  4.8901725e-01
  1.7134117e-02
 -2.2650561e-01
  1.0489255e-01
 -1.2697710e-02
 -7.5937159e-02
 -8.8103697e-02
 -2.4051758e-02
 -9.2066891e-02
 -2.7837535e-02
  8.0519564e-02
 -1.8073775e-01
  1.6902614e-01
  2.2518821e-03
  3.6765978e-02
 -2.1162068e-02
 -4.1367102e-02
 -1.5092559e-01
 -1.2900917e-01
  5.2557644e-02
  1.7514044e-01
  4.1927122e-02
 -1.2485407e-02
 -3.4780882e-02
  1.2484284e-01
 -5.7921752e-02
  3.9651074e-02
 -1.1881285e-02
  3.5049401e-03
  4.7987569e-02
  8.7769106e-02
  1.4337195e-03
  7.1372292e-03
  9.4874322e-02
 -3.4218702e-02
 -2.8491007e-02
 -9.1007002e-02
  1.4281988e-02
 -1.0236590e-02
  5.4520085e-03
  2.1322964e-02
  1.5164296e-02
 -4.0380951e-02
  3.9746314e-02
  6.4464480e-02
 -1.4022863e-02
  7.4164099e-01
 -1.3486067e-02
 -7.9581773e-01
 -1.3476466e+00
  5.3037888e-01
 -1.5814742e+00
  3.3619937e-01
  4.9223977e-01
  1.9430634e-01
 -7.1366316e-01
 -2.4395248e-01
  3.1352389e-01
 -9.8653860e-02
  9.6309878e-02
 -1.2791987e-01
  2.6069377e-02
  2.4774133e-01
  3.1960633e-01
  4.3736041e-01
 -2.0788398e-01
  3.8402143e-01
 -9.6076332e-02
  4.8432428e-01
  2.0157981e-01
  6.8226904e-02
  1.4664260e+00
  2.2683927e-01
  2.6496133e-01
  3.8105387e-02
  1.2333529e-01
  1.5897630e-01
  1.3099523e-01
  1.2262493e-01
 -7.3017806e-02
 -4.2821959e-01
  4.1398644e-01
  2.2986622e-01
 -1.0083825e-01
  3.9444271e-02
  1.8795995e-02
 -1.4877632e-01
 -1.1372597e-01
 -7.0216097e-02
 -1.5915983e+00
  5.9668887e-02
 -8.5359469e-02
  2.1860859e-01
 -1.3354044e-01
 -5.4424707e-02
  8.1170619e-02
  5.1851228e-02
 -4.0352144e-03
  2.1090609e-01
  4.7190450e-02
 -3.1973589e-02
 -2.9385025e-02
  6.8119816e-02
  7.2100900e-02
  2.2804676e-02
  1.8466910e-02
  5.5075660e-02
  2.3047280e-02
  2.2097228e-02
  1.4750951e-02
  1.6472840e-01
 -1.7326338e-02
 -3.2177746e-02
 -2.9486733e-02
  5.1272316e-03
  3.9179031e-02
 -2.8661624e-02
  7.9105055e-04
 -1.2543988e-03
 -8.5779846e-02
 -1.0708155e-02
  2.2253215e-02
 -6.5748274e-01
  6.0848143e-02
 -1.9408105e-02
 -1.8628225e-02
 -2.4622984e-02
  2.1183306e-02
 -6.3649617e-02
 -1.7437978e-02
 -2.2510847e-02
 -2.9966941e-02
  2.2555931e-02
 -4.2449079e-02
  3.4544291e-03
 -2.1273680e-01
  1.5428719e-01
 -2.3916557e-02
  3.2333728e-02
 -2.1074768e-02
 -6.9969013e-02
 -1.7348945e-03
 -1.2423560e-02
  8.1707798e-02
 -2.3586841e-02
 -2.2837002e-02
 -1.8113153e-02
 -1.1637757e-03
  1.7066350e-02
  8.2144998e-03
 -2.6674479e-02
 -1.1046811e-02
  4.7405381e-02
 -1.0202020e-02
  1.7697968e-01
  2.1116683e-01
  4.0607038e-01
 -2.4757056e-01
 -3.7974814e-01
  9.6837538e-01
 -2.3520681e-01
  2.3767515e-01
  3.4139678e-01
 -1.9496740e-01
 -6.2793541e-01
 -6.2833592e-02
  1.0194178e-02
 -2.3378645e-01
  1.0679916e+00
 -3.9321914e-01
 -7.0429586e-02
  2.2666650e-01
  1.9518704e-03
 -1.5485584e+00
 -4.7898751e-01
 -5.5244792e-01
 -8.7596573e-02
  5.2102464e-01
 -2.3800705e-01
  3.0670810e-01
 -4.9485150e-01
 -1.8274580e-01
 -9.0591812e-01
 -6.8613452e-01
 -1.2096953e-01
 -6.5830612e-01
  2.5349724e-01
 -2.2226442e-01
  4.6352828e-01
 -9.8533787e-02
 -3.6597099e-02
  7.5016096e-02
 -5.4576103e-02
 -2.4441762e-01
 -3.3554202e-01
 -2.4155711e-01
 -1.3842221e-01
 -2.6418298e-01
 -3.4985751e-01
  6.7561515e-02
 -1.1411285e-01
  1.8921801e-01
  1.6918701e-01
 -1.6525222e-02
 -2.1816093e-01
 -4.8743650e-01
 -1.0350990e-01
 -3.3595964e-02
  2.9272264e-01
  7.1608253e-02
 -2.9830387e-01
  3.0570167e-01
 -1.6508121e+00
  2.5708443e-01
  1.1039580e+00
 -2.4869737e-01
  1.9835654e-01
  4.6800282e-02
  5.6147975e-01
  4.8778221e-02
  8.2874551e-02
  5.7591848e-02
  2.6187849e-01
  1.0209573e-01
 -1.4314842e-01
 -9.1704778e-02
  1.1353577e-01
  6.2941170e-01
  3.6199842e-02
  1.7311051e-01
  8.0888748e-02
  6.1778519e-02
  4.2334706e-01
  5.5179834e-01
  1.8191504e-01
  9.9414997e-03
  7.5156808e-01
  1.7005168e-01
  2.3730804e-01
  3.6732918e-01
  1.4611624e-01
  9.1900341e-02
  1.5686227e-01
 -9.1595925e-02
  1.2759632e-01
  3.7443987e-01
  1.2275053e-01
  1.0364136e-01
 -4.2814236e-02
 -5.8789589e-02
  1.1605383e-01
 -2.9455757e-01
  2.3360199e-01
 -9.2289068e-02
 -5.0595827e-02
  1.2115122e-01
 -3.8802411e-02
 -2.9605528e-02
 -2.5044640e-03
 -4.9569923e-02
 -1.5587209e-01
  5.6888994e-02
 -3.6695737e-02
  1.1949752e-01
 -9.6650407e-02
 -4.7562160e-02
 -2.7601573e-01
  1.6675567e-03
 -1.1469787e-01
 -1.5694344e-02
  1.2784556e-01
 -5.9365150e-02
  5.5510223e-02
  1.5884301e-01
 -6.1431043e-03
  9.6342124e-02
 -2.6547091e-02
  3.8733058e-02
  6.1371159e-02
  1.2466807e-02
  1.2336277e-03
  3.9682426e-02
 -5.7844378e-02
  4.6003144e-03
 -3.1209370e-02
 -6.3877418e-03
  8.6116850e-02
 -1.8337183e-02
  9.2724532e-02
 -4.8432451e-02
  1.0903803e-01
 -2.3122411e-02
  8.6197577e-02
  1.0370895e-01
 -1.1010844e-01
  5.9033930e-02
  3.1874350e-03
  7.8969955e-02
 -1.6013363e-03
 -1.5295764e-03
 -3.7337422e-02
  4.2259019e-02
 -3.2760102e-02
 -4.4091444e-02
  3.6093380e-02
  1.0573879e-01
  1.0424126e-01
 -4.5109276e-02
  4.5725957e-02
 -5.2438773e-02
 -3.3768568e-02
  1.2786221e-02
  5.4245368e-02
 -3.2191638e-02
  2.4240417e-02
 -2.5355142e-02
  5.4769568e-02
  1.5411410e-01
 -1.9926287e-01
  3.3073813e-01
 -4.9013948e-01
 -2.2953252e-01
  7.5214677e-02
  1.9902356e-02
 -4.8979458e-01
 -3.1175898e-02
  2.5740030e-01
 -2.9451059e-02
 -4.7756348e-02
  2.1261597e-01
  1.1852368e-01
  1.4179188e-01
  3.9936307e-01
 -7.1623554e-06
 -1.5368687e-01
 -1.3931592e-01
  3.0419314e-02
 -8.4689647e-02
 -3.5411607e-02
 -2.3630805e-01
  1.6131455e-02
 -4.3526065e-02
  2.1473932e-01
 -4.0919211e-02
 -4.0333104e-01
  1.8827319e-01
  6.7748159e-02
  1.4598528e-01
 -2.6725832e-01
  6.2989771e-02
  6.1371613e-01
  1.5575860e-01
  4.6570178e-02
 -2.5082856e-01
 -2.0674504e-02
  1.1764914e-02
  1.3894176e-02
 -1.4269745e-01
  7.0510648e-02
 -9.9284923e-01
  1.8611096e-01
  3.6220230e-02
 -1.9654806e-03
 -4.9656276e-02
 -1.8437050e-02
  1.8448213e-02
  2.4268821e-02
 -2.5298169e-01
 -1.1476565e-02
  1.2269410e-02
 -1.8544278e-01
  1.0916514e-02
 -8.0395263e-01
  1.6322826e-01
  4.0161662e-02
 -1.0836513e-01
  3.9114628e-02
  5.8445621e-01
 -2.0228204e-01
  4.6417695e-02
 -2.1117619e-01
  1.3929069e-02
 -2.3889216e-02
 -5.8006644e-02
  3.6783881e-02
 -3.6274582e-02
 -1.0544199e-01
 -3.3147700e-02
  1.7421426e-02
 -9.1991805e-02
  3.2407615e-02
  1.9859390e-04
 -7.0073225e-02
 -1.8503735e-02
 -1.8247960e-02
 -4.5599669e-02
 -6.0940672e-02
  9.1889106e-02
 -7.8618966e-02
 -6.2909342e-02
 -8.3606489e-02
 -7.6679371e-02
  1.9484013e-01
 -1.6665380e-01
 -9.6808346e-03
 -2.7493292e-02
  2.1950835e-03
  2.2592570e-01
  1.5097259e-01
 -3.1885349e-03
 -7.8130417e-02
 -6.0001060e-02
 -7.0053756e-02
 -2.1333627e-01
 -9.9830858e-02
  8.0211647e-03
 -1.3185819e-02
  9.4528347e-03
 -1.5634374e-03
  5.6646490e-03
 -3.7414115e-02
  2.4072999e-02
 -3.3598576e-02
  1.3555025e-03
 -1.4912957e-01
 -2.0379783e-01
  1.7400943e-01
 -2.8585209e-02
 -1.0105850e-01
  1.0269969e-02
  9.4521932e-02
  1.4515288e-02
 -3.2598116e-03
  1.1857472e-01
 -1.1339778e-01
  5.1017597e-02
 -5.6784920e-02
 -1.4484325e-01
  6.0603056e-02
 -7.3486127e-02
 -2.2568963e-02
 -6.2445663e-02
  6.3219786e-02
 -1.5241501e-01
  6.5266393e-02
  1.1054380e-02
  1.2586755e-02
  4.8105340e-02
 -6.6903032e-02
 -8.4126331e-02
 -1.0612398e-01
  6.4540148e-02
 -2.6238433e-01
 -5.4960210e-02
 -1.0924678e-01
 -1.8820889e-01
  1.8107967e-01
 -1.3086829e-01
  5.1503383e-02
 -7.1985677e-02
  1.1590072e-02
 -6.4829113e-03
  2.7523853e-02
 -1.0469939e-01
 -1.1350019e-01
  5.5973774e-01
 -9.2879198e-02
  1.2494823e-01
 -1.8500040e-01
  2.6819348e-02
  2.7598768e-02
  4.0449534e-02
  4.9196050e-02
 -2.2106981e-02
 -8.0519848e-02
  5.5329096e-02
  4.2026215e-03
 -1.7142957e-02
 -8.4435648e-01
 -3.1690225e-01
  1.4156303e-01
 -2.8965005e-01
  1.3903005e+00
 -4.0627685e-01
 -9.5868474e-01
 -9.3206441e-01
  3.4527314e-01
 -6.5546149e-01
 -8.0477643e-01
  2.5391349e-01
 -2.7557533e-02
 -6.3596958e-01
 -2.2560434e-01
 -1.1760138e-01
 -4.9256113e-01
  1.8047146e-01
 -9.0823017e-02
 -3.2183859e-01
 -5.5277979e-01
 -1.4219338e-01
 -5.3338790e-01
  7.3977351e-02
 -2.1045394e-01
  5.5118603e-01
 -4.5477301e-01
  1.3064514e-01
 -3.4642741e-01
 -8.1237221e-01
 -1.2443607e-01
 -4.6838254e-01
  1.7225164e-01
 -1.0400275e-01
 -4.8109317e-01
  4.4955812e-02
 -6.8702646e-02
 -5.0543785e-01
 -2.1154955e-02
 -1.0641164e-01
 -2.2466760e-02
  2.2797641e-01
 -2.9879713e-01
  7.9128814e-01
 -7.1947104e-01
  1.3091792e-01
  5.5628914e-02
  1.4069675e-02
  8.5614540e-02
 -3.2704588e-02
 -7.9213299e-02
  1.1798660e-01
 -5.0225526e-01
 -3.0780688e-02
  2.0177127e-03
 -1.4369419e-02
 -2.5829604e-01
 -5.4288304e-01
 -8.6580336e-01
 -9.4666207e-01
 -9.9330801e-01
 -1.0282666e-01
  6.3974917e-01
 -1.6967894e-01
  1.5064839e-01
  3.8728084e-02
  8.6169086e-02
  5.4019260e-01
  6.9691986e-02
  9.3210064e-02
 -6.2926359e-02
  6.2436145e-02
 -6.6962969e-03
  2.8652287e-01
 -1.2680638e-01
  1.6472338e-02
  5.8770720e-02
 -3.8683289e-01
  1.0802796e-01
 -2.6834476e-01
  1.2094611e-01
 -5.6526758e-02
  2.9208097e-01
  1.5987149e-01
  1.1179826e-01
  2.5993764e-01
 -1.1684030e-01
  1.2330530e-01
 -2.4081139e-01
  7.7499889e-02
 -5.6832630e-02
  1.9402727e-01
  4.2788286e-02
  8.3847076e-02
  1.2876980e-01
  8.0189586e-02
  1.1046235e-01
  4.2589235e-01
  1.7783312e-01
 -3.9748598e-02
  1.6896902e-02
 -6.2686585e-02
 -5.6275640e-02
  2.9277582e-02
  8.0151483e-02
 -6.2857985e-02
 -2.7643776e-02
 -2.2644883e-02
 -5.0550497e-01
 -6.0920279e-02
  2.8935251e-01
 -5.1051849e-01
  2.8930265e-01
  9.8464966e-01
  1.1461639e-01
  6.3584372e-02
  4.3468395e-01
 -1.9426600e-03
 -2.7052581e-01
  1.1514691e-01
  2.1099655e-01
 -1.2152947e-01
  2.8921551e-01
 -3.2547243e-02
  2.3651803e-01
 -1.3291050e-01
  2.5432758e-02
 -3.0051586e-01
  1.3945487e-01
  3.2952674e-02
  4.4428107e-01
 -1.3102949e-01
 -1.5756087e-01
 -2.3525648e-01
 -1.1549849e-01
  5.3881567e-02
 -1.1448039e-01
  3.1257961e-02
 -6.9527104e-02
 -1.5773118e-01
  7.9593278e-02
 -1.2583759e-01
  1.6189975e-01
 -3.2176573e-02
  1.3551173e-02
  3.3156914e-03
  8.4255263e-02
 -1.6916366e-01
 -7.4494161e-02
  2.1826385e-02
 -1.0862495e-01
 -2.0432830e-01
 -2.1347322e-01
  3.3437904e-02
  3.6595619e-01
  1.0247634e-02
  2.4927152e-02
 -8.9024752e-03
 -8.6299606e-02
  1.1267614e-01
  2.6809135e-02
 -1.7321846e-02
 -7.7208681e-03
  7.9186037e-02
 -6.9994867e-02
  3.7550291e-01
  4.0590983e-02
 -8.2429789e-02
 -6.3788228e-02
 -2.7253695e-02
  3.5611463e-01
 -3.5971757e-02
  4.7794964e-02
 -8.1768423e-02
  2.0374591e-02
  1.5703236e-01
 -5.1384427e-02
  8.7904343e-03
 -3.9205421e-02
  2.4250446e-02
 -2.0865751e-02
  3.3388797e-02
 -5.1724378e-02
 -5.3401646e-04
 -1.5536780e-02
 -2.1725589e-02
  6.8033226e-02
  5.5937760e-02
  3.6660593e-02
 -3.6776856e-02
  2.7047303e-02
  1.3718300e-02
  5.3006675e-02
  1.9808954e-01
 -1.0095536e-01
  6.6183731e-02
  1.4124387e-02
  2.4190988e-02
 -1.2831921e-02
  5.7323331e-01
 -1.9314878e-02
  9.4215069e-03
  2.2398334e-02
 -8.8291094e-03
  3.7081879e-02
 -1.6048025e-02
  6.3014731e-02
 -2.5225274e-02
  3.1816647e-03
 -1.1823349e-02
 -1.5294948e-02
 -1.9649821e-03
  3.6106672e-02
 -3.7790858e-03
 -1.1605415e-02
  1.2241153e-02
 -1.6190369e-02
 -3.4765951e-02
 -2.3072233e-02
 -1.9788466e-02
 -5.1227412e-03
  1.9181175e-02
  2.6519453e-02
 -2.8492883e-02
  4.9252745e-02
  9.1637876e-03
 -1.8867573e-02
  3.0316016e-02
 -5.0827796e-03
  3.8311750e-02
  1.0042428e-02
 -3.4557980e-02
 -9.9982582e-03
 -3.8746752e-02
 -1.5606002e-02
 -1.5490968e-02
 -1.9178033e-03
 -5.4189907e-03
 -8.3034495e-03
  2.1393538e-02
 -3.4083417e-03
  7.6666060e-03
 -1.4984555e-02
 -7.9603111e-03
 -2.9627627e-03
 -3.9910791e-03
 -3.7035562e-02
 -9.8394230e-03
  2.5806181e-02
 -1.1798173e-02
  2.2838139e-03
 -1.7856106e-02
 -5.9208344e-03
 -1.9045059e-02
 -6.0621585e-04
  1.6203394e-02
 -1.8871361e-02
  1.8085167e-02
 -8.2312040e-03
  2.1903055e-02
 -2.4152940e-02
  2.6134159e-02
 -9.2643537e-03
  2.3081966e-02
 -7.1942173e-03
 -6.8643629e-03
  2.9280232e-03
 -8.6340681e-03
  2.3934729e-02
  2.5817141e-02
  4.6268412e-01
  1.5975736e-01
 -1.0060824e-01
 -8.6412525e-01
  3.2283315e-01
 -4.2403558e-01
  2.3203619e-01
 -1.8302430e-01
  2.3699878e-01
 -5.0269458e-02
  6.6731527e-02
  1.4458203e-01
  6.4479262e-02
  1.3125071e-01
 -2.0289060e-01
  2.9065508e-02
 -1.3295765e-01
  8.7852307e-02
  2.7535085e-02
 -7.2270766e-02
  9.6862689e-02
  1.1580559e+00
  6.7836381e-02
  4.2297166e-02
  1.1682539e-01
 -5.2938581e-02
  1.3134632e-02
 -3.9830483e-02
  2.6375633e-01
  1.5403351e-02
  1.1742771e-02
  1.3051596e-01
 -6.3383460e-02
  7.9193287e-02
 -4.1329616e-01
  9.3833968e-02
 -8.8750087e-03
  6.9974005e-02
 -3.8004667e-02
  6.1686493e-02
  1.0060703e+00
 -3.0430287e-01
  1.0489488e-01
 -1.0321114e+00
  1.0487411e-01
 -8.9282334e-02
  7.6094288e-03
 -4.5200918e-02
 -2.4325151e-02
  1.1314398e-02
  5.9379984e-02
 -2.7357507e-02
  1.2438145e-01
 -2.2309409e-02
  8.2877946e-01
  5.3682941e-01
  1.7974749e+00
 -6.3908154e-01
  1.3024033e+00
 -1.6319904e+00
 -8.0280596e-01
 -8.0733150e-01
  1.0244845e+00
  3.4061474e-01
 -4.9066120e-01
 -8.8325012e-01
 -5.6038462e-03
 -4.1694969e-01
 -1.1795395e-02
 -2.8460187e-01
  9.6823025e-01
 -2.0296094e-01
  1.1188104e-01
 -5.1519979e-02
  3.3151598e-03
  1.3290173e-01
 -2.2573921e-01
  1.6613947e-01
  9.2555270e-02
  6.5592319e-01
 -3.6111528e-01
 -4.2419791e-02
 -1.1142429e+00
 -5.6120056e-01
 -2.8152320e-01
 -5.7492906e-01
  1.7356192e-01
  1.7429817e-01
  2.6181960e-01
 -2.7463484e-01
  7.8626156e-02
 -2.2088084e+00
  7.5501263e-02
  9.7586803e-02
  9.0519600e-02
  5.0551218e-01
 -7.5070627e-02
 -6.4057815e-01
 -2.4892281e-01
 -7.4874496e-01
 -3.3842763e-01
 -1.1360480e-02
  2.8994203e-02
 -4.8299971e-01
 -6.5066084e-02
  2.9532321e-02
  3.0496362e-01
 -1.6763873e-01
 -2.6519114e-01
 -1.7310098e-01
  3.7292498e-01
 -5.9161741e-01
 -2.3861637e-02
 -4.9483398e-01
 -4.1665801e-01
 -3.8051304e-01
 -4.9186510e-01
  6.1533067e-02
 -4.3994597e-01
 -1.9022235e-01
 -1.7476864e-01
 -2.8938437e-01
 -2.7909258e-01
 -1.6347994e-01
  3.3069071e-03
 -3.0225956e-01
  2.7392340e-01
  1.8578704e-03
  3.6302376e-01
  1.6608736e-02
  1.6590576e-01
  8.1270449e-02
 -2.2550589e-01
  2.0161234e-01
 -2.2019610e-01
 -3.2100983e-02
 -3.8514355e-01
  1.8821532e-02
 -1.4885591e-01
 -3.2620838e-01
 -2.0688182e-02
 -1.3932994e-01
  4.8798159e-01
 -9.5254987e-02
  9.7077712e-02
 -7.2320402e-01
 -7.2510326e-01
 -9.4564438e-02
 -1.7284718e-01
 -6.7959197e-02
 -1.9226460e-01
  3.5095260e-02
 -3.0938101e-01
  1.2122270e-01
 -1.4904284e-01
 -1.6887214e-02
  1.5627850e-02
 -3.0609276e-02
 -9.0916790e-02
  6.4896978e-02
  4.5410506e-03
 -5.6936316e-02
 -3.6142874e-01
 -1.7873268e-01
  1.7365609e-01
 -6.0064100e-02
  2.5369582e-01
  5.6298643e-02
  1.4032222e-01
 -1.1154722e+00
  7.4968183e-01
  8.2803197e-02
 -4.8950061e-02
  4.3243375e-02
 -5.1567215e-02
 -1.0740577e-01
  2.3377158e-02
 -7.6494262e-02
  1.4571463e-02
 -4.7258358e-02
  1.2646616e-02
 -1.4507830e-01
 -1.9782109e-02
  8.5388916e-03
 -7.2434545e-04
  4.0718894e-02
 -6.8381965e-02
 -2.3208847e-02
 -1.2612724e-01
  3.9792802e-02
 -6.1258987e-02
 -4.2907517e-02
 -3.8654957e-02
 -1.3236050e-01
  2.2382203e-01
 -8.8564508e-02
 -1.0182148e-01
 -2.7764097e-02
 -1.3610508e-02
  2.4214378e-03
  5.7774689e-02
 -3.2702718e-02
 -8.0918983e-02
  4.4699494e-02
 -9.3836717e-02
 -3.5386270e-01
 -1.4906293e-01
 -1.7875364e-01
 -3.5095464e-02
  1.8541159e-02
  1.8945884e-02
 -1.6231896e-02
  3.4271117e-02
  3.8238551e-02
 -5.3730668e-03
  6.9565871e-03
 -5.6368886e-03
  1.2860816e-03
 -5.0409275e-01
  1.0113069e-02
 -1.2479150e-02
 -1.4541293e-02
 -1.7074471e-02
 -1.8947540e-02
 -1.4548171e-02
  9.8347543e-03
  1.0849996e-02
  1.4545171e-03
  2.8977903e-02
  1.7234577e-02
 -3.5611156e-03
  1.9119520e-04
  6.5403418e-03
  1.2205149e-02
  1.4992201e-02
  3.0805474e-02
  6.1512575e-03
  3.8198180e-02
  1.1392355e-02
  1.2361965e-03
 -6.9988181e-04
  1.9181758e-02
 -1.4645894e-03
 -1.4623347e-02
  9.9567669e-03
  2.3232667e-02
  2.4244167e-02
  5.7460357e-02
 -1.0658081e+00
 -2.1892162e-03
 -1.5492072e-02
 -2.3989508e-02
  9.9024950e-03
  3.6772233e-02
 -2.4404923e-02
  3.0929996e-03
 -5.7890019e-03
 -2.5429484e-04
  2.4281757e-02
  4.0670395e-02
  3.7349321e-02
 -2.1543523e-02
  1.6037652e-02
  6.2931329e-03
  7.7562304e-03
 -1.9435858e-02
  5.2964127e-01
 -8.5331704e-03
  1.5211925e-02
 -9.6695470e-03
 -4.7321150e-01
  3.4636182e-01
 -7.7462174e-02
 -1.0805991e+00
 -3.0389497e-01
  2.6936257e-01
  7.2054166e-01
 -8.9805655e-02
 -1.0836812e+00
 -4.2066369e-02
  1.2800483e-01
 -1.5754749e-01
  5.7066925e-02
  1.4509745e-01
  1.7153265e-01
  6.6198759e-02
  1.0961856e-02
 -1.7893769e-02
  2.1680087e-02
  2.9294002e-01
 -3.6859220e-01
 -1.7602707e-01
 -1.1965060e-01
 -1.3331528e-01
  9.5068812e-02
  2.1743351e-01
  1.3843238e-01
 -4.7506116e-02
  1.0896734e-01
 -1.2102806e-02
  1.0176989e-01
  1.2891875e-01
 -1.6590174e-01
  1.1109394e-01
  5.9688229e-02
  4.2215809e-02
  8.4310130e-04
  4.3463454e-02
 -7.9235554e-02
  2.7914966e-02
  4.4538524e-02
 -2.8758619e-02
  1.3415499e-01
 -7.0355959e-02
  1.5979302e-01
 -5.2874248e-02
 -4.3791365e-02
  9.3943197e-03
 -1.2981226e-03
  8.7003037e-03
 -7.6536602e-01
 -5.5445876e-02
 -4.7012035e-02
  1.3236357e-02
  1.1918111e-01
 -2.5609878e-01
 -2.0217387e-02
  2.2502279e-01
 -3.2916978e-01
  1.5490831e-01
  1.6419901e-01
  1.0896751e-01
 -8.2273640e-02
  2.4858275e-02
  1.6292346e-01
 -1.0462300e-01
 -1.1419433e-01
 -1.9672919e-02
  4.3480817e-02
  1.4724639e-02
  7.3221099e-01
 -2.0930018e-01
 -4.1277215e-02
 -8.6643898e-01
  3.0595204e-01
 -1.5164153e-02
 -1.4822832e-02
 -1.8143447e-01
 -4.0377002e-02
  1.1575551e-01
 -2.1026377e-02
  1.0633861e-01
 -3.6511788e-01
 -1.2353335e-02
 -9.9058941e-02
 -1.6814153e-01
  3.1494275e-02
 -1.4006169e-01
 -9.9238619e-02
 -2.4569884e-03
  1.0293976e-02
 -1.1467596e-01
  4.8616160e-02
 -3.1630591e-02
 -8.3193637e-02
 -2.6982110e-02
 -1.1559777e-01
 -1.8591030e-01
 -9.9915579e-02
  3.4645267e-02
 -1.0258361e-01
  2.4836581e-02
  1.2041595e-02
 -3.2648340e-02
 -4.5046553e-02
  5.0818089e-02
 -3.0172991e-02
  9.8516773e-03
  5.0228208e-01
 -1.2084475e-01
  1.9657682e-01
  3.3499265e-01
 -4.5560175e-01
  3.9507663e-01
  1.2708840e-01
  2.8998148e-01
  1.1632246e+00
  5.1415376e-03
 -3.7053418e-01
 -1.2712906e-01
  1.5360608e-02
 -5.1974571e-01
  3.6547750e-01
  1.1827412e-01
  8.3693221e-02
  4.5002729e-01
 -4.9466514e-03
  7.0816225e-01
 -4.1026062e-01
 -2.0043954e-01
  2.0705478e-01
  2.5260419e-01
 -2.5048634e-02
  7.5108275e-02
  3.8569765e-03
  4.7808293e-02
 -1.0399795e-01
 -1.1306565e-01
 -3.6987925e-03
  7.4256249e-02
 -2.3843679e-01
  1.6516300e-01
  2.5077975e-01
  1.0689723e-01
 -9.4172090e-02
 -1.6276038e-01
 -1.9326319e-01
  4.0511753e-02
  2.0709448e-01
  6.8298064e-02
  1.3607588e-01
 -3.2625899e-01
  4.1834995e-02
  3.0156900e-03
  1.8493010e-01
 -1.3132448e-01
 -4.9315926e-02
  2.7554674e-02
  4.6618659e-02
 -6.2402703e-02
  3.2931391e-02
 -2.0889454e-02
 -1.4711285e+00
  5.0355130e-01
  6.8454045e-01
  8.8312104e-02
  1.4747260e+00
  4.4168275e-02
 -1.1898204e+00
 -5.3404778e-01
 -9.1391426e-01
  4.6507475e-01
 -3.9764798e-01
 -6.5771826e-02
 -2.3292428e-01
 -4.5294735e-01
 -7.8370857e-01
  2.8602934e-02
  4.2560425e-01
  6.5520775e-01
 -5.8074272e-01
  2.0432520e-01
 -5.6267381e-01
 -2.9959637e-01
  4.5360464e-01
  3.3993182e-01
 -1.3357484e-01
  1.9382703e-01
 -3.6897069e-01
 -1.5079524e-01
 -1.8504250e+00
 -7.3063666e-01
 -8.8165142e-02
 -9.1815466e-01
 -1.6669637e-01
  4.1497245e-01
  8.9489675e-01
  7.9618925e-01
 -1.0285261e-01
 -6.3860452e-01
 -4.1719463e-01
  2.4200952e-01
 -1.3565781e+00
  5.2208787e-01
  1.4529851e-01
 -4.9297616e-01
 -3.4646216e-01
 -2.4357287e-02
 -8.3604142e-02
 -5.7301468e-01
  4.7884181e-02
  9.1471203e-02
  2.9574034e-01
 -7.6361299e-02
  2.3732560e-02
 -6.6302784e-02
  1.7232889e-01
 -4.4317102e-01
 -1.1073872e-01
 -2.2997360e-01
  4.8172155e-01
  4.8515162e-01
 -4.6822280e-01
 -1.8561518e-01
 -2.7186131e-02
 -9.9979594e-02
  5.0904728e-02
  1.0903917e-01
  5.3260356e-02
 -9.0165278e-03
  5.5432171e-01
 -2.6539307e-02
  4.5325094e-01
  1.0369520e-01
 -4.8093144e-03
 -2.0543350e-01
  2.8454536e-01
  2.0455180e-01
 -2.3261009e-02
  4.9688035e-01
 -1.0672535e+00
  6.7643738e-01
 -9.9066328e-03
  2.6334032e-01
  1.1406724e+00
 -1.3472861e-01
 -1.0939637e-01
 -5.8724735e-02
  5.2413708e-01
 -1.8518621e-01
  8.7690234e-01
 -4.1702056e-01
  5.7119280e-02
  1.1197904e-01
  3.4949023e-02
 -2.4531491e-02
 -1.8418060e-01
 -1.9746327e-01
 -3.2611806e-02
 -1.1410723e-01
 -2.1113844e-01
  1.0386304e-01
  3.0157602e-01
 -7.9146348e-02
 -4.8178770e-02
 -6.0949560e-02
 -2.0618297e-01
 -6.7078206e-03
 -9.8138437e-02
 -9.6742846e-02
  6.9696015e-01
  3.9612868e-01
  2.3981248e-01
  2.3873168e-01
  1.0461764e+00
 -1.0600102e+00
  1.1299262e-01
 -5.8239222e-01
 -7.5820440e-01
 -5.1623948e-02
  3.7518087e-01
  1.3949120e-01
 -9.6046301e-03
  1.0590535e-01
 -9.0146124e-02
  8.6403549e-02
  3.9657408e-01
  3.5872549e-02
  5.4256875e-02
 -2.0830816e-01
 -7.9818793e-02
 -1.9395303e-02
 -4.5267016e-02
 -4.5946572e-02
  1.1137353e-01
 -3.5208490e-01
  1.0643000e-01
 -1.7746176e-01
  2.7734464e-01
  2.9775375e-01
  9.7513579e-02
  2.0503618e-01
 -2.6177451e-01
  5.6414891e-02
  7.0034787e-02
  1.9148803e-01
 -2.9271556e-02
 -2.7560130e-01
  2.7497804e-02
  3.5915293e-02
 -1.7837687e-01
 -2.9602057e-01
 -4.9178950e-02
 -8.7358999e-01
  1.3467509e-01
 -7.4976288e-02
 -8.6976252e-02
  3.4659156e-03
 -3.6273941e-02
  5.0163575e-02
  1.1704677e-01
 -1.9722760e-02
  9.0591330e-03
  9.6312333e-03
 -6.1815423e-01
  7.0578152e-01
  1.0075372e+00
 -8.4991109e-01
  1.1549906e+00
  8.1416243e-01
 -6.5666986e-01
 -1.3971709e-01
 -4.3413648e-01
 -1.1278785e+00
 -1.2718168e-01
  2.3920493e-01
 -2.1508031e-01
 -6.3278213e-02
 -7.1584803e-01
 -1.5591603e-02
  3.1086093e-01
  7.1754873e-01
  2.2661313e-01
 -3.8639978e-01
 -2.7056247e-01
 -5.2671814e-01
  1.2581106e-01
  3.0001310e-01
 -2.7332675e-01
  4.9182075e-01
 -4.0084533e-02
  1.8299782e-01
 -4.3535212e-01
  2.1990216e-03
 -8.0227852e-02
 -2.1687245e-01
 -3.4871975e-01
  1.4757800e-01
 -3.1216049e-01
  7.3142761e-01
 -2.0337075e-01
 -1.0461196e+00
 -4.0047595e-01
  2.2474344e-01
  3.8649559e-02
 -1.0978288e-01
 -4.7321819e-02
  1.3575997e+00
 -2.1705138e-02
 -2.9963141e-02
 -4.6706088e-02
 -2.5723448e-01
 -4.6556305e-02
  4.9549505e-02
  2.7158637e-02
 -7.1459696e-02
 -1.0495297e-01
 -5.4264534e-02
 -1.2620984e-01
 -1.1920856e-02
 -1.3750280e-02
  4.2874131e-01
  5.7798070e-01
  3.6873959e-02
  2.0425925e-02
  2.4433778e-01
 -6.0129303e-02
 -4.4493787e-02
 -3.5492107e-03
  1.2173837e+00
 -6.3375220e-02
  5.0373304e-01
 -5.2062631e-02
  3.9720887e-01
  2.9720938e-01
  3.9749524e-01
 -3.0380741e-01
  4.7333321e-01
 -2.2316350e-01
 -1.4325255e+00
 -5.5015255e-02
  1.0849967e-02
 -1.0853330e+00
  2.0366985e-01
  2.8262724e-04
 -7.7766120e-01
  1.8816105e+00
  5.6529187e-02
 -6.0151237e-01
 -3.4977444e-02
  2.5592903e-03
 -8.2114214e-01
  8.4530956e-01
 -1.6646095e-01
 -4.3206841e-01
 -1.7710289e-02
  3.8766137e-01
 -9.4544761e-02
 -6.0928369e-01
 -2.3217900e-02
 -1.6794156e-02
  6.2694913e-01
  4.3485144e-01
 -2.6249748e-01
 -3.7475568e-01
  8.8226885e-01
 -5.2345020e-01
  7.0668334e-01
  3.4245840e-01
 -2.4329836e-02
 -1.4282905e-01
  3.7401733e-01
  3.7668169e-01
 -3.6333101e-03
  1.0817608e-01
 -6.9735932e-01
 -6.2846160e-01
 -1.7521523e-01
  4.3003067e-02
 -5.1873609e-02
 -1.1008090e+00
  6.1356068e-01
  8.8511324e-01
  3.7900436e-01
  4.8962280e-01
 -6.4626622e-01
  3.5572881e-01
 -1.5773003e-01
  8.3684051e-01
  3.9510480e-01
 -2.6402193e-01
  4.0438581e-02
 -2.9030186e-01
  8.3136666e-01
 -1.1536635e-01
 -1.1755486e+00
  5.6298530e-01
  2.9533476e-01
  4.4877139e-01
 -2.4105170e-01
 -4.6030691e-01
 -9.4213837e-01
  4.5865530e-01
 -4.6675730e-01
  2.0256069e-01
 -6.9566838e-02
  4.0044478e-01
 -1.3654863e+00
 -1.0807656e+00
 -4.1724774e-01
  4.4939928e-02
  4.1725460e-01
 -5.3742868e-01
  7.5860745e-01
  2.1094959e+00
 -1.2521279e+00
  4.2103213e-01
  1.8339462e+00
  7.3956035e-02
 -1.2136705e+00
  9.9175863e-02
 -4.6036948e-02
 -8.8981330e-02
 -4.6278607e-02
  7.3898755e-02
  4.0100709e-02
  2.1119867e-01
  5.5799801e-03
 -7.4975751e-02
 -7.1379498e-02
  3.8699523e-02
  1.4209192e-01
  2.2758669e-01
  3.9921548e-02
 -2.6813751e-02
  4.7310535e-02
 -1.2725233e-01
  1.3704561e-01
 -1.4652004e-02
  7.2611151e-03
  3.7495539e-02
 -1.5904352e-02
  7.7953279e-02
  7.9955272e-02
 -3.1792343e-02
 -2.2483118e-02
 -1.6116442e-01
 -3.2897200e-02
  7.1620174e-02
  4.2552394e-01
 -4.7641054e-02
  1.2056459e-01
  2.8800758e-02
  1.3535406e-01
 -1.6208258e-02
 -3.2437933e-03
 -4.2483497e-02
 -6.7865886e-02
 -9.4355978e-02
 -6.2370922e-02
  1.3677844e-01
 -2.4354987e-02
  6.0779542e-02
  1.2789260e+00
 -2.7191832e-03
 -3.2553874e-02
  1.3173725e-02
  5.7744969e-02
 -7.0485531e-04
  1.8047806e-02
  4.5224048e-02
 -1.4911095e-02
 -3.4716004e-01
  1.4663364e+00
 -6.9610363e-01
 -4.2818919e-01
  3.2029521e-01
 -3.2647934e-02
 -1.2203561e-01
  2.6404619e-01
  4.4137388e-01
 -3.0677531e-02
  1.4368719e-01
  2.5941339e-01
  1.8417254e-01
 -6.6310629e-02
  2.8323412e-01
  1.2046245e-01
  4.1669723e-02
  9.1068402e-02
 -1.6313709e-01
  4.3241051e-01
  3.3710960e-02
  1.2740245e-01
  6.1835414e-01
  2.8858882e-01
  6.9330767e-02
  4.9682654e-02
 -2.5724745e-01
  5.0638992e-02
 -2.5736356e-02
  7.6495016e-01
  3.9467610e-02
  6.2826693e-01
  2.9875913e-01
  1.5804328e-01
  3.3098355e-02
  1.7675012e-01
  7.1097881e-01
  1.0074642e-02
  7.8307748e-02
  6.0817532e-02
  1.3766050e-01
  3.8879755e-01
  2.8619513e-01
  1.7607698e-02
  1.3066261e-01
 -7.4132815e-02
 -5.5195637e-02
 -2.0171447e-01
  3.9004318e-02
  6.9411070e-04
  1.3128269e-02
  3.9889589e-03
  2.3381496e-02
 -3.6465943e-02
  4.5522731e-02
  1.0718939e+00
 -3.9425576e-01
 -2.7434549e-01
 -1.1739928e-01
  4.2243447e-02
  1.6751766e-01
 -1.8578120e-01
  1.5571846e+00
  8.6504236e-02
 -1.9520168e-01
  3.1467372e-01
 -2.6284227e-01
 -4.5112294e-01
  7.1674818e-03
 -4.1232914e-02
  1.8301143e-01
 -8.0779850e-02
  1.5501267e-01
  1.4839885e-01
 -1.6983068e-01
  4.8578075e-01
  1.8160588e-01
  5.0820641e-02
 -1.2496478e-01
 -1.9523327e-01
  8.7874882e-02
 -7.7649700e-03
  2.9509819e-01
  2.1108256e-01
  1.3052110e-01
 -1.0325883e-01
  2.5040969e-01
 -1.8154076e-01
  2.8302448e-02
 -3.6610320e-01
 -3.6142838e-01
 -1.0173210e-01
  4.8174512e-01
  3.4691468e-02
  1.4202820e-01
  2.2151591e-01
 -9.0191871e-02
  4.1432682e-02
 -3.1350952e-02
  5.1868405e-02
 -6.1777648e-02
  9.1532111e-02
 -9.0585940e-02
 -2.3521909e-01
  1.6004605e-02
  1.0486243e-02
  5.0144624e-02
  1.2821365e-02
 -2.0452002e-02
 -3.6684215e-01
  1.5206143e-01
  2.1760078e-02
 -1.8096315e-02
 -1.2395209e-01
 -5.0560147e-02
 -3.4806758e-02
 -8.4959090e-02
 -7.2505586e-03
  2.0883204e-02
  5.2885145e-02
  3.9078385e-02
 -2.6392255e-03
 -5.5986051e-02
 -6.0883246e-02
 -3.2438919e-02
 -5.1719762e-02
  5.3756814e-02
  1.0879805e+00
 -9.4791204e-02
  3.2575574e-02
  5.5193476e-02
  6.4020552e-04
 -4.0675800e-02
 -1.9050093e-02
 -3.1120520e-02
  6.0139358e-02
  1.4129159e-01
  7.5644150e-02
  1.3645776e-02
  1.3391402e-01
  5.7946961e-02
 -7.3730431e-02
  7.9056602e-03
 -5.9863530e-02
 -1.8612556e-01
  2.9670611e-02
  1.5488789e-02
  1.7659821e-02
  2.0878671e-01
 -1.5822213e-02
 -1.1844387e-01
  2.6469782e-02
 -2.0227246e-03
  4.6787234e-03
  9.8236110e-03
  4.3120641e-02
 -1.1986222e-02
 -6.0432665e-02
  1.3434843e-02
 -9.0781534e-03
 -1.1424288e-02
  1.9649243e-02
  1.7992366e-02
  5.0970387e-02
 -1.2595308e-01
  6.0426019e-02
 -1.7782517e-01
 -1.5581724e-01
 -9.5227277e-03
 -1.9602652e-03
 -1.6447549e-01
  6.0945690e-02
  5.4446522e-02
  2.8091069e-02
 -1.0935236e-02
 -9.6751422e-02
 -1.1069662e-01
 -6.0551409e-02
 -6.5596751e-03
 -9.1112435e-02
  2.8133038e-01
 -5.5174593e-02
 -9.8219011e-03
  4.9349673e-02
  3.5961706e-02
 -1.3210550e-01
 -7.5382091e-02
 -9.5767893e-02
  3.7250891e-02
 -3.3320218e-02
  1.0030035e-01
  1.2956367e-01
  3.8160104e-02
 -1.2563249e-01
 -2.8356399e-02
 -1.0106920e-01
 -3.9239456e-03
 -1.1517697e-01
 -5.3152055e-02
  3.4205556e-02
 -1.0845900e-02
  2.5893347e-02
  2.7640906e-01
  8.1738144e-02
 -1.3897756e-01
  1.7572563e-02
 -6.3408144e-02
  2.4767863e-02
  2.1143636e-02
  1.3390182e-02
 -5.3093527e-02
 -1.4928825e-02
  1.0730635e-03
  1.7423024e-02
 -2.0621868e-02
  4.3514408e-02
  9.0018980e-02
  2.2217381e-01
  9.0307407e-02
  6.1119802e-02
 -1.4695631e-01
  1.0106611e-01
  2.2221416e-01
  3.9803764e-01
 -4.3192316e-02
  1.7726311e-01
 -1.5395033e-01
  1.0633194e-01
  1.4626615e-01
 -1.2905128e-01
 -2.5960848e-01
 -1.3575944e-01
  1.3177848e-01
 -2.9963934e-01
  2.1920614e-02
 -1.4652126e-01
 -3.5648841e-02
 -2.7768514e-01
 -3.1783393e-01
 -2.8595883e-01
 -3.0729121e-01
 -2.7325431e-01
 -6.4729190e-01
  1.7348665e-01
 -3.9555348e-02
 -7.3019487e-01
 -2.1625800e-01
 -1.5261666e-02
 -3.4022483e-01
 -1.9911025e-01
 -1.4649469e-01
 -2.7256566e-01
  1.1159219e-02
 -4.7924291e-02
 -4.6144858e-02
 -2.0360157e-01
  1.0860309e-01
 -1.9688370e-02
 -1.8555029e-01
 -7.2092041e-02
 -2.0431782e-01
  7.7142663e-02
  6.9104105e-02
  5.8843647e-03
 -5.5511404e-02
 -3.5697799e-02
 -5.5624366e-02
  4.1421566e-02
  1.5248882e-03
  2.3206123e-03
 -1.4906242e-02
 -3.5024699e-02
 -2.7161976e-02
 -1.6134499e-03
  6.7605484e-01
  2.4116388e-02
 -1.0139703e-02
 -1.5280623e-02
 -4.1348927e-02
  2.3346530e-02
 -2.9041903e-02
  3.9699759e-02
 -1.1450940e-02
  2.0355418e-01
  4.4504008e-01
 -9.6661523e-03
  2.9440435e-02
 -1.3926874e-02
  5.9913713e-03
 -1.6893973e-03
  2.1796493e-02
  5.0158881e-02
  1.0852292e+00
  1.2033258e-03
 -6.3223583e-03
 -1.9717744e-02
  7.4157012e-03
  3.1388742e-03
  3.3439130e-02
  3.1064872e-03
  2.9976014e-02
  1.4439202e-02
 -9.4624296e-02
 -3.8670689e-02
 -2.6444853e-03
 -3.3887729e-02
  5.4873205e-03
  2.3399470e-02
 -1.9963419e-03
  1.4792190e-01
 -3.9994445e-02
 -2.7878491e-02
 -3.1854074e-02
  2.7438343e-02
 -1.9739486e-02
 -1.7851163e-02
 -2.0330479e-02
  4.0375679e-03
  1.8832063e-03
 -3.1632790e-03
 -6.3296170e-03
  1.1641562e-03
  2.4542399e-02
  2.1375059e-03
  3.4179326e-02
 -1.1992750e-01
  1.1994200e-01
 -3.0514166e-02
 -2.2889158e-02
 -2.5882304e-03
  3.3785494e-03
 -2.2425799e-02
  5.1314685e-02
 -1.3387370e-01
  1.0693725e-02
 -2.1867227e-02
 -8.6707966e-03
  5.2293818e-02
  1.0770469e-01
 -7.4117690e-02
 -2.2614624e-02
  7.8666642e-02
 -1.1695450e-02
  5.9637368e-02
 -3.1770375e-02
 -1.3982968e-02
  3.0702198e-02
 -5.9553725e-03
  9.8648347e-02
  7.5215600e-02
 -3.6639806e-02
 -4.5555532e-02
 -4.9420193e-02
  4.1575856e-03
  1.0357727e-02
  5.4251011e-02
  5.9017364e-04
  1.0447404e-01
  1.1427481e-02
  3.1123745e-01
  5.9575286e-02
  7.7872141e-04
  1.1044396e-02
  4.4601387e-03
  8.6963726e-03
  3.4891520e-02
  1.1848197e-01
 -4.3243226e-02
  6.6839032e-02
 -2.7874412e-02
 -6.8399897e-03
 -8.5473014e-03
 -1.6675415e-02
  2.2546468e-02
  8.8501479e-03
 -1.0252931e-02
  1.6074626e-02
 -5.9752692e-02
  9.4371215e-03
  2.1215244e-01
 -4.5557898e-02
  7.8315191e-02
 -6.6684447e-02
  1.8518051e-02
  2.8148077e-02
 -1.6447908e-01
 -7.3490329e-02
  2.0302000e-02
  2.3451228e-02
  3.7108261e-02
 -3.8029838e-03
 -8.7595314e-02
 -5.8964454e-02
 -4.9788490e-02
  1.9592263e-03
 -7.4905723e-02
  7.0757926e-02
 -2.7918288e-01
 -1.6080050e-01
  4.0413309e-02
 -1.2565444e-02
 -2.2399748e-02
 -7.3188685e-02
 -7.5196259e-02
 -1.5547790e-02
  5.4787003e-02
  2.2358060e-02
  2.0493854e-02
  6.6041052e-02
 -7.1940698e-02
  1.7004829e-02
 -9.2323691e-02
 -2.1201784e-02
 -9.3850806e-02
 -1.7328113e-02
 -2.0650761e-02
 -4.8954971e-02
  1.3431036e-03
 -3.2795593e-02
 -1.6139718e-02
 -1.3231592e-01
  1.2421700e-02
 -5.1529955e-02
  4.4533730e-02
  2.1597138e-02
  6.3575576e-03
  3.5536519e-01
 -2.2066124e-02
 -2.4577260e-02
  8.5994145e-03
  9.6409265e-03
  4.4571217e-02
  1.1307775e+00
  2.6593047e-01
 -2.0816986e-01
 -2.5406078e-01
  2.9344001e-01
 -1.7161433e-01
  7.5516351e-02
  6.8261325e-02
  4.8301688e-01
 -3.4778140e-02
 -5.0284201e-01
  1.2111078e-02
  1.2012093e-01
 -3.6758032e-02
 -6.9388896e-02
  1.2477487e-01
  4.8560079e-02
  1.0966504e-01
 -9.2585504e-02
  7.1643248e-02
  1.5528510e-02
  9.4365135e-02
 -3.6019728e-02
  2.5023334e-02
  1.4221558e-01
  2.4257645e-01
  1.9404817e-02
 -5.9494637e-02
 -5.5398185e-02
 -5.0384574e-02
  1.4264640e-01
  4.0390146e-01
 -9.2864990e-02
  2.4902122e-01
  2.6440650e-02
  2.4369487e-01
 -2.2279903e-01
  1.5155815e-02
  1.0190141e-01
 -3.7839282e-02
 -8.2371247e-01
  1.8339667e-01
  1.7308441e-01
 -6.7773633e-02
  1.3973621e-01
 -4.6454683e-02
 -9.2845294e-04
 -4.9691897e-02
  1.9129558e-02
 -2.7207524e-02
  5.9175070e-02
 -4.3676261e-02
  2.0295486e-02
 -7.5547732e-02
 -3.8059640e-01
 -1.4871635e-01
 -2.1754186e-01
 -8.5299753e-02
  1.3315980e+00
 -1.1839057e+00
  2.8618282e-02
 -6.3635111e-01
 -3.0983329e-01
 -6.9953755e-02
  1.0717063e-01
  1.3713020e-01
  1.1032395e-01
 -2.9104501e-01
 -6.8039924e-02
 -1.3920709e-02
  1.1298215e-01
 -4.4861607e-02
  4.7260258e-02
 -6.0168066e-04
  1.6198339e-01
  3.4972709e-01
 -4.3031506e-02
  2.3174766e-02
 -2.2834245e-02
  1.0533629e-01
 -4.4495310e-03
 -7.2458364e-02
  1.9002193e-01
  1.0740896e-01
  2.4018119e-01
 -1.8385163e-02
  1.3491946e-02
 -9.8879866e-02
  9.8424450e-02
 -9.7056009e-02
 -2.0933001e-01
  2.7479807e-01
  4.8265797e-03
  2.9055259e-01
 -4.6102755e-02
  1.2170314e-01
 -7.6808803e-02
  1.0035653e-01
 -2.9182181e-02
  1.3097015e-02
  3.6526817e-01
  7.1169123e-02
  1.3111213e-02
  2.3401625e-02
  4.4427669e-01
  4.2190541e-02
  7.1805194e-03
  2.6309760e-02
 -1.3862611e-01
 -6.2316906e-01
  9.7604352e-01
  9.3210824e-02
 -1.0334259e+00
  2.4063730e-01
 -4.0216196e-01
  1.0139943e-01
 -4.0973413e-01
 -3.6655715e-01
  1.7052834e-01
 -9.3036309e-02
 -5.2813351e-01
  7.4686301e-01
  7.3297463e-02
 -2.3536444e-01
 -4.2486101e-01
 -2.0789850e-01
  3.7310064e-01
 -3.5452875e-01
 -1.5802932e-01
  3.7043557e-01
 -2.5892684e-01
 -4.2503682e-01
  2.5538486e-01
  2.5414547e-03
  1.8971732e-01
 -1.8750668e-01
 -4.3762097e-01
 -5.6871884e-02
 -2.2334930e-01
 -3.4534377e-01
 -5.8941835e-01
 -1.5335202e-01
  4.7603087e-03
 -2.5886646e-01
 -3.8223299e-01
 -3.4477919e-01
 -2.1517460e-01
 -8.9875951e-02
 -7.0446038e-01
 -2.2226395e-01
 -3.5569185e-01
  4.0539570e-02
  4.7675776e-04
 -8.0197185e-02
  1.3947207e-02
  2.8722438e-01
  2.2895806e-01
 -2.9977626e-01
 -8.5695662e-02
  5.6097507e-02
 -7.9199888e-02
  3.9218932e-02
  1.1329032e-01
  1.0548098e+00
  9.9898092e-03
  6.6925877e-01
  4.7311565e-01
  5.2738833e-01
  6.1975765e-01
 -4.6756631e-01
  5.1681515e-02
 -1.0706392e-02
 -3.2585034e-01
  2.1879122e-01
 -2.8281766e-01
 -1.2728716e-01
  1.9252783e-01
 -7.4447468e-02
  5.3605340e-02
 -1.8977743e-01
 -1.1646395e-01
  1.5760054e-01
  6.6712432e-02
  9.7610988e-02
 -1.6588120e-01
  4.2161551e-01
 -1.4789639e-01
 -7.2599225e-02
  9.5262773e-02
 -7.8061656e-03
  7.5092864e-01
  4.4195456e-03
  2.5157201e-01
  4.7116175e-01
  1.2889585e-01
 -2.5094917e-01
 -4.2713702e-02
 -2.3351516e-01
  2.0721804e-01
  8.8158205e-02
 -1.3808098e-01
  4.9673343e-01
 -2.5446180e-01
 -4.0652320e-02
 -1.4486945e-01
 -2.6473871e-02
 -3.5154577e-02
 -1.2921829e-02
  7.0010804e-02
 -6.0624234e-02
 -3.6499053e-02
 -1.8128148e-01
  1.6256273e-02
  1.3295023e-02
  3.5347648e-02
  7.4959412e-02
  2.0191509e-02
 -9.7282089e-02
  2.3604466e-03
  1.2813547e-02
  2.3728125e-02
  1.3821616e-03
  1.6383598e-02
 -2.0195730e-02
  9.1451360e-03
  2.4671366e-02
 -5.3532118e-01
 -2.6058052e-02
  2.0395057e-02
  3.6190336e-03
 -4.1545957e-02
  1.0338511e-02
 -1.6716184e-02
 -2.0768851e-02
 -1.9219213e-03
 -1.4250199e-02
 -2.5732246e-01
  9.4646373e-04
 -5.0008902e-03
  7.9922322e-03
  4.9520116e-03
  2.0880978e-01
  4.4022994e-03
 -2.3460088e-02
  9.6329441e-03
 -8.0254637e-03
  4.8177294e-03
  1.0737041e-02
 -3.6574160e-03
  1.6085949e-02
  1.6648129e-03
 -1.2646580e-02
 -2.3445224e-02
 -3.0535921e-02
 -9.8913517e-03
  3.4641046e-02
  1.6408932e-01
  2.6598388e-02
  2.7924770e-02
  4.6554082e-03
  2.1121385e-02
 -1.1986892e-02
  6.1475074e-01
  1.9328170e-02
  1.0192635e-02
 -9.0882946e-03
  2.1609501e-03
 -1.8040932e-03
  6.1791637e-03
  5.6716095e-04
 -5.9042376e-02
  1.5758871e-01
 -4.2859454e-02
  4.5500856e-02
 -2.9654121e-02
 -3.0966528e-02
 -8.7463908e-02
 -1.2933597e-02
 -1.6753373e-01
  3.5579562e-02
  1.4650126e-01
  2.9269792e-02
 -1.3584592e-02
 -1.0507687e-01
 -6.9474891e-02
 -7.4276887e-03
 -9.7183418e-01
 -6.3394278e-02
  9.0086982e-02
 -1.1765204e-01
  8.4652096e-02
  4.4512328e-02
 -1.3471276e-01
 -6.0693938e-03
 -8.3805241e-02
 -7.3620923e-02
  1.9561665e-02
 -1.9601496e-02
 -1.5802394e-01
  5.7808049e-02
 -4.8072778e-02
 -8.3074920e-02
 -1.6957102e-02
 -1.0155526e-01
 -1.3319822e-02
 -1.2380101e-01
 -6.9958302e-03
 -1.5088328e-05
 -6.0267313e-03
  1.9540640e-02
  4.3734330e-01
  2.6640821e-02
 -7.4822716e-02
  6.7079952e-03
 -8.2003623e-02
  5.9827141e-02
 -7.5722170e-01
  5.3749815e-02
 -1.8499899e-03
 -1.9460512e-02
 -1.2569018e-02
  4.0920909e-02
 -2.1522383e-03
  4.6729188e-02
  1.2188135e-02
 -1.8424887e-02
 -1.2870479e-02
 -1.7533952e-02
 -2.2913422e-02
  1.3916692e-05
 -2.9719912e-03
 -8.3538741e-03
  5.1735759e-02
 -2.3477632e-03
  2.4889195e-02
  2.2417041e-02
 -2.9589176e-02
 -1.2201583e-01
 -8.3762117e-02
 -5.3152692e-02
  6.3582952e-03
 -8.6509464e-03
 -4.7393839e-04
 -1.1081460e-03
  3.8604611e-03
 -1.2644546e-02
 -6.6041378e-03
  1.3930663e-02
 -9.1952607e-03
 -3.6752650e-03
 -2.5116053e-04
 -2.2876320e-02
  1.7320056e-02
  6.8407389e-03
 -6.4777760e-03
 -1.2407302e-03
  1.9729065e-02
 -9.0329017e-04
 -1.3727219e-02
 -1.1914684e-02
  2.4407262e-02
  1.2295746e-03
  1.1104944e-02
  2.2341672e-02
 -1.3361229e-02
  4.1185800e-02
 -1.4173035e-02
 -1.7904969e-02
  5.4270425e-03
 -3.8834722e-03
 -1.3105106e-03
  7.5965365e-03
 -3.6383618e-03
  4.2462289e-02
 -1.7139448e-02
  1.0841752e-02
 -4.6454938e-03
  1.7351096e-02
  3.6300041e-02
  4.6106189e-02
  1.7750150e-02
  1.3988351e-02
  4.4449931e-01
 -2.5518999e-02
  6.9439083e-02
 -9.8232172e-02
 -8.7151296e-02
  3.6251187e-02
  2.6383251e-04
 -7.9878531e-02
  7.1082385e-03
 -1.1755805e-01
 -5.1800090e-01
 -3.9725978e-02
  6.9199493e-03
 -3.5899490e-02
 -6.7356336e-01
 -5.8540860e-03
  2.0570757e-02
  5.9868220e-02
 -6.8549104e-02
  9.0771198e-02
 -6.2477961e-02
 -7.4402012e-02
  5.0234579e-02
  1.3881476e-02
 -1.2441240e-02
  1.5881179e-01
 -2.7216692e-02
 -3.6889148e-01
 -9.7162068e-02
 -1.6070823e-01
 -3.0172601e-02
 -5.5283640e-02
 -2.0926009e-01
 -3.2642160e-02
 -8.8872202e-03
  2.4745896e-04
  1.0567869e-01
 -1.8831532e-02
 -7.7752210e-02
  6.5881447e-03
 -1.1129362e-02
  5.1538453e-02
  6.1910520e-03
 -1.4999704e-02
  1.0030425e-02
 -3.9187603e-02
  2.2530119e-04
 -1.2247236e-02
  1.2769662e-02
  1.9887844e-02
 -4.2849740e-01
 -1.0908521e+00
  2.0120475e-01
  1.4817549e-01
  5.8696556e-01
 -5.8647614e-02
 -3.5125053e-01
 -7.1272534e-01
 -6.0357058e-01
 -8.2707301e-02
  5.1634062e-02
  2.2717941e-01
 -7.4291456e-04
 -1.5124778e-01
 -2.7522720e-02
  7.6831436e-01
  1.4930576e-01
  1.3089922e-02
  4.4678930e-02
 -7.4764028e-02
  9.3611605e-02
  3.0138859e-01
  7.7691831e-02
  2.0997358e-02
 -9.1192947e-04
  1.2188009e-01
 -4.7408946e-02
 -5.1123861e-02
  1.4404951e-01
  9.9617340e-02
  2.2238664e-01
  7.4439891e-02
 -7.0049934e-02
 -2.9091183e-02
  9.9471740e-02
 -1.6447048e-01
 -6.3325800e-02
  1.9188125e-01
  4.7840141e-02
  2.7870414e-01
 -3.7835786e-01
  8.5195407e-02
 -1.7450327e-01
  7.1198352e-02
  4.0168133e-02
  4.1293083e-03
 -6.0361952e-02
  4.1842368e-02
  1.9462541e-02
  2.7279539e-02
 -4.9311753e-02
 -4.4180737e-03
  9.3853455e-03
  2.4970632e-02
  2.0431133e-03
 -3.0190247e-01
 -2.0219825e-01
  3.5782984e-01
  1.7676441e-01
  4.6766512e-02
  2.1815002e-01
 -9.5874425e-03
  4.3978566e-01
 -5.3194977e-02
  1.0128314e-01
  3.7437521e-02
 -4.4064742e-01
 -2.7005672e-01
 -2.8588471e-01
 -1.9995463e-01
 -1.1545175e-01
 -2.4593818e-01
  7.6174341e-02
 -1.2517309e-01
  9.3532525e-02
 -2.6909629e-01
 -1.5587994e-01
 -1.6199198e-01
 -3.2599226e-01
 -1.0332559e-02
 -8.5233212e-01
  4.1405957e-02
 -1.1330155e-01
  7.8981984e-03
 -8.4340878e-02
 -5.5813003e-02
 -7.0622876e-02
 -2.1275797e-01
 -1.4114802e-02
 -2.6775765e-01
  1.4786564e-01
  1.3165703e-01
 -1.2804881e-01
 -2.2272745e-03
 -5.0375249e-02
 -9.9805877e-02
 -2.1331601e-01
 -4.1479770e-02
 -1.2456760e-01
  2.0353070e-02
  1.0742602e-01
  2.1374056e-02
 -8.8197894e-02
 -1.0280076e-01
 -1.7418193e-02
  3.4808315e-02
  2.6714299e-02
  1.0047543e-01
 -1.0866712e-02
 -1.4925227e-02
  3.4909077e-02
 -3.3208914e-02
  3.4219951e-03
 -4.4181668e-03
 -2.1014363e-02
  1.1926763e-02
  7.7922260e-03
  7.2016935e-03
 -1.4461135e-02
 -1.1828678e-02
  2.7651472e-02
  2.1220524e-02
  3.4973465e-02
  3.3016421e-03
  1.8024355e-02
  1.0852201e-02
 -1.8759802e-02
  1.5492802e-03
  9.7341547e-03
  1.7550470e-02
  2.8742882e-03
 -7.2504953e-03
  2.5424294e-02
  3.4207273e-02
 -3.0452440e-02
 -4.6451598e-02
 -2.4701325e-02
 -9.0634227e-03
 -2.1877086e-02
  1.6401490e-02
  7.9744430e-03
  2.3128795e-02
  2.5984186e-03
  2.4106223e-02
  2.7442003e-02
  2.1498762e-02
  3.3029485e-02
  1.0057054e-02
  2.4454884e-02
  2.1676134e-02
  4.4979621e-02
 -8.9321146e-03
  2.7077910e-03
 -7.8583742e-03
  1.3402411e-02
  4.0959795e-03
  1.4635417e-02
  3.3327226e-02
  5.3004190e-02
 -5.2739471e-02
  1.0870588e+00
 -8.1721982e-03
 -2.6916176e-01
 -1.5398766e-01
  1.1121129e+00
 -3.6833313e-01
  5.5890268e-01
  3.8742703e-01
 -3.2981285e-01
 -7.5741363e-01
  3.4230223e-01
 -1.4237317e-01
 -4.2311355e-01
 -5.3399857e-02
  1.5810242e-01
  1.7567685e-01
 -1.2193634e-02
  1.4056288e-01
  6.1141618e-02
  1.7991288e-01
 -1.7206466e-01
  3.7816158e-01
  9.7250730e-02
 -5.6141779e-02
  3.1726387e-01
 -9.2729986e-02
  2.2021283e-01
  1.0464326e-01
 -1.2958044e-01
  1.0957427e-01
 -5.7273173e-01
 -3.7116285e-02
  2.0124666e-01
 -6.8623191e-01
  3.9980363e-02
  2.9077679e-01
  2.5834721e-01
  2.5014552e-01
 -1.2512617e-01
  1.5311903e-01
  1.8102244e-02
  2.3117322e-01
  2.6261687e-01
  1.4599572e-01
  7.2884038e-02
  3.6863293e-02
  1.4422092e-01
 -1.2532580e-01
 -2.3843294e-01
 -1.1976922e-01
 -5.0409740e-01
 -6.3604861e-02
 -4.8474628e-03
 -2.5993625e-02
 -6.7554018e-03
 -6.9938861e-02
 -2.1640086e-01
 -7.7678442e-01
 -1.9145930e-01
 -1.7319752e-02
 -3.8101662e-02
 -1.4165732e-01
 -1.7162722e-02
 -3.1751072e-01
 -9.4128791e-03
  2.0462573e-03
 -2.6808135e-02
 -7.0806718e-03
 -1.5153964e-02
  1.3937974e-02
  1.7292470e-02
  2.2514069e-02
 -4.0072468e-03
  1.5853962e-02
 -4.4389251e-03
 -5.9778108e-03
  2.2458682e-02
  1.7647773e-02
  9.0747792e-03
  7.1563846e-03
  5.5612472e-04
 -2.6749669e-02
  1.4607086e-03
  4.6899346e-01
  1.0956754e-02
 -7.4416916e-03
 -3.4036927e-02
 -6.4558275e-03
 -2.5125450e-02
  2.3389488e-02
 -1.0129858e-02
 -2.8388686e-03
  3.3242516e-02
 -1.6997013e-02
 -5.0506778e-03
  1.8953525e-02
  2.1344875e-03
 -2.0175312e-02
 -1.6391255e+00
 -1.1327825e-02
 -9.4450489e-03
 -4.2138781e-02
  2.4950989e-03
 -1.1074052e-02
 -2.2807925e-03
 -1.4405964e-02
  1.9307632e-02
 -3.5612548e-03
  2.1900579e-03
  6.1610211e-03
 -5.1508212e-01
  2.3756075e+00
 -1.1258955e+00
 -6.7593664e-01
 -5.7322758e-01
  7.3765129e-01
 -9.8014814e-01
  4.4268608e-01
 -4.5875898e-01
  2.3589306e-01
 -4.7195551e-01
 -5.2906263e-01
 -1.7575596e-01
 -6.9956636e-01
  1.4340824e-02
 -3.2305211e-02
  3.9909494e-01
 -2.8706777e-01
  2.4753842e-01
 -5.6283039e-01
 -1.4191612e+00
 -3.6750749e-01
  8.9507312e-01
  1.2440076e-01
 -4.8319623e-02
  2.3016994e-01
 -1.6562857e-01
 -8.6177659e-01
 -6.3594110e-02
 -4.3763226e-01
 -8.0035821e-02
 -8.9454216e-01
 -3.6741650e-01
  2.0832941e-01
 -7.4303441e-02
  1.1253848e-01
 -1.0323985e+00
  1.9423658e-01
 -3.4102744e-01
 -7.1452647e-01
 -9.1436863e-02
 -2.2085387e-01
  3.1986815e-01
 -1.3462827e-01
 -3.7381583e-01
  2.2209449e-01
 -1.1351052e-01
 -1.8693277e-01
 -9.9647373e-02
  3.5681438e-01
 -1.1493125e-01
 -1.1194699e-02
  3.5283253e-02
 -8.4601901e-03
  1.4306420e+00
 -8.6411715e-01
 -1.4379637e-01
  1.0376720e-01
  1.2924894e+00
  5.2101940e-01
  1.1074455e+00
 -4.1293588e-01
 -2.4898058e-01
  3.3137670e-01
 -1.6327110e-01
 -5.5358571e-01
  4.0313980e-01
  1.7829141e-01
 -3.1886011e-01
  2.1200918e-01
  7.4710347e-02
  4.5884609e-01
  4.9893513e-01
  2.4355877e-02
  1.3277408e-01
 -1.9186288e-01
  1.1524891e+00
 -1.8496615e-01
  9.3078867e-02
  1.3196228e-01
  2.8438261e-01
  3.6686108e-01
  9.0778452e-01
  6.0697091e-01
  8.5056938e-02
 -1.0672659e+00
 -2.1832001e-01
  3.0036947e-01
 -1.6697715e-01
  3.9349970e-01
  1.3892201e-02
  1.0019932e+00
  3.3537558e-01
 -1.3387783e-01
 -1.0254860e+00
 -3.2661986e-01
 -2.0846549e-01
 -4.3987177e-02
  7.2899632e-02
  1.5480672e-01
  2.9766420e-01
  5.6785967e-02
 -2.1771008e-01
  1.4183919e-01
  2.4979098e-02
 -1.1773287e-02
  4.4488173e-02
 -7.1273215e-02
 -2.6907390e-01
 -3.5651138e-01
  3.0563545e-01
 -1.0554763e-01
  5.2810818e-01
 -1.9367823e-01
 -2.6696024e-02
 -4.2242578e-01
 -3.2483611e-01
  4.1973062e-02
  1.0375933e-01
  1.8893115e-01
 -7.4307054e-02
 -8.9454696e-02
 -2.0287222e-01
 -9.2766643e-02
  1.2612423e-01
 -5.9534620e-02
  7.4873887e-02
  1.3093412e-01
 -7.3801927e-02
  3.5878763e-01
 -2.8446412e-01
 -1.0930230e-01
 -1.4036803e-01
 -1.3643803e-02
  1.0254195e-01
  7.5824298e-02
  2.1972935e-01
  1.3910769e-01
  1.9519983e-01
 -3.0615756e-02
 -3.0151734e-03
 -1.2842678e-01
  9.2853606e-02
 -1.8775241e-01
  2.0964644e-03
  1.8640156e-01
  8.8361569e-02
  2.8266919e-01
 -2.9514131e-01
  1.8482046e-01
 -1.3619488e-01
 -9.4572592e-01
 -5.1686514e-02
  4.4561345e-02
 -2.3260538e-02
  7.7021420e-02
  3.9520897e-02
 -5.3703621e-02
 -9.4738051e-02
  3.9288620e-03
 -3.4796093e-02
  8.2770154e-02
  7.6817922e-02
  7.7596426e-01
  2.6942006e-01
 -2.4091144e-01
 -7.0949328e-01
  4.7997001e-01
  1.2206565e+00
 -4.0496799e-01
 -1.9563860e-01
 -1.5843827e-01
  2.6221502e-01
  1.2353296e-01
 -1.5802450e-03
  7.2856808e-01
  5.2070028e-01
 -1.4613447e-02
  5.1362971e-03
  3.1990863e-02
  5.7601739e-02
  2.1484266e-01
  1.8640736e-02
  7.8505557e-03
 -4.3994230e-01
  5.1664401e-02
  1.6686709e-01
  5.6348580e-01
 -1.8014114e-01
  2.3350199e-01
 -7.3365420e-01
  7.1608886e-02
  2.0788217e-02
  4.2159012e-01
  7.4504286e-02
  2.0165214e-01
  9.4237082e-02
  1.7790285e-01
  5.3859758e-01
  1.0075386e-01
 -9.5468748e-01
  1.4270191e-01
 -4.6217012e-01
 -3.8737696e-02
  1.3339910e-01
 -4.5777816e-02
  7.0315324e-02
 -1.7288108e-01
  1.1225888e-02
 -1.7394252e-02
 -5.9062797e-03
 -6.2365904e-02
 -3.3282191e-02
 -3.6203422e-02
 -3.0827636e-02
 -4.8212655e-02
  5.4396123e-02
  7.6619434e-01
  5.2440329e-03
 -7.7215381e-02
 -5.9823077e-02
 -9.3557434e-03
  2.1973325e-02
  8.2522824e-02
  1.8220574e-01
  3.3368021e-02
  1.9121459e-02
 -4.4633906e-02
  2.7296194e-03
  5.4049935e-02
  3.7085526e-02
  3.4511428e-02
 -3.2642748e-02
  1.1063459e-02
 -3.9586108e-02
  1.9780377e-02
 -2.3047136e-02
 -1.9369567e-02
 -2.6873754e-02
 -4.3143202e-03
 -5.9247823e-03
 -1.4292114e-02
  1.0157248e-02
 -3.0434718e-02
 -2.2936411e-02
 -9.0308227e-02
 -2.2180660e-02
 -1.8845655e-02
 -2.2703502e-02
  5.0644305e-02
  3.3158916e-03
  5.0321676e-02
 -6.9602713e-02
 -2.0858020e-02
  1.0722292e-02
 -4.6962313e-02
  1.2324437e-01
 -9.4435941e-03
  6.3601926e-02
 -1.3837246e-02
  2.1023113e-02
  1.9788709e-03
 -1.1650456e-02
  1.4031075e-01
 -1.1781651e-02
  9.0492129e-02
  7.0221648e-03
 -1.4544459e-02
  7.6784790e-03
 -2.7382910e-02
 -2.0514425e-02
 -1.4542316e-01
  8.5573539e-02
 -3.6191013e-01
 -1.6049677e-01
  1.3836077e-02
 -7.2151363e-02
 -2.1045255e-02
  1.9415382e-01
  2.0728055e-02
  2.2865400e-02
 -8.4486775e-02
  2.8993048e-02
  2.1351875e-01
  1.0379924e-01
  2.3355110e-02
 -8.2826234e-02
  1.8702330e-01
 -7.7021554e-02
  6.0089070e-02
 -2.5405627e-02
 -2.2567807e-01
 -6.0849648e-02
  5.3968441e-02
  2.6123977e-01
  8.6688317e-02
 -1.7183208e-01
 -3.3302255e-02
 -1.7810902e-01
 -2.9737208e-02
  1.0024801e-01
  2.3338896e-01
  9.0515070e-02
  2.8963313e-01
  2.7875798e-02
  3.1402451e-01
  7.1574681e-02
  2.4701314e-02
 -2.6762977e-01
 -3.7850752e-02
  5.3357728e-02
  4.6109892e-02
  2.8371134e-01
  3.4098882e-02
  1.4927283e-01
 -8.6211458e-02
 -2.3603490e-02
 -4.5037143e-02
  4.3874271e-02
  1.3090879e-01
  4.2387791e-02
 -4.5502860e-02
 -1.4783441e-02
 -7.3922336e-02
 -5.0648864e-02
 -1.0101809e-01
  5.1838439e-03
  1.2914196e-02
  1.7938429e-01
 -2.8433530e-02
  3.7833054e-02
 -1.8011650e-02
 -3.6149435e-02
  1.4258327e-02
  2.9353285e-02
  1.1784251e-01
 -3.2316271e-02
 -6.2787093e-02
 -5.2150164e-02
 -6.1831791e-02
  1.9527057e-02
  4.3005526e-02
  2.8171053e-03
 -1.0585689e-02
  5.0915038e-04
 -5.9096652e-05
 -1.6350966e-02
  5.7967617e-03
 -7.7191353e-02
 -4.2376738e-02
 -2.2373162e-03
  3.1038160e-02
  2.5883839e-02
  3.1718384e-02
 -3.0227532e-03
  4.6751336e-03
  1.7338797e-02
 -5.3366922e-02
  2.7662097e-02
 -1.0849278e-01
 -2.5890791e-01
 -3.0599041e-03
  4.8819403e-03
 -4.2535231e-02
  9.4695464e-02
  1.4761107e-03
 -4.2043909e-02
  2.8077891e-02
 -2.9955929e-02
  1.9515492e-02
  9.4846869e-03
  2.9166669e-02
 -2.9612444e-03
 -2.4915861e-02
 -2.6600775e-03
  7.9574929e-05
  2.8595407e-02
  1.9778114e-02
  3.9623575e-03
 -6.8871737e-02
  1.5726103e-02
 -2.0189735e-04
  3.8325138e-02
  1.2249526e-02
  4.2822957e-04
 -1.3246110e-02
  3.2393739e-02
 -1.4813176e-02
  3.6709534e-04
 -2.8260674e-02
  3.1639595e-02
  4.6369955e-02
  3.2296941e-02
  2.2649480e-02
  1.9097336e-02
 -7.6922677e-02
 -2.1239642e-02
 -2.6920697e-04
 -6.7558768e-03
 -1.4503741e-03
 -5.0938334e-03
 -4.1422673e-02
  3.7644047e-02
  4.0058877e-02
 -3.7540104e-02
  2.3343472e-02
 -3.7873194e-02
 -2.6085731e-02
 -2.8699122e-02
  2.9088827e-02
  1.9083573e-02
  3.7945654e-02
  6.2807859e-03
  4.0273353e-02
 -2.1929508e-02
  2.9307587e-02
 -6.8072556e-04
 -2.2009825e-02
  2.6439358e-03
  5.5088359e-03
  4.5737404e-02
 -3.3868462e-02
 -2.6289871e-01
 -6.3798711e-02
 -3.5838224e-02
  7.2930688e-03
  9.3993116e-03
  5.9323432e-03
  1.6641820e-02
 -6.9096033e-03
  1.4941078e-03
 -2.3491163e-02
 -3.2651764e-01
 -5.0005412e-01
  9.8607987e-02
  3.8127762e-01
 -1.3289830e-01
 -1.8792357e-02
 -1.0956991e-01
  5.3060281e-01
 -8.0204350e-01
 -2.1108182e-01
  4.6996292e-01
 -6.6945583e-02
 -6.9887720e-02
  3.4471132e-02
  1.1232451e+00
 -1.8123165e-01
 -2.7209860e-01
 -2.5499228e-01
  1.3333325e-01
 -3.9312884e-01
  7.4297816e-02
  6.2938534e-02
 -3.7180048e-01
 -2.7811867e-01
 -9.8751083e-02
  9.0140559e-02
 -8.8899843e-02
  2.5391275e-01
  1.8492329e-01
  1.8680550e-01
  1.7948784e-02
 -2.3108962e-01
 -2.5820026e-01
 -1.5927549e-01
  1.1606357e-01
 -2.8660646e-01
 -3.0971789e-01
  1.4183079e-02
 -9.7855203e-02
  7.1535036e-02
 -6.7135759e-02
 -1.4021289e-01
 -2.0330746e-01
 -2.7463233e-02
 -2.0613857e-01
  3.2391537e-02
  7.2443873e-02
  7.9165667e-02
  1.5169719e-01
 -7.3257551e-02
 -1.3650481e-01
  3.0001514e-02
 -9.8768780e-03
  9.3766928e-02
 -2.2127613e-02
  1.0892744e-02
 -3.8171902e-02
  3.2760996e-02
 -2.6276564e-02
  1.3633745e-03
  2.3660343e-02
  1.7467858e-02
 -2.2979495e-01
 -2.3931526e-03
 -1.6041005e-03
  1.3898882e-02
 -6.0100012e-02
 -1.3245880e-02
 -5.0682776e-02
 -2.2362027e-02
  9.4315056e-03
 -2.7547736e-02
 -5.0252886e-03
 -4.5281798e-02
 -1.7303875e-02
  2.7735410e-02
 -2.3747770e-02
 -9.3437815e-03
 -3.0208044e-02
 -4.1557707e-02
  9.5217852e-03
  3.3202812e-02
  1.8064655e-02
  9.8862555e-03
 -4.4815312e-03
 -7.7994443e-03
 -5.7453741e-03
 -3.8057625e-02
 -9.9970112e-03
  2.7067151e-02
 -2.0300969e-02
 -1.2807779e-02
 -4.4526369e-03
  1.3713079e-03
 -1.5555331e-02
  1.0612045e-02
 -4.9451038e-02
  7.8335563e-03
  2.2191540e-04
 -6.6819917e-03
 -1.1784310e-02
  1.9747900e-02
  2.6828668e-03
 -6.7912206e-02
 -1.3263947e-01
  1.8041836e-02
 -2.0393904e-03
  9.3144197e-03
  5.5795934e-02
  3.8367525e-02
 -1.4609462e-02
  2.9221596e-02
  3.2958958e-02
 -7.1701147e-03
  2.3402797e-02
  1.0201192e-02
 -3.3480581e-02
  5.4916246e-03
  1.1102933e-02
  5.1435068e-02
 -3.7341427e-02
 -3.4336731e-02
 -4.4405319e-02
 -4.2306151e-02
 -4.5517456e-02
 -3.4558821e-02
  3.1468023e-02
  4.0646862e-02
  7.9427240e-03
  1.0596368e-02
 -9.4472487e-03
  1.5349837e-02
 -7.0019126e-02
 -7.2300293e-02
  5.5751335e-02
  2.5379568e-02
  4.3305833e-02
 -2.1564730e-03
  2.4386536e-04
 -4.1786455e-02
 -2.3695652e-03
 -2.1089725e-02
  1.2363587e-03
 -6.4773791e-02
 -2.0651434e-02
 -7.6001910e-03
 -5.2815969e-03
  2.1378454e-02
  8.6103752e-04
  1.0566968e-02
 -6.4121492e-02
 -5.3267181e-03
 -4.8220349e-03
  5.3973468e-03
  1.2312029e-03
  3.4215741e-02
  6.4172475e-03
 -2.5594389e-02
 -9.6148746e-03
  3.3719970e-03
  2.1420836e-02
  5.0166915e-03
  8.4607534e-02
  9.9370706e-01
 -7.2716010e-01
  1.5524308e-01
 -1.5528087e-01
 -7.8466332e-01
  1.7794089e-01
  2.1043219e-01
 -3.2494244e-01
  1.0986145e-01
 -6.9563669e-01
  5.3709030e-02
 -2.7629286e-01
 -2.3388912e-01
 -4.1980845e-01
 -3.6528242e-01
 -1.0954072e-01
 -2.3252988e-01
 -5.3077466e-03
 -4.2005771e-01
 -1.0488472e-01
 -1.5872377e-01
 -2.3896451e-01
 -3.1336474e-01
 -3.0101675e-01
 -2.4557921e-01
 -1.8321479e-03
  2.1312124e-01
  9.6468106e-02
 -8.3840862e-02
 -1.8614547e-01
 -1.4528513e-01
 -6.3017458e-02
 -1.8524210e-01
 -1.3471946e-01
 -2.5055531e-01
  1.0953022e-01
 -1.2829262e-01
  7.3567808e-02
 -1.8456449e-01
  2.3982264e-01
 -4.3501463e-02
 -2.0570968e-01
 -3.3317428e-02
 -1.2900893e-01
  9.2211626e-02
  8.0984004e-02
  4.1260507e-02
 -1.2340969e-01
 -4.9675331e-02
 -1.0027426e-01
 -1.3692023e-02
 -5.7759305e-04
  6.4596668e-02
 -2.9127806e-01
  5.4943335e-01
 -5.6175694e-02
  2.1251923e-01
  7.0477748e-01
  9.9827342e-02
 -5.6468755e-01
 -1.6061115e-01
 -6.2111109e-01
 -1.4910838e-01
  3.7551069e-01
 -9.1796480e-02
  1.0947273e-01
  3.9622121e-02
 -4.0140375e-02
 -1.2834188e-01
 -1.3061407e-01
 -1.7232600e-01
  1.7934766e-01
 -2.8437812e-02
  7.3041931e-02
 -2.0737167e-01
 -3.7337416e-01
  2.1553701e-02
 -1.3867170e-01
 -8.7045193e-02
  1.6460642e-02
 -3.8196888e-02
 -2.1973634e-03
  2.3921508e-01
 -1.5032937e-01
 -1.3548763e-01
  1.0945487e-01
 -2.4661420e-01
 -1.6630555e-02
  1.2006149e-01
  2.1083696e-02
 -3.8101769e-04
 -2.0659883e-01
  4.9426597e-02
 -1.6553177e-01
 -1.8174965e-03
 -1.9987349e-01
 -2.1292398e-02
 -2.1909525e-01
 -3.5724558e-02
  1.5261032e-01
 -2.5711073e-02
  1.7920721e-02
 -1.5547693e-01
  5.4721810e-02
  3.0689400e-02
 -2.3999251e-02
  8.7085582e-02
  2.7702847e-01
 -5.1896143e-01
 -8.2768667e-01
  3.9176342e-01
 -2.6314282e-01
  1.0360671e+00
 -1.3915253e+00
  1.1741251e+00
 -8.2360637e-01
  7.9266065e-01
 -9.0397263e-01
  1.7510855e-01
  7.8540199e-02
  1.2947372e-01
  1.5562367e-01
 -3.2553214e-01
  1.1362917e-01
  1.6221948e-01
 -4.5900688e-02
  1.9990514e-01
 -7.7718681e-01
  3.3349136e-01
  4.8898301e-01
 -1.2481540e-01
 -4.1897294e-01
 -2.5414211e-01
 -2.4153043e-01
  8.3265048e-01
 -2.1571992e-02
 -5.2299207e-01
  1.4013079e-01
 -8.9587981e-01
 -3.5999123e-02
 -2.6446787e-01
 -2.0586129e-01
 -3.1680551e-01
 -3.2802230e-01
  2.7781048e-01
  3.0008394e-03
 -6.0091987e-03
 -4.0758741e-01
 -5.2656144e-01
 -1.0811366e-02
 -2.4515277e-02
  5.8710325e-01
  1.6593255e-01
  1.9883376e-01
 -8.0534153e-02
 -2.4503839e-01
  6.1742794e-03
 -2.3682344e-01
  7.3520176e-02
 -2.5096445e-03
  1.5012199e-01
  3.6448514e-01
 -1.4213097e+00
 -6.4942227e-03
  9.1260284e-02
  2.1423365e-01
 -1.3833991e-02
  1.0885321e+00
 -4.0887713e-01
  6.4837083e-02
 -5.1883680e-01
  4.6235967e-01
  5.4782546e-01
 -8.8873237e-02
  7.5993311e-01
  2.2606340e-01
 -4.7845032e-02
  9.1072865e-02
  3.0003914e-01
  1.4853881e-01
 -1.8470852e-01
 -1.0354694e-02
  5.7338614e-02
 -4.7407013e-01
  1.2803652e-02
 -8.2608841e-02
 -5.5650666e-02
  1.9027503e-01
 -9.3275118e-01
 -3.4387049e-01
  2.9150218e-01
  3.6222541e-01
  3.3593613e-01
  2.2886401e-01
 -3.2417157e-01
  1.6565600e-01
 -1.3586085e-01
  7.2059661e-01
 -2.4130201e-01
 -1.4574529e-01
  5.3043997e-01
 -1.2247922e-01
  4.1958183e-01
 -2.6250607e-01
  1.1885271e-01
  3.7105796e-01
 -4.2032748e-02
 -1.1524267e-01
  5.3704903e-02
  2.2702248e-01
 -3.3381119e-01
  2.1594831e-01
  5.4643981e-02
 -4.3093778e-02
  5.2039832e-02
 -1.0560288e-01
 -1.5566243e+00
  5.1597732e-01
 -4.2447087e-01
  2.0206462e-01
  4.5009211e-02
 -1.2157010e-01
 -4.0450522e-01
 -1.8464439e-01
  1.6966428e-01
 -2.1436578e-02
  5.0955731e-01
 -1.9967762e-01
  2.3177883e-01
 -1.1838173e-01
 -6.1442468e-02
  2.5147533e-01
  2.1274716e-02
 -8.1768952e-02
  4.1372634e-02
 -7.6102413e-02
  2.2833024e-01
  1.7099410e-03
 -2.4284823e-02
 -7.5078577e-02
 -8.0872782e-02
 -2.1059275e-01
  3.4199482e-01
 -2.0698497e-01
  1.3030988e-01
  6.3692704e-02
  3.9568698e-01
  1.0051627e-01
 -6.7581058e-02
  7.3718727e-02
 -1.3883379e-01
 -4.8774159e-01
  1.2116709e-01
 -9.4165877e-03
 -1.4604175e-01
 -6.0269827e-01
 -1.8510118e-01
 -4.2273864e-02
  1.1038690e-01
 -1.1731071e-01
 -4.5913603e-02
 -6.2638365e-02
  1.1904085e-01
 -5.4769795e-02
  2.2808025e-02
 -3.2119211e-02
  3.9141733e-02
 -7.0927790e-03
 -2.2147627e-01
 -3.1296632e-01
 -8.7153810e-01
 -1.2665807e+00
  3.2969937e-01
  1.1221244e+00
 -3.2360202e-01
  4.1296461e-01
 -7.3729086e-01
 -1.0272696e+00
  4.5670906e-01
  2.1450514e-01
 -4.2844674e-01
  9.0349621e-01
 -4.4000769e-01
 -1.1688835e-01
  1.9214045e-01
  1.4056471e-01
 -1.8254446e-02
 -1.6181932e-01
  1.1525616e-01
  1.9935836e-01
  8.6299337e-02
 -3.2815319e-01
  2.3834069e-01
  9.4599009e-02
  2.0842808e-01
  2.0564951e-01
 -2.6145086e-01
  7.2460347e-01
  7.3061407e-02
  3.3720785e-01
 -4.1637981e-01
  3.3628407e-01
  4.4069007e-02
  1.6367459e-01
 -3.2662235e-02
 -5.9556472e-01
  5.6977677e-01
  7.1018219e-01
  1.9012047e-01
  6.2752122e-01
 -5.8585469e-02
 -9.7677857e-02
  6.4491741e-02
 -1.3901184e-02
  8.8451385e-02
  2.6686129e-01
 -1.1551281e-01
 -1.8720381e-01
 -5.2256383e-02
  1.0500499e-01
  2.3264222e-02
  4.1327015e-03
 -2.1499513e-02
 -1.0815186e-02
  2.7592806e-02
 -7.3694851e-04
  2.9022560e-02
 -8.0779372e-03
  5.4666635e-02
 -1.9307971e-01
 -7.4764290e-03
 -4.0568534e-02
  5.3601614e-03
  5.5178385e-03
  3.4546370e-03
  1.1600168e-02
 -8.0424093e-02
 -5.5457223e-02
 -4.0347792e-02
 -8.8167312e-03
 -2.0707514e-02
  3.5811428e-02
 -4.4135276e-02
  5.8576190e-03
  3.1678714e-02
 -6.4741750e-03
 -1.7967496e-02
 -6.1266288e-02
 -2.7956283e-02
  4.8413817e-03
  2.4542056e-02
  2.9299479e-02
  1.0803443e-02
  1.4243600e-02
 -4.6340417e-02
 -2.4456911e-02
 -7.3150918e-02
  8.8033061e-03
 -7.8641914e-02
 -4.6801534e-03
  2.3713119e-03
 -8.3345568e-01
 -1.7566172e-02
 -8.9171054e-03
  1.6043087e-03
 -4.7280703e-02
 -1.8761391e-02
 -3.2796558e-02
 -2.0937139e-01
 -3.1434603e-02
 -7.3722941e-03
 -1.5590372e-02
  2.2689380e-02
  8.1802439e-03
 -3.3984166e-03
  1.3055582e-02
  2.5422717e-02
 -3.7430882e-04
 -6.3647956e-02
 -6.1044083e-03
 -2.2305092e-02
  1.1245230e-02
 -1.7839588e-02
 -8.8113165e-03
 -1.3114350e-02
  2.5421627e-02
  9.0489874e-04
  3.0969472e-03
 -5.7866193e-02
  1.1805954e-03
  5.1365145e-02
  7.7321649e-02
  2.5584463e-02
 -2.9394511e-02
  4.7225278e-02
 -1.4655461e-02
  7.8495350e-03
  2.0817047e-02
  7.5856424e-03
 -1.4974764e-03
 -1.2125217e-01
  3.8009647e-02
  1.1255485e-01
 -2.7298728e-02
 -4.9590699e-02
 -3.9754301e-02
  8.6503793e-03
  6.3102688e-03
  2.5682237e-02
 -1.2910246e-02
  5.4952311e-03
 -1.5780451e-02
  4.0159281e-02
  2.3131181e-02
  2.2480574e-03
  3.5129336e-03
  1.0175912e-02
 -5.0527644e-01
  6.6369101e-03
  9.0890387e-03
  1.1510707e-02
  2.3770841e-02
  2.8569035e-03
 -2.8284354e-02
  1.6014298e-02
 -7.0277359e-03
  3.7534088e-02
  2.3008285e-03
  1.9369163e-02
 -2.4302943e-02
 -1.8023382e-03
  6.1271158e-03
 -3.7226854e-03
 -7.3304148e-03
  5.7010027e-03
 -1.9136463e-01
  1.9789075e-02
 -2.0600682e-02
  3.8576173e-03
 -3.1178171e-02
  3.3570235e-03
 -1.7310757e-03
 -1.4998420e-02
  7.9085166e-03
 -1.0986577e-02
 -3.9875926e-03
 -5.0047748e-03
 -1.0287507e-03
 -2.0309318e-02
  3.1827953e-02
  3.9342586e-03
  1.2367640e-02
  1.2915789e-02
 -1.3627606e-02
 -4.1775848e-03
 -6.1649173e-03
 -1.2203383e-02
 -2.1164035e-03
 -9.7437175e-03
 -2.2568975e-02
 -1.0288493e-02
  9.2896661e-03
  2.2894409e-03
 -1.4290566e-02
 -3.5632879e-02
 -3.2355454e-02
 -2.3831761e-02
 -2.1829600e-02
  1.9146504e-02
  3.0464768e-02
  1.8463412e-02
  1.5529065e-03
 -7.9360354e-04
 -1.0550087e-02
 -1.3498775e-02
 -1.4109838e-02
  2.6150037e-02
 -2.3149906e-03
  9.9455155e-03
  6.1810496e-03
  1.1448740e-03
  5.1917334e-04
  1.6805338e-03
 -1.0241894e-02
  1.3692604e-02
  7.3809219e-03
 -2.4839865e-01
  6.5060303e-02
  2.4902949e-02
 -5.0711082e-03
  2.0572882e-02
  1.3117756e-01
 -1.6960442e-02
  6.1915342e-02
 -2.1736069e-02
  4.0642899e-02
 -1.2453017e-02
 -4.3044966e-02
 -8.4243856e-02
 -6.4152814e-02
 -3.8954832e-02
 -2.6153980e-02
 -2.8081646e-02
  3.7912868e-02
 -3.4354106e-02
  2.2280447e-02
 -1.2085193e-01
 -4.1165005e-02
  4.9369778e-02
 -7.8105867e-02
 -4.0640622e-02
 -7.1912208e-03
  2.0484181e-02
  5.1343840e-02
  6.6196784e-02
 -2.9323087e-04
 -1.4492248e-02
  2.7410638e-02
 -8.4527634e-02
  2.3450289e-02
  2.3083314e-01
 -5.9635550e-02
  1.4495362e-03
 -2.7609119e-02
  3.3502039e-02
 -4.1212118e-01
  6.4226105e-03
 -5.1662091e-02
 -1.6950220e-03
 -2.6696049e-02
  1.1862692e-03
  9.2078876e-03
 -8.4760727e-04
  2.0571992e-02
 -3.3369135e-02
 -2.4696637e-02
  1.1656603e-02
 -2.1916047e-02
  3.1687621e-02
  1.8717289e-01
 -2.2629397e-02
 -4.4266924e-01
  2.1874133e-01
 -1.1386509e-01
 -1.4287417e-01
  3.5409570e-01
  1.0380477e-01
 -6.0480177e-02
  2.9038769e-01
  8.8604629e-02
  6.6664293e-02
 -1.0757906e-01
 -9.6949929e-01
 -1.7805398e-01
 -1.1585988e-01
  9.0725154e-02
 -1.5289281e-01
 -1.3096862e-02
 -4.0097278e-01
  2.9372820e-01
  2.9167265e-01
  3.6062446e-01
  2.0549916e-01
 -2.9607078e-01
  2.0472720e+00
  6.0914852e-02
  2.8004181e-01
  4.0723565e-01
  2.9204816e-02
  2.2433892e-01
  5.7790309e-01
 -1.4894559e-04
 -1.7787696e-01
 -2.5546733e-02
 -1.5968534e-01
 -1.5947399e-01
  2.0113465e-01
 -2.3582986e-01
  1.7135051e-01
  7.2119862e-01
  5.4911841e-02
 -2.3332600e-01
  8.9101635e-02
 -8.1359878e-02
  1.1481420e-01
  1.7166624e-04
 -4.0375456e-02
  1.5770443e-02
 -1.2315703e-01
  6.2645420e-02
  2.9122792e-02
 -5.1315404e-03
  6.6444755e-02
 -6.9138654e-02
  4.2796630e-01
  3.4904760e-01
  3.5805643e-01
 -3.7130287e-01
  3.5227937e-01
 -3.7859444e-02
 -2.8425264e-01
  2.1873046e-01
 -1.7840391e-01
 -8.9769632e-01
  2.3735594e-02
 -2.0722802e-01
 -6.0062725e-02
 -6.7780413e-02
  9.1137990e-02
 -2.1254685e-02
  3.2813296e-02
  1.7448480e-01
 -1.9191325e-01
 -5.3122401e-02
 -1.9068610e-02
 -2.3325452e-01
 -4.4153696e-03
  1.2137671e-01
  2.1389444e-01
  2.3254404e-02
 -2.7564445e-01
  8.3322310e-01
 -2.1154790e-01
  1.0683699e-01
  3.4628278e-01
  3.2026377e-03
  2.3713964e-01
 -5.4928206e-02
  6.0510230e-01
 -1.2382536e-01
  3.6975302e-02
 -1.7240290e-01
 -4.4015024e-02
 -3.1206077e-01
 -3.2926339e-01
  1.1701901e-01
 -3.0323796e-02
  1.7806496e-01
 -1.0108099e-01
 -1.4759992e-01
 -6.0733254e-03
  7.7322058e-02
 -7.6835938e-02
  7.9971783e-02
 -2.9429352e-02
  6.6054955e-02
 -4.9509969e-02
 -2.5417276e-02
 -4.2346486e-01
  3.7146106e-01
 -6.3613415e-02
  2.4352700e-02
  5.7640698e-02
 -5.7189669e-02
  6.8477308e-03
  2.6861008e-02
 -2.3351219e-02
 -2.0169718e-02
  1.0598987e-01
 -6.1575375e-03
  5.7996988e-02
  1.4226972e-01
  2.7582578e-02
  8.5935593e-03
 -5.8270125e-03
  1.5174611e-02
  5.5797812e-02
  1.4029621e-02
  1.8520683e-02
 -1.4987235e+00
  3.0582206e-02
  4.5712408e-02
  3.4127634e-02
 -1.8980145e-02
 -3.8920250e-02
  1.2935524e-02
 -1.4055414e-02
 -8.3930115e-04
 -1.6136015e-03
  3.9038483e-02
  6.6924207e-02
  1.7629553e-02
 -8.5350079e-03
  6.6333674e-02
  3.4869832e-03
  5.0241493e-02
 -7.2587974e-02
  3.4845822e-02
  6.0544375e-02
  6.7690529e-02
 -1.9672897e-02
  3.0796187e-02
 -1.6002646e-02
 -1.3477380e-02
 -4.7567566e-03
 -2.7415721e-02
  1.3215440e-02
  5.1451521e-03
  1.3708802e-02
  6.8270537e-04
  9.1182794e-03
 -4.4179428e-03
 -4.8846772e-01
  2.3098308e-01
 -3.5221957e-02
  4.7741276e-01
 -2.9545339e-02
  2.3861344e-01
 -5.1097285e-02
  7.0174024e-02
 -3.7003513e-02
  1.0672478e-01
  8.1872217e-02
  1.3373429e-01
 -4.8910928e-01
  1.2907621e-01
  8.1751958e-02
 -7.6623045e-02
  8.3218440e-02
 -3.8717082e-01
  1.0578626e-01
 -8.6537622e-02
 -4.2296879e-02
  6.1596882e-02
  3.8107403e-02
  1.1605036e-01
  7.1036004e-02
 -4.8971545e-02
  4.3180016e-01
 -8.1758007e-02
  2.5240138e-02
 -5.9600612e-03
  1.7065719e-01
  2.8549032e-03
  1.0864802e-01
  2.7614191e-02
  1.4459442e-01
 -2.7548036e-01
  3.9536193e-02
  2.6061220e-02
  2.6617739e-02
 -8.5383266e-01
  5.0327885e-03
  1.1156981e-01
  2.8751470e-02
  2.8612977e-02
 -4.6129923e-02
 -2.4975341e-02
 -4.9151149e-02
  3.9693853e-03
  8.6613461e-02
  9.5637963e-04
 -1.4128302e-02
  9.5872292e-03
 -5.2051015e-02
  9.6162558e-03
  6.4116687e-02
 -3.3965355e-01
 -4.9548101e-02
  4.4258803e-02
  7.9499967e-03
 -1.8568587e-02
  1.6208941e-01
  6.5417752e-02
 -1.0640772e-04
 -2.2767801e-02
 -9.2261638e-03
  1.1310532e-03
  7.5886041e-02
  3.8431320e-02
 -1.2306599e-01
  1.1505780e-02
 -3.4806048e-03
 -1.7178552e-01
 -1.6137607e-02
 -1.2437912e-02
 -2.6899775e-02
  3.8523348e-03
  3.7526621e-03
  2.8434027e-02
  6.4980082e-02
 -4.9433190e-02
  2.9807832e-02
 -8.0244325e-02
 -3.3451080e-02
  1.4435909e-02
  1.0261787e-03
  4.3634796e-03
  7.9586819e-02
  2.0371869e-02
  7.7397607e-02
  5.7189830e-02
  1.9247953e-02
  3.0684605e-02
 -3.0761054e-02
 -5.6420308e-02
  5.4795044e-03
  7.4382171e-02
 -1.8710377e-02
  4.9958501e-02
 -3.8400881e-02
 -2.8409632e-03
 -1.9599719e-02
  1.5103463e-02
  2.4759503e-02
  2.5285013e-02
 -2.8262923e-02
 -6.0274838e-03
 -1.6068835e-02
  6.4103621e-01
  1.0668787e-01
 -4.0617955e-01
  2.0202783e-01
 -6.9844443e-01
  1.1744248e+00
 -7.2567600e-01
  1.4439958e+00
 -3.4021077e-01
  4.5874763e-01
  4.1781422e-01
 -5.7236475e-01
  1.3305385e-01
  5.9424821e-02
  4.1671863e-01
 -2.5171483e-01
 -1.9248758e-01
 -2.9721290e-01
  1.0066898e-01
  2.3280333e-01
 -3.4394160e-02
 -1.4560069e-01
  1.2094206e+00
  1.0359292e-01
 -2.3178433e-01
 -3.8235563e-01
  9.0316191e-02
  1.2868012e-01
  3.0187079e-01
 -1.1849541e-01
  5.4209059e-01
 -2.6762640e-01
  2.0830412e-01
 -2.9172030e-01
 -1.9729134e-01
 -2.8432465e-01
  9.6695675e-03
  1.0963189e-01
 -8.8159949e-02
 -3.9669496e-01
 -6.9063008e-01
 -6.8638986e-01
 -2.3641343e-01
 -3.4218468e-02
 -3.5039854e-01
  1.2571719e-01
  1.1031842e-01
 -7.7963457e-02
 -2.6775530e-01
  1.5692061e-01
  3.2734029e-02
  5.0668538e-02
  5.2957244e-02
  6.7016512e-02
 -2.9825878e-01
  1.1286043e+00
 -2.0129047e-01
 -3.1470749e-01
  5.3167468e-01
 -3.6307797e-02
  4.6457326e-01
  8.2135029e-02
 -4.8513037e-01
  2.1687860e-02
  1.2417151e-01
  2.0379944e-01
  2.4745849e-01
 -6.9559634e-01
 -2.4015194e-01
 -1.3907236e-01
 -5.2097104e-02
 -2.3482646e-01
  4.1476822e-01
 -1.5948755e-01
  4.8614439e-02
 -2.4035901e-01
 -1.6215815e-01
 -2.1706216e-01
 -2.9309291e-01
 -5.0895131e-01
 -8.6886726e-02
 -2.1523394e-02
  4.5667556e-01
  1.5701871e-02
 -6.4610280e-02
 -5.1262891e-01
 -1.9066821e-01
 -3.0137697e-01
  2.0126544e-03
 -2.9192707e-01
 -1.9835518e-01
 -1.1592491e-01
 -1.6192243e-01
 -1.9564138e-01
  1.0627077e+00
 -2.0810287e-01
 -2.5560793e-01
 -9.5874250e-02
 -1.5737012e-01
  2.1557830e-01
  2.7799828e-03
  5.4608610e-02
 -4.7074579e-02
 -1.8623455e-01
 -6.7395814e-02
  1.1649834e-01
  4.9733170e-03
  6.0294297e-02
  5.8681542e-01
 -8.5093087e-01
 -1.6794951e-01
 -1.0971811e-01
  3.9891407e-01
 -1.0276632e+00
 -2.8046088e-02
  2.8987326e-02
 -1.1483330e-01
 -5.2552426e-01
  3.6392003e-01
  6.4792949e-01
 -5.5183567e-02
 -1.5991295e-02
  1.8177760e-01
  1.2040156e-02
  2.7627519e-01
  4.2553896e-01
 -6.8848526e-01
 -3.1504673e-01
  3.3598539e-01
 -2.4279322e-02
 -3.7670952e-01
 -3.7383810e-01
  1.7108067e-03
 -1.2867587e+00
  1.0456768e-02
  1.0154513e-01
 -3.2849550e-01
  5.9768734e-03
  8.6772794e-01
 -6.2949546e-03
 -2.5505958e-02
 -1.2403201e+00
  4.8222110e-01
 -3.2741123e-01
  4.0958673e-02
 -3.3665299e-01
  1.2215362e-01
 -3.1047469e-02
  9.7527681e-03
 -4.4281832e-03
 -2.7284607e-01
  7.0908278e-01
 -1.4695864e+00
 -2.0937759e-01
  3.9630988e-01
  2.9164335e-02
 -8.5608286e-01
 -8.2917029e-01
  2.7687335e-01
  5.3565240e-01
 -5.2271134e-01
 -1.6443835e-01
 -3.2120916e-01
 -5.4215145e-01
 -7.3765919e-02
  2.9556414e-01
 -2.2617312e-01
  4.8294860e-01
 -2.4546628e-01
 -1.0683422e+00
 -7.1484911e-01
  3.1479072e-02
 -2.8390786e-01
 -1.0336716e-02
 -1.5709125e-01
 -2.7717665e-01
 -5.9282380e-01
  8.0334604e-02
  5.5068439e-01
  2.0164564e-02
  1.2041034e+00
  1.5336260e+00
 -4.0922263e-01
  4.5962852e-01
  1.5501247e-01
  6.8229413e-01
 -1.4589070e-01
  9.5895782e-02
 -6.9309908e-01
 -1.0451338e-01
 -1.3637689e-01
 -4.5669290e-01
 -6.3084894e-01
 -9.0935165e-01
 -1.5173584e+00
 -9.5739353e-01
  7.5343329e-01
 -1.4391972e-01
  8.9454047e-02
 -2.3290170e-02
 -1.7485791e-01
 -5.5590516e-01
  7.4876589e-01
  1.5066662e-01
  2.8369826e-01
  1.5287554e-01
 -7.1292710e-01
 -6.3863295e-01
  2.1230094e+00
  5.9747833e-01
 -4.0865457e-01
  6.9774467e-01
 -2.9915357e-01
 -6.0746878e-01
  5.3265315e-01
  3.5591245e-01
 -1.2502359e-01
 -7.0713443e-01
 -1.2459395e+00
 -3.5295507e-01
 -1.2037034e-01
  1.1611595e-01
  7.9491282e-01
  3.8220924e-01
 -2.6079133e-01
  1.3403968e+00
  2.1119530e-01
  2.5740099e-01
  2.5309098e-01
 -9.8092103e-01
 -1.0461142e+00
 -3.0417031e-01
  2.6205873e-01
  1.0766237e+00
  1.1269943e+00
  3.1790352e-01
  2.8004283e-01
  6.2051868e-01
  1.0158628e+00
  1.4270848e-01
  1.8506408e-01
 -3.8613388e-01
  3.5851443e-01
 -4.7962633e-01
 -9.3607926e-01
  4.7631815e-01
  4.2725882e-01
  8.3637440e-01
  3.1379890e-02
 -4.0369245e-01
  2.3255673e-01
 -4.2829922e-01
 -9.2255223e-01
 -2.8292874e-01
  1.2300561e-01
 -5.4517466e-01
 -1.2095585e+00
 -7.8086421e-02
 -1.1349713e-01
 -5.1127779e-01
 -6.4734989e-01
  2.6834026e-01
  2.5079700e-01
  1.5348567e+00
  1.8006066e+00
  2.0305970e-01
 -2.8365260e-02
 -1.6587124e+00
 -2.3982523e-01
 -6.2764448e-01
  6.6005655e-02
 -8.3656365e-01
 -5.8974242e-01
 -2.1597847e-01
  8.2287079e-01
  1.5921099e-01
  1.0461219e-01
 -6.5114045e-01
 -7.9234165e-01
  4.4875690e-01
 -5.0179505e-01
 -1.0304360e+00
 -8.0142844e-01
 -4.9977544e-01
 -1.6666691e+00
  1.4307447e-01
  4.9013758e-01
  1.7501219e-01
 -4.4678450e-01
  1.1672997e+00
  1.2199985e+00
 -5.9236330e-01
 -1.9076607e-01
  1.9258856e+00
  1.8724187e-01
 -1.7852379e+00
 -9.4513988e-01
  1.5312543e+00
 -1.6367710e-01
 -2.7734718e-01
 -1.2038051e+00
 -1.0294181e+00
  3.3652022e-01
  2.4574937e-01
  4.1117892e-01
  2.0939749e-01
  1.6113694e+00
 -6.3392872e-01
 -1.0440359e+00
  4.3289697e-01
 -1.3150579e+00
 -3.4910828e-01
 -1.2716111e-03
 -1.1063622e+00
 -1.3354882e+00
  2.8073493e-01
  5.9015989e-01
  1.7716707e+00
  7.2843754e-01
 -8.8396490e-01
  5.5862653e-01
  1.0904947e-01
  4.0097550e-02
  9.7079134e-01
  2.1440774e-02
 -8.2944922e-02
 -1.5657680e-01
 -1.0055757e+00
 -1.0893286e+00
 -1.1616812e+00
 -4.0456736e-01
  7.3615640e-01
 -3.2283890e-01
 -4.7189081e-01
  6.7006838e-01
 -6.1432350e-01
  8.6863649e-01
 -2.6470643e-01
 -2.5475341e-01
  4.1986011e-02
  2.4151996e-01
  6.3269138e-01
 -4.9439597e-01
  5.9468287e-01
 -4.9237123e-01
 -2.6450491e-01
  8.5040830e-02
 -3.8101811e-02
  4.1158071e-01
 -3.4931400e-01
  1.7124610e-01
 -6.6068405e-01
 -1.6551600e-01
 -8.0141604e-01
 -4.0269673e-01
 -5.1869977e-01
  1.0915828e-01
 -1.6960504e-02
  2.6210260e-02
  1.1244655e-01
 -2.7803230e-01
 -3.3394763e-01
 -2.3256513e-01
  6.8905026e-02
 -1.0314432e+00
 -3.4102955e-01
 -2.0227010e+00
  4.3631846e-01
 -2.8904700e-01
 -5.6428796e-01
 -7.9004705e-01
 -2.2050035e-01
 -1.5760140e-01
  4.7735745e-01
  1.8785655e-01
  2.5482449e-01
  1.6711383e-01
 -1.9426237e+00
 -1.0163473e+00
  1.5920704e-02
  3.6805087e-01
  2.9442194e-01
 -8.6097658e-01
 -1.1847751e+00
 -2.7073869e-01
  2.7913565e-03
 -9.9927229e-01
  1.0072152e-01
  1.8147271e+00
 -2.6252489e+00
 -1.7777843e+00
  2.2173285e-01
  2.9016030e-01
  8.5994625e-01
  9.5887130e-01
  7.3433802e-02
 -1.7753333e-01
 -1.1588973e+00
  5.7369087e-02
  1.4080982e+00
 -5.9229302e-01
 -1.6761680e+00
 -1.1571938e+00
  1.0702082e+00
  3.9232668e-01
  2.6790369e-01
  1.4794470e+00
  3.3693679e-03
 -7.2812468e-01
  5.7827961e-01
  4.0833053e-01
 -1.8230153e+00
 -2.1083683e-01
  1.0676447e-01
 -1.6067293e+00
 -8.9181960e-01
  7.4851996e-01
 -3.5664168e-01
 -8.3002955e-01
  6.2991184e-01
 -3.9328909e-01
  1.1985953e+00
 -8.5288815e-02
 -2.7888462e-01
  1.1520309e-01
 -2.0123136e-01
  5.0956495e-02
  4.7122750e-01
 -5.3741485e-01
 -9.3322796e-01
  1.6084562e-01
 -1.0091622e+00
  5.2755781e-02
 -1.9160451e-01
  1.5521120e-01
 -1.7595553e-01
 -3.3839867e-01
 -4.6004161e-02
 -3.6221337e-01
  2.1020319e-01
  2.5632656e-01
 -1.9996126e-01
  1.6422889e-01
 -5.9458095e-01
 -5.7373363e-01
  1.5472214e-01
  7.9889780e-01
 -5.0136244e-01
 -4.7872890e-02
  4.9614388e-01
 -2.1284853e-01
  1.1463462e+00
  6.2662339e-01
  9.8915160e-02
 -2.1040879e-01
  6.6392547e-01
  6.2972106e-02
 -1.4993970e+00
 -2.8124499e-01
 -4.8095441e-01
 -1.7287834e-01
  3.3939391e-01
 -3.0478385e-01
 -1.8190500e-01
 -1.0670638e+00
 -1.3242366e+00
 -8.7420851e-01
  6.2936366e-01
  7.5614029e-01
 -7.1800619e-01
 -2.1677770e-01
  1.4718856e-01
  7.8366143e-01
  1.4000725e+00
  8.9311874e-01
  1.3992847e+00
  5.6856781e-02
  2.4318999e-01
  8.8451928e-01
  1.1718873e+00
  6.5860909e-01
  2.4775608e-01
 -1.6439592e+00
 -8.4740184e-02
 -3.4842500e-01
  1.1499608e+00
 -8.3173424e-01
 -5.6578040e-01
 -2.5415914e+00
  6.3978875e-01
  7.7078855e-01
  8.1234348e-01
  6.8521631e-01
 -1.7848298e-01
 -2.7278924e-01
 -1.6946185e+00
 -1.1653656e+00
  3.9107698e-01
  1.5241013e-01
 -1.2137771e+00
 -2.0804463e-01
  7.5743669e-01
  5.2519935e-01
  1.0314796e+00
  3.1052175e-01
 -8.1438041e-01
  9.7418559e-01
  4.3697963e-03
  1.5007749e+00
 -5.9409750e-01
 -5.5306184e-01
  4.5907527e-02
  2.4278080e-01
  1.3003513e-01
  2.5093926e-02
 -8.0830604e-01
  6.2195361e-01
 -7.1552581e-01
 -5.7359004e-01
  8.5431254e-01
 -3.3989647e-01
  2.3918821e-02
  3.8960820e-01
 -6.6363074e-02
 -7.6548803e-01
  4.7642626e-02
 -3.4954974e-01
  4.1490915e-01
  1.2713081e+00
  6.2951133e-02
 -1.3089406e-01
 -7.4071759e-01
  8.0106229e-01
  1.8264687e-01
  8.9738494e-01
 -1.7944904e-01
 -1.8571560e+00
  4.5445290e-01
  2.3010437e-01
  4.6155208e-01
 -5.2507079e-01
  2.0845642e-02
  2.1864280e-02
  5.8096480e-01
 -1.8514703e-01
 -6.3843983e-01
  1.7081728e+00
 -6.5122552e-02
  8.2130037e-02
 -1.3741871e+00
  4.0794560e-01
 -8.6085486e-01
 -4.6260893e-01
 -4.8479173e-01
 -4.0792372e-02
  1.0836197e+00
 -2.4886145e-01
  1.2876318e+00
 -2.7313223e-01
  8.7637529e-02
 -9.5966482e-01
  3.0587491e-01
  9.9444818e-01
 -1.3791291e-02
 -7.3653996e-01
 -1.9368759e-01
  2.1009663e-01
 -1.8528147e-01
 -4.2192638e-01
  4.5210376e-01
  4.5630842e-01
 -6.8166947e-01
 -5.3886265e-01
 -3.5324892e-01
 -1.4471397e-01
 -2.0960748e-01
  9.5581681e-01
  5.0688446e-01
  2.6271939e-01
  3.7099864e-02
 -4.2019442e-02
  8.7429988e-01
  2.6938406e-01
 -1.2318199e+00
  3.1589136e-01
  1.6833635e-01
  5.0823301e-01
 -9.5175892e-01
 -6.0273510e-01
  5.1069379e-01
  1.3141096e+00
  4.1617081e-01
 -7.6575255e-01
  3.3146879e-01
  3.7667933e-01
 -5.4241812e-01
 -4.4301316e-02
 -7.0836079e-01
 -6.7406994e-01
  1.0206258e+00
  8.2577848e-01
  7.5047445e-01
 -4.5174837e-02
  9.7421038e-01
  1.9329998e-01
 -8.5929292e-01
  5.5684078e-02
  6.4355850e-01
  4.9263948e-01
 -1.6878650e-02
  1.8845616e-01
  2.5563011e-01
  1.4286786e-01
 -8.0152386e-01
 -3.7281641e-01
  6.5210801e-01
  1.7456558e-01
  9.1881603e-02
  4.7930159e-02
 -3.9146513e-01
  4.1081506e-01
 -3.7544864e-01
  6.8541695e-03
 -6.6893709e-01
 -1.3011500e-01
 -7.8233743e-01
 -3.1333458e-02
  1.5005058e+00
  2.8737608e-01
  6.6686571e-02
  6.7285180e-01
  9.6176010e-01
 -1.6705331e-01
 -1.0266299e+00
 -5.5005878e-01
 -9.7132638e-02
 -2.9631588e-01
  6.7885588e-03
 -7.4172370e-02
  1.2410660e+00
  8.4686559e-01
 -8.0725509e-01
  2.5103414e-01
  1.7923199e-01
  5.5539644e-01
 -2.1951535e-01
 -9.2529035e-01
  4.0168798e-01
  2.9898506e-01
  4.9521253e-01
 -2.1265237e-02
 -8.0382973e-01
  6.6549081e-01
 -1.2879643e+00
 -1.5578443e+00
 -4.4502273e-01
 -1.4441495e+00
  1.4735187e+00
  1.4163433e+00
  1.3436599e+00
  3.3932826e-01
 -2.4599149e+00
 -2.0452890e+00
 -7.4228966e-01
 -2.1076874e-01
 -1.1167389e+00
 -1.5524694e+00
  1.2820236e-01
 -2.2813648e-01
  1.0962311e-01
  8.8140887e-01
  1.6885433e+00
  7.1504927e-01
 -3.7940291e-01
 -5.8186227e-01
 -1.3270106e+00
 -1.3625330e+00
  4.8731905e-01
 -3.2930669e-01
  1.8318175e-01
  2.8619980e-02
 -2.0426068e-01
 -3.4208182e-01
  8.4996156e-02
 -7.8485835e-01
 -1.1143358e+00
 -2.5694672e-02
 -1.0783523e+00
 -1.2937077e+00
 -8.2359594e-01
 -4.5266640e-01
 -2.8788748e-01
 -6.7344987e-01
  4.7236702e-01
 -5.8331452e-02
  7.5969452e-01
  8.2425341e-02
  4.2801821e-01
  4.2332519e-02
  6.6072929e-01
 -1.4304392e-01
 -2.5777709e-01
 -8.6760841e-02
 -8.0408955e-01
 -6.2132818e-01
  2.4811566e+00
 -1.8282829e-01
  3.9346778e-01
 -3.8584641e-01
 -6.1520278e-01
 -3.5227573e-01
 -1.1434367e-01
 -4.4089627e-01
  6.7615491e-01
  4.0207446e-01
 -8.7367094e-01
 -2.8453317e-01
  1.2160634e+00
  6.8891466e-02
  1.3101918e+00
 -3.0657896e-01
 -2.2451304e-01
 -4.0639684e-01
 -7.8417939e-01
 -2.9377772e-02
 -5.0683224e-01
  5.6213146e-01
  4.3347254e-01
  2.2755052e-01
 -1.1411388e+00
  4.2215863e-01
  5.4144430e-01
 -1.0936401e-01
 -6.1400974e-01
  2.8714994e-01
  8.5509700e-01
  3.5330200e-01
  1.3703346e-01
 -1.6738744e-01
 -1.0496758e+00
  2.5674751e-01
  2.9048488e-01
 -8.1782937e-02
  1.0071882e-01
  7.3429906e-01
  1.5726455e-01
  1.1845072e-01
  4.1826889e-02
 -1.1132339e+00
  2.4767379e-01
 -7.6792754e-02
  3.0821136e-01
  1.5160542e+00
  3.6644202e-01
 -2.7172813e-01
  5.2010506e-01
  9.8539728e-01
 -5.8308471e-02
  2.5736588e-01
 -2.0734087e-01
 -1.1398480e+00
  1.2512078e+00
  2.0509632e-02
  7.1915317e-01
  7.0780998e-01
  2.4974632e-01
 -3.9242679e-01
  7.3344785e-01
  9.0864187e-01
 -9.7646471e-03
 -3.1153530e-01
 -6.0872059e-02
  4.4704437e-01
  1.0928975e+00
  4.6412259e-01
  2.5215462e-01
  6.0529661e-01
  1.6583872e-01
 -4.9549010e-01
 -3.9005631e-01
 -1.0687766e-01
 -7.9024822e-02
  1.4471726e+00
  6.1535501e-01
 -7.7259964e-01
  9.8176837e-02
  5.8620381e-01
  1.2423693e-01
  3.5304227e-01
 -6.3351959e-01
 -1.7295603e+00
 -1.3011503e+00
  2.6143083e-01
  2.3457831e-01
 -2.4526064e-01
  1.1172884e+00
  5.2078527e-01
 -9.7053617e-01
 -3.6347365e-01
 -1.0746791e+00
 -4.0933952e-01
  1.1869376e+00
  4.6113186e-02
  4.0855286e-01
 -4.4666626e-02
  9.9310714e-01
  2.0421850e-02
  2.2916901e+00
  1.0991629e+00
 -7.0427382e-01
 -5.8032644e-01
  1.2689481e-02
 -4.7653016e-01
  5.2369690e-01
  8.1792253e-01
  6.8727028e-01
  9.5255637e-01
 -2.9252055e-01
  9.1012233e-01
  3.7053376e-01
  1.2214200e+00
 -1.3296417e+00
  5.1302922e-01
  3.0696583e-01
  9.1754740e-01
  2.7465373e-01
  8.0993688e-01
 -1.7536788e+00
 -6.2769878e-01
  2.3733008e-01
 -2.0293043e+00
 -5.1521331e-01
 -1.9944942e-01
 -4.7302872e-01
 -2.8276518e-01
  1.4431356e-01
  4.6735905e-02
 -2.0902930e-01
  1.4612955e+00
 -9.3969303e-01
  2.5829414e-01
 -6.4394742e-02
  6.3235515e-01
 -3.7159196e-01
 -4.1175121e-01
 -4.3305555e-01
 -6.2689972e-01
  1.2163461e+00
 -3.9736438e-01
  1.7734226e+00
  8.0906969e-01
 -9.0354556e-01
 -5.1136553e-01
