nep4 2 Te Ge 
cutoff 7 5 67 26
n_max 8 8
basis_size 10 10
l_max 4 2 0
ANN 50 0
 -3.8580604e-02
  1.8534098e-02
 -2.5201423e-02
  1.1208694e-02
  1.3621470e-02
 -1.4510589e-02
  3.3505131e-02
  4.9866427e-02
  1.8494582e-02
  2.7081782e-02
  1.3794226e-02
  5.4323361e-03
  2.9112328e-02
  5.2306377e-03
 -5.5596471e-02
  1.7855380e-02
 -2.6625754e-02
 -2.3586862e-03
 -2.6915737e-03
  9.4831847e-03
  4.5508873e-03
  7.6873742e-02
  3.2688752e-03
  2.3769848e-02
  4.8474254e-04
  1.2489884e-02
 -3.8546238e-02
  3.7469845e-02
  5.3417910e-02
 -3.1620620e-03
  2.4203159e-02
 -3.0244697e-02
 -2.2651702e-02
 -3.8343892e-02
 -2.2863735e-02
  1.9038159e-02
  4.4851168e-03
  3.9796494e-02
  1.0623901e-02
 -2.0211052e-02
 -3.6146477e-02
  2.7789801e-02
  9.6502462e-03
 -3.6435372e-03
  1.6024975e-03
  1.6887223e-02
 -2.0626774e-02
  2.8907484e-03
 -9.5212841e-03
 -2.6694071e-02
 -3.4292847e-02
 -1.1973661e-02
 -8.5478108e-03
  1.2189486e-02
  3.8780876e-02
 -5.4810233e-03
  2.5104681e-02
  3.4386415e-02
 -3.2096229e-02
 -2.4874777e-02
  2.2861414e-02
 -1.3071098e+00
 -4.6693694e-02
 -5.8588844e-02
  3.7880084e-03
 -7.2424556e-03
 -1.5063236e-02
  1.2825449e-02
  3.7643515e-02
 -2.7343456e-02
  1.9745637e-01
  9.1097755e-03
  3.2322731e-02
 -6.7553013e-03
  1.2824666e-02
 -3.2381982e-02
 -1.8551338e-02
  1.1971527e-02
  2.0140735e-02
  2.6018521e-02
  3.8143791e-02
 -2.8767593e-02
 -3.3154778e-02
  6.0902834e-03
 -1.5339976e-02
  1.8447695e-02
  3.0519880e-02
  2.8696144e-02
  1.0946320e-02
  1.4646423e-02
  2.7133904e-02
 -2.7028352e-02
 -1.2650639e-02
  1.4496060e-02
 -4.2944439e-03
  8.4113535e-03
  2.0072274e-02
  2.0567011e-02
 -1.8779625e-03
  1.6743964e-02
  3.2359851e-03
  8.6352369e-03
  5.5274116e-03
  4.0317369e-03
 -1.7855272e-03
 -1.4861918e-02
 -2.7646562e-02
 -1.9704866e-04
 -3.2877337e-02
 -1.2383651e-01
  1.8482173e-02
 -5.8390073e-02
  2.5499436e-01
 -3.0264692e-02
  6.4967163e-02
 -1.3226071e-01
  1.1607166e-01
  4.9451780e-02
  5.0075664e-03
  1.6177617e-02
  4.1489542e-02
  2.4156158e-01
  9.2652524e-03
  2.3765147e-02
 -4.0881969e-02
  2.1413384e-02
 -2.2032758e-02
  4.1363519e-02
 -3.4180559e-02
  1.2617965e-01
 -1.1442332e-02
  7.3117271e-02
  4.8073721e-03
 -9.1798110e-03
 -5.8454465e-02
  1.5143763e-01
  9.0253755e-02
 -7.0182374e-03
  2.4431596e-02
 -3.9396461e-02
  5.7860678e-03
 -6.3194230e-02
 -1.4882109e-02
  4.7025107e-02
  3.1679273e-02
  9.5002390e-02
  1.9441656e-03
 -3.0245518e-03
 -1.2558895e-01
  6.5869153e-03
 -2.5165051e-02
 -2.9154206e-02
 -9.6379789e-03
  1.0010676e-02
 -2.7829112e-02
 -5.5019790e-03
 -4.6934105e-02
 -2.6290851e-02
 -2.4980370e-02
  1.2977074e-02
  7.3972945e-03
 -2.1384300e-03
 -8.3828252e-03
 -1.0311990e+00
 -4.6733221e-01
 -2.6253793e-01
 -1.0505727e-01
 -2.7145779e-01
 -2.7682686e-01
 -5.5560362e-01
 -2.6956749e-01
 -8.1490554e-02
 -2.4976503e-02
  1.0333405e-01
 -1.8248828e-02
  3.0628544e-01
  2.0466360e-01
 -6.4852454e-02
  7.5651020e-02
  1.7279007e-01
  6.7176871e-02
  4.6820242e-02
  6.4277570e-03
 -3.3425145e-02
 -4.9272010e-01
 -2.3734681e-01
  2.9588774e-02
 -4.0116943e-02
  4.8061004e-03
 -3.5658604e-01
 -6.1613824e-02
 -4.5586236e-02
 -1.4803107e-01
  1.5538718e-01
 -1.9950294e-01
 -1.3065428e-01
  1.8090293e-01
 -2.9428473e-02
  1.9368111e-01
 -8.1693277e-02
  1.2273142e-02
  3.5413548e-02
 -1.2261833e+00
  2.3128724e-01
  1.5390114e-01
  2.9643063e-02
  2.5346518e-02
  7.4228724e-03
  2.4933401e-02
  1.1793846e-02
  4.4644061e-02
 -1.8384674e-01
  4.5650885e-02
  2.1295842e-02
  4.9955547e-03
 -3.5289697e-02
 -1.3769750e-02
  1.6848260e-01
  1.1485749e+00
  1.5058858e+00
 -2.0973363e+00
 -7.8794461e-01
  1.2965219e+00
  1.3444264e+00
 -8.7752782e-02
 -3.0081418e-01
  1.3217404e-01
 -6.5933508e-01
  1.7641880e-01
  7.8913629e-02
  1.0279402e+00
  8.6290574e-01
  8.9012355e-02
  5.8810389e-01
 -4.2962676e-01
  1.5898165e-01
 -2.6656991e-01
  2.0541435e-01
  1.0976653e-01
  1.0216938e-01
 -1.3382119e-01
  5.8854878e-02
  9.3993419e-01
  5.2009511e-01
 -7.6498352e-02
  1.5431611e-01
  3.5112390e-01
 -1.2083204e-01
  5.7265896e-01
  6.2082458e-01
 -4.1090512e-01
  2.7908078e-01
  3.7478089e-01
 -9.0570830e-02
 -1.1085076e-01
  3.2233074e-01
  2.9694939e-01
  1.6575918e-01
  5.8658067e-02
 -2.9621711e-02
 -9.2911087e-02
 -1.9578043e-01
  5.4147355e-02
  8.2344832e-03
  8.2641557e-02
  2.9093286e-01
  3.8494390e-02
 -1.7745501e-01
 -1.5194518e-02
  5.4496218e-02
  3.4862125e-01
  7.1920609e-01
  1.3202305e+00
  4.7897059e-01
 -1.0408065e+00
 -1.1229344e-01
 -4.7216982e-01
 -9.3459868e-01
  6.7235380e-02
  1.6905427e-01
  3.1996321e-02
 -1.1879801e-01
  5.9493080e-02
  2.8891391e-01
 -3.9959583e-01
  1.7898424e-02
  4.7374587e-03
  3.4345072e-02
  8.2467034e-02
 -6.1268788e-02
 -2.6946026e-01
 -7.0835900e-01
 -1.7242317e-01
 -6.2985134e-01
  2.9760790e-01
 -6.5024602e-01
  3.0446717e-01
 -1.0501528e-01
 -3.4489952e-02
 -5.9300717e-02
 -2.1859857e-01
 -2.1322517e-02
 -1.1672249e+00
  2.9464992e-02
  7.0019275e-01
  7.1843445e-02
  3.6389244e-01
 -9.4615586e-02
 -4.6559349e-01
 -3.8100675e-02
 -6.1545545e-01
 -8.5072413e-02
  3.4208632e-01
  1.7869654e-01
 -1.5696183e-01
 -1.3207439e-01
  6.6663146e-02
 -2.5060020e-02
  1.9508322e-01
  1.2338676e-01
  2.8268425e-02
  1.7268784e-02
  9.1329634e-02
  3.9078824e-02
 -5.6615304e-02
 -3.5118586e-01
  1.8320337e-02
 -1.0099134e-01
 -1.4156793e-01
 -6.5135129e-02
 -8.4670950e-03
  4.0305696e-02
  5.8209751e-02
  7.6271050e-02
  8.7831309e-03
  3.6037184e-02
 -5.4050662e-02
  7.5167641e-02
 -4.2922694e-02
  3.4947366e-02
 -1.2566406e-02
  4.0098224e-02
  2.0335073e-02
  5.7943657e-02
  2.0170536e-02
  9.6748002e-02
  8.1943553e-03
  7.2534524e-02
  8.0188280e-03
 -2.4730379e-02
  1.9922271e-02
  1.5755349e-01
  1.5253045e-01
 -2.3590125e-02
  5.3963527e-02
 -5.3235266e-02
  5.3184934e-02
 -6.0840007e-02
 -5.8713332e-02
  3.9084390e-02
  1.5634460e-03
  3.4069338e-01
  2.3974419e-02
  2.2993533e-02
 -5.2659761e-02
 -8.9132898e-03
 -1.9144360e-02
  1.3887151e-02
  1.7683342e-02
 -2.6640729e-03
 -3.3736810e-02
  1.2839789e-02
 -9.5683448e-02
 -4.7419392e-02
 -8.4649205e-02
 -2.5035821e-02
 -3.2514788e-02
  3.0404965e-03
 -9.9200932e-03
  1.7826630e-01
  2.6651776e-01
  3.0842930e-01
 -1.0339516e+00
 -2.2670122e-02
  1.6027725e-01
 -5.0702248e-02
 -4.3336757e-02
 -3.2717034e-01
 -9.5435709e-02
 -1.2381117e-01
 -1.1464296e-01
 -2.2373363e-01
  4.0644664e-02
 -1.0719442e-01
 -1.8946233e-01
 -5.8867883e-02
  1.4782490e-01
 -4.6714578e-02
  4.2391594e-02
 -3.9236389e-02
  2.6849389e-02
  1.2987386e-01
  1.5051842e-01
  1.9687498e-01
  2.4421668e-02
 -4.6193182e-02
 -2.1440375e-01
 -1.2459658e-02
  4.1578840e-02
 -1.0214511e-01
  2.3564970e-01
  2.0751706e-01
 -2.4976666e-01
 -9.6944846e-02
 -4.3941692e-02
 -1.2918273e-01
  4.9474970e-02
 -6.1392117e-02
 -9.9600717e-02
 -1.8374775e-01
 -1.2706254e-01
  3.9501283e-02
 -1.4353532e-03
 -6.9427893e-02
  5.1021799e-02
  1.3999620e-02
  1.1492792e-01
  1.6617899e-01
  2.6257377e-02
 -2.3389185e-02
 -4.3894802e-04
  3.3711819e-03
 -5.8364427e-01
  1.1595477e+00
 -8.7238771e-01
  4.7490656e-02
  3.9009225e-01
  2.1164699e-01
 -1.0772034e+00
 -2.0336546e-01
 -8.5238719e-01
 -7.3008126e-01
  1.9207916e-01
 -1.3470681e-01
 -6.5787315e-01
 -5.3616798e-01
 -5.2677423e-01
 -8.1837974e-02
  3.4265131e-01
 -8.9228392e-02
  4.2805541e-03
  2.6701577e-02
  2.3095772e-01
  2.9371199e-01
  2.8955758e-01
  1.0088693e+00
  4.6753609e-01
  8.2579926e-03
  7.8325570e-02
 -4.9883106e-01
 -1.5812138e-01
  2.2309722e-02
 -1.0974053e-01
 -2.5994778e-01
  8.7438233e-02
 -2.0404702e-01
  9.3636945e-02
 -1.5766703e-01
 -4.7876909e-02
 -2.4326247e-01
 -1.3537340e-01
  2.1121385e-02
  1.2124188e+00
  1.2282592e+00
 -1.3319162e-01
  4.4152565e-02
  1.1530678e-01
 -1.1206101e-02
  4.3250494e-02
  6.2958941e-02
  4.5669802e-02
 -2.4197212e-01
  2.4453861e-01
 -4.5687944e-02
 -7.0809074e-02
  1.3667798e-01
 -1.5393311e-01
  6.4240389e-02
  2.3065321e-02
  6.5433347e-01
 -2.4565418e-01
 -1.5220801e-02
 -7.2748238e-01
 -6.3361567e-03
  3.2393690e-02
  4.3100169e-01
  1.0678075e-01
  1.9912751e-01
  2.8682855e-01
 -2.4023123e-02
  3.2918486e-01
 -1.0759506e-02
  8.1619196e-02
  1.2507179e-01
 -4.7003150e-01
  1.3875028e-01
  1.4060891e-01
  3.2136178e-01
 -2.1212679e-01
  1.4591889e-01
 -1.0237275e-01
 -1.5324272e-01
  6.4729996e-02
  3.4233803e-01
  2.6545253e-01
 -2.3105158e-01
  1.1043619e-01
 -7.2916158e-02
 -1.8286096e-02
 -1.2638646e-01
 -7.8898795e-02
  2.2356893e-01
  2.2663146e-01
  2.3353267e-01
  3.2252471e-03
  8.1673585e-02
 -6.7364734e-01
  1.6358539e-01
  2.3767302e-02
 -9.6774250e-02
  1.2001766e-01
  5.5989008e-02
 -9.7041115e-02
 -1.0364489e-02
 -1.5082967e-01
 -2.0064205e-02
 -1.0742493e-01
 -3.8678970e-04
 -3.3994149e-02
 -1.0358189e-02
 -1.4488299e-01
  1.5788941e+00
 -4.1398129e-01
  1.8681591e+00
 -2.4690764e-01
  1.0990676e-01
  5.6489352e-02
 -1.2859459e+00
  9.4174840e-02
 -6.6494995e-01
  1.5145157e-01
 -3.3906552e-01
 -4.8444456e-01
 -5.9320563e-01
  4.5396683e-01
  9.8985024e-02
 -3.8791648e-01
 -1.3109805e-01
 -2.3086828e-01
 -1.6627073e-01
  4.4913977e-01
 -6.8007147e-01
 -5.1489270e-01
 -1.0598800e+00
  2.9025990e-01
 -1.5130411e-01
  6.3735895e-02
 -3.4172511e-01
 -5.7225567e-01
  1.4556435e-01
  8.1364840e-02
 -8.5528708e-01
  1.7618313e+00
 -1.0887944e+00
 -3.5487810e-01
  9.5797516e-02
  4.2736223e-01
 -4.0289104e-01
  6.9693983e-02
  8.8014953e-02
  6.9253135e-01
 -1.8562242e-01
  6.1525428e-01
 -4.2841056e-01
 -2.1836745e-02
  5.9336685e-02
  1.6230312e-01
 -5.2057728e-03
  3.0456439e-01
  9.5485680e-02
  2.6110148e-01
  8.1558555e-02
 -5.9086446e-02
 -1.4693639e-01
 -1.0563611e-02
 -2.6233620e-03
  2.8994202e-03
 -2.3440499e-02
 -1.5083953e-03
  9.4251987e-03
 -1.6520081e-02
  4.7516068e-03
  1.2307031e-02
  2.0629936e-03
 -6.2360032e-03
  1.9423615e-02
 -2.2016816e-02
  1.1030580e-02
 -4.4450862e-03
 -4.3614677e-01
  1.8198242e-02
  7.9051759e-03
  9.0285549e-03
 -4.3615573e-03
  6.0735601e-03
  2.1758584e-02
  1.7411961e-03
  4.0679211e-03
 -4.8925187e-03
  1.0249510e+00
  9.2646889e-03
  2.2647265e-02
  2.1896783e-02
  5.8174338e-03
  7.9332935e-03
 -3.3361041e-03
 -9.5299464e-03
 -7.1913572e-03
 -1.3396439e-02
 -9.2989672e-03
  9.9039320e-03
  3.0958871e-03
  5.1323785e-03
  2.1693064e-03
 -1.4097728e-03
  1.5564640e-03
 -6.6565122e-03
 -9.8821120e-03
  9.4443653e-04
  8.1072338e-03
 -1.5368913e-02
  4.1407333e-03
  6.4513735e-03
 -5.1411134e-03
 -1.7852547e-02
 -1.6563427e-02
  7.9307808e-03
  2.5213946e-02
 -4.8798644e-03
 -1.8553723e-03
 -1.5411022e-03
 -1.7033696e-02
 -2.6429963e-04
 -1.2598177e-02
 -2.7018638e-02
  1.3117694e-03
  1.5401756e-02
 -8.1157638e-03
 -1.9567603e-02
  2.3332037e-02
 -4.4898335e-02
  4.5449243e-04
 -3.3046929e-03
 -3.2387993e-03
  2.3857994e-02
  1.9614731e-03
  1.1263412e-02
  1.6728872e-03
 -3.3412771e-03
  1.2409395e-02
 -3.5387641e-03
 -3.6023403e-04
  1.2347719e-02
  5.1137866e-03
 -1.3823905e-02
  1.0107560e-02
  4.1815420e-03
 -4.1751987e-03
 -9.6691428e-03
  3.1194019e-03
  4.4685644e-03
  5.5383146e-01
  7.7131893e-03
  2.4857317e-04
  1.4509559e-03
 -3.8307286e-03
  1.3230544e-02
 -8.2479678e-03
 -7.3045366e-03
 -7.8460537e-03
 -1.5651532e-02
  1.4492394e-02
  2.0433974e-05
  2.1693727e-02
 -5.1371600e-03
 -7.7981567e-03
 -8.9769550e-03
 -8.3173299e-03
 -1.7596424e-02
 -4.3812767e-03
  8.6035198e-01
  8.3607407e-03
 -1.1332856e-02
  1.2552309e-02
  1.2537531e-02
  1.8179692e-02
 -1.0851516e-03
 -1.3770994e-02
  3.3953011e-01
 -1.9919824e-02
 -2.5821371e-02
 -3.7330948e-02
 -7.2643817e-03
  2.3399864e-03
  1.1004783e-02
 -1.9749409e-02
  3.6958025e-03
 -1.3195940e-02
  8.9927502e-03
  6.1320988e-03
  7.5300317e-03
 -2.2294329e-02
 -9.4660642e-03
 -9.1341119e-03
  1.1207993e-02
  7.1451116e-01
  2.5951216e-02
  1.3388877e-02
  1.5739977e-02
 -1.3126917e-02
 -1.2986889e+00
  1.0679939e-02
 -3.0226129e-01
 -5.9711263e-03
  3.1026846e-02
 -2.8236494e-03
  9.0363547e-03
  1.8733392e-02
 -7.4617499e-03
 -2.6228039e-02
  9.4629853e-04
  1.2283199e-02
 -1.3466470e-01
 -6.2567651e-02
  6.1651401e-04
  1.4257916e-02
 -2.4479134e-02
  9.9681113e-03
  8.7006707e-03
  2.0773210e-02
  1.5098643e-02
  6.3911472e-03
  4.1472558e-03
  5.3696656e-03
 -7.1831974e-03
  3.1744088e-03
 -8.6252755e-03
 -1.4306000e-02
 -9.9113435e-03
 -3.2135136e-02
 -1.0644917e-02
 -4.8206737e-03
  3.2576066e-02
 -1.2760103e-03
  5.2869931e-02
 -3.5619063e-03
  1.6302427e-02
  1.3056033e-02
  3.2041840e-02
  4.9220692e-02
 -3.9312817e-02
  3.9536664e-03
 -2.4137869e-02
 -3.1187790e-03
 -7.5317807e-02
  1.5856681e-02
 -1.8821985e-02
  7.7752434e-02
 -1.3918335e-02
  1.3064243e-02
 -2.3370648e-02
 -5.0230590e-03
 -2.9318377e-02
  7.1850792e-02
  7.5938173e-02
  3.2376589e-03
  3.4026749e-02
 -2.2789685e-02
 -4.4677678e-02
 -1.5745550e-01
 -2.7602663e-02
  1.3668872e-02
  1.9109920e-02
  4.2511180e-02
  2.7582085e-02
  1.7959239e-02
 -1.6334033e-02
  1.4971979e-02
 -3.4824472e-02
  3.9412375e-03
  6.1251204e-03
  4.9465280e-03
 -2.8272459e-02
  6.0205400e-02
 -4.7413707e-02
 -2.4240810e-02
 -5.2680440e-02
  8.5322596e-03
  2.3347468e-03
  2.1403849e-03
  1.9734061e-01
  4.7128329e-01
 -4.0174565e-01
 -1.1959270e-01
  8.1295127e-01
  6.9503687e-02
 -2.9322642e-01
  6.1003488e-01
  3.6717035e-02
  6.1683464e-01
  1.3191745e-01
  1.6089754e-01
  1.6534303e-01
 -5.6547508e-02
 -1.4670253e-02
  3.5453740e-01
  4.6117494e-01
 -7.8222260e-02
 -5.3516048e-01
 -2.0243838e-02
 -7.4338257e-02
  3.7580442e-03
 -2.6301596e-01
 -2.8811511e-01
 -4.2019239e-01
 -4.6917003e-01
 -1.2885748e-01
  7.4020840e-02
  1.9115394e-01
 -9.2544384e-02
  2.3530815e-02
 -1.8811257e-01
 -6.3944720e-02
 -2.1526195e-01
  1.1772969e-01
  1.2831143e-01
  4.7170615e-01
  1.5903868e-01
 -2.8465379e-02
  1.1291523e-01
 -1.2723123e-01
  3.9203072e-01
  2.5728378e-01
 -2.7306326e-02
  8.2939744e-02
  7.5173050e-02
 -4.3417756e-02
 -4.4002134e-02
 -1.2260018e-01
 -9.6115507e-02
  7.5425312e-02
  2.1826740e-02
 -2.7556656e-02
  1.6829690e-02
  8.2317942e-01
  7.7599414e-02
  5.2267438e-01
  1.5981546e-01
 -5.3131324e-01
 -2.2027008e-01
  6.6740352e-01
  7.3881552e-02
 -9.6103351e-04
 -6.5207893e-01
 -4.6414399e-01
 -6.9661692e-02
 -2.8638479e-01
 -2.7219081e-01
  4.5684662e-01
 -4.6015248e-01
 -3.2508907e-01
 -9.7233668e-02
  4.2372751e-01
 -6.2850870e-02
  2.0366213e-01
  3.7678134e-02
 -1.9745536e-01
  5.1560736e-01
  4.1283014e-01
  1.7934376e-01
  3.7403204e-02
 -6.3474804e-02
 -2.6357424e-01
  1.1795739e-01
  5.3808533e-02
 -4.3441452e-02
  3.5727662e-01
  2.1197085e-01
 -1.9494529e-01
 -1.3444737e-01
 -2.1596929e-02
 -6.5279104e-02
  1.7301685e-01
 -1.0277579e-03
 -3.7983775e-02
 -1.8381426e-02
 -1.4051950e-01
  1.1139845e-01
 -5.7411373e-02
 -5.0116990e-02
  4.0114742e-02
  2.7670944e-02
  1.0199660e-01
  9.7729482e-02
  6.5528601e-02
  1.6772682e-02
  3.9048240e-02
 -9.6911646e-02
 -1.9404911e-04
  2.0691311e-02
 -1.5379146e-02
 -5.9303042e-02
  3.8422983e-02
 -2.3400873e-02
 -5.0984793e-03
 -5.4120049e-03
 -2.8067837e-03
  6.9833170e-03
 -9.7918184e-03
  8.1135081e-03
  6.3082939e-03
 -3.8392893e-03
 -9.7661968e-03
  9.0230545e-03
  3.1621169e-02
  1.2151393e-03
 -7.2752810e-01
  2.5365907e-03
 -1.6313124e-02
  5.7325470e-03
  2.1039790e-03
 -4.2893458e-03
  7.3938640e-03
  1.1131559e-02
 -1.5092937e-03
 -7.5442153e-03
  1.0153339e-02
 -1.7703386e-04
 -6.8608625e-03
 -7.0292148e-04
  2.5851139e-01
 -5.8946242e-03
  8.9717768e-02
  1.4324617e-02
  9.9290302e-03
  9.3487808e-03
 -1.4647542e-02
  1.1720388e-03
 -2.5770694e-03
 -2.4388744e-03
 -7.7398666e-03
 -9.4920378e-03
  5.0234544e-04
 -1.2264479e-02
 -8.1662077e-04
  3.6227852e-03
  5.8192275e-03
  2.9850525e-03
  2.0997027e-02
 -6.2012384e-03
  9.1542350e-03
 -1.3064385e-02
 -9.5951878e-02
 -1.8381229e-01
 -1.9205633e-01
 -2.2993532e-01
 -1.0256674e-01
 -1.2950379e-01
  7.4227743e-02
  9.4852381e-04
  1.3580425e-01
  1.2547494e-01
  1.1702176e-01
  7.2385395e-01
  1.2642458e-01
  8.6787894e-02
 -1.1303477e-01
  1.1455450e-02
 -1.1485811e-01
  5.2981034e-02
  3.6863950e-03
  8.9342728e-02
  4.6627084e-03
  2.6907957e-01
 -4.9688265e-02
  9.5374927e-02
 -5.1442940e-02
 -1.8931145e-02
 -5.3945661e-02
  3.6147365e-01
  2.5760010e-01
 -2.2464180e-02
  8.5628524e-02
 -1.3927555e-01
  7.1634969e-04
 -5.6099389e-02
 -6.4725183e-02
 -4.9423925e-03
  1.0586481e-01
  2.0644160e-01
  3.9497107e-02
 -6.8217434e-04
 -2.4215887e-01
  3.8975582e-02
 -5.1587846e-02
 -3.3469163e-02
  4.4892099e-02
  2.2476299e-02
 -6.4531885e-02
 -1.6909590e-02
 -1.6217121e-01
 -5.9662130e-02
 -1.1524367e-01
 -3.8956744e-03
 -5.9367395e-03
  1.4660871e-02
  3.8551769e-01
  4.0944597e-01
 -1.1080811e-02
  1.0169313e+00
 -1.5920941e-02
  6.3864118e-01
  2.6356369e-01
  9.7999978e-01
 -3.9153638e-01
 -3.7355015e-01
  5.7075344e-02
  2.0196910e-01
 -3.4937420e-01
 -2.9709709e-01
  1.1086408e-02
  3.8065436e-01
  1.6720363e-01
 -4.0114975e-01
 -5.8092254e-01
 -2.1882337e-01
 -1.4676473e-01
 -7.4680656e-01
 -9.9268682e-02
 -4.8071620e-01
  1.4796820e-02
 -6.4343743e-02
 -3.4755638e-01
  3.1019619e-01
 -3.9505139e-01
 -6.9313020e-02
 -2.2350218e-02
  7.0286401e-02
  3.3480135e-01
  4.8466709e-01
 -2.3781156e-02
 -1.9560279e-01
  4.6440810e-01
 -4.0419915e-01
 -1.2550955e-01
 -2.9516440e-02
 -1.2383477e-01
  2.6045138e-01
  1.4095306e-01
 -1.6365485e-01
  3.9426152e-02
 -6.5972493e-03
  7.3623583e-02
 -2.3812827e-02
  2.5106564e-01
  1.1209732e-01
  5.6938656e-02
  2.8514713e-03
 -3.5995841e-02
 -6.0315799e-02
 -1.3250123e-01
  7.0727038e-01
  4.5314919e-02
 -6.1942619e-01
  2.0048912e-01
  1.0027808e+00
 -5.0438100e-01
 -4.4861749e-02
  2.0398062e-01
  1.3473327e-01
  4.4375381e-01
  3.9369500e-01
  1.7687094e-01
 -2.1940336e-01
  2.5840822e-01
 -5.3502444e-02
 -1.0769541e-01
 -2.3701258e-01
 -2.3671548e-01
 -6.8183453e-03
 -1.9660680e-01
 -2.2195488e-01
 -1.0603242e+00
 -1.9650096e-02
  3.4112683e-01
 -3.2421142e-02
 -1.8116888e-01
 -2.1545188e-01
 -1.8911387e-01
 -2.9980937e-02
 -9.9692777e-02
 -4.3069962e-01
  1.3721468e-01
 -1.2469628e-01
 -2.2019591e-02
 -9.8923236e-02
  1.8500687e-01
 -4.9593277e-02
 -4.7546931e-02
 -7.9511240e-02
  9.3965626e-01
  2.5411138e-01
  1.0843851e-01
  1.0593169e-01
  1.8541948e-01
 -2.1065611e-01
  4.1714683e-02
  5.8596306e-02
  1.2069912e-01
  2.1159889e-01
 -8.7100409e-02
 -1.0631971e-01
  5.3993054e-02
  6.9746055e-02
  2.9353367e-04
  4.6207091e-01
 -3.2579370e-02
  3.8082829e-01
  1.3019222e-01
  1.0601554e-01
  1.5626831e-01
  3.9609268e-01
 -1.5242931e-01
  1.0557091e-01
  2.8046960e-02
 -8.2122713e-02
  1.6989397e-02
 -9.5584072e-02
 -9.5685884e-02
  1.8445936e-01
 -6.1650984e-02
 -5.9190854e-02
 -9.3283057e-02
  1.1159848e-02
  1.0842388e-02
 -4.4552712e-03
  4.0159792e-02
 -4.1779347e-02
 -3.5080530e-02
 -3.5038348e-02
 -1.0598147e-01
  2.4536677e-01
  5.8712490e-02
  4.9980711e-03
  7.2433732e-02
 -1.9225264e-01
  1.1425598e-01
  6.4866066e-02
 -1.3911945e-01
  8.2518734e-02
  1.5473177e-01
  9.1427520e-02
  5.7920273e-02
  3.8924392e-02
  4.4774899e-01
  1.0743916e-01
  4.9502604e-02
  1.3740865e-02
 -1.2673256e-02
  2.9703358e-02
 -3.6542628e-02
 -2.7803304e-02
 -4.3557040e-02
  2.7855676e-02
  5.3805993e-03
  1.0827450e-02
 -1.2823991e-02
 -8.9565245e-03
  2.4266605e-01
  2.3080741e-01
 -1.3503143e-01
  3.9631017e-02
  5.3174400e-01
 -9.2741594e-02
  1.2952828e-01
 -4.0669757e-01
 -2.5518921e-01
 -4.5098476e-02
  1.9195640e-02
  1.3692440e-02
 -1.2309533e-01
  1.9481963e-01
  1.9003773e-01
  1.2908217e-01
  2.6844165e-01
  2.4910776e-02
 -5.8485772e-02
 -5.6841228e-02
  1.5119991e-02
 -1.9603924e-01
 -4.7911623e-01
 -1.7748220e-01
 -8.3033904e-02
 -9.4770700e-02
 -2.2623895e-01
 -2.1315971e-01
 -1.6151932e-01
  1.5166428e-02
 -4.5125522e-02
  5.4137889e-02
  5.6870922e-02
  6.5330282e-02
  5.1744863e-02
 -2.4344970e-02
  2.1450061e-01
 -1.1987348e-01
  6.0894940e-02
  7.6563068e-02
  1.8433715e-01
  2.0118493e-01
  2.0103836e-01
  9.9343270e-02
 -1.4128496e-02
 -6.7369053e-03
  6.6065267e-02
  9.3815569e-03
  7.9339638e-02
 -1.0603940e-01
  6.6396795e-02
  5.1604893e-02
 -2.8685341e-03
 -6.8102755e-02
  9.7226584e-03
  3.1253344e-01
 -4.2152503e-01
  3.5450009e-01
 -2.0542763e-01
 -4.3417206e-01
 -1.0491469e+00
 -2.9849637e-01
  4.4402894e-01
  2.1131139e-01
  1.1819155e-01
  1.0265903e-02
 -2.0728484e-01
 -3.4341440e-01
 -5.9174848e-01
 -1.8380807e-01
  4.5927206e-01
  1.7596634e-01
  3.0622828e-01
  4.5552008e-02
 -1.0813152e-01
  4.5571095e-01
 -1.6270633e-01
  3.4872225e-01
  4.8156191e-02
 -4.8781395e-02
 -4.0842056e-01
  1.3194786e-01
  2.6527488e-01
 -1.1081997e-01
  1.0692803e-01
  3.3386523e-01
  6.0934369e-03
 -1.8861280e-01
  9.6052242e-03
  1.9050007e-01
 -2.7112088e-01
  2.1761915e-01
 -2.5022525e-01
 -7.4130520e-02
  6.8318439e-01
 -3.4768168e-02
 -1.1844552e-01
 -2.5854415e-01
  1.1244025e-01
  5.6712802e-02
 -5.8259699e-02
  1.2668943e-03
 -2.1388695e-01
 -8.6542770e-02
  9.5651798e-02
 -5.4578066e-02
 -3.8912550e-02
  8.6139038e-02
 -5.8414582e-03
 -2.7504757e-03
  1.8406432e-02
 -3.1970564e-04
  2.3675671e-02
  1.7601974e-02
 -1.2734834e-02
 -9.6070506e-03
 -3.4969798e-03
 -3.6063191e-02
 -2.1451032e-02
 -4.4468795e-03
 -5.2620337e-04
 -7.6998384e-03
  2.3571545e-02
  7.9502780e-03
  1.4922136e-02
  2.4359327e-02
  1.0279449e-02
 -1.3108854e-02
 -1.3521495e-02
 -2.1004785e-02
  8.0293855e-03
 -6.7230850e-03
 -3.6303874e-03
 -9.7971829e-04
  1.8526905e-03
 -2.9799042e-03
 -1.5409242e-02
  2.9203910e-03
 -3.2057390e-02
  2.7689373e-02
  2.4569087e-02
  1.6638504e-02
  1.6870897e-02
  1.1580388e-02
  6.8402532e-03
 -1.8999031e-02
 -6.7207450e-03
 -6.6760117e-03
  1.3758088e-04
  2.9678692e-03
 -1.0424828e-04
 -1.8060569e-02
 -1.0931127e-02
  5.7871849e-03
  1.5229752e-02
  7.2111250e-03
 -6.8406842e-04
  3.4916509e-04
  3.4386507e-04
 -1.4432510e-02
  1.1877762e-02
  4.7584106e-03
 -4.9802035e-02
 -2.3533486e-02
  3.9146403e-03
 -1.6652827e-01
 -7.5233713e-02
 -5.5525661e-02
  2.6454028e-02
 -6.5343236e-03
  7.1915239e-02
  7.1137331e-02
  2.5405806e-02
  2.7953016e-02
  4.7816344e-02
  1.1500285e-02
 -4.7897812e-02
  3.1313229e-02
 -1.1519222e-02
  1.8070115e-02
  1.4412296e-02
  4.8087716e-02
  1.1133471e-02
  1.3114977e-01
 -2.5368147e-02
  3.3056874e-02
 -3.5823382e-02
 -1.9834409e-02
 -4.0175218e-02
  8.2390301e-02
  1.0941902e-01
 -4.6850503e-03
  4.0885042e-02
 -3.4515526e-02
 -5.4522648e-02
 -4.5505278e-02
 -3.5061557e-02
  3.7379179e-02
  3.2850079e-02
  1.1415145e-01
  3.0776035e-02
 -5.1741088e-03
 -2.4949213e-02
  3.8197894e-02
 -1.1752963e-02
 -7.7771526e-03
 -4.1109137e-03
  3.8084898e-03
 -3.2075316e-02
 -1.7682980e-03
 -7.7585965e-02
 -2.7184512e-02
 -4.5676116e-02
 -6.1590965e-03
  2.7241108e-03
  9.2256265e-03
 -2.5501678e-02
 -3.4952164e-02
  4.8102863e-04
 -4.3027527e-03
 -1.4432509e-01
 -8.2791187e-02
  7.6390184e-03
  2.6659812e-03
  3.5438832e-02
  6.0724758e-02
 -4.1074213e-03
  1.1657969e-02
  3.6612809e-02
  1.9309694e-02
 -4.1442718e-02
 -2.5127968e-03
 -2.2642333e-02
 -2.2167914e-02
  4.9161267e-02
 -5.7530584e-04
 -9.1765570e-03
  7.5310566e-02
 -3.8663499e-02
  5.7204355e-02
  7.8483075e-03
 -1.9984037e-02
 -1.5060239e-01
  7.8222044e-02
  6.2478434e-02
 -9.3325190e-03
  3.4374226e-02
 -1.6741157e-02
 -4.2754352e-02
 -2.7172076e-02
 -1.5062646e-02
  3.2578100e-02
 -1.3946119e-02
  4.8369292e-02
  2.4875782e-02
 -3.1760014e-03
 -6.5486780e-03
  1.3481755e-02
 -5.0604613e-03
 -4.8602959e-03
  1.1403413e-02
  9.3884774e-02
 -5.1251497e-02
 -3.2091103e-03
 -3.8371015e-02
 -6.6082315e-03
 -3.2311834e-02
 -2.2254549e-03
 -6.1884145e-03
 -1.4414403e-02
  1.7528930e+00
 -1.6793245e+00
 -4.9055812e-01
 -4.3005940e-01
  1.7769579e+00
  2.3395030e-01
 -3.5105768e-01
  1.4919274e-02
  1.5601036e-01
  2.1387264e-01
 -1.7526339e-01
  5.6626630e-01
 -5.9777135e-01
  8.7658420e-02
 -8.6759603e-01
 -5.4290819e-01
  1.1345757e+00
  7.5487745e-01
 -5.0789481e-01
 -3.6448225e-01
  1.1833644e-01
 -4.9480343e-01
  1.3372245e+00
 -7.4087000e-01
  1.9283637e-01
 -4.0501660e-01
 -3.7551424e-01
 -9.8098707e-01
 -5.5221164e-01
 -9.4577353e-03
 -2.5197449e-01
 -1.2065564e-01
 -1.6734331e+00
  1.1847166e-01
  8.0250841e-01
  2.9158407e-01
 -8.4015197e-01
 -6.6006625e-01
  9.8388910e-02
  6.2489398e-02
 -6.3801646e-01
  1.4013949e-01
 -9.9668778e-02
 -4.6833563e-01
  1.1446949e-01
 -5.9788995e-03
  1.6512033e-01
  8.1764199e-02
  3.9472324e-01
 -3.9903039e-01
  3.7323543e-01
  2.0222303e-01
  3.8420383e-02
 -2.1998839e-02
 -5.8560047e-02
 -4.9128088e-01
  3.5816404e-01
 -1.0169256e-01
  2.8814618e-02
  9.7224563e-02
  3.8640201e-02
 -2.1737055e-01
  5.6711829e-01
  1.5874660e-01
 -2.7229704e-02
  1.9914486e-01
  2.4675627e-01
 -1.0594658e-01
 -5.3729582e-01
 -3.4156796e-02
 -6.0669068e-02
 -1.6059196e-02
  1.8110937e-01
  5.3114675e-02
  4.5836173e-02
  1.6906762e-01
  1.1613045e-01
  2.4876176e-01
  5.9125621e-02
  3.5080094e-02
 -1.4358118e-01
  9.6695012e-01
  1.3450104e-01
  6.6173840e-03
  3.9995525e-02
 -9.7568087e-02
  6.3000314e-02
 -3.1236576e-02
  1.3628332e-03
 -2.2916501e-02
 -4.9443763e-02
  1.2813894e-01
  8.9845791e-02
 -8.9184843e-02
  1.7678325e-01
 -1.5864100e-03
 -4.2054489e-02
 -4.4529863e-02
 -2.2772137e-02
  5.3106394e-02
 -4.7930691e-02
  1.1902155e+00
 -1.2834789e-01
 -3.0948009e-02
  7.4198335e-02
  7.4288118e-01
 -1.6987713e-02
  1.3750902e-02
  4.4528520e-01
  6.3265067e-01
  1.2528002e-01
  1.5442926e+00
  1.4812404e-01
 -1.6800591e-01
  2.0284414e+00
  9.9615026e-01
 -8.3107909e-05
 -8.6302567e-01
  5.9446859e-01
  4.3771982e-02
  1.2823298e+00
 -9.4932210e-01
  3.3872908e-01
  4.5092404e-01
 -3.3631009e-01
  8.7516248e-01
 -3.0180776e-02
  5.6692308e-01
  2.8934911e-01
  1.0570827e+00
 -3.4141013e-01
 -8.4923726e-01
  2.8229791e-01
 -2.7197334e-01
  6.6968590e-01
 -5.6130397e-01
  7.0917386e-01
  4.4346231e-01
  1.1700623e+00
 -9.7083086e-01
  5.2866536e-01
  1.1422603e+00
 -1.1240947e+00
  8.1633592e-01
  8.0051988e-01
  5.9304565e-01
 -6.7252100e-02
  5.2842206e-01
  8.4670097e-02
  5.9405601e-01
 -4.9131340e-01
 -3.1585541e-01
  8.7893283e-01
  1.3617499e-01
 -1.9128063e-01
 -6.3210540e-02
 -3.2003608e-01
  1.9638880e-01
 -1.4396439e-01
  1.2626907e-01
 -4.9467351e-02
 -1.1766148e-01
 -6.9116533e-02
 -7.4008666e-02
  1.8828915e-02
 -1.2618138e-01
 -7.9373784e-02
 -6.1357044e-02
  5.8975514e-02
  4.7936007e-02
  1.1695915e-01
  1.0124561e-01
  1.9281706e-02
  4.0113766e-02
  4.3287922e-02
  4.6837755e-02
 -1.4125080e-02
  8.3380649e-03
 -4.6588700e-02
  1.6791306e-02
  1.1527900e-02
  4.8885901e-02
 -1.8693315e-02
  1.3972908e-01
 -3.7375133e-02
  5.0443251e-02
 -2.3121063e-02
  9.1652013e-03
 -5.3966604e-02
  1.5692417e-01
  1.3380772e-01
 -2.3026585e-03
  4.5999885e-02
 -6.7579448e-02
 -6.4592481e-02
 -3.1102126e-02
 -4.9916091e-03
  4.3505553e-02
 -1.0576210e-02
  1.0315895e-01
  1.2423718e-02
  2.7375894e-02
 -2.4035044e-01
  8.8186832e-03
 -1.4045835e-02
 -2.6366850e-02
  2.6944329e-04
  1.9323871e-02
 -4.1529056e-02
  1.4954836e-02
 -7.7976122e-02
 -2.4456523e-02
 -5.7791773e-02
 -1.8358814e-02
  4.6566040e-03
  8.7996591e-03
  4.2707492e-02
  3.0287242e-02
  3.7596863e-02
  2.5401840e-02
  3.4454800e-02
  2.1673178e-02
  5.8550958e-04
 -5.1247898e-02
 -3.6067285e-02
 -2.5892315e-02
 -6.7521743e-03
  1.7802570e-02
 -1.5837727e-02
 -3.2617301e-02
  3.8608775e-02
 -8.2396887e-02
  4.9973466e-03
 -9.9761084e-02
  1.6167032e-02
 -1.3696676e-02
  1.6934461e-03
 -7.6204531e-02
 -4.0072310e-03
 -2.3028236e-02
  3.7945947e-03
  1.2620981e-02
  1.9537181e-02
 -5.7126295e-02
 -6.5948784e-02
 -1.4483555e-02
 -1.2103970e-01
 -4.8943486e-02
  2.1106705e-02
  3.4007773e-02
  2.7677231e-02
 -2.5375964e-02
  2.5517548e-02
 -5.7137661e-02
 -4.4365518e-02
  9.5762272e-04
  6.0861036e-03
 -4.7073111e-02
  2.1159884e-02
 -1.0676759e-02
  1.9128821e-03
 -6.2539009e-03
  4.2980254e-02
  1.3432359e-02
  2.5484312e-02
  1.1788598e-03
  1.9034667e-02
 -2.9694544e-02
 -3.1196193e-03
 -2.1400416e-04
  3.6663839e-01
 -7.0963329e-01
 -4.7520486e-01
  5.3448230e-01
 -5.7012087e-01
 -8.4298849e-01
 -3.3938318e-02
  1.2589710e+00
 -1.4583641e-01
  1.0787063e-01
  1.1972646e-01
  3.6654498e-02
  5.3414993e-02
  1.0733764e+00
 -3.4439553e-02
 -9.6179299e-02
  1.9404048e-01
  5.5169642e-02
  8.0537647e-02
  4.2653438e-02
 -5.9361875e-02
  3.1695575e-01
  2.5504479e-01
  5.4880571e-01
 -5.2221972e-02
 -2.2491629e-01
  3.2502633e-01
  2.3199351e-01
  2.6726595e-01
 -2.2271408e-02
  6.6602945e-02
  1.1216236e-01
  2.4522863e-01
 -3.3572525e-02
  2.3775397e-01
 -2.2434276e-02
 -3.5458293e-02
  1.6600379e-01
 -7.5808868e-02
  2.6209194e-02
 -2.3794244e-01
  1.0146306e-01
  4.2452156e-03
 -1.7280247e-02
  5.1425874e-02
  1.2123618e-01
 -7.5314552e-02
  4.6094945e-03
 -1.6536023e-01
 -1.3361700e-01
  7.0251308e-02
  6.2195521e-02
  2.3484524e-01
  1.0030109e-01
 -5.5118289e-04
  1.5639268e-02
  4.3017287e-02
  8.9433985e-03
 -5.3209583e-03
  1.0581714e-02
  1.2239426e-02
 -3.3429857e-02
 -3.3925932e-02
  1.2611429e-02
 -2.2145595e-02
  6.8374272e-03
  1.2155659e-02
 -1.1876829e-02
  2.2933211e-02
  7.5525716e-03
  8.6940620e-03
  9.5179742e-03
  3.0329891e-03
 -9.8152142e-03
 -5.7220220e-04
 -3.9590444e-02
  8.3566350e-01
  2.5477633e-02
  1.4184547e-02
  6.9925827e-03
  2.2224387e-02
 -1.2137928e-02
 -2.3643024e-02
  1.2193018e-02
  8.1682652e-03
  1.7727325e-02
 -1.8532770e-02
  2.3086332e-02
  2.2675080e-02
 -6.2833959e-03
 -1.2385112e-02
 -3.1060827e-04
 -1.4567602e-02
 -2.3164425e-02
  7.9191821e-03
 -7.0642577e-03
  8.8567454e-03
  1.4152365e-02
  4.7511505e-03
  4.1283146e-03
  2.1228410e-02
  8.0841584e-03
 -8.9355623e-03
  1.8339656e-02
  2.5877265e-02
 -1.2703235e-03
  2.2326473e-03
 -2.6235238e-04
 -6.0089778e-02
 -1.5173900e-01
 -3.6183856e-02
 -1.2002341e-01
  1.6107410e-01
  1.8120921e-01
  1.2016932e-01
 -8.5587375e-04
  6.4901039e-02
  3.2627203e-02
 -1.1451233e-02
 -1.5398128e-02
  3.9127111e-02
  5.2280083e-02
 -2.0002663e-02
 -1.8109104e-02
 -3.6610272e-02
  1.1116684e-04
 -2.6655922e-02
  4.7589771e-02
 -1.1659788e-02
  1.5120769e-01
 -1.7144356e-02
  6.0399774e-02
 -1.5285909e-01
 -2.6995831e-03
  2.2919325e-02
  1.2821673e-01
  8.5307606e-02
 -8.5991696e-03
  2.6931660e-02
 -1.8990582e-02
  2.4337072e-03
 -2.0813067e-02
 -1.0332421e-01
  2.2121962e-02
  2.5940917e-02
  9.8721996e-02
  5.1670633e-02
  2.2223599e-02
  1.2861400e-02
  4.3667473e-02
 -3.8096189e-02
  2.9364191e-02
  8.1908340e-03
  1.3839008e-02
 -2.7332384e-02
 -1.1526571e-02
 -6.8815984e-02
  7.1114800e-03
 -4.5212686e-02
 -2.5939185e-02
  1.3811870e-02
  3.7327126e-04
  8.9772785e-01
 -1.8285616e-01
 -6.3351882e-01
 -2.7795035e-01
  1.0583444e+00
  5.8428150e-01
 -5.6364530e-01
  8.8113135e-01
  2.4184902e-01
 -1.6780430e-01
 -4.3175352e-01
  5.8100682e-01
  2.5275892e-01
 -1.3353385e-01
  6.7979586e-01
 -1.5268905e-01
 -6.2589991e-01
 -4.0946031e-01
 -1.9239858e-01
 -1.7022034e-02
 -3.5503626e-01
  3.0506501e-01
 -1.0039405e+00
 -2.5078017e-01
 -5.2615350e-01
 -1.8289341e-01
 -5.1463377e-01
 -2.8943807e-01
 -1.7007561e-01
 -3.1246412e-01
 -1.0514408e-01
  3.9322224e-01
  1.7027485e-01
  1.4995861e-01
 -3.3000404e-01
 -2.7295950e-01
  5.2235806e-01
  1.1018089e-01
 -2.2499196e-02
 -2.2821331e-01
  1.1370977e+00
 -6.6405639e-02
 -2.3703862e-03
  5.4300487e-01
  3.0284882e-01
 -2.2494023e-01
  3.0827366e-02
  7.9478189e-02
  7.3379427e-02
  3.2301468e-01
  9.7006615e-03
 -1.3543223e-01
  3.1457495e-02
  9.9798009e-02
  4.0022349e-01
  1.1702342e+00
  2.9762876e-01
  2.4135062e-01
  3.3703500e-01
  1.1613207e-01
  2.6881441e-01
  1.7371957e-01
 -7.2405279e-02
  2.6451868e-01
 -1.3785238e-02
  1.5149084e-01
  6.2626436e-02
 -1.9783658e-01
 -3.4087619e-01
  7.4356638e-02
 -4.5415077e-02
 -1.5946333e-01
 -1.3793088e-01
  2.7086942e-02
  9.1916047e-02
  1.7088328e-01
  1.4561340e-01
  2.5306758e-01
 -4.8696905e-02
 -1.9889918e-01
 -4.2739298e-02
  3.4246007e-01
  1.0986765e-01
  3.4875572e-02
  1.5163292e-01
 -1.2923148e-01
  3.3613318e-01
  9.4724908e-02
 -4.4275293e-01
 -3.9913841e-02
  1.3122439e-01
  1.4516604e-01
  7.7021241e-02
  3.5124481e-02
 -5.1649895e-02
  1.4804560e-01
  1.3516855e-01
 -4.2128168e-02
  1.3785500e-02
  1.7989950e-02
 -6.1868317e-02
 -2.9297894e-02
 -7.6206513e-02
  5.6974139e-02
 -4.1317258e-02
  3.5674427e-02
 -2.7539695e-03
  1.0943122e-02
  4.1937972e-03
 -1.7535016e-03
 -2.9818328e-02
 -2.5573639e-02
 -5.3374092e-03
 -2.7256595e-02
 -1.6654442e-03
  3.0035432e-02
  3.5215411e-02
  3.8741883e-02
  6.3613407e-02
  6.3562341e-02
  5.7826191e-03
  1.4551744e-02
 -1.2078466e-02
 -6.3883872e-03
 -2.2334903e-02
 -1.4766277e-02
  5.5374438e-03
  2.4119167e-02
 -6.3711158e-03
  9.1827296e-02
 -5.9320375e-02
  2.6139053e-02
 -4.4662334e-02
  3.6037788e-02
 -1.8712847e-02
  5.5920687e-02
  8.3518989e-02
 -1.1735385e-02
  3.7717391e-02
 -3.8126916e-02
 -2.7122272e-02
 -1.3037408e-02
 -2.3813741e-02
  2.0773368e-02
  1.0878603e-02
  6.1157215e-02
  2.1037007e-02
 -9.7899698e-04
 -3.5687843e-03
  9.5109707e-03
 -5.6279596e-02
  6.6839117e-03
 -1.1606712e-04
 -1.2456818e-02
 -1.4532965e-02
 -3.9093005e-03
 -4.2508692e-02
 -1.5707094e-02
 -3.7757210e-02
 -7.8815669e-03
 -1.2680934e-02
  2.3998832e-03
  2.4519682e-02
  1.6449860e-01
 -3.3320633e-03
  1.6177792e-02
 -9.2122920e-02
 -9.1565792e-03
 -3.4361541e-02
  4.3271750e-02
 -1.1775333e-02
 -2.1774922e-02
 -6.5197730e-03
  1.2496428e-02
 -5.8416338e-03
 -3.1582515e-03
  2.9969066e-02
  5.0345133e-04
 -4.6131928e-03
  2.1051357e-02
  7.0381854e-03
 -2.0163938e-02
 -1.8394761e-02
 -2.3426445e-02
 -8.7385466e-03
 -4.3184930e-03
 -4.5365514e-03
  3.4065552e-03
 -1.1849901e-01
 -2.9702742e-02
 -1.0125001e-02
  2.0000096e-03
  2.6011073e-03
 -3.1077859e-03
  1.8390039e-02
  2.7562991e-02
  5.0900141e-03
 -1.2790872e-02
  1.7206845e-03
 -2.4246104e-02
 -1.1253408e-02
 -5.3682164e-03
  1.5540812e-02
 -7.6469183e-03
  3.4772216e-03
 -2.6162731e-02
  8.2408208e-03
 -6.6995122e-03
  9.2502603e-05
 -1.9156069e-02
  2.1528734e-02
  7.5193648e-03
  1.4805750e-02
  1.9971667e-02
  2.7410239e-03
  1.7662335e-02
  8.0873096e-01
  1.3168035e+00
  4.1079286e-01
  1.2045338e+00
 -1.2567359e+00
  1.1637896e-01
 -6.2048342e-03
 -9.6739042e-01
 -1.0302099e+00
 -1.2100495e+00
 -7.4530683e-02
  1.2005724e+00
 -7.8869082e-02
  3.7010166e-01
  1.5058473e+00
  5.2798945e-01
  1.1489464e-01
  5.7868212e-01
  3.6893362e-01
  3.2685420e-01
  4.8155610e-02
  5.8208340e-01
 -4.3092573e-01
 -3.1626236e-01
 -1.8710217e-02
 -1.1814710e-01
  3.9816147e-01
 -5.7646704e-01
 -2.2196014e-01
  2.1110363e-01
  2.1782498e-01
  2.4038737e-01
  3.1837469e-01
  7.3847657e-01
 -4.0563321e-01
 -1.1036996e-01
 -5.4871917e-01
 -1.3465296e-01
  1.5105361e-01
  5.0782377e-01
 -2.0569384e+00
  4.5795787e-02
  7.8947580e-01
  4.7277939e-02
  7.8310110e-02
 -1.4619780e-01
  4.0616289e-02
  1.1786536e-01
  1.0425763e-01
 -7.7419519e-02
  1.8141466e-01
 -1.3359526e-02
  1.3968982e-02
 -1.3799816e-01
  1.2815772e-01
 -4.5312238e-01
 -2.8866991e-01
  7.3809460e-02
  4.0959069e-03
  1.2668084e-01
  1.0747430e-01
  3.0494779e-01
 -2.3345987e-01
 -1.0025556e-01
 -2.3312641e-02
 -1.6505949e-02
 -6.3617311e-02
 -6.3248612e-02
  2.9427629e-02
 -2.4197195e-02
  1.2600659e-01
 -4.7930993e-02
  6.3743070e-02
 -3.3027757e-02
  1.7242083e-02
 -1.3834098e-01
  5.7013433e-02
  3.7960846e-03
 -4.5360368e-02
  1.6340382e-02
  7.8987917e-03
 -2.9062662e-01
 -1.7473347e-01
 -1.3544905e-02
 -5.3990133e-02
  3.9806642e-02
  2.1229543e-01
  1.8740060e-02
  1.9427832e-02
 -5.6843206e-02
 -7.2402440e-02
 -1.4421779e-01
 -5.4886635e-02
  8.2403701e-03
  5.2663360e-02
  2.2615737e-03
 -4.0908540e-03
 -3.3163220e-02
  2.4843056e-02
  1.0471337e-02
  7.2464645e-02
  2.5307532e-02
  9.7674772e-02
  5.4951534e-03
  1.5705682e-01
  5.3804503e-03
 -6.3980115e-03
 -3.6626335e-02
 -1.1644942e-01
  7.0442748e-01
 -5.5359530e-01
  3.8601676e-01
 -1.2830150e-01
 -1.0377103e+00
  2.2253026e-01
  2.0277777e-01
  3.7156623e-02
  2.6719791e-01
  6.1021239e-02
  3.3633134e-01
  7.8159176e-02
  7.6507944e-01
 -2.2049680e-01
  1.3493100e-01
 -4.6526935e-02
 -5.4447681e-02
 -3.0013135e-01
  1.0848206e-01
 -1.8881106e-01
  2.7934286e-01
  4.2583153e-01
  7.9887211e-01
 -7.8110725e-01
 -1.5940197e-01
 -8.8645108e-02
  7.4889177e-01
  3.5433072e-01
 -8.6714238e-02
  2.5724769e-01
  1.1492030e-01
 -1.1070603e+00
 -6.1358303e-02
 -2.7040246e-01
 -5.9257112e-02
  1.4873420e-01
  2.5939777e-01
  7.8030437e-02
  7.8609832e-02
 -1.9863728e+00
  3.6726752e-01
  2.6202825e-01
 -1.3691735e-01
  1.4046262e-01
  1.2158237e-01
 -8.2116410e-02
 -2.8596399e-02
 -1.7641707e-01
 -2.7752993e-01
 -1.5037057e-01
 -2.9024566e-04
 -4.4737890e-02
  2.8586376e-02
 -8.9151010e-02
 -5.0986890e-02
 -2.5860164e-02
 -6.8355054e-02
 -8.2435593e-02
 -6.4650662e-02
 -2.4002666e-02
  1.5799837e-01
  7.6194040e-02
  7.5724170e-02
  3.8642924e-02
  7.3412694e-02
  9.8425351e-02
  6.8401203e-02
 -5.2239191e-02
  8.5008489e-03
 -3.8885206e-02
  5.7986144e-02
  1.8985003e-02
  7.5384833e-02
 -2.5238493e-03
  1.8286580e-01
  2.3576913e-02
  5.8224745e-02
 -3.8030412e-02
 -2.7162541e-02
 -9.0768728e-03
  1.8177789e-01
  1.7801498e-01
 -1.8129839e-02
  4.9888439e-02
 -2.9200757e-01
 -6.7509995e-03
 -5.6846384e-02
 -7.7909045e-02
  5.2558642e-02
  1.9336738e-02
  1.2604597e-01
  5.2773558e-02
  7.9573682e-03
  1.2312806e-01
  4.5310609e-02
 -1.9086227e-02
  2.2582612e-03
  1.6044557e-02
  3.3257406e-02
 -6.6686526e-02
 -3.6931127e-02
 -6.9073327e-02
 -5.1921036e-02
 -8.9597329e-02
 -1.6007904e-02
 -1.7213631e-02
  7.6997187e-03
  8.9140125e-02
 -4.5006913e-03
 -2.6378626e-02
  4.8983078e-02
 -2.3675613e-02
  1.2642151e-01
 -4.9722549e-02
 -5.7261463e-02
 -6.2173612e-02
 -3.5172496e-02
 -2.5841737e-02
 -3.8777243e-02
  1.1920511e-02
 -4.7430471e-02
  2.1869076e-02
 -3.6366057e-02
  1.3228710e-01
 -1.5383964e-02
  1.9248660e-03
 -2.3873189e-02
 -1.5546083e-02
 -2.3963746e-01
  6.7877141e-03
 -6.7332186e-02
  6.9884257e-03
 -6.9143819e-03
  6.4263180e-02
 -1.9545783e-01
 -2.4639349e-01
 -1.4375850e-03
 -6.7725472e-02
  6.5539874e-02
  1.7721215e-02
  3.7245378e-02
  3.1336647e-02
 -6.0161937e-02
 -3.9734684e-02
 -1.9618048e-01
 -3.8957074e-02
 -7.5509246e-03
  9.1841638e-02
 -7.7041443e-03
  2.1865873e-02
  1.8264877e-02
  1.1544856e-01
 -1.1894390e-02
  7.2209708e-02
  1.9680809e-02
  1.2168103e-01
  5.9940360e-02
  9.1743834e-02
  1.6331082e-02
  1.3814943e-02
  9.8358756e-03
  2.5497746e-02
  2.2444151e-02
  1.1851203e-02
  3.1350426e-02
  6.0465235e-02
  8.8613063e-02
 -1.9668130e-02
 -2.9872268e-02
 -2.5931641e-02
 -2.1040011e-02
 -1.6090902e-02
 -1.3225997e-02
 -3.3577934e-02
 -1.8621117e-02
  4.4496074e-02
 -7.3026214e-03
 -1.6000725e-02
 -1.2966929e-02
 -3.7855923e-04
 -7.5226920e-03
  4.3075923e-03
 -4.3928221e-02
 -2.0994027e-03
 -4.5408476e-02
  1.0081704e-04
  2.8689096e-03
  1.1188370e-02
 -6.3695177e-02
  4.1180372e-02
  2.8535575e-02
 -3.1208305e-02
  6.2822956e-03
  6.6548237e-03
  2.3922393e-02
  1.7974466e-02
 -2.8815540e-02
  5.5891392e-03
 -2.7711818e-02
 -1.3582608e-02
  1.1441874e-02
  2.8370386e-03
 -1.1270873e-02
  9.0244291e-03
  1.2814543e-02
 -6.6560027e-03
 -7.4939420e-03
  2.0312069e-02
 -3.1045016e-03
  1.3153172e-02
 -4.1048243e-03
  2.8185278e-02
 -3.2539004e-03
 -2.4652304e-03
  7.7124112e-03
  1.1155844e-01
  1.2989004e-01
 -3.7743300e-02
  4.7757022e-02
  1.0998126e+00
  1.1016925e-02
 -3.9881789e-03
 -1.2935546e-02
 -5.1005926e-02
 -7.2207212e-02
  3.6781546e-02
 -7.8565061e-02
 -8.1841797e-03
  5.6866682e-03
  1.2165084e-01
 -1.5493096e-03
 -9.6427817e-03
  4.2928312e-02
  5.7222810e-02
  1.7427573e-02
  1.0315947e-02
 -1.1708068e-03
  7.6088212e-02
 -1.2256993e-02
  2.5235806e-02
  8.3430521e-02
 -2.5783283e-01
 -9.1002025e-03
 -5.2028745e-02
  6.5834261e-03
  3.1864296e-03
 -4.0670589e-02
  5.9148241e-02
  6.2267151e-02
 -5.3036489e-02
 -3.0794702e-02
 -2.8780134e-02
 -3.9885297e-02
  4.8911464e-03
  7.6359222e-03
 -2.4553118e-02
 -5.5438176e-02
 -2.6075849e-02
  6.2330477e-03
  2.5040548e-02
 -2.4980813e-02
 -5.1075373e-02
  7.3428859e-04
  3.2508548e-02
  3.3270705e-02
  5.5981688e-03
 -5.2370443e-03
 -2.2224304e-03
 -5.9925918e-03
  4.0424958e-02
 -2.1001995e-01
  3.2846522e-01
  3.0335337e-01
  6.3697189e-01
  4.2135574e-02
  1.5979114e-01
 -4.8338454e-02
 -4.2974383e-02
 -6.2010478e-02
 -1.3135341e-02
 -2.6041025e-02
 -1.5833071e-02
 -7.3233746e-02
 -1.7466067e-03
 -2.9059583e-02
  2.5501953e-02
 -1.1599126e-01
  1.3633723e-03
 -2.8488280e-02
  6.9028195e-03
 -1.1174805e-01
  1.0259721e-01
 -1.1951892e-01
  2.1237375e-02
 -3.2193642e-03
  2.9924056e-02
 -1.3195002e-01
 -1.1156891e-01
  1.8779006e-02
 -2.3243262e-02
  4.4942472e-02
  2.4451723e-02
  1.7641159e-02
  3.4077477e-02
 -1.4013911e-02
  5.7024891e-03
 -9.1957897e-02
 -8.1842449e-03
 -8.4404839e-04
  2.2723129e-01
 -3.2541461e-02
  3.2342885e-02
 -9.2153531e-03
 -5.2445182e-03
 -1.0428764e-02
  3.6253501e-02
  2.3343930e-02
  4.9883883e-02
  1.3007347e-02
  5.2254304e-02
  7.6437853e-03
 -3.1368164e-03
  1.1167788e-02
 -3.6135294e-02
  3.7658802e-01
 -4.7691762e-01
 -2.7741617e-01
  1.7226888e-02
  5.1739510e-02
  4.1207618e-01
 -8.8000230e-02
  1.4560767e-01
  1.1133146e-01
 -8.0455422e-02
 -5.4481938e-02
  8.4710106e-02
  9.7066414e-01
  7.1599793e-01
  1.6790305e-01
  4.2929262e-02
 -1.5269119e-01
  3.5763967e-01
 -1.4117259e-01
 -2.3578107e-02
 -4.4951752e-01
  3.4320575e-01
  1.2004851e-01
  3.2874608e-01
  1.7317148e-01
 -3.5943788e-02
 -1.9776449e-01
 -3.4110665e-01
  1.6390480e-02
 -4.5277238e-02
  4.5847011e-01
  8.1517237e-01
  3.9002860e-01
 -3.0767785e-02
 -2.0586405e-02
 -2.7247459e-01
 -3.0486879e-01
  1.8569480e-01
 -4.7823295e-02
 -6.0272229e-01
 -2.2094867e-01
 -1.3634130e-01
 -3.9415099e-02
 -2.2249970e-01
  1.9032994e-01
  1.0420908e-01
 -9.8645333e-03
  1.4050856e-01
  1.6484056e-01
  2.1248803e-01
  1.4931321e-01
 -8.3583556e-02
 -7.6255850e-02
  4.0504315e-01
  2.4389522e-01
 -1.6553892e-01
 -3.0146486e-01
 -1.5466800e-01
 -4.7061747e-01
  7.4822962e-02
 -8.8825482e-01
  9.3642324e-02
  8.2939103e-02
 -4.5153573e-02
  1.6891995e-02
  1.6965207e-01
  5.5391487e-02
  1.9727226e-01
  9.0012252e-03
 -8.2875313e-03
  1.6578189e-01
  2.8274822e-01
  7.4409090e-02
  2.0352946e-01
  4.6372166e-01
  1.1580552e-01
  3.3068269e-01
 -8.1169888e-02
 -4.1216634e-02
 -4.6187673e-02
 -4.0603247e-02
  2.1211529e-01
  6.8887457e-02
  3.4509070e-02
 -4.8029262e-01
  6.6294283e-02
 -4.3559188e-01
 -4.5281220e-02
  1.3535064e-01
  9.9052250e-02
 -6.2678444e-01
  1.2682050e-01
  3.4595374e-02
 -2.0204313e-01
 -5.5291723e-02
 -3.9638318e-03
  8.7293923e-02
 -1.0322823e-01
  1.0086396e-02
 -7.7667572e-02
  2.8516732e-02
 -1.5977827e-01
 -1.4861499e-01
 -6.0091492e-02
  2.3585850e-02
  1.4775658e-02
 -5.0927764e-03
  1.0081624e-02
 -6.1112944e-02
  6.8558409e-04
  1.9238478e-02
  6.6557620e-04
  3.8588422e-03
 -1.5103437e-02
 -7.8087160e-03
 -2.2417488e-02
 -1.8041765e-02
 -9.9140629e-03
  1.0813760e-02
 -3.4429763e-02
 -6.7678634e-03
  2.1590414e-02
  4.2938910e-02
  2.8023664e-02
  2.1387496e-04
  3.0034899e-03
 -7.7900202e-03
  4.3275865e-04
 -5.6792945e-02
  2.8967144e-02
 -1.0114541e-02
  8.0701308e-03
  5.0818017e-03
  2.5581017e-02
 -4.1267745e-02
 -2.6745427e-02
 -1.8945230e-03
 -1.7066717e-02
  3.1911485e-02
  6.6280058e-03
  2.3151977e-02
  2.1526523e-02
  4.6075453e-04
  1.0766617e-02
 -5.3915396e-02
 -1.4011502e-02
 -2.0171653e-02
  3.2535248e-02
  2.1305507e-02
  2.2883106e-02
 -8.4327795e-03
 -2.3713568e-03
 -1.2173299e-02
  3.6554743e-02
 -7.1666990e-03
  3.5438560e-02
 -4.3401713e-03
  2.4274362e-02
  1.2257500e-02
  6.1094933e-03
 -5.6964951e-03
  8.0414396e-03
 -6.7950130e-02
  8.9357502e-04
 -9.4954377e-01
 -3.5440716e-01
  1.3354141e+00
  1.7077111e-02
 -3.7216532e-01
  8.6975473e-01
  4.0981972e-01
 -4.7679758e-03
  2.6405391e-03
 -2.6836646e-01
  5.6686285e-03
  1.9246783e-02
 -5.3760082e-02
 -3.6740240e-01
  9.9833114e-03
  5.9064934e-03
 -7.4723440e-01
  1.1410027e+00
  1.3295286e+00
 -6.1489457e-01
 -9.8053449e-01
 -5.1492490e-03
 -6.2658782e-03
  1.4859930e-03
 -1.8304664e+00
  3.0390954e-01
  9.4299871e-01
 -5.1821582e-03
  1.6053729e-02
 -5.9089345e-01
 -3.7482675e-02
 -6.2851536e-01
  3.1493217e-01
  7.4978501e-01
  3.6369299e-03
 -1.8099351e-02
 -2.7686250e-01
  1.0445991e-01
  5.7280641e-03
 -4.7479138e-02
 -4.9087717e-03
  2.7346518e-02
  7.7798426e-01
 -2.6521936e-01
  1.2543682e+00
  7.0237160e-01
 -1.7356183e-02
  1.1927655e-01
 -8.0338843e-02
  2.2525772e-01
 -4.7392276e-01
 -1.3770980e+00
 -6.4789182e-01
  3.1984174e-01
 -5.9785300e-01
 -8.3230734e-01
  6.1486316e-01
 -1.1146128e+00
  4.2055186e-02
 -1.7838752e-03
 -4.2158011e-02
  1.6398932e-01
  4.6584371e-01
 -5.8263785e-01
  5.6029302e-03
  5.2937543e-01
 -7.4540025e-01
 -1.2452590e+00
  8.1805003e-01
 -3.9927155e-01
  1.1052439e+00
 -3.6228765e-02
  2.5340164e-01
  1.3432373e-01
 -1.2761298e+00
  3.7514105e-01
  1.8874741e+00
  2.6091155e-01
 -1.4457816e-01
  6.2626237e-01
 -6.0780052e-02
  2.8497404e-01
 -1.3034093e+00
  5.2088434e-01
  1.7755128e-01
 -5.1362548e-02
 -1.9452132e+00
 -4.1769341e-01
  6.8609011e-01
  3.7734020e-01
 -5.4557329e-01
 -1.0661697e-01
 -2.9890692e-01
 -2.0474505e-01
 -1.3339405e+00
  5.0996947e-01
 -1.0504854e-01
 -2.7093718e-02
 -3.1776004e-02
 -9.2770174e-02
  5.8632493e-03
  1.6308804e-01
 -8.5371882e-02
  4.2859714e-02
 -1.8930906e-02
  4.6193931e-02
 -1.6913328e-03
 -2.3434509e-02
  6.7848571e-02
  9.9051684e-02
 -9.6345658e-04
 -6.8336807e-02
 -3.2620944e-02
 -1.6405568e-01
 -1.6894446e-01
 -4.6601292e-02
 -6.2991202e-02
  9.9196583e-03
 -6.4670041e-02
 -1.6686466e-01
 -8.1672583e-04
  2.2056710e-02
 -2.8501390e-02
 -1.3712384e-01
 -8.7878387e-03
  1.4104977e-02
  3.0996269e-02
  3.7667561e-02
 -2.6574866e-03
 -7.9656765e-02
 -3.4888294e-02
 -1.3115771e-01
 -1.7165844e-01
 -8.4552094e-02
 -6.7918426e-03
 -3.4368750e-02
 -9.9048121e-03
  8.2444303e-02
  3.3329267e-02
 -2.1104608e-02
  1.8342122e-02
 -7.8868777e-02
 -6.7067612e-03
 -4.4164073e-02
 -5.1575638e-02
  2.2249412e-02
  1.0354605e-01
  3.9701179e-02
 -3.1599894e-02
  2.5913799e-02
  1.0389349e-02
  2.1462584e-02
 -6.5583773e-03
  9.5079578e-03
 -9.0804296e-03
  1.8348536e-02
 -2.8213292e-02
  1.7324448e-02
  3.3209450e-03
  3.7008403e-03
  2.2507193e-03
 -2.0479046e-02
  3.2774813e-04
  2.0266971e-02
 -3.8124511e-03
 -2.9433619e-02
 -2.6662901e-02
 -2.2950320e-02
 -2.9745938e-02
  8.3851740e-03
 -1.7901085e-02
 -2.2174311e-03
  1.1521859e-01
 -2.6354516e-02
 -1.5499857e-02
 -1.7583618e-03
  8.5152872e-03
 -2.0462980e-02
 -1.9957080e-02
 -3.0074755e-03
 -3.5329632e-02
  1.4116926e-02
  6.9154678e-03
 -2.7644102e-02
 -1.2804776e-03
 -2.6488289e-02
 -2.3183737e-02
 -5.0703138e-02
 -7.9389464e-04
  8.8001350e-03
  2.6772469e-03
  6.7576990e-03
 -1.6883085e-02
 -6.1734244e-03
 -3.5969166e-03
 -6.8894527e-03
 -1.4331829e-03
  4.3224725e-03
 -1.0714676e-02
  3.0051222e-02
  1.6238483e-02
  1.6908862e-02
  3.5952176e-03
 -2.6444814e-03
 -1.2178642e-02
  8.9494175e-01
  1.1595883e-01
 -3.0149406e-01
 -6.1987489e-01
  5.5633086e-01
 -2.6630944e-01
 -1.3562007e-01
 -4.7791306e-02
  3.4609649e-01
 -2.3087877e-01
 -6.6932929e-01
 -4.5555997e-01
 -1.8660501e-01
 -3.6725810e-01
 -1.3218403e-01
 -2.8473249e-01
 -7.3240146e-02
 -4.0601936e-01
  5.3922888e-03
 -2.7137998e-01
 -8.2464218e-02
 -9.7048976e-02
 -3.6261249e-01
 -3.8987759e-01
 -1.7098732e-01
 -6.2838949e-02
 -2.8507873e-01
  1.7542075e-01
 -1.9067876e+00
 -6.8416938e-02
  2.0631024e-01
  3.6538273e-01
  1.1961903e-01
 -1.2043265e-01
 -6.0940377e-02
 -2.8322086e-01
 -2.1708243e-01
  2.8597739e-01
  4.5752937e-01
 -3.4065399e-02
  5.2561752e-02
  1.9433726e-01
 -1.3427357e-01
  3.7182819e-02
 -2.4058035e-01
 -9.1624551e-02
 -1.5959641e-02
 -4.4749980e-03
  3.7733436e-02
  1.9223410e-01
 -6.3235521e-02
  4.2206891e-02
 -3.9918409e-04
  2.1687757e-02
 -4.2697366e-02
  2.1862326e-02
  1.4042854e-02
  1.3519713e-02
 -2.8330430e-02
  7.2671659e-03
  5.1417365e-03
 -2.8522669e-03
 -2.0891383e-02
  1.3116234e-03
  1.1425547e-02
  6.9308383e-03
 -3.0629287e-02
 -5.2371505e-03
 -1.6529577e-04
  1.2240892e-03
  2.6377065e-02
  1.6541583e-02
 -2.8366067e-03
  4.1993419e-03
 -2.4448896e-03
 -1.6198253e-03
  3.4073472e-02
  3.9748712e-03
  6.9117673e-02
 -1.9951621e-03
  1.4846416e-02
  9.2764813e-03
  4.4165268e-03
 -5.8557756e-02
  5.2139079e-03
 -4.8189618e-02
  1.8176002e-02
 -3.2894700e-03
 -4.4027208e-03
  2.8237212e-02
  1.9264849e-02
  3.9139089e-01
  1.6009606e-02
 -1.2782778e-03
  4.4116252e-03
  8.9852605e-03
  1.7179197e-02
 -4.2412723e-03
  1.4970020e-02
  3.0910224e-03
  1.0525275e-02
 -1.9929526e-02
 -2.7994912e-02
  1.2708432e-03
 -1.0219515e-02
 -1.3869965e-02
  8.8839289e-03
  1.0148637e-02
 -5.9940404e-01
  4.8897311e-01
  7.3458934e-01
  2.1474517e-03
  4.8301166e-01
  9.8129141e-01
 -1.5908439e-01
  1.9867449e-01
 -2.9203456e-02
 -5.6744540e-01
 -4.3750355e-01
  4.0049595e-01
  8.6981571e-01
 -5.9519732e-01
 -4.0130462e-02
  2.4320059e-02
  4.0875748e-01
  8.1873220e-01
  9.5885509e-01
  7.6741569e-02
 -5.7427883e-01
  2.8298557e-01
  1.7719126e-01
  6.1241633e-01
  2.8510638e-02
  5.7316344e-02
  4.6412442e-02
  3.1609613e-01
  1.9258983e-01
 -1.6758914e-01
  5.7191491e-01
  3.9808508e-03
  6.4236119e-02
 -2.3040111e-01
 -1.3860330e-01
  9.7088486e-02
  5.0341511e-01
  5.2030283e-01
 -4.9567446e-01
  3.6459091e-01
  6.7940187e-01
  3.7427354e-01
 -2.8326216e-01
  1.1465093e-01
  2.3924062e-01
 -8.4385239e-02
  3.2786271e-01
  5.5470403e-02
 -2.6184705e-01
 -8.8843234e-02
 -1.3035285e-01
 -5.4181252e-02
 -7.5919353e-03
 -8.9823328e-02
 -1.0443461e-01
  4.5272106e-01
  1.2845519e-01
  3.1222709e-02
 -8.3500348e-02
  5.3881023e-02
  4.5961821e-03
  7.8481346e-02
 -3.1294983e-02
 -1.6854644e-01
 -2.0402777e-01
 -2.0674851e-03
 -7.7675678e-02
  7.4066781e-03
  8.2444353e-03
  8.8292425e-03
  6.5927297e-02
  4.6288028e-02
 -8.4212394e-03
  2.9987826e-03
 -2.4337340e-02
  3.6278728e-02
  5.0982859e-02
  1.2124849e-02
 -1.3852439e-02
 -8.8771638e-03
  4.4225059e-02
  2.2667754e-03
 -1.0065990e-01
 -1.2711180e-02
 -2.9709456e-02
  4.8241522e-03
  3.4088720e-02
  8.0528362e-03
  4.0938303e-02
  7.4255213e-02
  3.5300814e-02
  3.5861665e-01
  3.9937798e-02
 -1.3582711e-02
 -7.2800186e-03
  1.4030175e-02
  1.3559529e-02
  3.8006622e-04
  1.7085725e-02
  2.3580303e-03
  7.4855522e-03
  2.8540505e-02
 -2.5280187e-02
 -5.7365637e-02
 -9.7361449e-03
  2.0908058e-02
 -2.6808305e-02
  3.4002587e-03
  9.8227096e-01
 -1.3923383e-01
  4.9451046e-02
 -7.5892317e-01
 -1.8301055e-02
 -1.5504009e-01
  6.0015976e-02
  1.0765422e-01
 -1.8867579e-01
 -2.1953203e-01
 -9.8948956e-01
  1.7052543e-01
  3.2459995e-01
  2.3178701e-01
  2.2503865e-01
 -4.3630365e-01
 -1.7761321e-01
 -3.2405338e-01
 -2.8053021e-01
  2.4800047e-01
  5.0430607e-02
 -3.2812901e-02
  3.1427488e-02
 -7.0604908e-01
  1.1202100e-01
  1.5586987e-01
 -3.1289709e-01
  2.2683322e-01
 -9.5779367e-02
  1.4146918e-02
  8.6979702e-02
  4.0023839e-01
  3.7269542e-01
 -5.3288709e-02
 -3.1359157e-01
 -3.4277621e-01
 -7.5983047e-02
 -5.6501311e-01
 -4.8039207e-01
 -2.4004209e-01
  5.0845695e-01
  1.8397719e-01
 -2.6084982e-02
 -1.3146567e-02
 -1.2822446e-01
  3.4173770e-04
  5.3842325e-02
 -1.2409137e-02
 -7.7242307e-02
  5.7029478e-02
 -1.3406710e-02
 -9.6052378e-02
  2.4360133e-02
 -1.1849653e-02
  4.4136402e-01
 -4.0870836e-01
  3.3526263e-01
  3.1678483e-01
 -2.1584728e-01
 -6.4566034e-01
 -1.4278277e+00
  3.8661930e-01
  8.3768725e-01
  1.5185590e-01
  2.3101582e-01
 -5.5003154e-01
 -2.0820728e-01
 -2.8357524e-01
  3.3465272e-01
  2.2600897e-02
 -1.0092992e-01
  1.3428856e-01
 -1.3602875e-01
 -5.3037888e-01
  2.8844967e-01
  2.3127633e-01
 -5.8391315e-01
  3.8711786e-01
  1.5161394e-01
 -1.1233013e-01
  3.9901072e-01
  3.0283162e-01
 -1.0367633e-02
 -1.4340518e-01
 -1.9424863e-01
  2.5869960e-01
  5.2240181e-01
 -9.0490520e-02
  2.1049272e-01
  2.9546458e-01
  3.4713620e-01
 -2.4630833e-01
  7.0616819e-02
  1.4534093e-01
 -3.0478850e-01
  1.5505404e-02
 -2.2070950e-01
 -9.2109159e-02
  8.8578314e-02
  7.4845493e-02
 -2.0260060e-01
  1.1534530e-01
 -1.3243975e-01
  2.5673267e-02
 -1.4688917e-01
 -1.7512734e-01
 -5.4537077e-02
 -8.9203110e-03
  2.7723080e-01
 -1.1592406e+00
 -2.9077324e-01
 -1.0124352e+00
  4.1614482e-01
 -2.7018452e-01
 -2.8231001e-01
 -6.6382968e-01
  6.6526461e-01
 -5.3273994e-01
  7.6764010e-02
  5.3546405e-03
  8.9328033e-01
  1.6437942e-01
  9.2353714e-01
 -2.9746979e-01
 -3.5399088e-01
 -6.1574751e-01
 -5.6691259e-01
  2.6303891e-02
 -3.3532751e-01
 -4.7124255e-01
  5.7900157e-02
 -4.5868701e-01
  4.7360185e-01
 -4.2907048e-02
 -3.0089650e-01
 -1.6407557e-01
 -4.4320062e-01
  1.3898300e-02
 -6.5596586e-01
 -1.1595399e+00
 -1.1808356e+00
 -2.0292306e-01
 -1.8242133e-01
 -5.5418253e-01
 -4.2776924e-01
 -3.9599904e-01
 -1.1247610e+00
 -1.9696997e-01
 -1.5453802e-01
 -2.3869620e-01
  4.9369594e-01
  1.0982576e-02
 -1.9394566e-01
  2.3422582e-01
 -4.4024624e-02
  7.7325553e-02
 -1.3025925e-01
  1.5184921e-01
  1.5600529e-02
 -3.0931020e-01
  1.6111711e-02
  5.7181347e-02
  4.9321488e-03
 -3.0419379e-04
  1.4753779e-02
 -1.6154746e-02
  8.8002451e-02
 -3.8999036e-02
 -1.8851293e-03
  2.4581837e-02
  6.6704135e-03
 -1.9089445e-02
 -1.8524483e-02
  1.6425107e-02
  4.7644373e-02
  3.2004775e-03
 -5.1857293e-02
  4.2301016e-03
 -5.9787154e-02
 -2.5134977e-02
 -1.2647682e-02
 -4.0257759e-02
  6.4703152e-03
 -1.2585072e-02
 -6.1730482e-02
 -7.0760965e-02
 -4.8503345e-03
  7.6980342e-04
 -5.5218372e-02
 -3.3321250e-02
  1.5168968e-02
  1.1304703e-02
  3.3106551e-02
  5.4677926e-02
 -2.8109817e-02
 -2.2902288e-02
 -5.2212182e-02
 -7.8369096e-02
 -4.6570648e-02
 -1.6457969e-02
 -1.8791709e-02
 -5.7416679e-03
  3.8925424e-02
  2.9272102e-02
 -1.8269619e-02
  7.7954698e-03
 -6.9237150e-02
 -2.2835894e-02
  5.5541387e-03
 -2.9752659e-02
 -2.4968788e-03
  4.0914126e-02
  3.5280310e-02
 -5.6645698e-03
 -1.1320801e-02
  3.7889148e-03
 -4.5135207e-02
  6.8518892e-02
 -1.2081628e-01
 -1.9752527e-02
 -1.3871402e-02
  6.1914891e-01
 -1.1482353e-01
 -7.7274203e-02
 -5.5382166e-02
  6.0431324e-02
  5.8359753e-02
 -5.7159462e-03
 -6.3275114e-02
 -5.7891798e-03
  8.8997357e-02
  4.1152380e-02
  8.6795516e-02
  1.2370010e-01
  1.4789724e-01
 -7.3115188e-01
 -5.3564035e-03
  4.2808436e-02
  2.0781808e-01
 -9.8400945e-03
  1.6510719e-02
 -2.7908081e-02
  1.2628637e-01
 -8.6092716e-03
  7.7020250e-02
 -1.6655204e-01
 -2.5426280e-01
 -3.1738304e-02
  8.9683853e-02
  3.0354947e-02
  1.0677286e-01
  1.4814301e-01
  9.5673591e-02
  4.5005795e-02
 -4.4508617e-02
  1.3550206e-02
 -1.6580489e-01
  1.8211881e-02
  4.1099738e-02
 -1.9046383e-02
  7.5263865e-02
  2.0668203e-02
  5.9551809e-02
  2.0744883e-02
 -3.4506541e-02
 -1.1348346e-01
 -5.1540229e-02
  5.2366387e-02
 -3.1293448e-02
 -1.2981093e-02
  1.0749588e-02
  2.8466541e-01
  6.7311513e-01
 -4.2493838e-01
  1.0764436e-01
 -1.1061563e-01
 -8.9155538e-03
 -2.1587674e-01
 -4.4266947e-02
  1.7895114e-01
 -3.2872323e-02
  1.2388368e-01
  3.9895758e-01
  6.2739961e-02
 -4.8900444e-02
 -1.8215494e-01
 -1.4337604e-01
 -1.8734616e-01
 -1.0365546e-01
 -1.2419605e-01
  2.6177967e-02
 -1.1440703e-01
 -1.7303632e-01
 -1.8260360e-01
 -1.1120071e-01
 -8.8046715e-03
 -1.2511940e-01
 -4.3827437e-02
 -1.4775503e-01
  2.5812112e-02
 -4.4840299e-02
  3.0926131e-02
 -3.3318684e-01
 -2.4869574e-02
 -9.5663629e-02
 -1.4166723e-01
 -1.5625733e-01
 -8.7100482e-03
 -8.4596179e-02
 -8.9913413e-02
  3.9378662e-02
 -1.8413926e-02
 -8.9735985e-02
 -1.6241974e-01
 -9.4966762e-02
  2.5464077e-03
 -3.0514235e-02
 -1.8244456e-02
  3.9237205e-02
  9.1391489e-02
  4.6622492e-03
 -4.4183820e-02
  1.4877428e-02
  4.8918877e-04
 -4.2267945e-03
  4.0411241e-02
 -4.2178415e-02
 -1.1107088e-01
 -3.8859781e-02
 -1.2835194e-01
 -7.3888483e-03
  1.7417376e-01
 -6.6653349e-02
 -1.7546069e-02
  1.6751422e-02
  1.6289763e-02
  8.3163865e-03
  8.7378770e-02
  1.1284767e-01
  2.5584297e-02
  3.4107119e-02
  1.1055051e-01
 -4.9287427e-02
 -4.1883074e-02
 -8.5035466e-02
 -3.0130498e-02
  1.8554913e-02
  6.3696625e-03
  1.2816916e-02
 -1.6371360e-02
  5.4370258e-02
 -1.0066366e-01
 -1.5697683e-01
  3.6281571e-02
 -4.8693068e-02
 -4.6164483e-02
  1.0403299e-03
 -1.0639287e-02
  5.8281042e-02
  1.0793892e-01
  3.9786804e-02
  8.0265641e-01
 -9.7606592e-02
 -5.9615746e-03
  2.0044910e-02
 -9.5877744e-02
  5.6179572e-02
  1.7925832e-02
  1.8621780e-02
  3.4443085e-04
 -4.3186113e-02
 -4.0067893e-02
 -2.3681957e-03
 -2.7564934e-02
 -1.6823199e-02
  1.4086166e-02
 -2.6492532e-02
 -1.6001415e-02
 -1.9305911e-03
 -8.3893380e-04
 -1.0051914e-02
 -3.3052031e-02
  1.8685399e-02
 -1.7777931e-02
 -2.5137686e-03
  1.2330371e-01
 -1.1307170e-03
 -7.9134312e-03
  1.0251014e-02
 -2.0478056e-03
  2.2603409e-02
  1.0542776e-02
 -2.3345079e-03
 -1.1027373e-02
 -2.0660046e-02
 -1.9160373e-02
 -1.8186720e-02
  1.0841805e-04
  4.4005876e-03
 -5.0835563e-03
  3.1605011e-01
 -1.6941525e-02
  1.2516115e-02
  9.8319417e-03
 -1.6670579e-02
 -3.0436028e-02
 -1.2313790e-02
 -6.8729013e-02
  2.1865046e-04
  1.7286722e-02
 -2.3402369e-03
 -3.4320336e-03
 -1.9755239e-02
 -2.8128948e-02
 -9.0596545e-03
 -2.6228134e-02
 -1.0101671e-02
 -2.1991679e-02
 -1.0564959e-02
  2.4110520e-02
 -8.8744601e-03
  2.5545690e-02
 -1.7762711e-02
  1.0833832e-02
 -2.6165582e-02
 -2.4567118e-02
  1.5515317e-02
  1.0014272e-02
 -6.0918592e-03
  4.9604714e-04
  4.8591323e-02
  5.4755672e-03
  3.2530975e-02
 -3.6056075e-02
 -4.4628210e-02
 -1.0679792e-02
  1.3631567e-01
  3.0732123e-04
  1.6281217e-02
 -1.7422868e-02
  1.1258724e-02
  5.7574608e-03
 -6.7256899e-03
  9.7145587e-03
  7.5071409e-02
 -2.0151874e-02
 -3.5835933e-02
  7.3857987e-03
 -4.6357509e-02
 -1.1131305e-01
 -3.0586014e-02
 -5.1086724e-02
  1.2576240e-02
 -7.8270333e-03
 -1.2538889e-01
 -2.9415876e-02
 -4.2007207e-03
  1.5928159e-02
 -1.1529323e-01
 -4.8823196e-02
  4.2996626e-02
  4.1134651e-03
  3.4290008e-02
  2.6065297e-02
 -6.9298553e-03
 -5.3001117e-02
 -1.0162362e-01
 -1.6002706e-01
 -8.0907956e-02
 -4.9232032e-02
 -8.3418610e-03
  1.7772146e-02
  5.7023384e-02
  1.3537609e-02
 -1.6536959e-02
 -9.1815613e-02
 -7.1768567e-02
 -1.3167107e-02
 -3.3980034e-02
 -2.5579043e-02
  1.1159725e-02
  7.9969086e-02
  5.1575039e-02
 -3.8381800e-02
  2.6497860e-02
 -2.7673380e-02
 -8.5860100e-03
  1.1814550e-02
  5.6616846e-03
  2.7073501e-02
  2.4151102e-02
 -3.4227744e-02
  2.8492851e-02
 -1.1595567e-02
 -1.9921863e-04
  1.0550226e-02
 -4.0536416e-03
 -1.3558624e-02
  2.6150277e-02
  2.5529105e-02
 -2.7875375e-02
 -3.0998611e-03
 -2.3584623e-02
 -6.4497359e-02
 -5.3238622e-03
  4.0848716e-03
 -1.3484324e-03
 -9.3121724e-03
 -6.8824482e-03
 -1.8882710e-02
 -3.0227974e-02
 -5.5720765e-02
 -1.1867190e-02
  7.2852606e-01
  4.6052039e-03
 -3.1258885e-04
 -2.8796750e-03
  2.9628649e-02
  5.0546769e-03
 -1.6191322e-02
 -1.9510003e-02
 -1.9805599e-02
  7.9139695e-03
  1.3685961e-02
  1.0861356e-03
  6.5921461e-03
  1.4797688e-02
 -4.7103250e-03
 -1.7966870e-02
 -7.0076147e-03
 -3.5414435e-02
 -1.5842382e-02
 -1.5547855e-02
 -9.4062900e-03
  5.6260880e-03
  1.6891122e-02
  9.8238643e-03
  2.0850596e-03
 -6.1204280e-03
 -1.1320539e-03
  5.6524570e-03
  3.5829237e-01
 -2.2514524e-01
  3.0182773e-02
  1.6717187e-01
 -1.0568466e-01
 -3.1689428e-02
  1.6927497e-01
  1.1746306e-01
  9.3016379e-02
 -2.9101292e-02
 -2.0997012e-01
 -1.9992660e-01
 -1.1637644e-01
  9.5670829e-03
  1.1697442e-01
 -1.1166644e+00
  2.4142750e-01
  9.2062160e-02
 -1.6209546e-02
 -1.1601659e-02
  1.0625304e-01
  1.0395055e-01
  3.8113300e-02
 -1.6066456e-02
  6.1742146e-03
  2.7349649e-02
  7.0550546e-02
  2.1669613e-01
 -7.7484496e-02
  6.4813294e-02
  1.1330374e-01
  2.0949817e-01
  1.7941613e-01
  2.0340416e-01
  1.8719234e-01
  7.1654193e-02
 -2.0529589e-01
 -2.2479677e-01
 -3.2399544e-01
 -9.1090724e-02
 -2.3729362e-02
 -9.5355213e-02
 -3.8491167e-02
  7.8670762e-02
 -2.8698919e-02
 -2.2793347e-02
 -2.6415788e-02
  9.1534518e-02
 -1.9490877e-03
 -3.0012902e-02
 -1.6033601e-02
 -3.2938875e-02
  2.5784757e-02
  5.2952804e-02
  2.5052834e-01
 -3.1500053e-01
 -4.2153585e-01
  9.4654374e-03
 -1.0241762e-01
 -1.7912804e-01
  1.7580670e-01
 -3.5102880e-01
 -1.5417209e-01
 -6.3900337e-02
 -2.4427947e-01
  2.3951639e-01
 -1.2937562e-01
  1.5999550e-01
 -3.8171511e-02
 -6.7244746e-02
  2.0908761e-01
  2.0008166e-01
 -3.1599130e-02
  1.5625843e-01
 -1.0742768e-01
  6.3377097e-02
  8.7180130e-02
  3.1786583e-02
 -3.8218547e-03
  1.7473724e-01
 -5.6749437e-02
 -3.5279408e-01
 -9.1057226e-02
  1.9168742e-02
 -3.1688511e-01
 -1.5867785e-01
 -1.2163448e-01
  1.5125501e-01
  1.9707270e-01
  5.5288486e-02
  1.2682304e-01
  1.2226409e-01
  8.9458086e-02
 -6.3976392e-02
 -2.3707172e-02
 -6.0094342e-02
 -2.4501078e-02
  1.1198407e-01
 -8.7408431e-02
 -3.9692581e-02
 -1.1243568e-02
  6.0799323e-02
 -1.2185819e-02
  3.3119157e-02
  4.2744022e-02
 -2.6845574e-02
 -2.4842933e-02
  4.4036891e-02
 -5.8871623e-02
 -2.6258790e-01
  5.8867449e-01
  1.1633921e-01
 -9.5853582e-02
 -2.8320593e-01
  5.1036549e-01
  6.0979959e-02
 -4.6136592e-02
 -6.5817736e-02
  5.7314433e-02
  1.9277968e-01
  4.9555313e-02
 -8.7486589e-03
 -5.2495260e-02
 -9.8590940e-02
 -1.0243607e-01
 -8.1566252e-02
  3.3487871e-02
  8.6248539e-02
 -2.6520770e-02
 -1.2541841e-01
 -2.7756944e-02
 -8.5266173e-02
 -6.2277308e-03
 -1.8143626e-02
 -5.1831529e-02
 -2.0497416e-01
  9.6678220e-02
  4.0283091e-02
  5.9406679e-02
  2.1925865e-02
  5.1910378e-02
 -1.1596699e-01
 -5.9867956e-02
 -8.5744910e-02
  2.8877658e-01
  6.6395946e-02
  2.4811156e-02
  6.5543866e-03
  1.5041523e-02
 -9.4656937e-02
  1.0343737e-02
 -5.2321956e-02
 -4.9240319e-03
 -1.5060477e-02
  1.8747052e-02
 -2.7390372e-03
  5.2103024e-02
  3.9735880e-02
 -1.9399222e-02
 -1.2694508e-03
  3.1106216e-03
  3.7128463e-01
  1.4888147e-01
  1.2029793e+00
  3.5429597e-01
  5.6037647e-01
 -2.0062551e+00
 -5.6584543e-01
  8.3955191e-02
 -6.7563784e-01
 -3.6134177e-01
  2.5309473e-02
 -2.2141634e-01
 -2.2076152e-01
 -6.3502961e-01
  3.2937270e-02
 -2.0264557e-01
  5.7071220e-02
  3.3848573e-02
  1.3110907e-01
  2.2452204e-01
  5.5812397e-03
 -7.3328815e-02
  2.3050138e-01
  1.8515414e-01
 -4.6439923e-02
 -4.3646719e-02
 -1.2127332e-01
 -3.0003083e-01
 -2.4154426e-01
  2.4956867e-01
  5.1262796e-02
 -5.2155441e-01
  1.6557904e-02
 -4.1892633e-02
  2.1365473e-01
 -1.6142213e-01
 -3.9965495e-02
 -2.7638447e-01
  1.3919389e-01
  4.5970124e-01
 -8.4567800e-02
 -8.9349046e-02
 -2.3646708e-01
 -6.5833278e-02
 -3.1448182e-02
 -3.2666057e-02
  1.0227125e-01
 -7.7247664e-02
  3.6913790e-02
 -8.2553826e-02
 -4.6700141e-03
  3.3280782e-02
  4.4286396e-02
  1.3801100e-02
  1.1265545e+00
  1.2002176e-01
 -1.6623909e-02
 -1.2105140e-01
 -1.9662830e-01
 -2.5252998e-01
  3.8236731e-01
  1.1758495e-01
 -1.0037459e+00
 -5.2140319e-01
  8.3842099e-02
 -2.5902122e-01
 -9.8080039e-03
 -1.9001767e-01
  3.0132923e-01
 -2.4593170e-01
 -1.2330183e-01
  1.4489426e-01
  3.6365387e-01
  2.8170964e-01
  1.0712180e-01
 -7.2364271e-02
  4.7005418e-01
  1.8483244e-01
  1.3161632e-01
  8.3849415e-02
  7.0157856e-02
  8.6378291e-02
 -4.6133211e-01
  6.0880493e-02
 -2.4161817e-01
 -1.7883287e-01
  3.4825690e-02
 -6.6238239e-02
  8.3861105e-02
  1.3490765e-01
 -1.0137606e-01
  4.8887491e-01
 -9.4118165e-03
 -1.0181340e-01
 -2.5875995e-01
 -8.7284654e-02
 -2.9900491e-02
 -5.3363018e-02
  1.8737858e-02
 -1.2547762e-02
  1.0744246e-02
  9.6183596e-03
 -7.0664734e-02
 -6.4549312e-02
 -5.0773226e-02
  4.6849225e-02
 -2.4204258e-02
 -5.9042811e-02
 -8.9688338e-02
  9.5386779e-01
 -9.4583559e-01
  5.9571497e-02
 -8.4407127e-01
  2.6943153e-01
  2.4921985e-01
 -2.5872594e-01
  4.7186536e-01
  1.1209393e-01
 -4.1291928e-01
  3.9345065e-01
 -1.6447857e-01
 -6.8729162e-02
  6.2302816e-01
 -2.6396883e-01
 -1.7705767e-01
 -4.1764191e-01
 -9.2598788e-02
  1.2854484e-01
 -9.7471915e-02
 -2.4228603e-01
 -8.5466355e-02
 -1.2268046e-01
  2.3776810e-03
  2.0236720e-01
 -7.5390935e-01
 -1.5032212e-02
  2.3590218e-01
  1.7601353e-01
 -5.5224776e-01
  1.6101742e-01
  1.0676086e-01
  3.6274910e-02
 -3.4289762e-01
 -5.2191544e-01
 -2.1166952e-01
  1.0160935e-01
 -3.9157790e-01
 -3.1664765e-01
  4.0879866e-01
  6.7615516e-02
 -3.7201515e-01
  4.7243197e-02
 -2.9686573e-01
  2.9118804e-02
 -1.0069103e-01
  8.9806877e-02
 -8.7385112e-03
  8.3864376e-02
  3.2861984e-01
  1.1075304e-01
  4.8955556e-02
  8.1156120e-02
  1.3308376e-02
 -4.8773751e-02
 -4.3820761e-02
 -2.1831818e-02
  1.1193247e-01
  1.8296817e-02
  6.8884450e-03
 -9.2722364e-02
 -2.1597777e-02
 -1.1723684e-02
 -2.3959028e-02
  2.0856490e-02
  6.3237727e-02
 -1.4045514e-02
 -3.5366822e-02
 -3.8000006e-02
 -5.2333277e-02
 -9.0220980e-02
 -4.6626743e-02
 -3.8402647e-02
  1.8221969e-02
 -1.6305581e-02
 -1.0605191e-01
 -5.4063123e-02
 -2.9870287e-02
  4.9530733e-03
 -7.5753458e-02
 -2.4033241e-02
  4.6979887e-03
  9.5080091e-03
  4.2319249e-02
  5.5606216e-02
 -4.2002174e-04
 -3.3309453e-03
 -7.9483166e-02
 -1.0431963e-01
 -6.1100103e-02
 -4.7325879e-02
 -9.7511755e-03
 -1.0854024e-02
  4.2418901e-02
  2.2875663e-02
 -2.0097427e-02
 -1.5204102e-03
 -4.7946084e-02
 -3.7393522e-02
 -8.6154435e-03
  2.2106603e-02
  1.1924694e-02
  7.4470066e-02
  1.1558911e-02
 -1.9920230e-02
  3.4543887e-02
  8.4238285e-03
  4.0764380e-02
  1.3569591e-02
  1.1517302e-03
  7.0357439e-03
 -1.2893268e-01
  8.2917064e-02
 -2.7460204e-02
  1.3005408e-02
 -1.1894667e-02
  1.9763952e-02
  2.0608025e-02
 -1.8553257e-02
 -3.7604336e-02
 -3.4806658e-02
  2.1947576e-02
  3.8193379e-02
  7.4602291e-02
  1.1297487e-01
  2.5764959e-02
  4.1093327e-02
 -1.1055547e-02
  5.7304863e-02
  9.9872969e-02
  4.2592388e-02
  1.8857721e-02
 -4.0821754e-03
  6.1998587e-02
  3.0744396e-02
 -4.5605771e-02
 -3.3464558e-02
 -7.8154884e-02
 -3.5742741e-02
  6.4152345e-02
  3.0947344e-02
  5.4113846e-02
  1.3114457e-01
  7.2595857e-02
 -2.3107814e-02
 -6.3750543e-02
 -2.6805803e-02
 -1.9064469e-02
  1.3945797e-02
  1.0894747e-03
 -5.8881021e-03
  4.2444646e-02
  1.7521083e-02
  2.6013343e-02
  3.5966497e-02
  1.7121835e-02
 -6.5279253e-02
 -1.8996475e-02
  3.3425819e-02
 -7.7104894e-03
 -1.2067927e-02
 -4.7506034e-01
  3.3473203e-01
 -1.2918823e+00
  4.5117423e-01
 -3.4797758e-01
 -5.3262645e-01
  6.8985379e-01
 -1.7009749e-01
  2.2305632e-01
  2.5919232e-01
 -1.2443916e-01
 -1.0557345e-01
  7.9863071e-02
 -1.1209974e-01
 -1.3237166e-01
 -4.6763901e-02
 -7.0989855e-02
 -1.8875222e-01
  9.3383789e-02
 -6.8554945e-02
  5.3561006e-02
  1.4153486e+00
 -1.6044411e-01
 -1.5141150e-01
 -3.1215933e-01
  5.9259336e-02
  2.5160906e-01
 -2.5594756e-01
 -1.8925135e-01
 -1.0335580e-01
 -5.0757486e-01
  1.5838893e-02
 -2.5062296e-01
  9.9353390e-03
 -9.9467240e-02
 -1.9887768e-01
 -1.1745741e-01
 -3.9394557e-01
  8.6781859e-02
 -6.8119384e-02
 -5.2982897e-02
  7.0128955e-02
 -7.7581942e-01
 -6.5743453e-03
 -2.6534509e-02
  1.0018042e-02
 -5.4150592e-03
 -3.1761993e-02
 -2.8093276e-03
  1.3114254e-01
  3.6258433e-02
 -4.7108196e-02
  1.9800531e-02
 -4.8857857e-03
  7.2292290e-03
 -1.9301502e-02
 -1.2208505e-02
  1.7810144e-02
 -3.5105653e-02
  3.8847208e-02
 -9.4857570e-03
 -8.5139759e-03
 -2.3459081e-04
  1.2604987e-02
 -3.2018831e-03
 -1.0364467e-02
 -1.8332979e-02
  1.5152714e-02
  8.4891422e-03
 -2.2395430e-02
  2.9976139e-02
  4.2752035e-02
  1.5891962e-02
  1.6502278e-02
 -3.9438070e-03
  5.7609998e-02
  4.7024366e-02
  1.2160482e-02
  1.3520947e-02
  7.4180583e-03
  2.7309222e-02
  2.3747191e-02
 -6.0970178e-03
 -1.7156148e-02
 -2.9135440e-02
 -2.6488544e-02
  2.0741897e-02
 -4.7455113e-03
  2.0617567e-02
  4.2358469e-02
  2.8196275e-02
  7.8318566e-02
  1.5460776e-02
 -2.0841390e-02
 -4.2328034e-03
  1.0836423e-02
 -1.5235635e-03
 -1.3306455e-02
  2.9456841e-02
  3.8144465e-03
  1.9491332e-02
  6.8059373e-03
 -1.1579429e-02
 -3.1374048e-03
  6.4994763e-03
  8.6535653e-03
 -9.4541237e-03
 -3.8076091e-01
 -2.6987076e-03
  9.7524272e-03
  5.2851704e-03
 -1.9933763e-03
 -8.7042851e-03
 -1.1446201e-02
 -5.6623588e-03
 -2.4962406e-01
 -4.8642159e-03
  1.7858879e-03
  4.4934545e-04
  1.1175882e-05
  7.5532626e-03
  1.6020056e-03
 -1.0570006e-02
 -1.1060722e-02
  8.0893822e-03
 -1.9856344e-04
  5.2865967e-03
 -1.2066633e-02
  1.9700266e-03
  1.3526776e-02
  3.2000165e-02
 -2.2962842e-02
 -2.3374721e-02
 -6.8590995e-03
  2.3510016e-03
  2.1754401e-03
  1.0045776e-02
 -4.4025872e-03
  1.4070312e-02
  1.3857764e-02
 -1.1083039e+00
 -3.3733991e-03
 -1.0370014e-02
 -6.8779131e-03
  1.6035434e-03
 -2.7764754e-03
  6.0917642e-03
  1.7517596e-02
 -1.5512844e-02
 -1.2561013e-03
  4.1303784e-03
 -1.0480183e-02
 -4.4492865e-03
 -1.0634393e-02
 -2.1501789e-03
 -7.7780169e-03
 -4.3506646e-03
  6.7030103e-03
 -2.1419713e-02
  3.2044780e-03
 -1.8077070e-04
  4.2223833e-03
  1.2307247e-02
 -9.0463739e-03
  6.3520423e-03
 -9.2603080e-03
  2.2593426e-02
  7.5287204e-03
  5.3122104e-03
  1.6297420e-02
  1.4239584e-02
 -2.6735514e-02
 -5.9559382e-04
 -2.7880589e-03
  5.6881406e-03
  2.5584698e-03
 -4.3451395e-03
  4.4232402e-03
  3.8358723e-04
 -1.5044588e-02
 -1.5981793e-02
 -8.5093248e-01
 -2.1150289e-02
 -2.8393529e-02
 -2.8450815e-02
  1.4076301e-02
 -1.0703543e-01
 -7.2714139e-04
 -2.7471546e-03
 -1.4357304e-02
 -9.9363206e-03
 -6.8238517e-03
 -5.2392203e-03
  1.4403105e-02
 -2.2849327e-02
 -3.8161837e-03
 -1.7015277e-03
 -1.8313089e-02
 -1.5321961e-02
 -6.3433456e-03
  2.6164204e-01
 -4.6087508e-03
 -1.6009523e-02
  1.4224958e-03
 -6.1823414e-03
  3.3999360e-03
  1.0736092e-02
  1.1724828e-02
  3.9798412e-03
  2.1657208e-03
  6.6079595e-03
  5.9718955e-03
 -8.0411332e-03
  7.7256593e-03
 -2.2943784e-02
  6.4672483e-03
  3.9497022e-02
 -7.5709503e-03
  2.0989979e-02
 -2.2713944e-02
 -5.5988211e-02
  2.0874308e-02
  6.7798786e-02
 -6.2390137e-03
 -6.4528197e-02
 -3.8510919e-04
  7.1424041e-03
  1.1404457e-02
 -6.5188445e-03
 -1.7464874e-02
  1.5971262e-02
  1.3188072e-02
  3.2103676e-02
  5.1992819e-02
  2.4958085e-02
 -1.1132067e-01
 -1.0119583e-02
 -2.1924614e-03
  5.0887618e-02
  8.8181384e-03
  1.0265947e-02
  6.1164806e-03
  2.8728778e-02
  1.2713111e-02
 -2.7263988e-02
  8.0660870e-03
 -1.6181745e-02
 -1.8996807e-02
 -3.8877320e-03
  1.3447605e-02
  3.3666275e-02
  1.7629259e-03
  1.3470570e-02
  3.0596305e-02
  1.2878479e-02
 -4.1718949e-03
  2.1776628e-01
 -3.1908702e-03
  1.0160561e-02
 -1.1044960e-02
  1.5714115e-01
 -1.2691062e-02
  1.9816391e-02
  1.5386071e-02
 -1.1432413e-02
 -3.2482971e-02
  3.1790615e-03
  2.0277295e-02
  3.9600483e-03
 -1.1365657e-02
  4.5468694e-01
  8.4258395e-01
 -1.2627678e+00
 -1.4895670e+00
  7.0882803e-01
 -7.0024246e-01
  2.6032394e-01
  2.4564061e-01
  3.1468429e-02
  7.8047824e-01
  8.5784011e-02
  5.1161611e-01
 -4.4788092e-01
  4.8274091e-01
 -1.3373643e-01
 -3.3765188e-01
  2.7759242e-01
 -1.0162445e-01
 -8.2741566e-02
 -8.2233518e-01
 -1.6710721e-01
  5.7824541e-02
 -2.0141982e-01
 -5.1820028e-01
 -7.7234727e-01
  9.7767645e-03
 -2.2230831e-01
 -2.3340555e-01
  1.1020279e+00
 -3.3363011e-01
 -2.6419789e-01
  2.0325524e-01
  2.6233122e-01
 -3.8393248e-02
  3.6076526e-04
 -8.4333360e-02
 -2.3325692e-01
  1.2321568e+00
  4.1607183e-01
 -4.7321659e-02
 -7.0899464e-02
 -9.8967537e-02
  6.9291806e-01
 -1.6243558e-01
 -7.4534953e-02
  3.3862281e-04
 -1.0250434e-01
  5.5550672e-02
  9.0611428e-02
 -2.2174153e-01
  6.6148825e-03
  6.4992577e-02
  5.6463171e-02
  2.0436926e-02
  4.7563344e-01
 -2.1870436e-02
 -4.8835686e-01
 -1.1667377e+00
 -6.5093374e-01
 -1.5044992e-01
  3.2896513e-01
  1.0575938e+00
 -6.8909323e-01
  3.1183952e-01
  3.4097666e-01
 -7.8410037e-02
 -7.3916274e-01
  2.8232351e-01
  1.3244733e-01
  6.9424912e-02
  1.6457833e-01
 -1.7905264e-01
 -4.0836522e-01
  1.3242155e-01
 -2.5374308e-02
  1.0402083e-01
  2.1276022e-01
 -1.3806723e-01
 -6.0798742e-02
  1.5783001e-01
 -7.4297018e-02
 -3.2531169e-01
  4.8479146e-01
  2.7328396e-01
 -3.1578425e-01
 -2.3264499e-01
 -1.8212645e-01
  1.9418469e-01
  7.2961129e-02
 -1.0825695e-01
 -1.7317466e-01
 -8.7721844e-04
  3.4198135e-01
 -1.2857610e-01
 -2.5999185e-01
 -9.6238084e-02
  1.8393575e-01
  3.2250811e-03
 -6.8249136e-02
  1.0334738e-01
 -1.8602001e-02
 -1.7114395e-02
  6.9900250e-01
 -1.7417435e-01
  1.6878173e-02
 -2.9360622e-02
  3.2420579e-02
 -7.6415777e-01
  6.0331011e-01
 -1.6486149e-01
 -6.9741547e-01
  8.5016362e-02
  1.4672898e-01
 -5.0714505e-01
 -2.9622409e-02
  3.1318629e-01
  9.3670957e-02
 -3.6061656e-01
 -3.5056782e-01
 -3.2163981e-01
 -3.2881895e-04
  5.3920716e-02
  2.6631925e-01
 -6.6370469e-01
 -1.0783543e-01
  2.8893126e-02
  3.7569964e-01
  2.8560570e-01
  3.8977668e-02
 -7.1734059e-01
 -9.5483392e-02
  6.4237964e-01
  7.2867751e-02
  1.1625917e-01
  1.0210631e-03
 -2.1975401e-01
 -3.8811797e-01
 -2.7840596e-01
 -1.1005693e-01
 -2.9232779e-01
 -5.6517410e-01
 -1.9206817e-01
 -1.3983326e-02
 -4.7469486e-02
 -2.3655552e-02
 -7.2326320e-01
  8.2910135e-02
 -9.0469286e-02
 -3.1803352e-01
 -1.7261246e-01
 -2.8840986e-01
 -2.2645596e-01
 -9.7676199e-03
 -4.3542802e-02
  1.1184953e-01
  1.8456303e-02
  9.3244143e-02
 -2.7350783e-01
 -1.9662891e-01
  1.3010645e-01
  4.5782141e-03
 -4.8992541e-02
  7.9294570e-02
 -2.2350319e-01
 -1.2363708e-01
  3.9732355e-01
  9.2151105e-02
 -3.4032363e-02
 -9.2783915e-03
 -9.3502693e-02
  2.1637674e-02
 -4.3152049e-02
  1.3888357e-02
 -2.1065557e-02
  6.8094812e-02
  1.9708561e-02
 -7.9370700e-03
 -1.8876255e-02
 -6.8653710e-02
 -8.1838213e-02
 -6.2525896e-03
  4.2437721e-04
  3.9689507e-02
  6.8418374e-03
 -8.4853522e-02
 -2.7039621e-02
  1.4421075e-02
 -8.4721865e-03
 -5.4829437e-02
 -4.2374181e-03
 -1.3302065e-01
  1.5734865e-03
  1.0018132e-02
  4.3815408e-02
 -3.5501532e-02
 -1.4522903e-02
 -4.7591258e-02
 -1.0465920e-01
 -7.3639698e-02
  1.1824071e+00
  8.3093494e-02
 -5.3488910e-03
 -3.0342383e-02
  4.7401395e-03
 -8.6339768e-03
 -3.5678910e-03
 -4.3008111e-02
  6.4211539e-03
 -2.2146270e-02
 -1.2763118e-02
 -2.3027319e-01
  4.6386402e-02
  1.0050074e-02
 -2.0125095e-02
 -1.9990303e-02
  5.7528624e-03
  1.9569609e+00
 -9.6345276e-02
  2.1416186e-01
 -6.4483494e-01
  1.1018618e-01
 -8.0076659e-01
  9.2184275e-01
  4.0438298e-02
 -9.9690735e-01
 -6.9653350e-01
  1.0722154e+00
 -6.1333638e-02
  2.0223440e-01
 -7.4316688e-02
  8.9567363e-02
 -1.7958359e-01
 -2.5756264e-01
 -3.7620932e-01
 -4.8284590e-02
 -1.5149193e-01
 -4.4627711e-02
 -5.2798843e-01
 -1.8363579e-03
  1.8702190e-01
  1.8681720e-01
  2.6884112e-01
 -6.4032942e-01
 -4.9596068e-01
 -3.0316696e-01
  6.7381430e-01
 -3.5832044e-01
 -5.6573749e-01
  4.1031921e-01
 -1.1228266e-02
 -3.6644924e-01
 -6.3802618e-01
 -3.4448883e-01
 -3.4213689e-01
 -4.8758928e-02
 -8.7437683e-01
  1.5159860e-01
  8.3082497e-02
  6.0619734e-02
  9.4373733e-02
 -2.7907079e-01
  7.1301885e-02
  4.7817585e-01
  2.0683963e-02
 -2.6870728e-01
  1.1100236e-01
 -1.5320094e-01
  8.1496425e-02
  2.6433116e-02
 -1.6960475e-01
  7.6781619e-01
 -1.1216403e-01
  4.0918064e-01
 -3.2142448e-01
 -4.6380991e-01
 -1.5257826e+00
 -1.3564914e-01
  8.4899087e-03
  6.7280263e-01
 -1.1016178e+00
  6.9781566e-01
 -1.5051122e-01
  7.0824331e-01
  4.2418125e-01
  8.8803208e-01
 -4.0610384e-02
  1.5554607e-01
  1.6329463e-01
  1.0041919e-01
 -6.9032586e-01
  1.6365787e-01
  6.2874168e-01
 -5.8650270e-02
  7.3065889e-01
 -1.7686896e-01
 -5.6023773e-02
 -4.5761904e-01
 -8.0473106e-03
  3.8479275e-01
  7.8877680e-02
 -4.1674709e-01
 -8.9756185e-01
  3.0079582e-01
  3.6832687e-01
  2.1784967e-01
  2.2088981e-01
  2.0542826e-01
 -2.7717665e-01
 -1.8282840e-01
 -2.9950792e-02
 -2.0037916e-01
  7.0018210e-02
  3.0572161e-01
  5.5743922e-02
  2.2823811e-01
  1.0998701e-01
  6.3288324e-02
  1.6838329e-02
 -9.5969439e-02
 -3.9445487e-01
 -1.5006810e-01
  5.4245446e-02
 -4.2237464e-02
  7.5957612e-03
  1.1507527e-02
 -3.0451751e-01
 -3.1765714e-01
  1.2813344e+00
  5.8351737e-01
  1.1865108e+00
  2.3514788e-01
 -8.9180499e-01
  3.1965560e-01
 -4.3571663e-01
 -7.7450010e-03
  6.0547654e-02
 -9.0291548e-01
  1.4983344e-01
 -6.5291319e-03
 -1.5683337e-01
 -5.7206142e-01
 -3.6030161e-01
 -1.7674968e-01
 -2.5332260e-01
  5.3254932e-02
  1.6012698e-01
 -3.2850853e-01
 -8.6057000e-02
  1.7228103e-01
 -1.7731452e-02
 -2.0487443e-01
 -4.7186652e-01
 -7.2923136e-01
  1.6236737e-02
  4.5074242e-01
  5.1417595e-01
  2.7660862e-01
 -1.1374202e-01
 -1.3063055e-01
 -2.3269200e-01
 -2.4843968e-02
 -1.5355647e-01
 -3.5035092e-01
  1.5884946e-01
  5.6808853e-01
  2.2993875e-01
  1.1488185e-01
 -2.8559308e-02
 -1.2066003e-01
 -3.9920967e-02
 -5.1369231e-02
 -3.3803776e-02
 -3.1627972e-02
  1.1624017e-01
  7.7629872e-02
 -2.3105440e-01
  6.4597659e-02
  1.9475540e-02
 -1.7727144e-02
 -4.0743621e-03
  4.0865093e-03
  3.6018539e-02
 -4.4294246e-02
  5.9937209e-02
 -6.1679808e-03
  9.7828098e-03
  8.0049569e-03
  2.3896478e-02
  3.2789130e-02
 -2.0573264e-02
 -5.9570622e-02
  1.8295821e-02
  5.4175939e-02
  2.5195511e-02
  6.1991714e-02
  6.2785663e-02
  4.5475855e-02
  1.6515149e-02
 -1.9933507e-02
  4.3181468e-02
  7.8735195e-02
  1.6719345e-02
  1.0589645e-02
 -8.9426693e-03
  5.2539706e-02
  1.7768087e-02
 -3.1744998e-02
 -2.9150592e-03
 -1.7787339e-02
 -5.4288596e-02
  3.1493522e-02
  2.5728403e-02
  4.1440431e-02
  6.7806296e-02
  5.5654153e-02
  2.5800994e-02
 -8.1236614e-03
 -6.4250543e-03
 -1.1702343e-02
 -3.6014680e-02
 -8.1095233e-04
 -3.6377567e-03
  3.0134201e-02
  1.7729938e-02
  2.2791898e-02
  6.9181616e-03
 -1.0268652e-02
 -3.4489710e-02
 -2.9433997e-02
  1.4061058e-02
 -6.7841518e-03
  1.4314746e-03
  9.3642287e-03
 -6.2160324e-03
  8.4131092e-02
 -5.3581402e-02
  5.2475076e-02
 -2.6433052e-02
  1.3442763e-02
  1.0112824e-02
 -2.5965195e-02
  4.4744154e-03
 -1.2996504e-02
  6.1080288e-03
 -1.1292032e-03
  1.5522892e-02
 -2.4672553e-02
  4.3885442e-03
 -2.4341652e-02
 -4.2039678e-02
 -1.2664295e-02
 -2.3939693e-02
  4.5809001e-03
 -6.2770699e-03
 -5.2543651e-02
 -1.9639622e-02
 -2.2508088e-02
  1.6936723e-02
 -2.6717059e-02
 -1.3441735e-02
  1.5150813e-02
  1.1867814e-02
  1.2285297e-02
  1.8096607e-02
 -4.5239381e-02
  2.8555598e-03
 -3.1096879e-02
 -5.7565313e-02
 -4.1634079e-02
 -4.0177420e-02
  2.2049638e-02
  1.6678689e-02
  1.6595302e-02
  4.1741128e-03
 -6.8973387e-03
 -5.9198802e-03
 -2.3062650e-02
 -1.5803590e-02
  8.1183733e-03
  3.8953826e-02
  7.7794166e-03
  4.4402603e-02
  1.0520226e-02
  1.0708263e-03
 -7.9981694e-03
 -6.3630422e-03
  1.4719559e-01
 -1.4804371e-01
  8.1123263e-02
  7.6925280e-03
 -8.3296604e-02
 -3.1933870e-02
 -9.5011547e-02
 -4.9825126e-01
 -3.2012588e-01
  8.7737096e-03
 -1.5647538e-02
  2.3869865e-01
 -1.8118507e-01
 -1.3003747e-01
  1.1621051e-01
 -9.5431313e-02
  6.1323188e-02
 -3.6275022e-02
  1.6748080e-01
  1.7203645e-01
  3.6429800e-02
  2.4033237e-01
  3.2637125e-01
  1.6469619e-01
  2.0840523e-01
 -3.0528313e-02
 -3.4963340e-02
  9.0328157e-02
  9.7908996e-02
  4.1564234e-02
 -3.8045362e-02
 -4.8409134e-02
  6.5210881e-03
  1.1506706e-01
  7.8398727e-02
  6.1413936e-02
  6.2672533e-02
 -1.8386632e-01
  1.9470285e-01
  3.4875013e-02
 -3.6975089e-02
 -2.9547216e-02
 -1.3133785e-02
  6.3282043e-02
  3.1949930e-02
  2.4402354e-02
 -4.0750206e-02
  1.3555954e-02
 -6.9493599e-02
 -7.8966916e-02
 -2.9644486e-02
  2.4491021e-02
 -7.2322651e-03
 -7.0590675e-03
  2.8923431e-01
  1.3540979e-01
  2.6908010e-02
 -8.6440992e-01
 -4.7840983e-01
 -1.0040758e-01
  6.5154558e-01
 -1.2589611e+00
  2.2795090e-02
  3.1439614e-01
 -6.2272882e-01
  2.6389617e-01
  4.2460588e-01
  4.2020464e-01
  6.1689466e-01
 -1.5535574e-01
 -2.1154974e-01
 -2.3422158e-01
  4.3525875e-01
 -5.9756112e-01
  1.7614578e-01
 -3.4432182e-01
 -3.0152699e-01
 -8.4839529e-01
 -2.4753638e-01
 -1.2939465e-01
 -1.5791586e-01
 -1.2819542e-01
 -1.7645404e-01
  2.1698363e-01
 -7.9256105e-01
 -3.1962022e-01
 -6.9166082e-01
  1.8082483e-01
  8.1707843e-02
  5.4455876e-02
  8.1879683e-02
 -4.5416361e-01
 -3.6444400e-02
  2.0159189e-02
 -5.1239938e-01
 -2.1814346e-01
  3.5573576e-02
 -2.0731635e-01
 -2.4075991e-01
  5.5716600e-02
 -1.1565586e-01
 -8.0073234e-03
 -7.3941588e-02
 -7.7979662e-02
 -1.1530989e-01
 -1.1867547e-01
 -1.5784390e-02
  9.4077915e-02
  3.4999240e-02
  1.0091363e-01
 -1.5882991e-01
 -1.1071508e-01
  1.7348684e-01
 -2.8123611e-01
 -8.9372844e-02
 -7.5990558e-01
 -1.4605379e-02
 -2.3494844e-01
 -1.4658874e-01
  2.5825331e-01
 -2.6707318e-01
 -1.2543529e-01
 -2.1287920e-01
 -1.5723141e-01
  4.9932294e-02
 -4.3286141e-02
  2.4757784e-02
 -7.7435836e-02
 -1.3699527e-03
  4.1558184e-02
 -6.2946513e-02
 -1.4502203e-01
 -8.2154088e-03
 -1.2940154e-02
 -5.0010299e-04
 -3.7718091e-02
 -3.5647237e-01
 -2.6459810e-01
 -2.9447218e-02
 -2.2074617e-02
 -5.9488084e-02
 -7.4090607e-02
 -1.4861802e-02
  1.0347121e-01
 -1.0996299e-01
  3.0469343e-01
 -1.6869961e-01
 -4.0513515e-01
 -2.0029515e-01
 -1.6983429e-01
 -4.3358037e-01
  2.8973222e-02
  2.2056822e-02
 -5.4235011e-02
 -1.1963103e-01
 -2.3695441e-02
  1.0640527e-01
 -3.8119856e-02
  1.0986950e-02
  2.3179267e-02
 -2.3670712e-02
  2.1418964e-02
  1.4870762e-02
 -1.7792957e-01
  4.1125852e-01
 -2.2890335e-01
 -1.8092628e-01
  1.0999241e-01
 -1.5457612e-02
 -2.0201465e-01
 -6.2683135e-02
 -3.7123397e-02
  1.3628980e-02
 -4.7869660e-02
 -8.0775313e-02
  2.4188794e-03
  1.5779912e-02
  3.4081932e-02
  1.0796358e-01
  8.7295033e-02
  3.9450053e-02
  7.8051453e-03
 -3.7753534e-02
 -2.7830705e-02
  1.2155173e-01
  1.1387120e-02
  4.0444717e-02
 -1.6590524e-02
  8.6175323e-02
  3.7967108e-02
 -9.9844106e-02
 -8.5374238e-03
 -4.6547860e-02
 -1.9142449e-01
 -1.7587924e-02
  1.9304262e-02
  5.3383362e-02
  1.2861632e-01
 -7.5545430e-02
 -4.4838727e-02
 -1.9820977e-02
 -3.1587064e-02
 -3.3811402e-02
 -5.7055242e-02
  2.8021879e-02
  1.7145701e-02
  4.7195569e-02
  6.7819118e-02
  3.3365309e-02
  1.7995665e-02
 -2.3849482e-02
 -9.0316564e-02
 -2.7439581e-02
  4.4260856e-02
 -2.2111433e-02
 -9.6294228e-03
  4.7661285e-03
 -2.2070175e-02
 -4.5417892e-03
 -3.5818575e-03
  5.2249432e-03
 -1.2004236e-03
 -7.4426467e-03
  1.3513247e-02
 -6.8735410e-03
  7.3727441e-04
 -6.3471361e-03
  3.3977486e-02
  7.4958652e-02
  6.7833118e-02
 -1.5609119e-02
 -3.2641927e-03
 -1.3636095e-02
 -3.3541010e-03
 -7.6765837e-03
 -6.6090524e-03
  1.1578420e-02
 -2.0722779e-02
  7.2718849e-03
 -8.8542551e-03
  4.1815825e-03
 -1.6047190e-03
 -3.7070354e-03
 -6.0356529e-03
 -2.0474112e-03
 -3.1728165e-03
  1.7912372e-03
  2.1526389e-02
 -6.1676803e-04
 -1.3054869e-02
  1.2153486e-01
 -1.8087415e-02
  2.7646557e-03
 -6.3123363e-03
  4.5013460e-03
 -5.1808666e-04
  3.8594648e-02
  1.4292371e-02
  1.1019354e-02
  6.1547337e-03
 -1.1895692e-03
 -1.1959266e-02
  2.2120263e-02
 -3.3491154e-03
 -6.5353136e-03
  3.3955783e-02
  8.5966047e-03
 -2.9149430e-02
 -8.7394780e-03
  3.1489669e-03
 -1.8767657e-03
  4.8287329e-03
  2.7395794e-03
 -2.3315761e-02
  2.6551794e-02
  2.1976007e-03
  4.6455031e-03
 -2.3668865e-02
  8.4702224e-03
 -7.4409316e-03
  5.5280295e-03
  2.3590783e-02
 -2.9132254e-02
  2.9301310e-03
 -1.1597058e-02
  3.6396685e-03
 -2.8837484e-03
 -1.2838274e-02
  5.4160692e-03
 -1.2023744e-02
 -1.6119240e-03
 -1.0191162e-02
  5.9878612e-03
  3.5146344e-03
  4.2435730e-01
  8.1089363e-03
 -3.1627528e-03
  9.7053442e-03
 -1.4519300e-02
 -5.6579844e-03
 -1.1378228e-02
  4.8537650e-03
 -5.4671122e-03
 -1.2990825e-02
 -1.1339106e-02
  5.6400797e-03
 -4.2386409e-03
  2.8750271e-04
  2.4966258e-03
  1.3027047e-02
 -6.4312574e-03
 -4.4558216e-02
 -8.4081376e-03
  5.3119478e-03
 -1.6568957e-02
 -3.7963488e-03
  3.7898947e-02
 -6.2260800e-03
  1.2697031e-03
 -1.3046195e-04
 -6.4108246e-03
  1.0410880e-02
 -1.5724940e-02
  3.0093521e-03
 -1.5565464e+00
 -9.6177667e-02
  5.1930130e-01
  3.7698644e-01
 -4.4989663e-01
  2.9489353e-01
 -2.1889415e-01
 -2.2764192e-03
 -2.6804605e-01
 -2.8066352e-01
  3.2045314e-01
 -6.6156022e-02
  4.3948763e-03
  3.2026991e-02
  2.6055843e-01
 -8.6238109e-02
 -7.6356485e-02
  1.7342053e-01
 -3.4484068e-01
  1.7513718e-01
 -1.2109472e-02
 -1.2374269e+00
  3.1500536e-01
 -6.9375470e-02
 -8.3339512e-02
 -5.3070253e-03
  2.6463311e-02
 -1.9939054e-02
 -1.6265033e-01
  1.7588282e-01
  5.2199654e-02
 -4.0382348e-02
 -2.2354902e-01
 -8.6426288e-02
  1.9710576e-02
  1.9353544e-02
  5.3262813e-03
 -6.3906580e-02
  2.8895671e-02
 -2.3327391e-01
 -1.1027528e-02
 -1.5555161e-01
  1.8641068e-01
  1.7731493e-02
 -4.5741085e-02
  3.5966165e-02
  4.5416754e-02
  3.1296124e-03
 -1.1439122e-01
 -6.6569082e-02
 -7.2431169e-02
 -4.0298250e-02
 -1.9143518e-02
 -1.1411904e-02
 -1.0948045e+00
 -2.1331254e-01
 -2.0060185e-01
 -6.6702938e-01
 -4.8035067e-01
  3.0106539e-01
  2.6404643e-01
  1.2143719e+00
  8.3051211e-01
 -1.4749634e-01
 -5.4543489e-01
 -2.7694806e-01
  5.4161769e-01
  2.9819259e-01
 -1.6357401e-01
 -7.2927967e-02
 -2.7269349e-01
  1.1097620e-01
  2.5788706e-02
 -1.1662502e-01
 -1.6336527e-01
 -9.7375292e-01
 -4.3476266e-01
 -3.4831503e-01
  8.5464787e-01
  1.0897239e-01
  1.7477252e-01
  6.1166551e-02
 -6.7282534e-01
 -3.7742379e-01
 -1.8209025e-01
  3.9908057e-01
  5.9000425e-02
 -1.4988610e-03
  1.1895397e-01
  1.9093274e-01
 -2.2633074e-01
  1.4423468e+00
 -3.6171407e-01
  5.7198375e-01
 -2.9016018e-01
 -1.4722840e-02
 -2.4067478e-01
 -3.2371588e-02
  4.5939837e-02
 -9.8926343e-02
 -9.9238222e-03
 -6.4474747e-02
  3.8146529e-01
  1.3335802e-01
 -4.1175131e-02
 -1.3187167e-02
 -2.0017860e-02
 -8.3169052e-03
 -3.2423940e-02
 -3.2113979e-03
 -1.8824697e-02
  5.9728600e-02
 -7.2143674e-02
  1.7365441e-02
  6.9091404e-03
  1.5663281e-02
 -9.3023572e-03
  1.4125665e-02
  2.3476826e-02
 -1.5746590e-02
 -6.6647768e-02
 -1.6034635e-02
  3.6553856e-02
  1.7619483e-02
  5.4521434e-02
  3.7250012e-02
  3.1460907e-02
 -6.6796079e-04
 -8.9373216e-03
  1.0102008e-02
  7.0282519e-02
  7.7991709e-02
  3.5364863e-02
  9.1279363e-03
  5.7881150e-02
  1.8481348e-02
 -9.5608914e-03
 -1.3707116e-02
 -3.9020926e-02
 -4.1841008e-02
  3.3851553e-02
  1.4672560e-02
  2.5183149e-02
  7.0691913e-02
  2.4086149e-02
  3.6710857e-03
  1.9350866e-02
 -5.4168059e-03
 -1.6169647e-02
 -5.0400998e-02
 -1.2817342e-02
 -1.4341298e-02
  2.9097490e-02
  1.9035736e-03
  2.0298488e-02
  1.9253327e-03
 -1.4124289e-02
 -2.1330299e-02
 -9.6859792e-03
  1.2315158e-02
 -1.0938808e-02
 -1.4979286e-02
  2.4389924e-02
  4.4550527e-02
  9.9643599e-03
  4.1795883e-02
 -1.1314523e-01
  9.6494831e-02
 -1.4050648e-01
 -4.6541199e-02
  2.3786625e-02
  2.6879104e-02
 -1.2233441e-02
 -3.6698017e-02
 -1.4064002e-01
  9.5391423e-03
  8.1145778e-02
  4.7936425e-02
  1.0367419e-01
  1.7123747e-01
  4.9651138e-02
  4.0137082e-02
 -6.0396243e-02
  3.9837480e-02
  1.5346387e-01
  1.0324121e-01
  2.9069573e-02
 -1.2517550e-02
  1.0961220e-01
  3.4926772e-02
 -9.3539776e-03
 -1.3744117e-02
 -7.3669046e-02
 -1.0588110e-01
  1.0528010e-01
  3.2099575e-02
  9.9130355e-02
  1.9715977e-01
  7.0150450e-02
  4.7289051e-02
  1.1114248e-02
 -2.2644501e-02
 -7.8822672e-02
 -3.8129698e-02
  4.0791031e-02
 -1.8547520e-02
  8.2824029e-02
  4.7763962e-02
  1.0490356e-01
  2.1364961e-02
 -1.1337672e-03
 -7.7788532e-02
 -3.0627452e-02
  3.1758025e-02
 -2.0134801e-02
 -5.9738695e-03
 -1.9655004e+00
 -6.0922533e-01
  1.3462205e+00
 -4.3726644e-01
 -8.8793504e-01
  1.5457623e+00
 -6.6880566e-01
 -5.0851977e-01
 -4.5036486e-01
  1.0426483e+00
 -5.5014431e-01
 -5.0880414e-01
  3.3807486e-01
  6.1464959e-01
 -2.4017328e-01
  6.8853182e-01
  3.2380283e-01
 -2.7469050e-02
  1.8722535e+00
 -3.8067439e-01
  4.2035248e-02
  4.4356191e-01
 -8.3946544e-01
 -1.6735585e+00
  6.9834906e-01
  4.2044811e-02
  8.1167303e-02
 -3.0227289e-02
 -6.4057249e-01
 -5.4277486e-01
 -6.4974713e-01
  8.7457299e-01
  1.1026130e+00
  8.9267606e-01
  2.5286344e-01
  1.1894094e+00
 -1.7897244e-01
 -9.5438249e-02
  3.5928465e-02
  5.1125246e-01
 -7.3552763e-01
  8.8484830e-01
  4.4318289e-01
  3.6230767e-01
  4.4199970e-01
  2.5979143e-01
 -4.1296786e-01
 -1.2885877e-01
  5.0324357e-01
  2.8052631e-01
  4.3485293e-01
 -4.8934944e-02
 -3.8223948e-02
  1.9895612e-01
 -2.2205389e+00
 -4.1754183e-01
  1.0092009e-01
  4.2905378e-01
 -5.0333595e-01
  3.8494813e-01
  3.3984158e-02
  7.2029793e-01
 -6.2152171e-01
 -2.4968481e-01
  2.4030524e-01
 -1.6376367e-01
 -1.7195013e-01
 -4.4409174e-02
 -5.5535838e-02
 -1.6526390e-02
 -1.3097966e-01
 -9.7402602e-02
 -1.7640081e-01
  2.6251817e-01
 -5.2248206e-02
  1.3882405e-01
 -4.5730419e-02
 -9.7540423e-02
 -1.5975128e-01
  1.0699353e-01
  1.6837375e-02
 -1.1833864e-01
 -2.9171675e-01
  3.1279838e-01
  4.7219577e-01
 -1.3983898e-01
 -3.1289172e-01
 -1.7926821e-01
 -2.3160599e-01
 -2.5401902e-01
 -7.2973952e-02
 -3.5661891e-01
  9.6247822e-02
 -1.2082840e-01
  1.7642383e-01
 -1.3582326e-02
  1.2381177e-01
  6.7103378e-02
 -9.5472403e-02
  5.4378152e-02
  1.4657146e-01
  6.2901899e-02
 -8.9668855e-02
  2.0374680e-02
 -3.7325848e-02
 -1.2117171e-01
  3.9297782e-02
 -5.5701640e-02
 -2.0326972e-02
  3.4871505e-04
 -6.6230494e-01
 -1.2944154e-02
 -1.1545198e-01
  4.4825830e-02
 -7.7140749e-01
 -1.4249170e+00
 -1.9549684e-01
 -2.5373079e-02
 -3.3220563e-02
  4.7763911e-01
 -6.5972721e-03
 -2.1178727e-03
 -1.7467928e-03
 -1.6766988e-02
 -8.5231048e-01
  3.4521860e-01
 -2.3856418e-01
 -1.1630985e+00
  3.1144300e-01
 -6.2349218e-01
  3.0026078e-02
  8.7084379e-03
  2.2002652e-02
 -1.3225727e-02
  1.4904945e-02
 -3.7362036e-01
 -7.2913966e-03
  7.2983307e-01
  1.6120338e-01
  4.1647130e-01
  2.8270760e-01
 -1.4325795e+00
 -3.6327565e-01
  6.1339247e-01
 -1.0992843e-02
 -4.8684566e-03
  7.4376041e-01
 -2.5124407e-01
 -6.5770233e-01
  1.7825779e-02
 -3.0433775e-03
  4.3474152e-03
 -3.1585464e-01
  1.7298384e-01
  2.4145606e-03
  1.3711111e-02
 -1.0981376e-01
  2.2733957e-01
 -4.4089520e-01
 -5.6684952e-02
 -5.4003769e-01
  5.5713955e-02
  1.1001496e+00
  1.7821556e-01
 -5.3677875e-01
  1.2192879e+00
 -6.7845905e-01
 -1.7571767e-01
  3.3094817e-01
 -2.7545196e-01
  1.8857720e-01
 -4.1804221e-02
 -3.3016419e-01
 -6.0616709e-02
  5.8137637e-01
  4.1713214e-01
 -2.4166612e-01
 -8.7165397e-01
  4.5095986e-01
 -8.9673996e-01
 -2.3429582e-01
  2.7852139e-01
 -4.2403257e-01
  1.1422649e-01
 -1.6441939e-02
 -3.1989574e-02
  8.8713691e-02
 -6.8949318e-01
 -5.8120656e-01
  1.7822714e+00
 -1.9170281e-01
 -1.0305182e+00
  7.2708231e-01
 -5.6766796e-01
  2.0008956e-01
 -1.0647380e-01
  2.9027522e-01
  7.6252168e-01
  6.9147134e-01
  2.9661253e-01
 -2.1828940e-02
 -1.3541354e-02
  3.6856899e-01
  8.0592853e-01
  1.3208675e-01
  3.7608287e-01
 -2.8572507e+00
 -5.5474740e-01
  1.4536934e+00
  3.8169092e-01
  2.7355689e-01
  8.1390285e-01
  3.1421891e-01
  4.0660033e-01
 -3.9325595e-01
 -1.2927800e+00
 -9.5703733e-01
 -2.3467018e-01
 -1.1608774e-01
  1.2055695e+00
  7.6396829e-01
 -2.3439296e-01
 -1.8329813e+00
 -5.3254378e-01
 -7.1310830e-01
  1.7979981e-01
  1.2998819e-01
 -1.9388369e+00
 -1.8488370e+00
 -3.6566916e-01
  8.6746320e-02
 -7.2439280e-03
 -3.1835064e-01
  2.7789310e-01
  1.4175858e+00
  3.7273258e-01
 -8.0543774e-01
 -2.2789614e-01
  7.5410396e-01
 -2.7679309e-01
 -3.6405423e-01
  3.2987383e-01
 -2.4186842e-01
  1.2673321e-01
 -1.4678490e-01
 -3.0029020e-01
 -2.5798819e+00
  1.3596580e+00
  7.7244020e-01
  4.9947834e-01
 -5.8535111e-01
 -5.6365842e-01
  6.0018319e-01
 -2.7952820e-01
  4.5564482e-01
  1.8206637e-01
  1.1732728e+00
 -4.7160983e-02
  8.1022775e-01
 -1.4030594e-01
 -2.3800984e-01
 -7.6165634e-01
 -8.8277191e-01
  5.8106625e-01
  4.2275694e-01
  1.6311753e+00
 -2.8007838e-01
 -9.7582251e-01
  1.3470987e+00
  1.1854724e+00
  9.8521495e-01
  2.3708923e-01
 -1.9439906e-01
  4.2726213e-01
 -9.5473099e-01
  4.0482357e-01
 -9.7160758e-03
 -1.4100212e-01
 -9.1634041e-01
 -7.7379358e-01
  9.1824047e-02
  3.0261359e-01
  6.3634938e-01
  1.0434061e-01
 -2.7651303e-02
  2.3858268e+00
 -7.8763878e-01
  6.8803698e-01
 -4.8195294e-01
 -7.7238005e-01
 -8.7754004e-02
  4.3468544e-01
 -4.9756515e-01
  3.8088799e-01
  1.4874998e-02
  7.6406193e-01
  1.6560070e-01
  3.8200021e-01
  5.2247226e-01
  1.1698760e+00
  5.2469152e-01
  2.3944198e-01
  5.4570816e-02
 -8.0025131e-01
  5.2058113e-01
 -7.3888290e-01
 -1.3827516e-01
 -6.5260941e-01
 -9.4858670e-01
  3.4540731e-01
  8.2561389e-02
  8.4789348e-01
 -3.5378778e-01
  6.2257814e-01
  2.3277304e-01
  1.5733388e-01
  1.2669675e+00
 -1.6140765e+00
 -1.1452927e-01
  6.8725955e-01
 -2.9095048e-01
  3.6893401e-01
 -1.9923495e-01
  6.8302327e-01
  6.8042660e-01
  1.3027164e+00
 -8.2811219e-01
 -4.1705206e-01
  9.1229773e-01
  5.5442452e-01
 -2.8555036e-01
 -4.7646716e-01
  5.3946286e-02
  2.8007838e-01
  1.9930753e-01
 -1.0093152e-01
  3.1441617e-01
  1.4983900e-01
  8.8264948e-01
  1.1781967e+00
  2.9531661e-01
 -1.0317349e+00
  1.3346223e+00
  1.3845948e+00
  6.3309956e-01
 -4.9804604e-01
  2.2821035e+00
 -7.4774139e-02
  2.5526375e-01
 -1.4543743e-01
 -1.3816690e+00
  5.7239372e-01
  3.1543890e-01
  1.9591027e-01
  2.4526210e+00
 -7.7340588e-02
 -2.6693428e-01
  1.3191007e+00
  1.6453598e+00
 -2.0360239e-02
  1.4522332e+00
 -1.6090169e+00
  4.2186666e-01
  5.7134330e-01
 -4.3933076e-01
 -8.9862442e-01
 -1.6872845e+00
 -1.4053603e+00
 -2.7168018e-01
  5.2628684e-01
 -1.1267894e-01
 -4.6000671e-01
  1.1909261e+00
  8.0011207e-01
 -7.8802896e-01
  5.5972928e-01
 -6.6980964e-01
 -7.0034999e-01
 -2.2048328e+00
  1.3446930e-01
  1.3907744e-01
  4.3908033e-01
 -9.4119233e-01
 -6.8008488e-01
 -5.9260666e-01
 -1.5958861e-01
 -1.1957210e+00
  3.2215977e-01
 -2.7744273e-02
 -2.4921665e-02
  2.1754980e-02
 -4.7440535e-01
 -1.3828655e-01
  6.0319924e-01
  1.1713860e+00
  4.2260039e-01
  1.2250943e+00
 -1.5411063e+00
 -7.0749298e-02
 -4.7326475e-01
  3.4367150e-01
 -1.3895090e+00
 -1.2970009e+00
 -1.2174134e+00
  1.9675447e-01
  1.2210894e+00
  2.1078701e+00
  4.3044096e-01
  2.7343345e-01
 -2.5067261e-01
 -4.7515711e-01
 -1.1309123e+00
 -6.5734339e-01
 -9.2545873e-01
 -9.3141049e-01
 -8.1796694e-01
 -5.2137305e-03
  1.2715659e+00
 -1.2585001e+00
  4.1760752e-01
  8.4429979e-01
 -1.5275165e-01
 -2.5829706e-01
 -2.2192702e-01
  1.3632737e-01
 -3.5170710e-01
 -2.6859131e-01
  7.7840644e-01
 -1.0052452e-01
  3.5943484e-01
  1.0266047e+00
  9.3702292e-01
 -1.6070529e+00
  5.2544013e-02
 -6.0935640e-01
  5.9162754e-01
  6.0572112e-01
  1.1401806e+00
  4.0648729e-01
 -7.7769721e-01
 -8.0524689e-01
  2.6311389e-01
 -5.7196319e-01
 -4.1764700e-01
  2.1804262e-02
 -7.4703842e-02
 -1.7719269e-01
  8.2305920e-01
  1.6623269e-01
 -2.1173660e-01
  2.6819745e-01
 -1.5444220e+00
  4.8416856e-01
 -1.8304892e-02
  1.6555278e+00
 -7.7632588e-01
 -1.9352540e-03
 -1.7780071e+00
 -1.0289704e+00
  1.6091415e+00
  2.3451574e+00
 -2.5520819e-01
 -2.0174505e-01
  1.0320556e+00
  8.2778603e-01
 -1.4544270e+00
 -6.3114476e-01
  7.3133326e-01
 -6.1620545e-01
 -1.1527214e+00
 -7.9010379e-01
  3.5307351e-01
 -3.8431566e-02
  1.0554036e+00
  1.9000438e+00
  1.1379634e+00
 -1.5664755e-01
  1.1187329e+00
 -7.0071042e-01
 -7.1178395e-01
 -5.2780008e-01
 -1.0061166e-01
 -1.7577997e+00
  4.2005551e-01
  9.1643900e-01
 -8.4104282e-01
 -3.6717552e-01
  1.0581946e+00
  1.5466215e-01
  7.1068084e-01
  9.0410662e-01
  3.3064142e-02
 -5.9842247e-01
 -2.3869185e+00
 -8.3531332e-01
  2.0142065e-01
  3.9557359e-01
  2.8807148e-01
  1.8967579e-01
 -3.1497324e-01
  4.6572968e-02
  3.4817958e-01
  5.1199991e-01
 -3.9571935e-01
 -7.5162524e-01
  1.1973814e+00
  7.0689487e-01
 -4.2305368e-01
 -6.2383372e-01
  4.1996747e-01
 -2.4274886e-01
  6.4989187e-02
 -1.6941380e-02
 -4.9536270e-01
 -1.1052265e+00
  7.7697843e-01
 -3.0840608e-01
 -1.7373259e+00
 -4.5474846e-02
 -4.1205239e-01
 -1.8582591e-01
 -2.9559445e-02
  4.0513805e-01
 -2.8429735e-01
 -7.2543457e-02
 -1.0699525e+00
 -1.4616618e+00
  2.7775347e-01
 -1.5240225e-02
  1.7564276e-01
  4.4104099e-01
 -1.6590137e+00
 -8.0920625e-01
  1.3969693e-01
  1.1187284e+00
  2.4339683e-01
 -4.4374787e-03
 -3.3036417e-01
 -1.3871486e+00
 -1.7387721e-01
 -1.0328416e-01
  2.4843089e-01
  5.5139649e-01
 -8.6541963e-01
 -6.5702581e-01
 -4.1269809e-01
 -8.1238073e-01
  9.0438688e-01
 -5.8929288e-01
  1.2284864e+00
 -3.0961087e-01
 -7.6091176e-01
 -5.8338267e-01
 -1.0284667e-01
 -1.1408556e+00
  4.7857091e-01
 -1.4270164e+00
  1.0535343e+00
  1.3472599e+00
 -1.1729248e+00
 -1.2730957e+00
  4.2254734e-01
 -6.2238455e-01
  2.8735137e-01
  3.2979974e-01
  1.0589491e-01
 -2.9149672e-01
  4.5422573e-02
  4.6781182e-02
  8.9084411e-01
  1.1902130e-01
  1.0512970e-01
 -5.7983816e-01
  8.0176502e-02
 -4.0390271e-01
 -9.8284923e-02
  1.2683152e-01
 -1.1233441e+00
  2.2585376e-01
  9.9770355e-01
 -1.4876124e-01
 -8.7005484e-01
  2.9330528e-01
  3.7331241e-01
  1.4174375e-01
  5.7413417e-01
  4.2783830e-01
 -4.5643973e-01
 -2.2664510e-01
 -8.3802444e-01
 -2.8512332e-01
 -1.1042769e-02
  4.3470762e-04
 -1.0128304e-01
 -1.1510426e+00
  1.3137184e+00
 -5.4375243e-01
 -2.4541676e-01
  4.3694776e-01
 -1.7865524e+00
 -1.1368760e+00
  2.0484373e-01
 -4.0010318e-01
  1.6318777e-01
 -7.5512566e-02
 -8.4478498e-01
 -1.1714538e+00
  2.2662455e-01
 -1.0087530e-01
 -4.2123419e-01
 -9.1281050e-01
  8.2303792e-01
  1.2722091e-01
 -1.6724052e-02
  1.4381840e+00
 -3.1892848e-01
 -5.9658077e-02
 -1.5746020e+00
  1.8556836e-01
  1.0427637e+00
  3.0831046e-02
  2.6022129e+00
  6.7052644e-01
 -3.8272411e-01
 -1.3876152e-01
  5.9917843e-01
 -1.1212552e+00
 -2.0020442e+00
 -5.7216430e-01
 -2.3045649e-01
 -1.0457094e+00
  1.7186940e+00
  1.9225851e-01
 -6.1360312e-01
 -1.6339310e-01
  2.2980866e-01
 -3.7415147e-01
 -1.3893824e+00
  2.9624533e-02
  5.4214917e-02
  2.9084143e-01
 -4.5630434e-01
  1.3329238e-01
  6.3006687e-01
  7.7955759e-01
  8.1787415e-02
 -2.0340714e-01
  8.1373852e-01
  6.9210607e-01
 -2.3987564e-01
 -1.9338593e-01
  8.2525194e-01
  2.2233339e-01
  3.1622121e-01
  5.7405460e-01
  7.0644975e-01
  7.0202971e-01
 -2.4270850e-01
 -2.0905335e-01
 -8.4439170e-01
 -9.3960905e-01
  3.0519065e-01
 -5.1470309e-02
  1.1553518e+00
  9.6412808e-01
  1.2531210e+00
  1.9721049e+00
 -1.2991027e+00
 -3.3790666e-01
 -1.2310143e+00
 -9.6859330e-01
  3.7435022e-01
  2.5238195e-01
  2.7612820e-01
  1.4732982e+00
  7.1212244e-01
 -3.8069257e-01
  1.0838665e+00
  1.0983099e+00
  5.5236578e-01
 -7.2480574e-02
 -2.7101082e-01
 -1.6355440e-01
  1.7166337e+00
  1.0413846e+00
  4.4994052e-02
 -1.5023890e+00
  6.7144990e-01
  1.1051837e+00
  1.4308822e-01
 -4.2944932e-01
  5.0121444e-01
  5.6908226e-01
 -1.1120584e+00
 -4.1287971e-01
 -5.2807379e-01
  2.0816170e-02
 -9.3134694e-02
  1.0160324e-01
  1.6756089e-02
 -9.4380200e-02
 -8.7350392e-01
 -8.8531601e-01
 -1.1168110e+00
 -6.0408676e-01
 -1.7305449e-01
  9.9711967e-01
 -2.7782106e-01
 -2.1150449e-01
 -7.8608859e-01
 -3.6114573e-01
  3.0244035e-01
 -1.7266703e-01
 -4.1705725e-01
 -1.0232732e+00
 -1.6699092e+00
 -7.7574146e-01
 -3.9884356e-01
 -7.3707782e-02
  3.5981864e-01
 -1.5818448e-01
 -1.0758439e+00
 -8.3123404e-01
 -7.7941179e-01
 -6.7069328e-01
  2.0502487e-02
 -3.7311187e-01
 -1.3229358e+00
 -3.4145141e-01
 -9.7966498e-01
 -4.4403836e-01
  3.0726025e-01
 -9.6712120e-02
 -2.7223778e-01
 -9.2530578e-01
 -5.3571743e-01
 -3.1589434e-02
  8.0616897e-01
 -1.7142162e-01
  6.3313466e-01
  1.5168610e-02
  1.9519650e+00
  1.8818384e+00
  5.1078355e-01
  1.2557762e+00
 -3.0143112e-01
 -2.3969352e+00
 -5.3874373e-01
 -1.0235003e+00
  1.8309547e-01
  1.1091653e+00
  1.1010891e+00
  9.1423005e-01
 -9.4452649e-01
  1.4833490e+00
  1.0269346e+00
  8.4932554e-01
 -6.4547157e-01
 -2.2155945e-01
 -1.0703040e+00
 -6.0682338e-01
  1.4381497e+00
  9.2404205e-03
  5.2917230e-01
  1.4318933e+00
  5.9833539e-01
  1.4527162e+00
 -4.8916120e-02
  7.0870447e-01
 -4.3725887e-01
  8.5331732e-01
 -2.8563961e-01
 -1.0763286e-01
 -1.5281601e-01
 -3.0163895e-02
  2.0079404e-01
  2.7018520e-01
  5.7991534e-01
 -3.6536545e-01
 -2.2700483e-01
  1.0752257e-02
 -3.6262125e-01
 -1.4791399e+00
 -1.9517580e-01
  1.2253965e-01
  9.7749934e-02
 -5.3450835e-01
 -6.0614336e-01
 -2.2888678e-01
  1.4683092e-01
 -7.3538774e-01
  5.9077770e-01
  2.5199944e-01
 -4.7197312e-01
 -1.0365468e-01
 -1.3127468e+00
 -1.6904099e+00
  3.1974173e-01
  1.0655307e+00
  3.5766113e-01
 -3.6520019e-01
 -8.0881870e-01
 -3.1708860e-01
  1.0544954e-01
  5.3451580e-01
  8.9665867e-02
 -8.9877617e-01
 -1.9356182e+00
 -2.2748974e-01
  6.9571871e-01
  4.2670959e-01
  1.0478890e+00
  6.0113478e-01
 -1.2392789e-01
 -5.4064101e-01
  6.5806799e-02
 -5.2537017e-02
 -3.5194910e-01
 -3.7540370e-01
 -2.7307439e-01
 -4.8984224e-01
  1.8249643e-01
 -5.2492666e-01
  4.9116790e-02
 -2.7914342e-01
 -6.1749613e-01
 -8.9176947e-01
 -8.9926058e-01
 -4.8107269e-01
 -8.5470754e-01
  4.0886268e-01
 -1.6051835e+00
 -2.0656425e-01
  5.0738275e-01
  1.2466269e+00
  1.3281877e+00
  8.0483019e-01
 -1.0152848e+00
 -8.3352715e-01
 -1.2916584e+00
 -7.2662574e-01
  4.9743342e-01
 -2.0481679e-01
 -1.4776032e-01
 -1.4736739e-01
  7.7103198e-01
  2.4420390e-02
 -4.0132311e-01
 -4.2317709e-01
 -1.1864601e+00
 -1.3004870e+00
 -1.2365384e+00
 -8.0743176e-01
