nep4 2 Te Ge 
cutoff 7 5 67 26
n_max 8 8
basis_size 10 10
l_max 4 2 1
ANN 50 0
  2.0479910e-01
  2.6722127e-01
  4.5450833e-01
  3.0448487e-01
  8.9006156e-02
  2.2855903e-01
  5.8614654e-03
 -1.1293846e-02
  8.7554887e-02
  1.0055927e-01
 -3.8545340e-02
 -3.6637727e-03
 -3.6787800e-02
  5.7399771e-03
 -9.7295819e-03
  5.7624742e-02
  1.0126472e-02
  3.4562941e-03
 -8.4742919e-02
 -2.2108790e-02
 -4.0886421e-02
  7.7335829e-01
 -3.9671116e-02
  1.4358494e-02
  9.1052182e-02
 -3.3926517e-02
  6.0974140e-02
  1.7344275e-02
  3.0131856e-02
 -4.1114740e-02
 -3.4191113e-02
 -1.0999595e-01
  6.4998485e-02
  5.2437801e-02
  2.2609316e-01
  8.6073624e-03
 -1.4299319e+00
 -5.0899599e-02
 -2.7062235e-02
 -4.5047436e-02
 -4.3399557e-02
 -6.2334724e-02
  1.1268705e-02
 -5.3291488e-02
 -2.2943856e-01
  3.0157275e-02
  2.5604270e-02
 -2.9457785e-02
  5.8906782e-02
 -2.6108052e-03
  5.6112599e-02
  3.1378295e-02
 -9.6618600e-02
 -8.2842165e-01
 -3.5359347e-01
  1.4237791e-01
 -1.9175483e-02
 -2.7195361e-02
 -4.3092411e-02
  3.6771155e-03
 -2.9482611e-02
 -9.6315490e-03
  5.8105547e-02
  4.6792012e-02
  4.3236455e-01
  1.5108682e-01
 -7.4867511e-01
 -6.3937461e-01
  1.1169765e+00
 -1.3085315e-01
 -3.1160289e-01
 -2.5514743e-01
 -1.8284671e-01
  4.6512324e-01
  2.4624003e-02
 -2.7376788e-02
 -1.0220784e-01
  1.9897799e-01
  3.1100556e-01
 -1.2785102e+00
 -2.1253186e-01
  3.3166662e-01
 -6.1230040e-01
 -1.4783877e-02
 -2.6943195e-01
  2.5147045e-01
 -2.0129759e-02
  1.7325087e-02
  3.6940420e-01
  2.6818109e-01
  1.3547127e-01
  1.8880232e-01
  6.7344177e-01
  1.6337687e-01
  4.2651314e-01
 -1.8396888e-02
  6.2798329e-02
 -3.7696877e-01
  4.9782231e-02
 -1.4959872e-01
 -4.2172062e-01
 -7.0171639e-02
 -4.5761619e-02
  2.1909972e-01
 -1.3690510e-01
 -4.0551698e-01
 -4.8099898e-02
  2.8825822e-01
 -1.2032412e-02
 -9.3849175e-02
 -4.6563745e-01
  6.4273417e-04
 -4.0108345e-02
  4.7396418e-01
  6.6310503e-02
  9.9714808e-03
 -1.1187261e-01
 -1.3469098e-02
  9.3898617e-02
 -7.3352166e-02
 -6.0965940e-03
  1.4981982e-01
 -3.4688357e-02
  8.8265613e-02
 -1.3319901e-01
 -1.3012722e-01
  1.3173461e-02
 -9.9393986e-03
  2.1498066e-03
 -6.5225922e-02
 -1.5584513e-02
  5.8995960e-03
 -2.9240897e-02
  1.3088004e-02
 -2.1804070e-02
 -1.5612461e-02
  6.0293782e-03
  3.3850626e-03
 -8.3005205e-03
 -1.2485021e-02
  1.1110853e-02
  2.4999024e-02
 -1.2967928e-02
  1.9403221e-02
 -1.4354849e-02
  6.8294674e-02
 -3.3114713e-02
  4.6374304e-03
 -3.0004799e-02
 -3.8473494e-02
 -7.7164196e-03
 -1.9677902e-02
 -3.7178408e-02
 -1.2488567e-02
 -1.0649555e-03
  1.2495283e-02
 -6.1799839e-02
  3.5918477e-01
  1.1865550e-02
 -7.0705660e-02
 -2.3239423e-02
  6.6329479e-02
 -6.6498696e-04
  6.5368955e-04
  1.2550225e-02
 -1.0411373e-02
  8.8475011e-02
  1.0409228e-01
  2.5391743e-02
 -3.5554022e-02
  4.9611665e-02
 -3.5034884e-02
 -2.9247978e-03
  4.1522615e-02
  5.4683276e-03
 -1.0611061e-02
 -2.2805052e-02
 -1.6460350e-02
  1.4343543e-02
 -1.7936954e-02
  2.9224017e-01
 -4.5383302e-04
 -5.5437842e-03
  4.8577539e-03
  6.4322703e-02
 -1.7738275e-02
  6.0003180e-02
 -1.6037680e-02
 -6.0151173e-03
  3.4585826e-02
 -6.6823788e-02
 -1.5873627e-01
 -2.2580350e-02
 -5.6134248e-03
 -1.6621806e-02
  1.3425232e-02
  3.9712839e-02
 -1.0671805e-02
  1.8981513e-02
  2.7627641e-02
 -1.1478767e-02
  1.6852008e-03
 -2.5848888e-02
  3.3538304e-02
  1.8216569e-02
 -1.7067200e-02
 -3.0442739e-03
  8.9171920e-03
  2.5574876e-02
 -4.6236228e-02
  2.5243189e-02
  4.3795230e-03
 -4.0788066e-02
 -9.7261257e-03
 -1.6247254e-02
 -5.3541958e-02
  6.3215424e-03
  1.8815679e-03
 -1.6908422e-03
 -1.5435255e-02
  1.5875836e-01
 -1.9408230e-02
 -1.3086713e-02
  1.0728273e-03
  5.6694327e-03
  1.0134673e-02
  4.5215961e-02
  4.9717757e-03
 -4.2670716e-02
  2.5897445e-02
 -6.8620992e-01
  2.2214903e-02
 -1.6917164e-02
  3.4286823e-02
  4.9551450e-02
  2.6740362e-03
 -2.6711229e-02
  1.5591958e-03
  5.2596214e-03
  8.5460010e-04
 -2.4566662e-03
  9.5767481e-03
 -9.2572263e-03
 -1.8702280e-02
  1.4799581e-02
 -1.0964395e-02
  1.8159916e-03
  4.7449082e-02
  6.3553662e-04
 -4.4593238e-03
  4.4400182e-02
 -3.2417264e-02
 -2.0727167e-02
  5.0451851e-01
 -1.9729251e-01
 -5.3686813e-02
 -2.3524344e-01
  1.6124308e+00
 -1.5707189e-01
  3.9412897e-02
 -5.0048655e-01
 -2.7552119e-01
 -1.6507469e-02
 -1.2388825e-01
 -2.1768206e-01
 -8.3074719e-02
  4.7819298e-02
 -2.9523006e-01
 -2.2219247e-01
 -7.7746585e-03
 -5.8397010e-02
  1.0212667e-01
 -1.4126281e-01
 -2.1473217e-01
 -4.3839764e-02
  5.1773831e-02
 -5.0410159e-02
  3.9911279e-03
 -4.4735610e-02
 -1.2062603e-01
  1.9581610e-02
 -1.3982181e-01
 -2.9566332e-03
  1.4468394e-01
  2.0342207e-01
 -4.7370184e-02
 -2.5955421e-01
  1.2520171e+00
 -1.2248195e-01
  6.7659117e-02
 -2.0381253e-02
 -3.4820933e-02
  5.5571821e-02
 -9.9990875e-01
 -1.4796846e-02
  4.2846791e-02
  2.2883654e-01
 -6.7486607e-02
 -5.0815132e-02
  1.5037780e-02
  2.2770800e-02
 -3.7554849e-03
 -1.9553812e-01
 -1.3259215e-02
  7.2176219e-03
 -2.3920808e-02
 -1.5363721e-02
  1.6778216e-02
 -3.5863176e-02
 -3.7557930e-02
  4.6930373e-02
  1.5982075e-02
 -1.0119205e-02
  1.3203306e-01
 -6.7132875e-02
  6.0335275e-02
  9.8758978e-01
 -5.2410263e-01
 -5.0184244e-01
 -7.2219145e-01
  7.3414719e-01
  4.8838383e-01
 -2.4276069e-01
  1.1827099e+00
 -2.2206910e-01
  5.2384597e-01
  7.0661968e-01
 -6.7995185e-01
 -2.1422844e-01
 -2.6591895e-02
  6.0127713e-02
 -1.3754786e+00
 -8.0343688e-01
  1.6672830e-01
 -3.2217401e-01
 -2.8780052e-01
  8.6278893e-02
 -1.8259877e-01
  3.1598724e-02
 -7.3311701e-02
  3.3196893e-01
 -2.1068364e-01
 -2.4326390e-01
  2.6750714e-01
  8.6666256e-02
 -4.8477995e-01
  3.2169589e-01
  4.6864234e-02
 -2.2467937e-01
 -5.6323278e-01
 -4.0996373e-01
 -2.8406060e-01
 -2.8984115e-01
  2.4157286e-01
  3.5761040e-01
  2.0909400e-01
 -4.8305404e-01
  1.6364400e-01
  4.0415150e-01
  6.8596196e-01
  8.0256619e-02
  2.2523459e-02
  4.9101684e-02
 -4.5984015e-02
 -5.4907564e-02
 -7.2250940e-02
  2.0555881e-01
 -9.0557687e-02
 -2.5694087e-01
  7.5848983e-03
  9.4938409e-03
  4.1647624e-02
  3.4948919e-02
  8.5705347e-02
 -2.4343228e-02
 -5.7373513e-02
  6.6509843e-02
 -1.3758831e-01
 -1.3765539e-01
  2.8532334e-02
 -1.6230269e-01
 -1.1522853e+00
 -8.4316872e-02
  7.2971791e-01
 -6.1378714e-02
  3.1068057e-01
 -8.8528797e-02
  6.2184241e-02
  1.8639874e-01
  2.8265385e-02
 -8.2111970e-02
  1.3287296e-03
 -1.5911633e-02
  3.1095814e-02
  5.5039193e-02
  1.5361200e-01
 -2.4670705e-02
  1.7392530e-01
 -2.5554046e-02
  9.2945188e-02
 -6.0185112e-02
  1.3095229e-02
  8.5804276e-02
 -1.6157489e-01
 -5.6380957e-02
 -6.9744023e-03
 -5.9982259e-02
  6.4529315e-02
 -7.9806216e-02
  1.3064225e-01
  9.6184395e-02
 -1.5474506e-01
 -2.4265282e-02
  1.3553603e-02
 -6.6551037e-02
 -1.0405502e-02
  3.3494737e-02
  1.1300661e-03
  2.2409121e-02
  3.2290570e-02
 -8.1797257e-02
 -1.8019122e-01
 -7.5432636e-02
 -1.2980978e-02
  1.2698662e-02
 -2.3136223e-02
 -1.5222146e-03
  1.5002786e+00
 -9.3069170e-03
  6.5164375e-03
 -2.8948614e-02
 -7.9024374e-02
  6.4815269e-03
 -8.8717788e-03
 -9.0243993e-03
  3.5645748e-03
  3.8733024e-02
 -5.4932591e-02
 -1.0071207e-01
 -4.9132798e-02
 -4.1990515e-02
 -1.6394742e-02
  7.0865124e-02
 -1.1246842e-02
  1.0757413e-01
  8.3893966e-03
  1.1366404e-01
  1.1708817e-02
 -2.4657205e-02
  2.9876038e-01
 -1.8012824e-02
  1.6524229e-04
 -1.0293392e-02
  4.3853700e-02
 -5.0308343e-02
 -1.2225790e-02
 -5.9501729e-03
  6.8050838e-04
  2.2454255e-03
  1.4221865e-02
 -1.7268097e-02
  2.3428502e-02
  1.8276693e-02
  8.3434694e-03
  5.1631857e-02
 -1.1563472e-01
  1.5282329e-02
  5.0126962e-02
 -3.9539882e-03
  1.8929286e-02
  4.1308715e-03
  1.2434047e-02
 -5.9852578e-02
  9.2370044e-03
  1.3571708e-02
  5.8350142e-02
 -3.4824427e-02
  4.0344730e-02
 -4.0933877e-02
 -5.9682980e-02
  3.1067507e-02
 -5.1575623e-02
 -1.9017234e-02
  6.4484414e-04
 -4.4469260e-02
 -1.8514860e-01
  2.7765365e-02
  1.3996192e-02
 -8.7367091e-03
 -7.8165447e-03
  4.1494541e-02
  9.7307628e-03
  2.8641431e-03
  1.1461583e-03
 -4.8156685e-04
  1.4446598e-02
  1.4629265e-02
  2.3534283e-02
  7.9002932e-02
 -3.5307296e-02
 -5.7372442e-03
 -1.1016370e-02
  2.1799706e-02
 -1.0705162e-03
 -1.1987834e-01
 -1.1457811e-01
 -4.2417787e-02
  3.1008530e-01
 -3.1656712e-02
  1.3735601e-01
 -1.5150253e-02
  5.3440660e-02
 -3.2618359e-02
 -3.4216303e-02
  4.1043770e-02
 -1.3969843e-02
  6.7874170e-03
  3.1390290e-03
  6.8429761e-02
  3.1724427e-02
 -8.6881323e-03
  3.8387321e-02
  1.4374140e-02
  2.8521839e-01
 -4.1558459e-02
 -1.1550949e-02
  6.2534199e-03
 -3.2534547e-02
 -4.3990161e-02
 -2.6856945e-03
 -1.6039900e-02
  3.0004185e-02
  4.7865707e-02
 -4.5641712e-03
 -3.2794401e-02
  1.1775610e-01
  9.2707034e-03
 -6.1621148e-02
 -4.9309567e-02
  7.2707437e-02
 -7.8437751e-04
  2.7942518e-02
 -7.0099039e-03
 -2.3656268e-02
  5.7304762e-02
 -2.8892409e-02
  2.9032489e-02
  3.5460244e-03
  8.0624983e-02
 -1.4118568e+00
 -2.8161958e-02
  1.0667356e-02
 -3.5153544e-03
 -5.0583594e-02
 -2.0930963e-02
  2.1715954e-01
  3.9910041e-02
  2.2746179e-02
 -2.4440862e-02
  1.4169442e-02
 -1.2320039e-02
 -5.5715195e-03
  4.9986772e-02
  9.4153183e-03
  1.0282164e-02
 -2.5062889e-02
  5.5765551e-01
  8.0086537e-02
 -8.9587383e-02
  4.7851443e-02
 -1.6581541e-02
 -4.5257740e-02
  8.3328076e-02
 -1.1728364e-02
  5.9648585e-02
 -1.3692592e-01
 -8.3210170e-03
  6.8478696e-02
 -3.5499878e-02
  2.7119553e-02
  5.5633295e-01
  5.8364455e-02
  4.1814201e-02
 -9.3206903e-03
  5.3125765e-02
  1.9323235e-02
  1.0958178e-01
 -3.6330849e-02
  7.7909298e-02
  6.1078384e-03
  1.4030997e-02
 -2.5170453e-02
 -1.0859691e-01
 -5.0053839e-02
  1.8809292e-02
  1.0430669e-02
 -1.1518537e-02
 -6.9273822e-02
  1.1342937e-01
  1.7846022e-02
 -6.6889465e-02
 -4.5617882e-02
  4.2487383e-01
 -1.7863689e-02
  4.1504212e-02
 -9.9510476e-03
 -1.5060306e-02
  9.6919797e-02
 -1.2251778e-02
  3.1804565e-02
 -4.4889662e-02
  5.4128524e-02
 -4.9600583e-02
 -4.0529195e-02
 -3.0530728e-03
 -3.2179173e-02
 -1.3375150e-02
 -2.7030051e-02
 -1.4029538e-02
 -4.3987851e-03
 -2.2337543e-02
 -1.3067594e-03
 -3.6619478e-01
  6.5290481e-03
 -1.3351203e-03
  2.8980002e-02
  5.2581698e-04
  3.0988115e-03
 -1.0905745e-02
 -2.0212146e-02
 -1.1830032e+00
  2.6622885e-01
  1.1020340e+00
 -3.2455355e-01
 -4.1737032e-01
  3.2769573e-01
 -5.5918044e-01
 -4.2405519e-01
 -9.6568000e-01
  6.9222242e-01
 -7.2235268e-01
 -9.5709607e-02
  2.7296332e-01
 -3.0733466e-01
 -1.2035368e-01
 -1.3433337e-02
 -5.7240146e-01
 -1.5718685e-02
  1.0799083e-01
 -1.5815416e-01
 -5.2105671e-01
 -1.1766087e-01
 -1.3353419e-02
  2.3885868e-01
  2.0836277e-01
  5.2707875e-01
  7.7205932e-01
 -2.8619027e-01
  1.3401465e-01
 -2.2133541e-01
  1.9219205e-01
 -9.9007404e-01
 -5.0179827e-01
 -1.5937494e+00
  2.9439306e-01
 -3.7540373e-01
 -8.0347037e-01
  6.3763195e-01
 -3.6130649e-01
  6.7346871e-01
 -4.9500591e-01
 -7.4684978e-02
 -4.4035268e-01
  5.8562160e-01
  1.9352391e-02
  1.3315345e-01
 -5.5587724e-02
  1.7077136e-01
 -1.3405541e-02
  1.2076561e-01
 -9.6609414e-01
  3.4971230e-02
 -6.3337353e-03
  1.4866398e-01
 -8.2486823e-02
 -4.2069409e-02
 -6.2856823e-04
 -5.5632558e-02
 -1.0847808e-01
  7.0379056e-02
  1.3848035e-01
 -6.4130068e-02
  1.4320622e-01
  7.9143289e-03
  3.7392799e-02
  4.2438753e-02
  7.9762407e-02
  8.7044549e-01
  1.4369625e-02
 -1.0677634e-02
 -3.1825215e-02
 -4.6630975e-02
  1.3081692e-02
  1.6679415e-02
  1.0962713e-02
 -1.4106359e-01
 -1.6767677e-02
 -8.9693042e-03
  1.9793063e-03
 -1.5027454e-02
 -3.4743780e-03
  2.1802550e-02
 -4.5526844e-02
  4.1736033e-02
 -4.0317797e-03
 -7.0652128e-03
  4.0634707e-02
  5.7175951e-03
  3.2349937e-02
  6.3349143e-02
  1.6894263e-03
 -4.4389930e-02
 -4.1414313e-02
  8.5426411e-03
 -5.4926872e-02
 -4.8123766e-02
  2.4711914e-02
  7.0356787e-03
 -5.2886371e-02
 -1.2328411e-02
 -3.4267858e-02
  9.1828452e-03
 -3.0935381e-03
 -8.3134063e-02
  1.9741984e-02
  3.5455178e-03
  8.9423647e-03
  1.1526342e-02
  1.9493477e-02
  4.1297819e-02
  4.6656780e-02
  4.0162910e-02
  9.6097980e-03
  1.6831418e-02
  1.4432103e-02
  1.8478470e-02
  6.8769408e-03
  2.5202438e-02
  4.3762522e-03
 -9.7929407e-03
 -3.6467018e-04
 -3.7739878e-03
  1.2992193e-02
 -1.0682499e-02
 -7.9396395e-03
  2.1076025e-02
 -3.0294415e-01
 -1.6984005e-01
 -2.6486611e-01
 -5.2956533e-01
 -1.3421994e-01
 -6.8423718e-02
  1.4823467e-01
 -3.1633470e-02
 -4.2440820e-01
 -1.0761213e-01
  3.3065656e-01
 -8.5322736e-03
  1.6095790e-01
  3.9999673e-01
 -1.4981193e-02
  1.3120662e-01
 -2.3839842e-01
  2.3147519e-01
  2.4085082e-01
  5.9865618e-01
  9.4226249e-02
  1.1426070e-01
  2.2734694e-01
 -8.2764313e-02
  1.9188906e-01
 -1.7125830e-02
 -2.6209056e-01
  1.4746593e-01
  2.2112857e-01
 -1.1754100e-01
 -3.6272797e-01
  3.7696078e-01
  1.9685207e-01
 -4.0680669e-02
  1.7042516e-01
  2.4257658e-01
 -6.8019047e-02
  1.7747615e-01
 -2.4824950e-04
  1.6935135e-01
  2.7302983e-01
  1.6903341e-01
  3.7158180e-02
 -1.1359762e-01
  1.4630203e-01
 -1.1292161e-01
  8.2730591e-02
  5.3576715e-02
  3.0787433e-02
 -5.1142551e-02
 -5.1926129e-02
 -7.8780033e-02
 -3.1015916e-02
 -7.3859721e-02
  1.4331405e-03
  3.0805286e-02
 -3.8557950e-02
  6.9670938e-02
  1.2976964e-01
  1.0617434e-02
  7.8018434e-02
 -6.4522199e-02
  9.4408318e-02
  4.2639107e-01
  5.4927313e-01
  3.2218471e-01
  5.3886342e-01
  1.9525674e-01
 -5.4232770e-01
 -6.4490937e-02
 -2.0224689e-01
  1.2921712e-01
  4.6635110e-02
 -7.4089035e-02
 -4.1876782e-02
  3.4350560e-03
  6.8904571e-02
 -6.7046061e-02
  2.3999172e-03
  9.0010250e-03
  3.7914366e-01
 -2.4589157e-02
 -3.4491700e-01
 -2.1145409e-01
  4.8828097e-03
  9.3229830e-02
 -6.2519178e-02
 -5.6027744e-02
  9.3534447e-02
 -2.7958530e-01
  1.1493382e-01
  1.6265212e-01
 -2.0622039e-02
 -8.3317414e-02
 -1.6202602e-01
  7.4183166e-01
  1.3717841e-01
  3.7627733e-01
 -4.8474986e-02
  1.0486849e-01
 -7.4164249e-02
 -3.6711928e-02
  9.8647177e-03
 -1.1039553e-01
 -7.9672746e-02
 -2.3588316e-01
  4.7646735e-02
 -2.9280463e-01
  6.8069428e-02
  2.7364385e-03
  1.1654803e-02
 -1.9052373e-02
  8.1112713e-02
  1.6838927e-02
 -7.9767425e-03
 -1.5300055e-02
  2.0580666e-02
  6.9339415e-03
 -7.7206492e-03
 -6.5699406e-03
 -3.2361448e-02
 -8.2293808e-02
  8.6798128e-03
 -4.2432953e-02
 -1.0024060e-02
  7.3044062e-02
 -1.9897190e-01
  2.5126696e-01
 -1.1256042e+00
 -1.4264242e-01
 -3.7646502e-01
 -1.7501853e+00
  2.3089722e-01
 -3.3866289e-01
  1.2652174e-01
  6.7678229e-03
  2.2927077e-02
 -2.6710066e-01
 -1.0760203e-01
  1.3133793e-01
  2.4816239e-01
  5.1958489e-01
 -4.7919959e-02
  9.3801029e-02
  1.5810189e-01
  1.2493055e-02
  2.9184002e-01
  2.5844362e-01
  4.2434745e-02
 -2.0873997e-01
  1.7900167e-01
  9.7617626e-02
  2.7217351e-02
 -6.8419844e-02
  5.6547868e-01
 -1.7107494e-01
 -3.2180640e-01
 -9.4055615e-02
  1.2408984e-01
 -1.4863667e-01
 -3.5029318e-02
  2.2403734e-02
  2.5892159e-02
 -1.4570737e-01
  3.9504103e-02
  3.5539195e-01
  2.0799294e-02
  1.6213804e-01
 -1.7775479e-01
 -5.0127087e-03
  1.0858296e-01
  7.4651085e-02
  1.8933856e-01
 -1.2686617e-02
  1.0955999e-01
 -5.9679873e-02
 -9.7005054e-02
 -6.5280706e-02
 -1.1641879e-01
 -4.8625536e-02
 -1.1397557e-01
  1.5983982e-02
 -1.4338251e+00
  2.0139646e-02
 -1.5126916e-02
  3.9855417e-02
  3.1421643e-02
 -5.2590236e-02
  5.7838771e-02
 -6.4753503e-01
  1.5631303e-02
  1.4686260e+00
  4.7529188e-01
  4.4137943e-01
  1.3946244e+00
 -1.8637781e+00
  1.4861085e+00
 -1.2521335e-01
 -5.3671265e-01
  1.1265299e-01
  7.2996272e-03
  7.8744096e-01
 -5.9517974e-01
 -4.8741293e-01
  5.0445817e-02
 -1.2287394e+00
  1.4434290e+00
  5.4509217e-01
 -1.2763873e+00
 -4.0901574e-01
 -2.9431084e-02
 -2.6735094e-01
 -7.0492756e-01
  1.9006038e-01
  7.9504222e-01
  1.4100277e+00
 -2.9843092e-01
 -1.3802731e+00
  4.9428219e-01
  1.3207998e+00
  1.1247831e-01
 -7.0770627e-01
  2.0437193e-01
 -4.9259663e-01
  8.2986414e-01
 -4.9625114e-01
 -5.5915648e-01
 -1.8151216e-01
 -6.4974323e-02
 -1.1109230e-01
 -3.5544446e-01
 -3.7681592e-01
 -4.0969778e-02
  3.7097150e-01
  3.8840521e-02
  3.7350625e-01
  3.6550611e-01
 -3.1132642e-02
  3.6278661e-02
  1.1823384e-01
  3.6320925e-01
  2.5060678e-01
  1.2689428e-01
 -8.1757687e-02
  2.1668712e-02
 -1.8128558e-01
 -7.0071258e-02
  7.5356133e-02
 -4.8802141e-02
  1.0024934e-01
 -3.7221618e-02
 -2.6686427e-01
 -1.0344563e-01
 -4.8684892e-01
  9.1772631e-02
  7.5516783e-02
 -4.5440364e-01
  1.2760240e-02
  2.7949959e-01
  1.1824772e-01
 -2.3348558e-01
  1.1021076e-01
  4.7044426e-01
 -2.9277502e-02
 -2.2808409e-01
 -3.4644207e-01
 -8.9851364e-02
 -1.5343003e-01
 -3.3235678e-01
 -8.8236719e-02
 -8.5087329e-01
 -1.6712685e-01
  3.6772180e-01
  2.6054558e-01
 -1.0290083e-01
  5.4953754e-01
  1.2742488e-01
 -4.7051468e-01
  2.8003756e-02
 -6.9895279e-01
 -5.6462830e-01
  2.3644494e-02
  3.4439299e-01
 -2.7246848e-01
  1.8591601e-01
 -3.0883297e-01
  3.1134596e-02
 -6.4242554e-01
 -6.6964962e-02
 -6.4399061e-03
 -2.4602655e-01
 -1.2018371e-01
 -3.1111592e-01
  3.3533525e-01
 -1.3921376e-01
 -3.1455761e-01
 -3.8547215e-01
  5.1975481e-02
  3.1433055e-01
 -2.8481709e-02
  2.4637565e-02
  7.9797976e-02
  1.3087669e-01
 -4.5841333e-02
  7.8776255e-02
 -3.3043195e-02
  4.0590852e-02
 -1.5950605e-02
  7.0102014e-02
 -3.0954754e-02
 -1.5183687e-01
  2.2155991e-02
 -1.5309718e-01
 -1.8414302e-01
  1.0874031e-01
  1.2102614e-02
 -2.8724734e-02
  2.5819123e-02
 -1.1146850e-02
 -2.8877303e-01
  1.5428465e-02
 -2.1912514e-03
  3.0410640e-02
 -2.0958018e-02
  1.7432757e-02
 -1.0640360e-02
  7.3534576e-03
  1.3606261e-02
  1.4446018e-02
  1.3796447e-02
  1.2222438e-02
  2.3027049e-01
  2.7681822e-03
  3.0539989e-02
  1.7295914e-02
 -4.4589727e-03
  6.3020438e-03
  2.5916157e-02
  4.4363517e-02
 -1.8371072e-02
  1.3188726e-02
 -1.4073785e-02
  3.2629702e-02
  6.1294906e-02
 -9.8112784e-03
  9.4082346e-03
  2.7304888e-02
  1.6857561e-02
 -2.9244794e-02
 -7.6131366e-02
  1.1132322e-02
  7.9679517e-03
 -9.2382550e-01
  1.1152950e-02
 -1.8252762e-02
 -2.7378833e-02
 -7.7432184e-03
  2.0859426e-02
 -2.7131625e-02
  4.5236859e-02
  1.3210120e-02
  1.3230059e-03
 -1.0911170e-02
  1.4783206e-02
 -9.9837119e-03
  5.9236302e-03
 -1.0756670e-02
  3.7172479e-03
 -1.4565688e-02
  1.1882234e-02
 -1.8798348e-02
  7.5552366e-03
  5.2693998e-03
 -6.7587942e-03
 -6.8883556e-03
  2.8219203e-02
 -2.6788404e-03
 -4.0300559e-02
 -2.2982220e-01
  2.8152025e-01
 -3.3198541e-01
 -5.9220814e-03
 -1.2951553e+00
 -1.1474613e+00
  2.7883700e-01
 -2.5425851e-01
  5.4724020e-01
  3.9551854e-01
 -1.1908298e-01
  2.7562284e-01
  2.6962036e-01
  5.3963281e-02
 -3.1726396e-01
  4.8169068e-01
  3.2465440e-01
  1.2811083e+00
  3.2933021e-01
  6.5212458e-02
  4.6571609e-01
 -2.9887289e-02
 -6.6966362e-02
  1.4795211e-01
 -4.1758841e-01
  8.5812546e-02
 -1.9116616e-01
 -4.1832426e-01
  4.5097587e-01
  1.9734380e-01
 -4.0530432e-02
  7.4118054e-01
  4.0006331e-01
  2.0364715e-01
 -7.9519498e-01
  1.1247079e+00
  1.0263567e-01
  2.9883504e-01
  1.9074822e-03
  2.1733768e-01
  3.5771483e-01
  1.6166160e-01
  2.0460850e-01
 -1.0971778e-01
  3.1763318e-01
 -1.0022777e-01
 -9.0156130e-02
  1.5671667e-01
 -1.1603408e-01
 -2.2416452e-02
 -7.2558478e-02
 -1.1241763e-02
  2.8889471e-01
  5.2013192e-02
  1.6196303e-02
 -9.9901194e-03
 -3.1834770e-02
 -9.1587668e-03
  1.7582272e-01
 -2.4196079e-02
 -2.5334897e-02
  9.4314657e-02
 -1.5954936e-01
 -2.9205233e-01
 -1.3140103e-01
  3.4543750e-01
  3.4752977e-01
  1.9220488e-02
  1.5030463e+00
 -1.0870364e-01
  1.6165715e-01
  3.9109766e-01
  7.5388223e-02
  1.2445383e-01
 -1.3843261e-02
 -1.0632235e-01
  1.2029014e-01
  5.1683836e-02
  2.2525117e-01
  3.2844526e-01
 -5.1008247e-02
  2.2486711e-01
  5.5596131e-01
 -3.9437942e-02
  4.0390021e-01
  8.7986700e-02
  1.8067895e-02
  9.1466807e-02
  1.6730212e-02
  1.8466024e-01
 -2.9447749e-01
  8.2569301e-02
 -2.0394256e-02
 -4.2576727e-01
 -7.7188343e-01
 -6.9723226e-02
 -1.2201353e-01
  1.0785807e-01
  7.2992659e-01
 -1.3753916e-01
  2.0276295e-01
  2.0871053e-02
 -1.3393866e-01
  1.6495642e-01
 -1.7543583e-03
  2.1431418e-02
  1.8755026e-02
 -4.3425441e-02
 -1.2187072e-01
  5.3954184e-02
 -1.8396854e-02
  3.4905619e-03
 -2.1133516e-02
 -4.6696197e-02
 -3.4246072e-02
  9.5958896e-03
 -8.0652587e-02
  2.2286491e-02
  5.0779559e-02
  1.8570164e-01
  8.3316891e-03
  6.3535936e-02
 -1.7006814e-02
  9.5354900e-02
  1.6656324e-02
 -6.2573195e-02
 -9.2359312e-02
  2.8013864e-01
  5.9219331e-01
 -2.2978797e+00
 -7.9975051e-01
 -1.6510255e+00
 -2.0910519e-01
 -1.5368211e-01
  2.7417025e-01
  2.9674840e-01
  7.2021985e-01
  4.7837358e-02
 -2.5868312e-01
 -3.6798513e-01
  3.0951530e-01
 -1.9215159e-01
 -1.5147598e-01
  1.4893136e+00
 -4.2325380e-01
  2.9283311e-02
  4.4870892e-01
 -6.5868169e-02
  1.1259825e-01
 -1.6935021e-01
  8.0919601e-02
  3.0733669e-01
  7.3240632e-01
  7.8994387e-01
  8.1135476e-01
  1.3424817e-01
  3.8236767e-01
  1.4232060e-01
  6.5580827e-01
  7.5680308e-02
 -1.8115522e-02
  7.1000105e-01
 -8.7645227e-01
 -6.4391220e-01
 -2.7678540e-01
  2.8996766e-01
  1.4102347e-01
 -2.7819076e-01
  3.0160785e-01
  3.6145499e-01
 -8.2995522e-01
  3.1997204e-02
 -2.9744002e-01
 -1.2558506e-02
  1.9749729e-02
  1.0719570e-01
  6.3389041e-02
  2.8910619e-01
  1.7266405e-01
 -1.7479934e-01
  1.1467167e-01
  5.2479282e-02
 -1.2725038e-02
 -7.4862810e-03
  1.4626999e-02
 -9.3274442e-03
 -1.0442796e-01
  3.6250606e-01
  2.2638666e-02
 -9.5405214e-02
 -7.0479654e-02
  1.0726529e-01
  8.0249652e-02
  1.0931612e-01
  4.1179657e-02
  6.6273712e-02
 -8.4231876e-02
 -6.4027816e-02
 -7.3117709e-01
 -2.4541104e-02
  3.3594139e-02
  4.5850892e-02
  8.6115180e-03
  4.2625494e-02
 -1.3862723e-01
 -9.8987445e-02
 -3.1525232e-02
 -5.7742056e-02
 -8.5251123e-02
 -2.5522774e-02
  2.3025925e-04
 -1.8354116e-02
  1.7771631e-02
 -4.7049843e-02
  4.0290810e-02
 -3.1015058e-03
 -7.8836091e-02
 -3.9566334e-02
  1.3755861e-02
  5.0696801e-02
 -1.5743153e-01
 -1.8480564e-02
  3.5882074e-02
 -1.4494567e-01
 -1.0261965e-01
 -1.0145131e-01
 -2.3303008e-02
 -9.6300356e-03
  3.7203822e-02
 -5.5543125e-02
 -2.7800735e-02
 -4.2958388e-01
  3.1894367e-02
 -1.0126624e-01
  5.8111120e-02
  3.8659848e-02
 -1.7315278e-02
 -1.1032582e-04
  1.1913235e-02
  1.9931648e-02
  2.1210128e-02
  3.1125355e-03
  1.8086042e-02
 -2.7043216e-03
  1.8540362e-02
  1.2285523e-02
 -2.7998397e-02
 -3.2553677e-02
  1.3561160e-02
 -2.8606538e-02
  4.1058599e-03
 -8.7994538e-02
  3.2708636e-01
 -8.5405737e-01
 -5.6432712e-01
  1.6625060e+00
  3.6434463e-01
 -5.4906404e-01
  6.6381544e-03
  6.5295231e-01
  1.0892174e+00
 -2.0139207e-01
 -3.8172042e-01
  1.8855523e-01
  3.4746039e-01
  1.2696642e-01
 -1.0832001e-02
  1.5005615e-01
 -2.1437970e-01
 -4.9306911e-01
  2.7584869e-01
  5.7142627e-01
 -8.1155591e-02
 -3.4921560e-01
  1.4573137e-01
  8.5788645e-02
 -1.8249756e-01
  7.2233880e-01
  1.9694306e-01
  4.6535932e-02
 -1.6315757e-01
 -8.4798582e-02
  2.7787441e-01
 -2.2249755e-01
 -2.4346171e-01
  1.1661157e-01
  6.4296120e-01
 -9.3226254e-02
  2.7515823e-01
 -6.5520711e-02
  6.5847524e-02
  4.3935057e-02
 -1.4561138e-01
 -3.6819406e-02
  6.5416232e-02
  3.9924124e-01
  1.3781254e-01
  1.1093272e-01
 -1.5910219e-01
 -4.2400803e-02
 -2.4455603e-02
  6.7758001e-02
  3.5401009e-02
  4.1885704e-02
  1.4772699e-02
  1.8627563e-01
 -5.3703405e-02
  1.9127771e-02
 -3.7170488e-02
 -5.6808393e-02
 -9.3672439e-02
  1.5382838e-02
 -1.5912117e-02
 -2.4457891e-02
 -7.9394184e-02
  5.1903978e-02
 -6.7192182e-02
 -2.5523749e-01
  1.2867562e-01
 -1.8021956e-01
  2.4046887e-01
  5.3121042e-02
  1.2184029e-01
 -4.1679852e-02
 -4.3452803e-02
  3.8173352e-03
  5.5250877e-01
  5.2603269e-03
 -2.8798791e-02
  5.3443700e-02
  6.7828349e-03
 -1.7410244e-01
 -3.2579657e-02
  3.3228662e-02
  1.5953416e-01
 -3.5027884e-02
 -1.3956891e-02
 -2.0550130e-02
 -1.4064574e-04
 -5.8950033e-02
 -8.8590801e-02
 -7.2724126e-02
  1.7758437e-01
  1.2412966e-01
 -3.1464167e-02
 -2.6647404e-02
  2.1754554e-01
  9.5235305e-03
  3.1566817e-01
 -2.0953061e-01
  4.9767621e-02
 -1.8340884e-01
  6.2098395e-02
  1.7505217e-02
 -1.2273096e-02
  1.1575414e-01
  4.1176382e-02
  3.1131459e-02
 -8.6594008e-02
  8.6511940e-02
 -7.8910649e-02
 -4.8079628e-02
  1.7543755e-02
  5.2474421e-03
 -6.1888374e-02
 -5.1192269e-02
 -9.0945615e-03
  4.1827820e-02
 -3.6437050e-02
  3.3716470e-02
 -1.2856368e-02
  3.7442365e-01
  9.6880758e-01
  5.3999938e-02
 -1.4963604e-02
  5.6896131e-02
 -6.4985272e-03
 -7.4185304e-02
  4.0022385e-01
 -3.6101094e-01
 -6.3137418e-01
  3.6597165e-01
 -4.9649784e-01
  1.3405035e-01
 -2.1042426e-01
  8.2083054e-02
 -9.1585356e-01
 -1.4784065e-01
  5.1325109e-02
 -2.5446829e-01
 -1.6637888e-02
  1.2448774e-01
  8.3539411e-02
  1.0831867e-01
  8.3692782e-02
  3.6497405e-01
  1.8386625e-01
  2.7514690e-01
 -5.4832272e-02
  1.4955938e-01
  1.1726605e-01
  4.9927704e-02
  8.7307282e-02
 -9.2555545e-02
 -7.6324597e-02
  1.5901305e-03
  9.3540162e-02
 -1.2799302e-01
 -2.6737627e-01
  3.1675717e-01
 -4.0940698e-02
 -9.1642804e-02
 -1.8934460e-01
  1.4353946e-01
 -1.5505396e-01
  5.3933855e-02
  5.3670891e-02
  1.9537698e-02
  1.5096730e-01
  9.4926402e-02
 -5.2444693e-02
 -3.6427923e-02
  1.4622803e-01
 -3.5956416e-02
 -6.1465097e-03
  3.8323615e-02
  2.1901915e-03
 -1.8339733e-02
 -2.9508129e-02
 -2.8618306e-03
 -3.0372802e-02
 -1.0005510e-01
 -2.1317329e-02
  3.0823141e-02
 -3.8234517e-02
  2.7114481e-02
  1.0277466e-01
 -9.1865417e-03
  3.4689762e-02
 -3.7601821e-02
 -1.0628290e-01
 -3.7532818e-01
 -1.2542557e+00
 -9.1410679e-01
  1.2165260e-01
 -2.0529099e-01
 -1.1346404e-01
 -2.3433849e-02
  1.1388345e-01
  5.7308413e-02
 -1.0611832e-01
  4.5701429e-02
 -3.7360478e-02
  3.4409173e-02
 -1.5417956e-01
  1.1842355e-01
  2.8433986e-03
  7.4911344e-01
  1.5870145e-01
  1.0084476e-01
  1.9141965e-01
 -1.6757531e-02
  4.7103159e-02
  1.8336162e-02
 -4.8614670e-02
  7.6802023e-02
  2.5699367e-03
  1.0533705e-01
  3.9376229e-02
  2.3101287e-02
 -3.7014671e-02
 -2.9578604e-02
  1.9700819e-01
  8.8813864e-02
 -4.9234416e-02
 -6.9924287e-02
  2.3872435e-01
 -7.0878632e-02
  4.0712629e-02
  7.7227992e-03
 -4.7257427e-02
  1.3578795e-01
  2.9288022e-02
  5.4205734e-02
 -1.0266165e-01
  6.2297206e-02
 -5.9043430e-02
 -1.0615503e-03
 -2.3917556e-03
  2.9949027e-01
 -4.2212315e-02
 -3.3269819e-02
 -5.5050537e-02
  1.2768047e-01
 -4.3289665e-02
 -2.2217929e-02
  2.4306744e-02
  1.1466104e-02
  8.1969155e-03
  5.4609384e-02
 -4.7259349e-01
  5.4235898e-02
 -1.9437779e-02
 -1.0820404e-01
  1.0790013e+00
  1.1299447e-01
  8.1540442e-01
  1.4078423e+00
 -8.4315762e-02
  4.7093347e-01
 -1.5218937e-01
 -8.6888902e-02
  7.3510844e-01
 -1.7559111e-02
 -1.3648364e-01
  1.2766216e-03
 -6.6976190e-02
  1.1630727e-02
  1.9294395e-01
 -5.8549959e-02
  1.2050641e-01
  1.7326638e-01
 -2.5201750e-01
  1.2060524e-02
 -3.4284011e-01
 -4.1204333e-01
 -5.5332220e-01
 -1.1002018e-01
 -2.8393474e-01
 -5.4513037e-01
 -6.7897254e-01
 -2.2606452e-01
 -2.5148925e-01
 -9.5702643e-03
 -1.3357209e-02
  1.2433204e-01
  7.7610090e-02
 -1.6223182e-01
 -5.7860732e-01
 -1.5398140e-01
  4.8240270e-02
  9.9266425e-02
  1.1831354e-01
  1.6838478e-02
  7.4612990e-02
  1.2710822e-01
  1.0510838e-01
  1.8319000e-01
  4.6059364e-01
 -2.3146249e-02
 -1.1033598e-01
 -1.0245855e-02
  1.5959418e-03
 -2.0932021e-02
  6.0576531e-03
  1.5879987e-02
  6.0883399e-02
 -2.2936240e-03
 -2.8620544e-03
  1.6848205e-03
 -1.9441051e-02
  1.7157437e-02
  7.8833438e-02
 -6.7942822e-03
  6.0560638e-03
 -2.1643585e-02
 -4.3918028e-02
  3.2392778e-02
  6.3320391e-02
 -9.0250028e-03
  1.8785251e-02
 -9.0833297e-03
 -3.5574046e-01
 -6.9715269e-03
  3.2193412e-03
 -7.1900659e-03
  4.6082912e-03
 -3.1895556e-02
  1.8649355e-02
 -6.4115259e-03
 -1.8522747e-02
 -2.0834759e-02
  1.8752933e-02
 -2.0961840e-02
 -3.1748340e-02
 -4.4338848e-03
  7.8478074e-03
  1.5197268e-02
  3.7020549e-02
 -1.4057398e-02
  1.1993506e-02
 -6.6286389e-04
  8.8110410e-02
  5.5808049e-02
 -4.1754693e-03
  7.8494959e-03
 -4.4317827e-02
  4.7787279e-02
 -6.1315574e-02
 -1.7921085e-02
 -7.5211534e-03
  5.8214724e-01
 -6.6806547e-02
  1.2660651e-02
 -3.5063688e-02
 -6.1847019e-01
  1.0046212e-02
 -3.9427739e-02
 -1.1290191e-02
 -3.2369289e-01
 -2.3407865e-02
  7.1366448e-03
  4.0422596e-02
  3.0068107e-02
 -2.0433409e-02
  1.4118947e-02
  2.5540490e-02
 -1.1716480e-02
 -1.7427510e-02
  2.8194971e-03
  5.8295812e-02
  1.8911347e-02
 -1.3446293e-02
  1.2385974e-02
 -2.4645774e-02
 -4.4571392e-02
  5.5033816e-03
  8.6712958e-03
  5.7915170e-03
  3.5148066e-02
  3.0752571e-02
 -1.6990109e-01
  4.6537545e-01
 -5.8824915e-01
  1.0291328e-01
 -3.7288722e-01
 -3.6916360e-01
 -2.6060607e+00
 -7.7797227e-02
 -2.2267084e-01
  1.6113706e-01
 -3.8891318e-01
 -1.6856167e-01
  8.6032175e-02
 -2.2975886e-02
 -3.5369450e-01
  9.9170379e-02
 -2.9932728e-02
  4.6854537e-02
  3.3345699e-02
  5.3625863e-02
  8.4033497e-02
  1.9810585e-02
 -2.4046706e-01
 -1.7272982e-01
  1.3574311e-01
  9.4495100e-01
  1.1376300e-01
  5.6219948e-03
 -8.5465558e-02
 -1.9653092e-01
  1.5047795e-02
  1.4412335e-02
 -5.0659619e-02
  1.7167908e-03
 -6.1957825e-02
  9.2654206e-02
  3.4072727e-01
 -1.1293944e-01
 -1.0240427e-01
  2.1355623e-01
 -1.6285839e-02
  2.8542623e-01
 -5.8984365e-02
  1.8208715e-01
 -1.8425204e-01
  4.9278002e-02
  9.2615131e-03
  4.5969686e-03
 -1.6319633e-02
 -7.7644944e-02
 -9.8599985e-02
  1.2078368e-01
  9.1070987e-02
 -5.4290753e-02
  4.9782645e-02
 -7.8272268e-02
 -1.2248174e-02
  1.4703000e-01
  6.8016066e-03
  1.0893002e-01
  5.3304452e-02
 -6.8820924e-02
  2.7662233e-02
  4.5600187e-02
 -3.9236542e-02
 -6.1327174e-02
 -2.5094470e-02
  1.4879801e-02
 -3.2937378e-02
  2.2139041e-02
 -4.4270372e-03
 -2.6914082e-02
  4.0570710e-02
  4.6031512e-02
 -1.8138918e-01
  5.5893362e-03
  4.7546342e-02
  2.1328444e-02
  6.2368609e-02
  1.9033337e-02
 -3.4459610e-02
  6.8505041e-02
  2.9584998e-01
 -1.4606963e-02
 -2.7241157e-03
 -3.0336040e-03
 -9.9913729e-04
 -5.9023406e-02
 -1.1652653e-02
 -5.4488918e-03
  2.8315982e-02
 -2.8163485e-02
 -2.6592111e-02
  9.5984928e-02
  3.0658873e-02
 -2.4295043e-02
 -5.4086875e-02
  2.4893852e-02
 -3.0274978e-02
  5.3235494e-02
 -5.6243781e-03
 -1.9995181e-02
  4.9122497e-01
  2.7178906e-02
  2.7323764e-02
 -2.7823776e-03
  6.4705178e-02
 -1.2419730e-01
  1.0517041e-02
  2.0033406e-02
 -1.4160826e-02
 -5.2362327e-02
 -2.6687946e-02
 -7.0857522e-03
  1.3111953e-02
 -7.4269464e-03
 -3.4475357e-03
  1.4819330e-02
 -4.1428763e-02
 -3.5373035e-03
  6.5284175e-01
  2.6299946e-02
  4.7481716e-02
 -6.1675109e-04
  2.3791261e-02
  5.5240881e-01
 -6.1448807e-01
  7.5418997e-01
  8.2505137e-01
 -3.3848476e-01
 -2.6946881e-01
 -1.5822381e+00
  4.3504441e-01
 -1.1813077e+00
 -9.7420830e-01
 -3.9892107e-02
 -1.2694426e-01
  2.0922971e-01
 -1.1203549e+00
 -5.4753906e-01
  2.9196426e-02
  1.3853525e-01
  4.8569426e-01
  1.5649316e-01
 -4.6331805e-01
 -5.3796065e-01
 -1.9132464e-01
 -5.6911522e-01
  1.8265352e-02
  1.7521742e-01
 -1.0250645e-01
  5.4765081e-01
  1.9481029e-01
 -7.2300535e-01
 -8.0868703e-01
  5.1405776e-01
 -9.0919739e-01
 -1.7297283e-01
  4.6774659e-01
 -3.7776217e-01
  4.7143903e-01
 -4.2952400e-01
 -2.7579337e-01
 -5.0411689e-01
 -2.5400278e-01
 -7.4916494e-01
  1.0424974e-01
 -1.6851142e-01
  3.4615502e-01
 -5.6870276e-01
  4.6289291e-02
 -2.0158713e-01
  1.1857885e-01
  6.3965835e-02
  3.1483746e-01
  1.3164867e-01
 -1.9540459e-02
  1.0096794e-01
  2.9980657e-01
 -1.3947013e-01
  4.3073140e-02
 -1.7550705e-01
 -9.5316507e-02
 -2.7845246e-01
 -2.3411203e-02
 -4.6828456e-02
  2.9924598e-03
  1.9288497e-01
 -1.5582745e-01
 -1.0428233e-01
  8.7493286e-03
 -9.0341896e-02
  1.2060791e-01
  3.2974701e-02
 -6.6068895e-02
  3.8917668e-02
 -6.8813628e-01
 -1.0438102e-02
  4.5670893e-02
  6.4625358e-03
  4.6222564e-02
  9.7362632e-03
 -1.9251449e-02
  1.0340196e-02
 -1.6706524e-03
  3.2006521e-02
  1.5056816e-02
 -1.4880012e-01
  2.1317061e-02
 -3.3718813e-02
  2.6333515e-02
 -9.1530336e-03
  9.3110660e-03
  1.2621956e-02
 -7.2845789e-03
 -2.2908689e-03
 -1.5666965e-02
  1.8185730e-03
 -3.4251276e-02
  5.3836800e-02
  2.6444239e-03
 -3.0673143e-02
 -3.5502497e-02
  2.6272878e-02
  1.4075370e-02
  2.5415618e-02
  3.0257313e-02
 -2.6791854e-02
  2.8582169e-02
  1.0911371e-02
  4.3621778e-02
 -4.2581208e-02
 -9.5992088e-03
 -4.1737617e-03
  1.0745697e-01
 -9.5999697e-03
 -2.0071277e-02
 -3.3963658e-02
 -8.2401102e-03
 -1.2238759e-04
  1.6824028e-02
 -3.9706569e-02
  2.6459387e-02
  2.9912328e-02
 -4.3882397e-03
  5.9849214e-02
 -1.1114963e-02
 -1.9628460e-02
  2.9244814e-02
  1.5480921e-02
 -2.9295797e-02
 -8.0609433e-02
  4.2950559e-01
  1.6635473e-01
  9.9853031e-02
  1.3134912e-01
 -1.9824953e-01
  9.1009416e-02
 -6.5683365e-02
  1.7565082e-01
  6.5212339e-02
 -1.0622151e-01
  1.9323541e-02
  2.3073902e-02
 -8.7056562e-02
 -4.4695571e-02
 -1.1069121e-02
  1.8105637e-02
 -3.1985484e-02
 -4.7611222e-02
 -1.1940899e-01
  4.6925940e-02
  1.8688010e-02
  1.2371501e-01
  1.5536586e-02
  1.1683010e-02
  3.9313978e-01
  1.4074701e-01
 -1.3011437e-03
 -4.6994132e-03
  1.3365763e-02
  8.3752483e-02
 -3.9852872e-02
  7.2350645e-01
  6.0182523e-02
  4.2167392e-02
 -1.0990140e-01
  6.7961350e-02
 -4.0767912e-02
 -6.0872532e-02
  1.0450447e-01
 -2.0238954e-01
 -3.1423524e-02
  1.7745843e-02
  1.1080606e-01
 -1.0295214e-01
  1.0712063e-01
  4.3200810e-02
 -2.9437223e-02
  3.1737767e-02
  3.3079389e-02
  4.7809113e-02
 -1.5065799e-03
 -1.8173533e-02
  7.5827628e-02
  4.2614132e-02
 -1.5931206e-02
  4.7549143e-02
 -4.9086768e-02
 -1.2119556e-01
  2.7917668e-02
 -5.7425808e-02
  3.3287037e-02
  1.3257392e-01
  1.3564025e-01
  4.0159714e-01
 -1.2698382e-01
  1.5026246e-01
 -4.2245379e-03
 -2.0331772e-01
  1.2530154e-03
 -1.5791357e-01
  1.6554583e+00
  7.9579443e-02
 -1.9816549e-01
  9.2549197e-02
 -2.7324137e-01
  1.3868968e-01
 -8.2433450e-01
  1.9852684e-01
  3.6908948e-01
  5.9647405e-01
  3.2686904e-01
  1.5432726e-01
  7.9379395e-02
  1.9825679e-01
  1.6236298e-01
 -1.8732609e-02
  6.5181933e-02
  1.6628665e-01
  2.0404045e-01
  3.4347111e-01
  7.0911035e-02
  6.0096189e-02
 -2.5238419e-01
  1.8112245e-01
 -1.9328170e-01
  1.3269073e-01
  4.4162971e-01
  4.0715116e-01
  5.1936142e-02
  2.2542799e-02
 -2.2325309e-03
 -1.1185449e-01
  1.0792956e-01
  3.7404064e-02
  4.3037202e-02
  2.0607764e-01
  2.4636805e-01
 -4.7431629e-02
 -1.1433894e-01
  4.5734849e-02
  8.6797342e-02
  1.5135042e-03
 -9.2951544e-03
 -3.0737733e-02
  2.1854385e-03
 -1.8574640e-02
 -2.5477361e-02
  2.9767878e-02
 -5.1593427e-02
 -1.4990995e-02
  3.8125243e-02
 -2.4766721e-02
  7.3312253e-02
  3.0467609e-02
 -3.9167438e-02
 -3.2465643e-01
  2.1326778e-02
  3.2619992e-01
 -1.0849086e+00
 -9.8348133e-02
 -3.8579145e-01
 -4.1852522e-01
  5.5736899e-01
 -6.2564147e-01
  5.6444526e-01
 -5.3418905e-01
 -4.2470697e-01
 -1.6867425e-01
  6.2169772e-01
 -1.0424766e-01
 -5.5982566e-01
  9.0953194e-02
 -4.6374956e-03
  4.3246081e-01
  1.3011836e+00
 -3.6485052e-01
  5.9281385e-01
  5.7253075e-01
  2.5122717e-01
  1.0881846e-01
  4.6536237e-01
 -6.0067647e-03
 -3.3774203e-01
  1.1703895e-01
 -5.6359506e-01
 -7.7983119e-02
  7.6840299e-01
 -9.8791905e-02
 -1.8226020e-01
  2.6784259e-01
 -5.5714786e-02
 -1.7898281e-01
 -5.2271378e-01
  7.1214937e-02
 -3.5403207e-01
  6.6792876e-01
 -2.0688939e-01
 -1.8178909e-01
  1.3886344e-01
 -3.2131377e-01
 -2.0949812e-01
 -1.4841521e-01
  8.2749873e-02
 -1.8129304e-01
 -1.4474556e-01
 -3.6003068e-02
 -2.1923929e-01
 -1.2778234e-01
  5.9937718e-03
 -8.7955922e-02
  4.5938775e-02
 -6.9073617e-02
 -6.2351741e-02
  3.8036462e-02
 -7.0109323e-02
  1.2673274e-01
 -2.2323132e-01
 -2.2348918e-01
 -1.3448110e-01
  3.4531751e-01
  2.3367606e-01
 -6.2839520e-01
  8.5038818e-02
 -4.0815583e-01
 -1.4298859e-02
  5.2831639e-02
  6.1325625e-02
  7.3406637e-02
  1.2857246e-01
  2.0552743e-02
  5.2369434e-02
 -1.1089776e-02
  5.2101042e-02
  1.2294549e-02
  1.5509033e-01
  6.8745822e-02
 -9.8450400e-02
  1.4585665e-01
 -4.6882175e-02
  2.4570368e-02
 -5.7236403e-03
 -3.2783426e-02
 -1.8550452e-02
 -1.1583172e-01
 -3.3432193e-02
  6.8081602e-02
  3.5703558e-01
  3.1747625e-03
 -3.1037394e-02
  1.3362035e-01
  7.4106462e-02
  5.1266935e-02
 -3.3459008e-02
  1.2240375e-01
  1.1099392e-02
  7.4736089e-02
  7.1405694e-03
 -6.5534331e-02
  8.1539787e-02
 -1.2816346e-02
  2.7648686e-02
 -3.1049833e-02
  3.6188755e-02
 -3.1644560e-02
 -2.0435685e-02
 -3.9262455e-03
 -3.2308854e-03
 -2.8934821e-02
 -3.5933524e-02
 -3.8929883e-02
  1.8107682e-02
 -1.9134328e-02
  2.1015331e-03
  2.0571752e-02
 -2.2555148e-02
  7.2624452e-02
  1.7194338e-02
 -5.7694723e-04
  5.9391204e-02
  8.6141415e-03
 -3.0945292e-02
  5.5266571e-01
  8.1295645e-01
  1.3173198e+00
  2.4183023e+00
  2.0085266e+00
  8.0622977e-01
 -1.2877272e+00
  1.0314045e+00
 -1.0674809e+00
 -5.6187952e-01
 -1.3869205e-01
  2.7342156e-01
  3.9356983e-01
 -5.5011684e-01
 -1.0032343e+00
  3.8500974e-01
 -5.6298733e-01
 -6.9790632e-01
  5.9965622e-02
 -4.7483313e-01
 -6.6182011e-01
  3.4605926e-01
 -3.2754967e-01
  5.0286013e-03
 -1.3382554e-01
 -2.2451670e-01
  3.9713144e-01
 -2.9628032e-01
 -8.0102491e-01
  2.0216623e-01
 -1.2515356e-01
 -3.4876283e-02
 -4.5255801e-01
 -3.6150384e-01
 -4.2794225e-01
 -4.5064899e-01
 -6.7142189e-01
 -6.4543319e-01
 -5.5330473e-01
  2.8471959e-01
 -9.6543655e-02
 -1.1813783e-01
 -1.0305841e-01
  1.7919018e-03
  7.0804179e-01
 -5.1600724e-02
 -4.6797013e-01
  7.4882455e-02
 -7.0620455e-02
  1.2395726e-01
  1.9740136e-01
  2.2996500e-01
  1.6320996e-01
  6.9393925e-02
 -5.3638533e-02
  3.2851454e-03
 -1.3614200e-01
 -6.9015697e-02
  1.3330071e-02
 -4.7966961e-02
 -6.2139500e-02
  1.5805043e-01
 -4.8470244e-02
 -8.4467363e-01
 -8.5881382e-01
 -1.2152281e+00
  2.2612825e-01
 -3.6408928e-01
 -7.0620477e-01
  2.5652674e-01
  1.0061731e-01
 -3.1695157e-01
  2.2946551e-02
  2.4317080e-02
  2.5517195e-01
 -2.5107449e-02
  2.9503198e-03
 -8.8638151e-03
  4.4392809e-01
 -4.2442566e-01
 -2.4147393e-01
  7.9545811e-02
  2.1863811e-02
  9.3727708e-02
 -4.2660239e-01
  1.6235346e-02
  1.6615583e-01
 -7.9219736e-02
  5.3951617e-02
 -4.5609865e-01
  9.7027663e-03
 -4.0395297e-03
  2.1046919e-01
  2.9486150e-01
  1.9747248e-01
  1.2565440e-02
  7.1197920e-02
 -8.1047612e-01
 -9.2756972e-02
  4.4746882e-01
  2.1115190e-01
  1.1903395e-01
  6.1372161e-02
  6.3779749e-02
  8.6455971e-02
  1.4681572e-01
  2.6399538e-01
  3.1240663e-01
 -3.1557955e-02
 -6.5437101e-02
  1.0376937e-01
 -8.4003806e-02
 -1.5792055e-02
 -2.4843505e-02
  1.0489144e-02
  7.4061878e-02
  1.1498889e-01
 -1.1261139e-02
 -1.8124426e-03
 -1.8202772e-02
  2.6643556e-02
  4.3262981e-02
 -1.0026175e-02
  2.0066707e-03
 -7.2181071e-03
 -7.6290436e-02
  1.8250254e-01
  1.0800835e+00
  2.3226622e-01
  1.0119352e-01
 -1.9269496e-01
 -7.8699939e-02
 -3.1885419e-02
 -3.7837788e-01
 -6.7924671e-02
  3.7781218e-01
 -3.8438940e-03
  1.2180783e-01
 -1.3612878e-03
  6.0858548e-02
 -1.0938177e-01
  3.2265323e-01
  2.3058252e-01
  3.0539349e-01
  3.7624493e-02
  2.6974867e-03
  7.0075288e-02
  3.9981121e-01
  1.3320094e-02
 -6.5615952e-02
  2.0324075e-01
  1.5051135e-01
  3.6945850e-01
  3.9737502e-01
  9.4097801e-02
  8.3302319e-02
 -2.5226045e-01
 -2.3221181e-01
 -1.6102664e-01
  1.5980718e-01
  7.3442334e-01
  1.8823767e-01
  1.0526417e+00
 -2.1271008e-01
 -5.8395591e-02
 -7.4022003e-02
 -1.3643207e-01
 -2.4375580e-01
 -1.7464653e-02
  2.6140389e-01
 -2.8847077e-01
  1.5321119e-01
 -2.1408381e-02
 -5.9127294e-02
  8.7569341e-02
  8.2796656e-02
  1.0743569e-01
  4.5099176e-02
 -3.4374863e-02
 -8.9969458e-03
 -5.4570264e-03
  7.1952068e-03
  3.5989542e-02
 -6.9556229e-02
 -1.2488514e-01
  9.9716764e-03
 -6.0019173e-02
  5.7960439e-02
  1.5738879e-01
 -3.1781886e-02
 -5.1342016e-03
  2.2866167e-01
  2.3027281e-04
 -1.5367724e-01
 -1.0957051e-01
 -2.5479227e-02
  1.2640776e-01
  6.3497663e-02
 -8.5005783e-02
 -3.6805116e-02
  1.4784295e-02
 -3.9747544e-03
 -1.1685024e-03
  2.8376926e-02
  1.3384311e-02
  1.5471194e-02
  3.2510307e-02
  1.5729660e-02
  1.6897236e-01
 -6.1344769e-02
  1.1582990e-01
 -1.2000394e-02
 -1.1030495e-02
 -3.0529143e-02
 -1.1323011e-01
 -1.5326571e-01
 -3.2949776e-03
  2.5458368e-02
  1.5340429e-02
 -5.6567613e-02
  9.7536579e-02
  5.2785203e-02
  1.2433089e-03
 -5.8950838e-02
 -7.3488027e-02
  1.4004458e-01
  1.0499360e-01
  3.3610448e-02
  2.2484520e-01
  1.1437132e-01
  4.3522816e-02
  2.9022766e-02
 -3.7814088e-02
  6.6733606e-02
 -3.9084025e-02
 -2.9748827e-02
 -6.2052016e-03
  1.6078735e-02
 -1.6392410e-02
  2.7420266e-02
 -4.3541294e-02
  1.1201758e-02
 -9.5283529e-03
  1.1982232e-02
  8.9515600e-04
 -3.6462836e-02
  8.6962357e-03
  9.3553245e-02
 -1.6033230e-02
  5.6271244e-02
  1.0526498e-02
 -4.0324457e-02
 -1.0645380e-01
 -3.3378679e-01
  1.0897970e+00
  2.8366891e-01
 -2.2925761e-01
 -2.2989082e-01
 -4.0575027e-01
  1.8314597e-01
 -1.1267475e+00
 -3.9899471e-01
  1.8225013e-01
 -1.5957938e-01
  2.6236680e-01
 -4.0946543e-02
  2.0622393e-01
  4.2608485e-02
  3.0889893e-01
  1.5753165e-01
 -1.4478487e-01
  7.7105761e-02
  8.0015644e-02
  3.7648171e-02
  5.0465751e-01
 -3.0651271e-02
 -1.1275633e-01
 -2.5345808e-01
 -1.4475437e-01
 -2.8013295e-02
 -3.0687526e-01
 -3.0021921e-02
  7.3391534e-02
  1.3338868e-01
  1.8408090e-01
 -1.2288967e-03
 -2.3380254e-01
  1.1974909e+00
 -1.7816879e-01
  3.5065338e-02
 -4.2952724e-02
 -1.0918715e-01
  1.0418603e-01
  4.3872494e-02
 -3.2435767e-02
 -2.9790235e-01
 -7.8425020e-01
 -8.3970122e-02
 -1.9650474e-02
 -1.5055892e-01
 -4.4609878e-02
 -6.5754391e-02
 -2.6673550e-02
 -1.8987458e-02
  5.4729048e-02
 -1.1478145e-02
 -7.7440958e-03
  6.5883063e-02
 -3.3311222e-02
  1.5361812e-02
  6.1306503e-02
  1.4486193e-02
  6.2399790e-02
 -3.4883313e-02
 -8.4944189e-02
 -2.3069018e-02
  3.4678705e-02
  7.0077605e-03
  7.8558149e-03
 -9.2203498e-02
  4.4926107e-02
  4.7086570e-03
 -6.2730029e-02
  1.0342695e-02
  7.2973678e-03
 -3.0484207e-03
 -6.0020152e-02
  4.6614036e-02
  1.5543701e-02
 -3.3158593e-02
  2.7381140e-03
  1.4812432e-02
 -3.2265510e-02
 -4.8939730e-03
 -3.4739561e-02
  4.7088903e-03
  1.8788439e-03
 -6.1552059e-03
  2.0331893e-02
 -1.0939753e-02
 -7.9822826e-04
  1.6222904e-02
  6.8057200e-04
 -2.3188090e-02
  4.2680670e-03
  2.8754620e-02
 -3.1326167e-02
  1.9658323e-02
  6.0208966e-03
  4.9675265e-03
 -3.0774808e-02
  2.3432871e-02
 -1.4335351e-02
 -2.0592073e-02
 -1.2007788e+00
 -2.4187643e-02
 -1.0940828e-01
 -1.7367041e-02
 -2.4074564e-02
 -2.5129190e-02
 -2.4966331e-02
 -9.8369338e-02
  1.8406816e-01
  3.3376891e-02
 -1.4511338e-02
 -1.4793558e-02
  9.4651967e-02
 -8.3350921e-03
 -9.1431662e-03
  5.6856457e-02
 -1.0584845e-02
 -1.5437316e-02
 -3.0896056e-03
 -1.2385513e-02
 -3.6709518e-03
 -2.8657164e-02
  2.4224678e-02
  2.5906721e-02
  2.5125884e-02
 -5.1553778e-02
  5.1157504e-02
 -5.8389578e-02
 -6.8160310e-02
  3.5528079e-02
 -4.0157054e-02
  8.0365695e-02
 -3.7538409e-02
  7.2614378e-03
  5.4833267e-02
 -1.6827574e-02
  1.2109418e-02
  2.0712603e-02
  3.5426188e-02
  4.7496296e-02
  3.2489780e-02
  9.0413824e-02
  1.8837642e-02
  1.6616973e-01
 -2.4315899e-02
 -1.2402451e-02
  1.2573758e-02
 -5.4293182e-03
  2.5187172e-02
  5.3656078e-03
 -1.7928411e+00
  5.0789863e-02
  9.7471494e-03
  3.3155907e-02
 -6.6637889e-02
  1.4200929e-01
 -1.0104579e-04
 -2.9152192e-03
 -2.5943385e-02
  6.6115290e-02
  2.3186356e-02
  1.0965188e-01
 -1.2057318e-02
 -3.3908665e-02
  8.7396123e-02
 -1.1335810e-01
  6.0866795e-02
 -2.2451330e-02
  7.0660189e-02
 -3.0468397e-02
 -1.4104314e-02
 -2.7171900e-05
 -1.6891392e-02
 -3.3764459e-02
 -2.6775852e-02
 -2.8207408e-02
  1.7855614e-02
 -1.3540749e-02
 -9.5934365e-03
  3.8266722e-02
 -1.1997391e-02
  1.1167464e-02
  8.3368868e-02
  5.8688018e-02
  2.6418911e-02
  3.3045195e-03
 -4.6309114e-02
  4.9348775e-01
  3.7894964e-02
 -1.5289519e-02
  1.2531402e-02
 -1.0314857e-02
 -7.1098795e-03
  5.3729225e-02
 -8.3965763e-02
 -3.0271525e-02
  4.8408378e-03
  9.4490522e-04
 -2.0813390e-03
 -1.8094981e-02
 -5.0275549e-03
 -6.1066118e-03
  8.9657502e-03
 -1.7813290e-02
  2.3418020e-02
 -1.9043444e-02
 -1.7173804e+00
  4.1419715e-02
 -4.1559566e-02
 -4.4224667e-03
 -3.0372189e-02
 -1.3225325e-02
  3.8247168e-02
  5.5402126e-03
  2.6569974e-03
 -8.1925476e-01
 -1.7329806e-02
  2.5967682e-02
 -4.8309665e-02
  2.2298809e-02
  1.8910246e-02
 -3.3189859e-02
 -5.0297882e-02
  1.6800726e-02
 -2.8551107e-02
 -1.8966889e-02
  1.5670877e-02
 -2.9642152e-02
  3.5101362e-03
  3.0935461e-02
  2.1330256e-02
 -1.4117856e-02
  3.0653903e-02
  3.4327134e-02
  1.6031694e-02
  2.0894567e-03
  1.6392142e-02
  1.6058084e-02
 -4.0580067e-03
  1.1548946e-02
  8.7146088e-02
 -2.1364762e-01
 -1.6821757e-03
  5.2012164e-02
 -3.9897109e-03
 -1.6146882e-02
 -2.3568209e-02
 -6.5852813e-03
  1.1160332e-02
  3.0733347e-02
 -1.6944885e-01
  4.2657161e-01
  4.7564170e-01
  3.2040563e-01
  4.2701140e-01
  1.1563369e+00
  6.0954380e-01
 -5.4541999e-01
 -3.2167763e-01
  8.2150233e-01
  3.0682194e-01
 -2.7383441e-01
 -5.1528823e-01
 -2.7362256e+00
 -6.8294549e-01
  4.4283876e-01
  5.3319246e-01
  1.9389591e-01
 -4.0212941e-01
 -5.2694356e-01
 -2.9554135e-01
 -1.0108457e-01
  3.7265673e-01
 -2.8744620e-01
 -1.7042892e-01
 -2.5545779e-01
 -1.4084274e+00
  4.2071858e-01
  9.7896934e-02
 -3.0878952e-01
 -1.1368240e-01
  1.7261648e-01
  3.1172717e-01
 -2.2461697e-01
  1.8658371e-01
  1.7894273e-01
  6.8096735e-02
 -2.2328526e-01
  1.2843515e-01
  6.6763800e-01
  2.3292935e-02
  1.6181991e-01
 -2.8575745e-01
 -4.3888557e-01
  4.0288505e-01
  5.1541198e-02
  3.7721798e-01
  2.0229695e-02
 -1.1929335e-01
 -1.0503858e-01
  5.3908005e-03
 -1.3060662e-01
 -4.1764125e-01
 -2.1031103e-01
 -2.5374398e-03
  3.9158698e-02
  7.8032665e-02
 -5.5557471e-02
 -9.9980250e-02
 -3.1339135e-02
  5.6712054e-02
 -1.9477259e-01
 -6.3192490e-03
  7.7926181e-03
 -7.7210784e-02
  1.5917702e-02
 -1.7297784e-02
 -2.2775126e-01
 -1.2250547e-02
  8.9920014e-03
  3.1057646e-02
  3.9891670e-03
 -2.3260178e-02
 -1.6511627e-02
  1.2903423e-02
  6.2121567e-03
 -3.1794455e-02
  4.9191114e-02
 -5.3397035e-03
 -7.5010490e-03
  2.7538965e-02
  2.7753979e-02
  1.3791965e-02
 -2.0347044e-02
 -1.2586416e-03
  9.4223740e-03
 -2.1997500e-02
 -4.7241386e-02
  1.6040277e-02
 -3.2275759e-02
 -6.0507674e-03
 -9.8890497e-04
  6.2204767e-03
 -2.3297234e-02
  7.9102315e-02
  1.5442351e-02
  1.3074369e-02
 -6.8969163e-03
 -1.7938605e-02
  5.4055574e-05
  1.3551544e-01
  8.6217998e-03
 -2.0780863e-02
  4.4602059e-02
  2.5635567e-02
  3.6820266e-03
 -1.9485921e-02
  4.4368424e-02
 -2.8001589e-01
 -2.1482494e-02
 -4.7207680e-03
  2.3257803e-02
 -3.3194888e-02
  3.1695573e-03
 -2.3986895e-03
 -2.1385856e-02
 -1.7599547e-02
 -7.3770722e-03
  1.6049135e-02
  5.8184791e-04
 -1.5716219e-02
  2.6683992e-02
  5.8378163e-03
 -1.7796425e-02
 -1.5724730e-03
 -1.3598563e-02
 -3.9506581e-01
 -4.9891759e-02
  1.9307576e-01
  3.4988765e-02
  2.6695257e-02
  5.7806391e-02
 -3.3254772e-02
  7.7945791e-02
  3.4712297e-01
 -1.3053041e-03
  7.4021652e-02
  1.6011069e-02
  2.4341833e-02
  8.1864018e-03
  1.9381491e-02
  5.1688176e-02
 -4.1612092e-01
  3.5930138e-02
 -3.7049956e-03
  1.0176783e-01
  2.4647985e-03
 -4.8270792e-01
 -2.7308533e-02
 -4.1517865e-02
 -1.0690168e-03
 -3.2338828e-02
 -8.5114032e-02
  1.5184381e-02
 -4.9332105e-02
  1.9367162e-02
 -1.6888883e-02
  5.3995810e-03
  3.4960054e-02
 -3.3393417e-02
 -2.0893461e-03
  4.6453018e-02
  3.3853218e-04
  5.9707828e-02
  9.1738105e-03
  8.7015741e-02
  5.8621284e-02
  1.7001806e-02
  5.2125532e-02
 -8.0530360e-02
  2.9140899e-02
 -3.3497352e-02
 -4.2767203e-03
  3.7271902e-02
 -2.9019458e-02
 -1.7694436e-02
 -4.1218647e-03
 -2.2687719e-03
  1.5700336e-03
 -3.0498428e-02
 -2.3372294e-02
  2.5210902e-02
 -3.6775731e-02
 -8.6673973e-03
  3.8665101e-02
  4.6519684e-03
 -9.2435144e-03
 -2.2683712e-02
 -1.5874865e-02
  8.1569707e-01
 -1.6774580e-01
  6.2486994e-01
 -5.9978370e-02
 -4.5318344e-01
  5.4103464e-01
  1.2854320e-01
  1.4824285e-01
 -1.9101541e-01
  1.2150290e-01
 -2.8012434e-01
 -1.1850154e-01
 -1.5651821e-01
 -1.0313527e-01
  8.1149019e-02
 -1.2501436e-01
 -4.9339674e-02
  7.7179507e-03
 -2.2505662e-01
 -2.9754829e-01
  3.2531443e-01
  2.9655380e-02
 -3.4056041e-02
  5.0548714e-02
  8.4712364e-02
  9.8063923e-02
  9.5387354e-02
 -3.4884432e-01
 -1.0871702e-01
 -2.7172133e-01
  5.0803483e-02
 -2.7733561e-01
  7.3453777e-02
 -8.2531095e-02
 -3.2742321e-01
 -3.6333722e-01
 -7.8369516e-01
 -3.4854298e-03
 -7.8138970e-02
  9.5826723e-02
 -7.4241638e-02
  2.0852666e-01
  9.5162667e-02
 -2.3387788e-01
 -3.2080334e-01
  4.2660508e-02
  1.6375147e-01
 -2.6579894e-02
  4.5342769e-02
 -7.0564874e-02
  3.1988360e-02
  7.6781563e-03
  3.7288246e-01
 -3.5678990e-02
  8.3815586e-03
 -5.4997741e-03
  3.8652260e-02
  2.9160383e-03
 -9.4671451e-02
 -5.7818512e-03
 -6.6310041e-02
  6.4105415e-03
  9.9936299e-02
  4.8180711e-01
 -3.5924155e-01
  8.2890868e-01
  1.2084131e+00
 -7.7290797e-01
 -2.6626974e-01
 -1.0887408e+00
  5.1424640e-01
 -1.5540519e-01
  1.2488183e+00
 -9.9523050e-01
  3.9515834e-02
 -1.3792706e-01
  4.6998671e-01
  3.9527634e-01
  1.8012406e-01
 -3.4616110e-01
  6.5647858e-01
  7.8448552e-01
 -1.6686876e+00
 -1.7273486e-02
  3.9521530e-01
  3.6071068e-01
 -2.2863878e-01
 -1.3967028e-01
  4.6254117e-03
  1.2733215e-02
  8.6659923e-02
 -1.0848303e+00
  6.2230504e-01
  4.1760480e-01
  6.4490062e-01
 -1.4047810e-01
 -5.0816804e-01
 -7.5361109e-01
  1.5521818e-01
 -2.2752106e-01
 -2.7384692e-01
  1.9695935e-01
  2.8364003e-01
  4.4994041e-01
 -1.1897274e-01
 -3.2145825e-01
 -3.8593644e-01
 -3.5635777e-02
  5.4597892e-02
 -8.4110719e-01
  1.0567626e-01
  8.4095132e-03
 -1.8807817e-01
 -1.2333898e-01
  8.0991335e-02
  1.2941594e-01
  6.5442428e-02
  2.4487760e-02
  1.3328320e-01
  1.9897132e-01
  2.9434668e-02
  2.0497738e-01
  3.6097311e-03
  1.4431342e-01
  1.8844347e-02
  2.5505173e-01
 -1.2409337e+00
  9.1639131e-01
  6.8017066e-01
 -3.1269583e-01
  2.9811341e-01
 -3.8087310e-04
 -1.2728868e+00
  2.3745342e-01
  9.2752945e-01
  7.1904528e-01
 -9.6235657e-01
 -4.8672253e-01
  9.1378957e-01
  3.7833115e-01
  5.5741131e-02
  4.3670139e-01
  4.3309093e-01
 -9.0500951e-01
 -6.9158125e-01
  9.5058255e-02
 -1.0769448e-01
  2.9969645e-01
 -1.1641444e+00
  1.4236368e-01
 -3.9109286e-02
 -1.0848182e-01
 -2.1920810e-02
 -3.5098854e-01
 -6.5301365e-01
  1.6283173e-02
  9.4027793e-01
 -6.1143130e-01
 -1.3794924e+00
  3.0012779e-02
 -1.3234107e-01
 -4.5810568e-01
 -8.0292244e-03
 -5.5247581e-01
 -7.2862643e-01
 -3.1933433e-01
 -7.4164569e-01
 -7.2263263e-02
  4.1541703e-02
  2.2665892e-02
  3.5576215e-01
 -1.1788964e-02
  1.0843350e-01
 -1.0571249e-01
 -2.9534936e-01
  2.1745744e-01
  1.1478736e-01
  8.2920991e-02
 -2.3691855e-01
 -7.9927129e-01
 -3.3619527e-02
 -7.4352756e-02
 -1.5592588e-01
 -1.5150481e-01
 -3.7789583e-01
  9.1450056e-03
 -1.4979346e-01
  4.8310552e-02
  2.6968879e-01
  7.7216327e-02
 -1.1143510e-02
 -2.1017740e-02
  1.0668199e-02
 -1.3212380e-01
  3.9727920e-01
 -1.1870278e+00
 -1.9871108e-02
  1.1436728e-01
  3.5587826e-03
 -9.1541350e-01
  1.4273633e-02
  1.1215363e+00
  1.9698976e-01
 -3.0849579e-01
 -1.3701593e-02
  8.4929615e-01
  3.9477902e-03
  5.2976352e-01
 -1.3423460e+00
 -8.7563723e-01
  3.6510450e-01
  1.2200553e+00
 -4.3815650e-02
  1.0000975e+00
  1.2389790e+00
 -8.3313900e-01
  1.3977865e-02
 -3.6291650e-01
  1.4098131e-02
 -9.6027493e-01
  1.1121199e-03
  2.0327156e-02
 -1.6141907e+00
  6.7367256e-01
 -4.7199283e-04
  5.1976299e-01
  9.4473541e-01
  3.4944087e-01
 -2.5430869e-02
 -9.7615950e-02
  9.0708127e-03
  9.2565708e-02
 -4.0919963e-02
  6.6505688e-01
  2.6994846e-03
  5.3351664e-04
 -1.6229296e-01
  3.9319935e-01
 -8.9122474e-01
 -1.9309609e-01
  7.3398626e-01
  1.7932761e-01
  8.2722291e-02
  3.0259559e-01
  1.3931367e+00
  3.1437466e-01
 -9.8951496e-02
  1.7769262e-01
  1.9644491e-01
 -9.0876651e-01
 -7.0684828e-02
  5.5439341e-01
 -3.0875668e-01
 -1.0546695e+00
  1.5164982e+00
 -1.0225919e+00
  2.4200588e-02
  7.2411460e-01
  4.4837916e-01
  1.0932134e+00
 -2.6045477e-01
 -5.7320541e-01
  3.0245608e-01
  3.8893169e-01
  2.5475791e-01
  2.4871896e-01
 -9.7273126e-02
  5.9294105e-01
  1.4155999e-01
 -1.2095063e+00
  9.1688536e-02
 -5.2300650e-01
  9.4478184e-01
  9.3786556e-01
  2.2572401e-01
  1.9026812e+00
  3.2185647e-01
 -6.7836630e-01
  2.2182025e-01
  2.9073709e-01
 -4.4477139e-02
  2.0545231e-01
 -6.2215239e-02
 -1.8130162e+00
  6.0934745e-02
  1.4886454e-01
 -4.6299681e-01
  9.8217362e-01
 -1.3965257e+00
  6.9928581e-01
  2.8419429e-01
 -5.6191283e-01
 -3.2772008e-01
 -1.2944700e+00
 -6.0182875e-01
  3.1256907e-02
  4.7247973e-01
  4.5258027e-01
 -1.3562177e-01
 -3.1251648e-01
  1.1523331e-01
 -3.0032378e-01
 -7.5581449e-01
 -2.1489294e-01
  9.5008545e-02
 -3.7807891e-01
  9.5202655e-01
  2.6576814e-01
  1.9824024e-01
  9.6234763e-01
  3.6573300e-01
  3.7037891e-01
  1.6496842e-01
 -3.5294101e-01
 -3.8476464e-01
 -2.6988542e-01
  1.7131440e-01
  3.7453392e-01
  2.9788345e-01
 -3.1053796e-01
 -2.6943995e-02
 -1.8052429e-01
 -6.6681534e-02
  1.1023007e-01
  6.3159657e-01
 -1.0762003e-02
  4.5843494e-01
 -2.1748362e-02
 -1.6478851e-01
  2.3798484e-01
  1.2477293e-01
 -3.9395586e-02
  4.0730658e-01
  3.9024863e-01
 -3.0364068e-02
  1.2306542e-01
 -1.7591736e-01
 -8.8763855e-02
 -8.7571209e-03
 -8.7330349e-02
  3.0991044e-02
  2.4874301e-03
 -1.1919290e-02
 -7.1800120e-02
 -8.2248278e-02
  7.0355386e-02
 -7.8959659e-02
 -3.9040133e-02
  1.7446404e-02
  4.2914238e-02
  4.6444077e-02
  3.6780473e-02
  3.8670909e-02
  5.3677973e-03
 -7.1293437e-03
  7.9433963e-02
 -1.4656069e-02
 -8.7368498e-03
 -4.0938366e-02
 -1.6732776e-01
 -4.3718871e-02
 -7.7406593e-02
 -5.7502519e-03
 -5.6247704e-02
 -8.3652958e-03
  5.3128794e-02
  5.6352947e-02
  1.1367963e-02
 -3.2905024e-02
  4.8720096e-03
 -5.3182684e-02
  6.5898530e-02
  2.0442266e-02
  5.3049643e-02
  3.1578660e-02
  4.3950360e-02
  2.1695760e-03
  8.3039347e-03
 -2.7075611e-02
  1.4125177e-03
  9.5695861e-02
  3.0649126e-02
 -3.1742066e-02
 -1.6151635e-03
 -5.2905325e-03
  3.3693042e-02
 -1.9336969e-02
 -3.0141713e-02
 -5.0535016e-02
  6.1539717e-02
  1.2392149e-03
  2.3637118e-02
  2.2854034e-02
 -3.0413957e-02
  3.0751222e-01
  5.7777780e-01
 -3.9494056e-03
  3.5574686e-02
  1.2963979e-02
 -6.5102880e-03
  1.2777642e-02
 -3.9892155e-03
 -2.7075782e-02
  2.1927569e-02
 -1.2229925e-01
 -3.0903826e-02
 -3.7249126e-02
 -1.9020369e-02
 -7.6681529e-03
  3.2078640e-03
  2.2530558e-02
  2.7342575e+00
 -1.6656067e-02
  1.4422672e-02
  1.9649407e-02
  8.4848511e-01
 -5.4689670e-01
 -9.2616874e-01
  3.8482285e-01
 -3.1259581e-01
 -1.1882610e+00
 -5.2253556e-02
  9.9287724e-01
 -6.6245750e-02
  8.0431633e-02
 -5.6460756e-01
 -1.8929826e-01
 -1.7109233e-01
 -3.9814025e-01
  4.8672581e-01
  2.5897291e-01
 -2.9716390e-01
  1.0261738e+00
 -1.1231137e-01
  5.4658729e-01
 -5.8180630e-02
  1.5516485e-01
  1.6679120e-01
  2.7318281e-01
 -4.0857273e-01
 -7.5774260e-02
 -7.2941452e-01
  2.4226572e-01
 -7.8618407e-01
  1.4048101e-01
 -6.5114725e-01
 -4.0608633e-01
 -3.6452064e-01
  3.2977272e-02
  8.8491112e-02
  1.1154738e-01
  6.9616467e-02
  3.6725703e-01
 -3.9766911e-01
 -2.8078392e-01
 -2.3889874e-01
  1.7120951e-01
 -1.4513435e+00
  4.0316738e-02
  2.9036453e-01
  3.5505607e-03
  1.5573873e-01
 -5.1753938e-01
 -3.2296011e-01
 -2.3569785e-02
 -1.3249475e-01
 -3.2480918e-02
  1.1526139e-01
  8.8601165e-02
  4.4458359e-02
  3.7478272e-02
  5.5350617e-02
  2.7633676e-02
 -9.6095111e-03
 -1.3029610e-02
  6.6667072e-02
 -1.6358303e-02
 -1.1664644e-01
  2.2958010e-01
 -1.5006365e-01
 -2.7081087e-01
 -2.6129192e-02
 -5.8157748e-01
 -1.8909739e-01
 -5.9284285e-02
 -7.2975171e-01
  6.2409099e-02
 -9.4732173e-02
  1.0553187e-01
  1.2145481e-01
 -5.7200056e-01
  7.8286752e-02
  3.9968304e-03
  1.0867433e-01
  4.4399016e-02
  1.6157417e-01
 -1.4036746e-01
 -1.8549123e-01
 -2.7025805e-03
  4.3709662e-02
 -3.6130611e-02
  2.6507530e-02
 -1.0047920e-01
 -1.2181695e-01
 -5.7867966e-03
 -1.4111754e-01
  3.8047877e-01
  6.4175628e-02
 -4.1414157e-02
  4.7818536e-01
 -1.2005726e-01
  3.1255138e-01
 -6.4874031e-03
  1.1596224e-02
 -1.1318832e-01
  1.4058416e-01
  1.4724439e-01
  1.1594132e-01
  3.7433509e-02
 -1.2248546e-01
  4.5918856e-02
 -5.9863597e-02
 -8.2830325e-02
 -2.4579789e-02
  5.7318125e-02
 -1.5974099e-04
 -1.2777574e-02
  8.2023598e-02
 -6.1921775e-02
  7.2374403e-02
 -1.9555794e-02
  6.6209026e-02
 -6.2022172e-02
  5.7715245e-02
 -3.0915774e-02
 -3.2234501e-02
 -2.3555774e-02
 -4.4028661e-03
  1.6289556e-02
  6.5067345e-03
 -4.0241212e-02
 -8.2168229e-02
  4.0435839e-02
 -1.1712006e-02
  3.9183222e-02
 -5.7965495e-02
  1.7119421e-02
  3.1325355e-02
  1.8202394e-02
 -3.6686469e-02
 -6.4729750e-02
 -4.7076391e-03
 -2.0623075e-02
 -2.3757784e-02
  8.9893838e-05
 -3.1810470e-02
  7.6575112e-03
 -2.8160358e-02
 -1.4136136e-02
  3.0343579e-03
 -1.4834743e-03
  1.3622397e-02
  3.5857048e-03
  1.0033393e-02
 -1.2803857e-01
 -2.9624857e-03
 -1.3460024e-02
  2.6850525e-02
  3.8475660e-03
  1.2530306e-02
  3.0185867e-02
 -2.2320844e-02
  1.4023542e-02
  1.3953859e-02
  9.5734932e-03
  6.9632875e-03
  1.7350789e-02
 -2.1374116e-02
  1.2968829e-02
 -1.7714972e-02
 -1.3721369e-02
  1.8858311e-03
 -3.7806809e-02
 -2.3992440e-01
 -1.7077945e-02
  9.4269615e-01
 -2.9667391e-02
 -9.3059130e-03
 -3.5864497e-03
  4.5231185e-03
  1.5561828e-02
 -3.5486694e-02
  2.2694925e-02
 -3.0492749e-03
  8.5714944e-03
  1.8620759e-02
 -2.3274231e-03
 -2.5874289e-02
 -3.1052815e-02
 -2.2554647e-02
  1.1920584e-02
 -1.7316613e-02
  3.6334075e-02
 -9.9394256e-03
  7.1402848e-02
  3.4890048e-02
 -2.2724599e-02
  1.8143030e-01
  2.5764199e-02
  5.3116195e-02
  3.8775485e-02
  3.0299342e-01
 -4.4521134e-02
 -4.5725264e-02
 -4.1714225e-02
 -6.7046180e-02
 -8.7837968e-03
  7.3408246e-02
 -4.2629750e-03
 -5.1422741e-02
 -7.0933864e-02
  9.4494350e-02
 -2.9442335e-02
  1.3452004e-02
 -1.5608734e-01
  7.0270188e-02
  1.2277805e-02
  3.9088827e-02
 -8.4812500e-02
 -6.2361106e-02
  7.7757835e-02
 -7.5819485e-02
 -1.7460273e-01
 -1.3650112e-01
 -7.9329669e-02
  5.8595020e-02
 -6.2119011e-02
  8.9761250e-02
 -4.0701321e-05
  3.7975490e-02
 -8.3292678e-02
  3.6521286e-02
 -3.7278246e-02
 -1.8831482e-02
 -7.4596941e-03
 -6.6480160e-02
  4.8117232e-02
 -4.9436972e-02
 -1.1493798e-02
 -7.9771141e-03
  2.4760976e-02
  2.7180482e-02
  4.6591535e-02
  1.8613175e+00
 -3.1131260e-02
  1.1199693e-02
 -2.9018766e-03
 -3.1084111e-02
 -4.5211125e-02
  5.0427192e-03
 -3.6326822e-02
 -5.5176213e-02
 -1.2729104e-02
  6.6584456e-03
 -1.8628705e-02
  4.0586010e-02
  1.9792706e-02
 -2.9976815e-01
 -3.4903952e-01
  4.6315761e-03
 -2.8179258e-01
 -4.1240427e-01
  4.2985737e-02
  1.0019260e-01
  9.4576322e-02
  1.0707413e+00
 -2.1516491e-02
 -3.5179862e-01
 -1.5602688e-01
 -3.2336790e-02
  1.0006340e-01
  2.6290068e-01
 -1.9645040e-01
  1.1685961e-01
 -4.6392977e-01
 -2.4550785e-01
  6.5126538e-01
  1.6570807e-02
 -3.3634365e-01
  7.3106652e-01
 -2.5607327e-01
  2.9754303e-02
  5.1385206e-01
  3.1839305e-01
 -1.0084023e-02
  2.6668558e-01
  9.4604021e-01
  9.2947513e-01
  7.5825699e-02
  1.9896095e-01
  2.3580775e-02
 -7.7684417e-02
 -4.0564265e-02
  1.3436751e-01
 -9.1028504e-02
  4.1317889e-01
 -2.7919960e-01
  1.2327168e-01
  4.5721218e-01
  4.7404805e-01
  9.5052414e-02
  1.3560323e-01
 -8.1371076e-02
 -2.7231875e-01
 -7.5958115e-03
  1.2664737e-01
 -3.2899615e-01
  1.5632778e-01
 -2.0875660e-01
 -8.5236117e-02
  1.4814165e-01
  9.9498481e-02
  5.3377457e-02
 -3.2360416e-03
  2.6074259e-02
  2.6121309e-02
 -6.3790282e-04
 -2.3787491e-02
 -5.5200610e-02
 -1.4376827e-01
 -1.1392251e-01
  7.1071494e-01
 -1.7279755e-01
  7.9076475e-01
 -5.7783866e-01
 -3.9944813e-01
  5.8265078e-01
  2.0239007e+00
 -3.0651444e-01
 -3.4886202e-01
  4.0635996e-02
  8.6755013e-01
  6.9222218e-01
  1.8291132e-01
  5.1265663e-01
  2.7558349e-02
 -3.7221861e-01
 -4.9317726e-01
 -2.9432815e-01
  2.2751801e-01
 -4.7066659e-01
  6.3151643e-02
 -2.4690295e-02
 -3.2640204e-01
  2.4919714e-01
 -3.4000590e-01
  7.8244311e-01
 -2.7691439e-01
 -1.8332710e-02
  7.0668563e-02
  5.9610128e-01
  3.6680928e-01
  2.3122755e-01
  2.5305343e-01
 -2.5751612e-01
  8.3916001e-02
 -2.2673532e-01
  1.6992185e-02
 -6.9714032e-02
 -2.4837302e-01
 -3.8716280e-01
  1.2133700e-01
  7.3141146e-01
  2.0338712e-02
  3.7723854e-01
 -6.0679510e-02
 -5.3408574e-02
 -1.0407670e-01
  1.8980195e-01
 -1.9255500e-02
  3.2539796e-02
  5.7970334e-02
 -8.6256944e-02
  1.4794859e-01
 -1.1991296e-01
  1.2600823e-02
  7.9509718e-03
  1.2045984e-02
  3.9556451e-02
  7.0671923e-02
  1.8347305e-03
  3.2900035e-02
 -7.6490422e-03
  3.8316748e-01
 -1.0758585e-01
 -3.5674378e-01
  5.0180508e-03
 -6.3636506e-01
 -5.1770616e-01
 -8.0283480e-03
  1.5893966e+00
  1.7828733e-01
  5.2293669e-02
  6.3048705e-02
 -1.3532107e-01
 -1.0199765e+00
  1.1266694e-01
 -1.2464055e-01
  1.9865231e-01
  7.0672803e-02
  4.8926115e-01
  8.0744982e-02
 -1.0236409e-02
  3.1314600e-01
 -9.4806112e-02
  5.9412107e-02
  5.2538808e-02
 -2.6322463e-01
 -2.3383616e-02
  5.9948068e-02
  1.8558843e-01
 -2.5080931e-01
  1.9114023e-01
 -1.7760421e-01
 -6.6036679e-02
 -1.0349724e-01
  4.5679212e-02
  1.3185352e-02
  2.1099631e-01
  1.2327978e-02
  3.1977850e-01
  1.2452869e-01
  2.7804992e-01
  1.3227585e-01
  1.2779206e-01
  2.9897682e-02
 -8.1171560e-01
  2.0426406e-01
 -3.4091193e-02
 -2.8219286e-02
  1.9365677e-01
 -1.4353743e-01
 -1.7064017e-03
 -1.5149299e-02
 -4.0035129e-02
  4.5172989e-02
 -3.5753928e-02
  3.8255353e-03
  8.6576894e-02
 -1.4210943e-02
  1.6152807e-02
  4.0590342e-02
  8.2182012e-02
  2.7444312e-02
 -2.4693383e-02
  7.1005598e-03
 -6.0100039e-04
 -3.7092526e-02
  3.0045390e-02
 -5.3842068e-02
 -3.3946272e-02
  4.1317560e-02
 -1.7022752e+00
 -1.1453585e-01
  2.4700542e-03
 -3.2244921e-03
 -1.3093603e-01
  5.1707062e-03
  4.8058692e-02
 -1.4469814e-02
 -1.4305599e-02
  1.4591461e-02
 -2.0568784e-02
 -7.8156412e-02
  1.9399777e-02
 -1.0400400e-02
 -1.9334210e-02
 -3.6840174e-02
  1.9387994e-02
  1.1229190e-02
 -2.3454882e-02
 -1.0437772e-02
  8.1299305e-02
  5.4943014e-02
  2.8953811e-02
 -1.4003760e-01
  1.3667246e-02
 -8.4486408e-03
 -8.3077969e-03
  3.9063241e-02
  5.6322205e-01
  1.2943461e-02
  7.3660314e-02
  5.8711845e-02
 -2.9666608e-02
 -2.7932767e-03
  1.0864354e-02
 -7.3678722e-03
 -3.8197793e-02
  2.5937306e-02
 -4.3042563e-02
 -2.7090514e-02
 -1.8214894e-02
 -3.9987043e-02
  2.8529323e-03
 -3.6303827e-03
 -2.4449168e-02
 -1.0555653e-02
  5.2880850e-03
  3.6180057e-02
 -1.6629469e-01
 -1.5945541e-02
  2.3444604e-02
  7.3552332e-03
  2.9302826e-02
 -1.9253939e-01
  1.1387461e-02
 -1.2497799e-02
  1.2957552e-01
  1.1603144e+00
 -1.6192642e+00
  3.0477047e-01
 -1.2653788e+00
 -3.6384976e-01
 -1.1440414e+00
  1.5315676e-01
 -4.1502926e-01
  8.2337463e-01
 -9.0170419e-01
 -3.2366011e-02
 -4.8257703e-01
 -9.2602593e-01
  3.1736001e-01
  3.7401354e-01
 -3.0499217e-01
  3.8486525e-01
  1.6787092e-01
 -2.6187399e-01
 -8.7536407e-01
 -6.4562732e-01
 -8.7217800e-02
  3.2201502e-01
  1.8899268e-01
  3.8025194e-01
  8.0249421e-02
  6.3405640e-02
 -5.4669988e-01
  7.7893347e-01
 -1.5429561e-02
 -1.0634624e+00
  1.5580401e-01
 -4.0308628e-02
  2.5643787e-01
  1.6620091e-01
 -1.0381790e-01
 -3.7089758e-02
 -2.6245999e-01
  3.4766126e-02
  6.8973446e-01
 -3.7153637e-01
  7.9508519e-01
 -8.2758188e-02
  5.5510495e-02
 -8.4477954e-02
 -7.5306982e-01
  3.7116060e-01
 -8.4287554e-02
  1.6537106e-01
 -1.1029837e-01
 -3.5326589e-02
  2.4080826e-02
  1.5453455e-01
 -2.2283731e-01
 -2.1648361e-01
 -1.4910664e-02
  2.5707746e-01
 -7.4310243e-02
 -4.8564915e-02
  7.4937083e-02
 -1.0379484e-03
  1.3169864e-01
  1.9286169e-01
  1.8350394e-01
  3.7123319e-02
 -7.3672011e-03
  6.5330637e-01
 -1.3415025e-01
  2.5154191e-01
 -4.6974219e-02
 -9.6382445e-01
  1.9181192e-02
  2.6665616e-01
  1.5283293e-01
 -9.6077837e-02
  4.1568410e-02
  4.5767069e-02
 -6.9387490e-03
  1.0595556e-01
  1.2724730e-01
  9.7729169e-02
  6.6521740e-01
 -2.5202405e-01
 -3.2174122e-02
 -4.3946594e-02
 -8.9852117e-02
 -3.3670657e-03
 -5.6420755e-02
 -2.8953061e-02
 -2.3281653e-01
  1.9155601e-01
 -1.4395384e-01
  2.5394283e-02
 -1.0850713e-01
 -2.1568960e-01
 -2.4639083e-02
 -1.4574103e-01
  3.1179953e-02
 -3.0423779e-02
  1.7209660e-01
 -9.0656325e-02
 -8.9543842e-02
  3.4576985e-01
 -1.7288958e-01
 -7.0502065e-02
 -5.1317316e-01
  3.4619384e-02
  3.0116331e-02
  4.3543767e-02
  2.0404586e-03
 -1.0464127e+00
 -5.7403065e-02
  1.1534153e-02
  1.1842258e-02
  3.0390916e-02
  3.0668152e-03
 -8.6968713e-02
  3.2924496e-02
  2.9773105e-02
 -3.9967585e-02
  1.7603854e-02
  2.1997616e-02
 -1.1713541e-02
  3.2194529e-02
 -2.0276604e-02
  1.3367382e-03
  7.2639531e-01
  9.1589317e-02
 -6.8778652e-01
 -2.1654660e-01
  5.5844288e-02
 -5.0586784e-01
 -8.2501918e-02
  8.5818434e-01
  8.0241546e-02
 -1.0346261e-01
 -1.5082732e-01
  8.0140568e-02
 -2.1063679e-01
  2.4821574e-02
 -7.4134476e-02
 -1.2712151e-01
 -2.8151866e-02
 -2.7815202e-01
 -7.9434581e-02
 -7.0872486e-02
  3.2737902e-01
  1.0811614e-01
  9.8377764e-02
  2.3836059e-02
  8.3986253e-02
 -2.2913586e-01
  3.1182709e-01
 -5.4952577e-02
  3.0905423e-01
  1.8410031e-01
 -1.6508524e-01
  3.3900151e-01
 -1.5476203e-01
 -1.7716071e-01
 -4.1810554e-02
  2.4847186e-01
 -1.4680493e-02
  3.9755538e-01
  4.0000726e-02
 -1.5367432e-01
  6.3118331e-02
 -3.1648466e-01
 -1.1169297e-01
  5.8859158e-02
 -1.6132215e-01
  3.0366199e-02
  6.7961550e-01
  2.6687437e-01
 -2.6285270e-02
 -2.4595359e-01
 -4.8525658e-02
  4.0389832e-02
 -1.6839192e-03
  8.2467776e-03
 -7.4209161e-02
 -4.5726199e-02
 -5.7789334e-03
 -5.0387431e-02
 -3.1844888e-02
  5.4444834e-03
 -1.9901600e-03
  2.8893366e-02
  3.9726935e-02
  2.4164338e-02
 -4.4587699e-01
  1.3538202e-02
  8.4784621e-01
 -4.6133522e-02
  1.1272311e+00
  3.0537820e-01
 -3.9935035e-01
  1.3349740e-01
 -8.1325635e-02
  2.6126349e-01
  9.6413486e-02
  7.9794519e-02
  1.5266527e-01
 -4.0245265e-02
  4.6389356e-02
  9.3695231e-02
  3.9862692e-01
  2.7275590e-02
  1.4769028e-01
  1.1944256e-01
  5.1361192e-03
  1.6708028e-02
 -3.7211084e-03
  4.2673208e-02
  2.0332853e-01
 -7.4036546e-02
  2.1088753e-02
  2.0924497e+00
 -1.3951911e-01
 -1.5246710e-01
  1.3752796e-01
 -1.6323051e-01
 -1.7113923e-01
  9.7714856e-02
 -2.7915123e-03
 -6.4646464e-04
  3.6619693e-01
 -1.7961590e-02
 -1.2326378e-01
 -5.9488449e-02
 -1.2543197e-02
  1.4830626e-02
 -7.1924605e-06
 -9.5386552e-03
  4.0779751e-02
  6.1126754e-02
  1.7011525e-01
 -6.4170077e-02
 -5.1361699e-02
  6.2740964e-01
 -5.8787372e-02
  6.2299721e-02
  5.1495664e-02
 -1.1292486e-02
  3.7217908e-02
  7.2001047e-02
  5.5284824e-02
  5.3208683e-02
 -9.2733968e-03
  2.4771925e-02
 -6.9469814e-03
 -5.0314568e-04
  1.2787033e+00
 -1.2870219e-01
 -3.0342603e-01
 -1.1494002e-01
 -2.0185582e-01
  5.1587754e-01
 -5.7020330e-01
 -2.6078510e-01
  2.3479694e-01
  2.0205216e-01
 -1.6322654e+00
  4.5762277e-01
 -5.8726645e-03
 -8.6893606e-01
  5.1753350e-02
  6.7803931e-01
  1.6345437e-01
  1.5396161e-01
  4.1185796e-01
  3.5753915e-01
  2.3452081e-01
  3.2969427e-01
  9.3437351e-02
 -6.8287849e-02
 -8.9198714e-01
  6.4098865e-01
  1.0683443e-01
  7.8994465e-01
  4.7955880e-01
 -1.1970770e-01
  1.2738074e-01
  2.2760311e-01
 -1.4684111e-01
  5.1519632e-02
  9.8945129e-01
  4.3200269e-01
  2.1615671e-01
  4.5173550e-01
  3.0232257e-01
 -4.3174756e-01
  1.9668727e-01
  1.3631566e-01
 -5.1426203e-03
  4.0211356e-01
 -4.4057976e-02
  7.2528102e-02
 -7.8696489e-02
  5.1800108e-01
 -1.7245543e-01
 -3.8572058e-02
 -8.6871553e-03
 -1.6782169e-01
  1.6628267e-01
  2.8294483e-01
  5.3843543e-02
  1.9517107e-01
  1.2788720e-01
 -1.5220129e-02
 -6.5401065e-01
 -2.2940867e-02
  1.2932241e-01
  6.4034122e-01
  4.3105181e-02
  2.2321908e-02
 -3.9916672e-03
  7.5465129e-03
  2.8977374e-02
 -3.0544847e-02
  9.7757613e-04
 -5.4134056e-02
 -1.0479959e-01
  6.4504705e-02
 -2.5965443e-02
  9.7743226e-03
  4.1565806e-02
  1.6746366e-02
 -7.0977330e-02
  2.3117978e-02
 -5.0289009e-02
  1.0269599e-02
 -1.0409964e-01
  4.8966527e-02
 -6.0204588e-02
 -3.3634936e-03
 -6.7473173e-02
 -1.0761119e-01
 -4.6806403e-02
  3.6637638e-02
 -1.5006770e-01
  1.1163852e-01
  7.3887236e-02
  1.0496238e-01
 -4.0834874e-02
  6.4475916e-02
 -9.3447626e-02
  2.2535346e-02
 -4.4719779e-01
 -1.6402240e-03
 -6.2325913e-02
  6.5478295e-02
 -2.0312985e-02
  4.1859642e-02
  3.2048881e-02
 -4.5844349e-03
  5.2823115e-02
  3.1431526e-02
  1.5939942e-02
 -8.3603691e-03
 -5.8180601e-03
 -2.8060380e-02
  1.9115802e-02
 -9.7268326e-03
 -2.4162766e-02
  6.9284454e-02
 -3.9296709e-02
 -1.3407805e-02
  3.6344556e-03
  6.2116604e-02
  3.0372337e-02
 -6.2601559e-02
  5.3600226e-02
  3.9560471e-02
 -3.8676601e-02
  1.2250626e-02
 -4.6003997e-02
  8.3210354e-05
 -9.1690412e-03
 -1.2227559e-02
  2.6464216e-02
  5.1753423e-03
  1.3218751e-02
  1.8224901e-02
 -2.1150498e-02
 -3.2915298e-02
 -1.3115612e-03
 -1.5067331e-02
  2.4940649e-02
 -8.5497117e-03
  1.1850310e-01
  5.8114252e-05
 -7.7687800e-03
 -1.6353946e-02
  1.3742251e-02
  1.4833240e-02
 -2.2133384e-02
 -4.1978238e-03
 -3.2665148e-02
 -5.1805592e-04
 -2.2054236e-02
 -2.7551631e-02
  2.7619901e-05
  3.9864462e-02
 -1.0022774e-02
  2.9324891e-02
 -7.4828179e-03
 -2.5073929e-02
  3.8022490e-03
  1.8475650e-02
  2.8910702e-02
  6.1380360e-03
 -8.5820481e-03
  4.2350773e-02
 -1.1533569e-03
  2.4676330e-03
  1.6665112e-02
  2.7641641e-02
 -1.6126793e-02
  1.1389460e-02
  4.8027180e-02
  6.4735459e-03
 -2.1135788e-02
 -9.5341755e-03
  2.4940537e-03
  1.5347907e-02
  1.6118629e-02
  9.7824130e-03
  1.0481172e-02
  2.4943462e-02
  7.0587215e-03
 -3.2334857e-02
 -1.2383134e-03
 -7.1515804e-03
  7.9274895e-03
 -4.2918273e-03
 -2.2801298e-03
  7.9178018e-03
  1.3579657e-02
 -1.1400308e-02
  1.7012404e-02
  5.8643907e-01
  2.6778072e-01
  4.5052654e-01
 -6.0153157e-01
 -4.2215183e-01
 -2.1410364e-01
 -8.4930402e-01
 -6.3406307e-01
  1.1223400e-01
 -8.0669425e-02
 -2.0552246e-01
  1.0264666e-01
  1.0242177e+00
 -7.0121253e-01
  4.5253897e-01
 -1.4609523e+00
  2.1536711e-01
 -2.5352305e-01
  6.5989159e-02
  3.7394783e-01
 -1.5392067e-01
 -2.5602128e-02
  3.8543519e-01
  1.4251556e-01
  2.3921722e-01
  5.3104031e-01
 -2.0971933e-01
  4.1307840e-01
  4.5762065e-01
 -2.6013553e-02
  5.5643296e-01
 -7.0093103e-02
  1.5445441e-01
 -3.1709707e-01
  3.8901266e-01
  3.9002472e-01
  7.1368977e-02
 -3.0297306e-01
 -3.9316010e-02
  1.1610110e+00
  1.8571767e-01
  2.7671549e-01
 -2.0085102e-01
  1.2011526e-01
  7.8113546e-04
 -2.5048882e-02
 -4.2088646e-01
 -1.1599208e-01
 -2.0884718e-01
  1.2123341e-01
 -2.0833753e-02
 -1.0100302e-03
  5.6956768e-02
 -1.4153269e-01
  1.4662538e-01
  2.2843875e-01
 -1.1144047e-02
  1.1046519e-01
  6.3904874e-02
 -5.2019488e-02
  8.4065728e-02
 -6.0955748e-02
  1.2149145e-01
  9.2133182e-01
 -3.7005582e-01
  7.4720925e-01
  2.1291085e-01
 -6.4580774e-01
  3.6173472e-01
 -8.8868499e-01
 -2.2229736e-01
  3.1423405e-01
  6.8820566e-02
  3.5386032e-01
 -6.3285184e-01
  4.4039252e-01
  1.4365596e-01
 -2.2086531e-02
 -9.0138003e-02
 -3.2823376e-02
  4.4377655e-02
 -5.4659331e-01
  2.9929566e-01
  2.9117487e-02
  1.4897759e-01
 -2.0083646e-01
  2.3193508e-01
 -1.1461231e-01
 -5.2173918e-01
  2.0721541e-01
 -9.0723872e-02
 -1.5503738e+00
 -2.3420535e-01
  2.1006601e-01
 -6.6258276e-01
  1.3495392e-01
  7.2931349e-01
  5.3893658e-03
 -1.2135847e-01
 -2.2863247e-02
  5.6612901e-02
  4.5176283e-02
 -6.2848218e-02
 -5.0092751e-01
 -5.0393093e-01
 -1.3359678e-01
  3.8813227e-01
 -4.9784574e-01
 -9.1537245e-02
 -1.4073931e-01
 -3.1950135e-02
 -2.7585030e-02
  8.4197670e-02
 -1.3532238e-02
 -1.0823553e-01
 -1.5431011e-01
  5.1398400e-02
  4.6908927e-01
  8.6178467e-02
 -1.2208290e-03
 -1.2209924e-01
  8.2905039e-02
 -2.1734901e-02
  4.3472582e-03
 -2.3894291e-02
 -1.6325545e-01
 -1.2110401e+00
  9.1584362e-02
  1.6107446e+00
  6.6136628e-01
  2.3855051e-01
 -1.1464026e+00
 -1.9999790e-01
  5.4820693e-01
 -3.0830282e-01
  1.8844400e-01
  4.3250224e-01
 -2.2034667e-01
 -2.7809075e-01
 -2.7308656e-02
  5.6078751e-03
 -1.1159520e-01
  6.6303271e-01
 -1.5569556e-01
 -4.4232267e-01
 -2.3595555e-01
 -2.1650901e-01
 -2.9834267e-01
 -1.3885912e-01
 -9.4276831e-02
  1.2690647e-01
 -2.6994345e-01
 -3.1209594e-01
 -1.7841466e-01
 -5.7482451e-01
 -2.7926993e-01
  2.2818139e-01
 -4.1215938e-01
 -4.9486034e-02
  8.3943658e-02
 -1.9657074e-01
 -1.2754780e-01
 -4.0213950e-03
  2.6359585e-01
 -3.4231785e-01
 -3.3599654e-01
 -4.1999731e-02
 -4.2597663e-01
 -9.9462718e-02
 -2.3142062e-01
 -8.2121551e-02
 -5.8548696e-02
 -7.4178666e-02
 -3.5997752e-02
  1.2694305e-01
 -9.3565853e-03
  4.9477607e-02
  2.7365157e-02
 -7.6063946e-02
 -4.1005317e-02
  1.0580287e-01
  4.5838039e-02
  5.4468890e-03
  4.5799248e-02
  1.6185822e-02
 -4.1193850e-02
 -7.1505778e-03
 -8.1455112e-02
 -5.8305986e-02
 -4.3794431e-02
 -8.4794563e-01
  1.2315245e-02
 -1.2850621e-01
 -5.4123200e-02
 -9.3961932e-02
 -3.6588039e-03
  3.0623984e-01
  8.7339438e-02
  1.0350235e-01
 -3.4438357e-01
  8.4632579e-03
  1.9982174e-02
 -5.9191205e-02
  2.5520295e-02
 -3.4620550e-02
  9.4840946e-03
 -9.9146143e-02
  8.8153102e-02
 -9.5648713e-02
  1.0427014e-01
 -2.3495700e-02
 -4.4971809e-02
  2.1650614e-02
  5.4996740e-02
  1.5155148e-02
 -4.4895481e-02
  2.2476071e-02
 -1.2687728e-01
 -5.8434911e-02
  1.6342513e-02
 -1.0207088e-01
  2.4229839e-02
 -7.2063610e-02
  2.2334257e-02
 -4.0211465e-02
  1.0614093e-01
  1.9636822e-03
 -4.8286929e-03
  3.7072923e-02
  1.4006402e-02
  5.1515169e-02
  5.3211004e-02
  2.7878482e-02
 -5.2624118e-02
  1.7840704e-02
  5.3395972e-02
  2.0672963e-03
  1.9540354e-03
 -3.1501621e-03
  5.5200819e-02
 -4.5766514e-02
  6.7971749e-03
  4.3932885e-02
  2.1745560e-01
  4.8996840e-02
  3.7259553e-02
 -1.3898119e-01
 -3.3154646e-03
  2.1247949e-02
  9.6570356e-03
 -3.3609129e-02
 -4.3170754e-02
 -3.3263075e-01
 -1.4516191e+00
 -9.1914946e-01
 -1.3254473e+00
 -8.9397061e-01
 -1.6834351e-01
 -2.3465565e-01
 -3.9795062e-01
 -6.6660926e-02
  5.1518565e-01
 -1.3246113e-01
  2.2175783e-01
 -6.3893721e-02
  4.0657765e-01
  5.5732813e-02
  2.4239047e-01
  1.1765011e-01
  6.7869109e-01
 -1.1379815e-01
  2.7642173e-01
 -1.2247644e-01
 -1.8451205e-01
 -1.3855256e-02
  4.0434715e-03
  7.9764120e-02
  1.1998497e-01
  6.2690610e-01
  5.3032484e-02
 -3.1968787e-02
  3.6870625e-02
  9.5052660e-01
 -2.5146821e-01
 -2.7721405e-02
 -2.6093116e-01
  1.5868311e-01
 -1.0224552e-01
  3.8910940e-01
 -7.1467721e-01
 -4.3447204e-02
  6.4127010e-01
  7.5534672e-02
  2.5360003e-01
 -9.8771560e-01
  8.7329939e-02
  2.5507781e-01
  1.0759595e-01
  9.1904998e-03
  1.3086371e-01
 -4.0381175e-02
 -1.0911153e-01
  5.1573522e-02
 -7.8034945e-02
  1.2298868e-01
  3.3151230e-01
  6.4999759e-02
  1.2915590e-01
  1.2064904e-01
  8.0069520e-02
  1.0167727e-01
 -3.2079212e-02
  5.0895460e-02
 -4.2123381e-02
  2.6744165e-02
 -1.0296411e-02
 -2.9647499e-03
  1.0004942e-02
  2.5202587e-02
  7.0690319e-02
 -1.5092542e-02
  3.1415871e-03
  1.0086355e-01
 -1.1887636e-01
 -5.2979603e-02
  1.1945203e-03
 -8.7621780e-03
 -1.7280318e-02
  2.6290612e-02
 -3.8993649e-02
  1.9856103e-02
 -4.3700770e-02
  8.3041966e-02
 -1.7010739e-02
  3.1460028e-02
  8.6804666e-03
  2.7999360e-02
  1.5876875e-03
  2.7966902e-02
 -2.0306404e-01
  3.6270274e-05
  3.0411326e-03
 -4.1649647e-02
 -1.0952649e-03
 -1.5113377e-03
 -2.4883464e-02
 -1.2547920e-02
 -1.2377679e-02
 -4.8462007e-02
  8.6908825e-03
  6.5694928e-02
 -5.8510292e-02
 -1.7989820e-01
 -8.7104822e-03
 -8.3907671e-02
  1.8639635e-01
  3.5187993e-02
 -2.5788719e-02
 -2.2954326e-02
  8.8445442e-03
  1.2085116e-02
 -3.3965677e-03
 -4.0038280e-02
 -7.8026436e-02
  3.9109636e-02
  2.3235444e-02
  3.8179502e-02
 -1.5469343e-02
 -6.3632173e-03
 -5.9835084e-02
 -6.5075755e-03
  6.2658773e-03
 -3.7016370e-03
 -1.4013329e-02
  4.8204763e-03
 -3.6910450e-01
  1.3289319e-02
 -9.2953816e-03
 -2.6588958e-02
  2.6094997e-01
 -1.0660262e-02
 -1.8303800e-02
 -3.6067799e-02
  1.2154888e-01
 -3.4741743e-03
 -1.0222451e-01
 -2.4119137e-02
  1.9686081e-02
 -9.5286053e-03
  3.7294853e-02
  9.4826212e-03
 -4.3878466e-02
 -8.4250832e-01
  3.1419465e-01
  1.2352630e-02
 -3.0944979e-02
  4.8327791e-03
 -6.7940660e-02
  2.6243927e-02
 -2.8165845e-02
 -7.7960305e-03
 -1.9074764e-02
 -1.0298717e-02
  1.2728433e-03
 -2.5981052e-02
  5.6978930e-03
 -2.7452798e-03
 -3.8529281e-02
  2.2479730e-02
 -2.9873906e-02
 -7.6504958e-01
 -8.2710180e-03
 -2.6388606e-01
  2.1574991e-03
  3.1292886e-02
  4.9652159e-03
 -4.7426997e-03
  3.8470649e-03
 -1.0057782e-02
  3.5652888e-03
  4.0834758e-02
  2.4924302e-02
 -6.3757965e-04
 -2.3973957e-02
 -2.9505340e-02
  7.7534270e-01
 -1.2144173e-02
  2.9077104e-03
 -2.2054486e-02
 -2.9797580e-02
 -7.2216247e-03
  2.0028489e-02
  3.9167795e-02
  1.8738121e-03
  1.5228761e-02
  1.5782533e-02
 -8.4782559e-03
  1.7204365e-02
  1.2666611e-02
 -2.3697656e-02
 -1.4544476e-02
  1.6344362e-01
 -1.8330051e-02
 -2.6767156e-01
  5.2804388e-02
 -6.2405860e-01
 -7.4075080e-02
  2.1480240e-01
 -2.0968269e-01
 -1.0042462e-01
 -2.7353811e-01
 -2.8490834e-02
  2.2477264e-02
 -1.0240655e-01
  6.3484825e-02
 -1.4979800e-02
  7.0000030e-02
  2.9273367e-02
 -4.1644454e-02
 -6.5787040e-02
 -1.1971868e-01
 -3.7380345e-02
  5.7064556e-02
 -1.5463044e-02
  2.1740831e-02
  8.2289837e-02
 -2.6362984e-02
  1.9772271e-02
 -7.9241633e-02
  3.1420794e-01
  5.2395437e-02
 -5.8337249e-02
  3.7526798e-02
 -4.7762614e-02
  5.3229112e-02
 -2.9666115e-02
  1.4645642e-01
 -8.7590262e-02
  4.1941263e-02
 -4.8566964e-02
  1.8462771e-01
  5.6387000e-03
  9.5753290e-02
 -2.1036808e-01
 -6.2319435e-02
 -1.4261427e-02
 -1.8160461e-02
  2.6519950e-02
 -3.8489006e-02
 -1.9370947e-02
  3.0209981e-02
 -2.4036886e-02
  3.0038636e-02
  5.9533613e-03
  3.7384640e-02
 -7.2130159e-02
 -3.9730184e-02
  1.0564364e-02
 -4.0299587e-02
 -2.2096053e-02
  4.2236827e-02
 -1.8361313e-02
  3.7431955e-02
  5.2781865e-02
  3.7768346e-01
  2.5088161e-01
  7.1883607e-01
 -6.0363328e-01
 -2.4989638e-01
 -1.5410695e+00
 -2.0835130e+00
 -7.3790088e-02
  1.0920817e+00
  2.2291955e-01
  1.6848555e-01
  4.5288187e-01
 -8.8638443e-01
 -2.5845155e-01
  2.5616050e-01
  2.8912185e-02
  4.9527475e-01
 -8.8717067e-01
 -3.4691653e-01
 -5.0984263e-01
  4.6547589e-01
 -1.4101375e+00
  2.0139413e-01
  8.6175650e-02
  5.5957717e-01
 -4.1079211e-01
 -2.9527789e-01
 -1.0182675e+00
 -5.1123816e-01
  3.9608619e-01
 -5.2391016e-01
  1.5414305e-01
  6.2354702e-01
 -5.5770016e-01
 -9.2354804e-02
 -6.7045130e-03
 -1.0137712e-01
 -6.3305420e-01
  1.6597249e-01
 -6.2107366e-01
  1.1064355e+00
 -2.8085816e-01
 -5.3251624e-01
 -2.7797121e-01
  9.7621717e-02
 -1.5396307e-01
  3.1679380e-01
 -1.1105938e-01
  3.4922460e-01
  4.7751326e-02
  6.9557384e-02
  8.1516765e-02
 -1.3389036e-01
 -9.0460680e-02
 -1.4198008e-01
 -6.4889714e-02
 -6.5405201e-04
 -3.0115368e-02
 -4.9428330e-03
  9.1223203e-02
 -6.8657674e-02
  1.1299004e-01
  3.9706713e-01
 -1.8453459e-01
 -2.0440891e-01
 -4.3360133e-02
  3.5262596e-02
 -1.3684618e-01
  1.6987988e-01
 -1.7385834e-01
 -4.1572174e-01
  1.7887351e-01
  1.5798120e-01
  4.9999285e-02
 -3.9860800e-02
 -2.0044015e-01
 -6.7607053e-02
  2.3514368e-02
  4.8873249e-02
  5.0071698e-02
  1.7882721e-02
  5.9623271e-02
  3.9871119e-02
  1.2502616e-03
 -9.1425799e-02
 -6.9934256e-02
  8.7815095e-03
  7.3379971e-02
  7.6218881e-02
  3.0887786e-02
  9.5851772e-02
 -5.5914786e-02
 -4.9501769e-02
  3.6939885e-02
 -7.2603039e-02
  6.8697043e-02
 -5.2262533e-02
  4.6581678e-02
 -4.2341556e-02
  7.8435235e-02
 -1.6123009e-01
  5.1010847e-02
 -4.3204553e-02
 -8.2411215e-02
 -2.5420127e-02
  4.9525686e-02
 -4.7167536e-02
  4.6536185e-02
  8.1295073e-03
 -3.8399678e-03
  5.5995822e-02
 -1.6009171e-03
 -1.2099071e-02
  1.5106203e-02
 -5.3108867e-02
  2.6706301e-02
 -8.2637928e-03
  5.9521254e-02
  6.1818585e-02
  3.9754588e-02
  5.2635666e-02
  3.5030682e-02
 -2.6336560e-02
  4.0368993e-02
 -2.6559299e-02
 -5.0482452e-03
  5.7073947e-02
  3.6378667e-02
  4.8570827e-02
 -9.8575771e-02
  1.2755407e-01
 -8.6370870e-02
 -6.6693269e-02
 -9.3446440e-01
 -2.0876953e-01
 -1.4459671e-01
 -2.6456049e-01
  1.0583445e-01
 -2.2367015e-02
 -2.3030564e-01
  2.1800381e-01
 -2.4354471e-01
 -3.0470705e-02
 -1.6037989e-01
  2.6341981e-01
  3.3845517e-01
  1.1761165e-01
  2.3913869e-01
  1.4854245e-01
  1.2576493e-02
 -2.4745786e-01
  3.6926582e-01
  2.3811390e-01
 -6.2358815e-02
  1.4960565e-01
  1.5818988e-01
  3.8934376e-02
 -4.9692295e-03
 -5.5460248e-04
 -2.1409453e-01
  2.0834509e-02
 -1.9363652e-01
  8.2706347e-02
  7.2660103e-02
 -1.0501304e-01
 -1.9516176e-01
 -6.7343116e-02
  1.0413543e-01
 -1.0332445e+00
 -4.3073919e-02
  3.1670523e-01
  7.9044551e-02
  1.9517629e-01
  1.5828561e-02
  4.5533735e-02
 -1.1187660e-01
  1.6031940e-02
  2.8864404e-02
  1.3070881e-01
  1.8493789e-01
 -9.1745675e-02
 -2.6770692e-02
 -5.0716806e-02
 -4.5154873e-02
 -5.6905679e-02
  6.0427617e-02
  8.8620344e-03
  2.6316453e-02
  1.1256094e-02
 -2.0830163e-01
 -9.7397054e-03
  2.6249424e-02
  5.4489511e-01
  3.7822935e-01
 -4.6151763e-01
  3.4470063e-01
 -2.5924158e-01
 -3.5581551e-03
 -3.1985775e-02
 -1.4470358e-01
 -5.3481705e-02
 -2.0419119e-01
  3.7952818e-02
 -7.1004249e-02
  1.4580700e-01
  7.4405032e-01
  1.1900529e-01
 -1.8365093e-01
 -3.4768501e-01
  2.4752837e-02
  4.6685547e-02
  1.8479520e-01
  1.5117186e-02
 -7.9371020e-02
 -3.4187146e-02
 -2.8070423e-01
 -1.3782802e-01
 -3.6453229e-01
  1.2242967e-01
  4.2736594e-02
  1.1669420e-01
 -2.0485529e-01
 -1.7028786e-01
 -1.6656731e-01
  1.1077840e-01
 -5.8828320e-02
  2.1025863e-01
 -9.0356581e-03
  1.4009522e-01
  1.6002233e-01
  3.3947667e-03
 -3.2094228e-01
 -1.0184207e-01
  2.4137616e-01
 -5.2698543e-03
  1.2463209e-01
  1.2002853e-01
  3.0145980e-03
 -4.5541976e-02
 -6.6199377e-02
  6.5086079e-03
  2.8561184e-02
  5.6559466e-02
 -6.8406418e-02
 -4.3990836e-02
 -4.6807479e-02
 -3.2477595e-02
 -3.7144314e-02
  2.8721957e-02
  4.8405085e-02
  8.0623357e-03
  1.5571815e-01
 -1.7172855e+00
 -1.6060892e-02
  3.4390953e-01
 -8.2593575e-02
 -5.5554277e-01
  6.8385750e-02
 -1.5536143e-01
  5.6981504e-01
  1.5121071e-01
  1.2557149e-01
  6.4227208e-02
 -2.1889942e-02
 -4.4414904e-02
 -1.0172263e-02
  3.4415342e-02
 -2.7750429e-02
  1.0400340e-01
  4.7294897e-01
 -8.1168421e-02
  1.3422313e-01
  2.5146729e-03
  9.3742441e-03
 -5.0555281e-02
 -1.1331857e-02
  8.7205648e-02
  1.2939066e-01
 -7.8819953e-02
  1.1570349e-01
 -8.5938446e-02
 -2.3435682e-02
 -2.2025604e-02
 -1.7558917e-01
 -8.6290553e-02
 -2.8527093e-01
  1.0781296e-01
 -1.9631214e-01
  8.2290173e-02
 -4.8202768e-02
  9.2902213e-02
  1.3699763e-02
 -4.6161014e-01
  1.2642686e-01
 -8.8250481e-02
  1.3893265e-01
  1.1930207e-01
  1.5668932e-02
  1.0907865e-01
 -1.2670380e-02
 -2.2633812e-01
 -4.8656937e-02
  4.4082928e-02
 -6.0987975e-02
  9.0955431e-03
 -3.2057410e-01
  5.9710946e-02
  3.3396599e-01
  1.2499866e-02
  4.1990396e-02
 -1.1804807e-03
 -1.8287163e-02
  6.5390944e-02
 -3.6000017e-02
  8.9931093e-02
 -2.9000339e-01
  4.7042340e-02
 -5.7768548e-01
 -6.6804415e-01
 -5.8672273e-01
  5.8611305e-03
  1.0656187e-01
  1.4825625e+00
  2.5388476e-01
 -7.7658817e-02
 -2.5846453e-03
 -6.5883450e-02
  1.2850547e-01
  1.5555165e-02
  1.4488964e-01
 -1.4239985e-01
 -1.6027071e-01
  4.1143265e-02
  9.2631184e-02
 -4.6307740e-01
  1.1577412e-01
 -1.0759241e-01
 -2.1055295e-01
 -2.5950812e-02
  2.5754732e-03
 -1.8404816e-01
  3.0449053e-02
  7.9929382e-02
 -3.0093655e-01
 -8.9282431e-02
 -9.3746889e-01
 -7.5084764e-01
  5.9027165e-02
 -4.0316139e-03
  6.7790292e-02
 -2.2994487e-01
  2.3555215e-02
 -2.9644600e-01
 -5.7853147e-02
 -2.5333187e-01
 -2.4865548e-01
  2.6954113e-02
 -1.9082880e+00
  4.4096160e-01
 -6.8479180e-02
  1.9771386e-02
 -5.5674754e-02
  6.5468587e-02
  8.9605078e-02
  4.1482273e-02
 -4.3518543e-02
 -4.5900527e-02
  5.3705290e-02
  7.3010899e-02
 -7.6127541e-03
  1.9500195e-03
  6.9712467e-02
  3.5438815e-03
 -2.2253707e-02
 -1.7829491e-02
 -9.3877949e-03
 -1.3550634e-02
 -1.8222672e-01
 -1.5687274e-02
 -4.0929355e-02
 -1.5206860e-01
  8.6385675e-02
 -4.4781435e-02
 -2.5446037e-02
  1.6199989e-02
  4.0018186e-02
 -9.4003581e-02
  6.2384486e-02
  1.6195668e-02
  1.2528592e-02
 -2.7099881e-02
 -2.4895974e-02
  1.5067258e-02
 -2.2276949e-02
  5.0169691e-02
 -5.5806801e-02
 -1.1231720e-02
  8.7645128e-03
 -1.2643481e-02
 -5.2068934e-02
 -3.3644110e-02
 -2.8233871e-02
 -1.9441683e-02
 -1.6972614e-02
 -3.3916589e-02
  3.5987023e-02
 -6.2979490e-02
 -4.2710390e-02
  3.9011251e-02
 -2.7018556e-02
  1.6161002e-02
 -5.5498414e-02
 -9.1995485e-03
 -3.5727296e-02
  3.2348976e-02
 -3.7184056e-02
  9.6318601e-03
 -7.3481478e-02
 -3.7062857e-02
  5.6799939e-03
  7.8690417e-02
  3.2593768e-02
 -1.2099321e-02
  1.9930340e-03
 -1.5889270e-02
  2.6709561e-03
 -5.9481631e-03
 -2.3820621e-03
  2.0468228e-02
 -1.5174331e-02
  9.0708947e-03
  3.2175787e-02
  6.4291768e-02
  3.5921793e-02
  5.9999102e-03
  1.8527620e-02
  9.0093771e-04
  6.7413207e-03
  9.4697000e-03
  5.8729420e-03
 -6.9828407e-04
 -2.9172400e-01
 -3.0691895e-01
  1.7306764e-01
  5.7307833e-01
  3.9198756e-01
  7.8485757e-01
 -5.8563720e-02
 -8.3491486e-01
 -1.6513212e-01
  2.2532609e-01
 -2.6820657e-01
 -3.2852563e-01
  1.2874161e-01
  3.0570513e-01
  1.3855791e-01
 -8.2545102e-01
 -1.9152135e-01
 -1.4107342e-01
  2.7187911e-01
 -2.1180740e-01
  3.0518952e-01
 -1.7135923e-01
  6.1715554e-02
 -4.6846088e-02
  3.0589724e-01
  3.2626703e-01
 -3.8091773e-01
  3.0235788e-01
  7.1397550e-02
  8.6564384e-02
 -6.8469357e-01
 -5.9749722e-01
  2.5334442e-01
 -3.8215771e-01
  2.1988417e-01
  8.9967236e-02
  2.7781257e-01
 -2.1531630e-01
 -1.8523116e-01
  1.7312862e+00
 -3.6709723e-01
  1.9191068e-01
  1.1355001e+00
  2.2932714e-01
  1.0861995e-01
  7.7575587e-02
 -2.4614779e-02
  1.5829283e-01
 -1.0223208e-01
 -9.8075382e-02
 -8.5730236e-03
  2.8144425e-01
  7.0124805e-02
  1.4780797e-02
  6.2163096e-02
 -5.2606814e-02
  2.8049601e-02
 -1.8125307e-02
 -5.2555904e-02
  1.0851160e-01
  4.1486621e-02
  1.6347064e-02
 -1.3449937e-01
  1.8285310e-02
 -6.8013268e-03
 -4.3821000e-02
  4.5288935e-01
  3.8056879e-03
  4.0104970e-02
  4.1103140e-02
  3.4736458e-02
 -4.3016572e-02
 -3.4187429e-02
  1.7710444e-02
 -1.2855294e-02
  1.2841776e-02
  1.0332010e+00
  9.9944128e-03
  1.2847505e-02
  3.5006523e-02
  6.2821396e-02
  3.4032618e-03
 -5.6914661e-02
  3.2563634e-02
  1.5158840e-02
  3.4347408e-02
  6.0791090e-02
 -3.9518043e-02
  9.4667412e-03
  2.3046602e-02
  1.7314638e-01
  2.8794823e-02
  2.0227928e-02
 -6.5832071e-02
  2.9536495e-02
 -2.2745064e-02
  7.3750969e-03
 -3.4372333e-02
  5.9331179e-02
 -4.8611727e-02
  2.6938464e-03
 -1.9258603e-02
 -3.0800171e-02
 -1.1043928e-03
 -5.0145632e-01
 -6.3875623e-02
  9.9207118e-02
 -1.5714856e-02
  5.0186929e-03
 -3.6423577e-03
  4.8187978e-04
  6.0296613e-03
  8.0199270e-03
 -2.0251909e-02
  9.2431018e-03
  1.0171245e-02
  7.2419504e-03
  3.8982898e-03
  1.2687953e-01
 -2.7329046e-02
 -1.1089733e-02
 -2.3505662e-02
  1.4987101e-02
  1.6792262e-02
  1.5557135e-02
  2.0290220e-02
  1.6728094e-02
 -3.3578631e-03
 -1.9905204e-02
  4.3617040e-03
  1.6228780e-02
 -2.3552088e-02
  2.8966147e-02
 -4.5524868e-03
  6.2923487e-03
  2.5298255e-02
 -3.1507700e-03
  1.7857434e-02
  1.2919237e-03
  6.6781873e-03
 -3.8944069e-02
  2.5638873e-02
  2.4889294e-02
  2.8393332e-02
 -1.4152703e-02
  1.3086132e-02
  9.2023939e-02
  1.8671356e-02
  1.5377807e-02
 -1.6953802e-02
  1.8962443e-02
  1.5836259e-03
  1.1272379e+00
 -1.6794862e-02
  7.9813069e-03
 -4.6786394e-02
 -1.3722660e-02
  3.1605329e-02
  2.7710602e-02
 -6.3773338e-03
 -6.6306867e-02
  6.6888202e-03
 -6.8888655e-03
  2.2706029e-03
  1.7293505e-03
 -3.2243825e-02
  2.8357850e-02
 -5.2456398e-02
  2.5577918e-02
 -1.5188269e-03
 -2.4108125e-02
 -3.5043515e-02
  9.8374579e-03
 -6.2611098e-03
  1.1230484e-02
  2.2957441e-01
 -1.6634986e-03
 -4.3794080e-03
 -6.0718000e-04
 -2.4885047e-02
  6.6248095e-03
 -1.8756963e-01
 -7.3921494e-03
 -1.7075997e-02
 -2.4066931e-02
  2.5484951e-02
 -4.7415197e-03
 -1.6980788e-02
  1.2555289e-02
 -2.9417309e-01
  8.3168663e-02
  3.4561205e-01
  2.2604667e-01
  2.0322612e-01
  1.0165764e+00
  6.8923545e-01
  7.0168447e-01
 -4.9127512e-02
  1.4380629e-02
 -3.2128569e-01
 -6.4598942e-01
 -1.0875384e-01
  3.9428881e-01
 -4.6709087e-01
 -3.4144157e-01
  2.5983954e-02
  2.0051534e-01
 -6.3523397e-02
  2.2936097e-01
 -1.4866996e-02
  1.4265816e-01
  1.2261041e-01
  8.4786057e-02
 -7.4206263e-02
  1.9656219e-01
 -1.1128627e-01
  1.6982454e-01
 -4.1301823e-01
  1.8486039e-01
 -5.0326031e-01
  3.0952987e-01
  1.1144678e-01
 -1.5533507e-01
  8.4158339e-02
 -3.7957397e-01
 -9.9551240e-03
 -9.0312904e-01
  2.3240613e-02
  3.7231989e-02
  2.0305460e-02
  6.6166878e-02
  1.5261082e-01
 -1.7264923e-02
  2.0849732e-01
  6.2928349e-02
 -8.7878481e-02
  2.0874389e-03
 -1.2678997e-01
 -7.9591367e-03
 -3.3946745e-02
  3.0770319e-02
  1.3889793e-01
 -8.4917709e-02
 -1.7652761e-02
 -2.9354787e-02
 -6.2113855e-02
 -6.2106971e-02
 -6.1436426e-02
 -1.2281262e-02
 -2.4185272e-02
  2.4208112e-02
 -1.4984378e-02
  8.5673511e-01
  8.8168859e-02
 -3.9125064e-01
 -5.0587946e-01
 -1.6732706e-01
 -2.5591594e-01
 -1.1476822e-01
  1.2316201e+00
  1.6626076e-01
  6.4518914e-02
 -2.1934590e-01
 -1.4751132e-01
 -2.2415897e-02
  1.5449692e-02
 -6.2547058e-02
  1.1705180e-01
  3.4613286e-03
  2.2606710e-01
  2.3770948e-01
 -1.3973817e-01
  4.1762134e-01
  9.9320658e-02
  6.0283832e-02
  9.9666223e-02
 -2.5847020e-02
 -9.3048222e-02
  6.0843308e-02
  2.1653908e-01
 -1.0584296e-01
  4.5675997e-02
 -2.7659380e-01
 -1.4679124e-02
  1.9900162e-02
 -7.2386809e-02
  1.5055773e-01
  4.0425158e-01
  6.9604300e-02
  3.9295805e-01
  1.7660478e-01
 -1.9186109e-01
 -7.9181343e-02
 -1.2451891e-01
 -3.5571897e-01
  1.8863449e-01
  3.4576821e-01
 -5.2446448e-03
 -1.0109682e-01
  7.4419998e-02
 -1.8979134e-01
  3.5623875e-02
 -3.6497816e-02
 -4.7159046e-02
  3.5134096e-02
  1.1128015e-01
  3.9834414e-02
  2.0753802e-03
  2.3591269e-02
 -1.8943956e-02
 -2.1567428e-02
 -1.5046797e-02
  4.0022857e-02
 -1.3831547e-02
 -3.9931647e-02
 -7.7355847e-02
 -5.6121540e-01
 -6.7338854e-02
  3.4991962e-01
 -1.9123640e-02
 -2.4963652e-01
 -3.3428859e-02
 -3.0450070e-01
 -7.7276669e-02
  1.0851424e-01
  2.7999470e-01
  8.2290750e-03
  2.3941596e-01
  1.2315907e-01
  2.6804224e-01
  1.6257654e-01
  1.8814267e-01
 -1.1740201e-01
  1.9069126e-01
  1.1251129e-02
  1.7493746e-01
 -3.5837378e-02
  2.4292412e-01
 -2.4070980e-02
  7.7769011e-03
 -6.8690903e-02
 -1.7096739e-02
  1.3052756e-01
  4.9542196e-02
 -3.9570618e-01
  3.7483033e-02
  3.2328073e-02
 -3.3146489e-04
 -8.7313540e-02
  6.0769692e-02
 -1.9199148e-01
  6.2718466e-02
 -1.6272898e-01
  2.6703497e-02
 -2.5000226e-01
  8.8488095e-02
 -6.7959070e-02
  9.5417827e-02
  1.2875265e-01
 -1.9903174e-01
 -3.0951574e-02
 -2.4339812e-02
  5.3950660e-02
  2.0323630e-02
 -2.6956661e-02
  3.9175104e-02
 -9.2534870e-02
 -8.5986070e-03
  8.5619047e-02
  3.2089725e-02
  4.9648825e-02
  7.3501289e-02
  3.8111579e-02
  4.5860555e-02
 -1.7820077e-02
 -1.7736748e-02
 -5.9836462e-02
 -6.3759506e-02
  1.5811427e+00
 -1.4930898e+00
 -8.0085582e-01
 -5.4701281e-01
 -1.8735898e+00
  1.1821908e-01
 -1.9253259e+00
  1.0105389e+00
  2.0170929e+00
  7.6529974e-01
  8.9447677e-01
 -1.6480979e-01
 -2.1529058e-01
 -2.3696169e-02
  6.2249976e-01
 -5.7312500e-01
  7.3515779e-01
  5.0789350e-01
  5.8411247e-01
 -4.7755101e-01
  3.7553722e-01
 -1.1957880e+00
 -5.3684652e-01
  4.3777826e-01
  1.1421747e-01
  6.6269511e-01
  1.4379303e-01
  9.7535104e-02
  1.0847079e+00
  1.7301548e-01
  1.3227355e-01
  4.1320148e-01
  5.5521512e-01
 -3.5117388e-01
  1.1710388e-02
 -7.7546000e-02
  8.3803904e-01
 -6.7010158e-01
  2.3620179e-01
  1.1479748e+00
  7.6844621e-01
  3.8398126e-01
 -4.3219569e-01
  1.5463221e-01
 -1.0304666e-01
  1.0869046e-01
  5.3854096e-01
  7.8268204e-04
  5.8450514e-01
 -3.5743365e-01
  2.1365616e-01
  4.1907810e-02
  1.3935214e-01
 -1.0974140e-01
 -1.3081689e-02
  1.7185669e-01
 -7.9201296e-02
  1.1308359e-01
  9.1645643e-02
  1.2270961e-01
 -4.1107208e-02
  9.3682803e-02
  9.7378910e-02
 -9.2889639e-03
 -1.5725231e-02
 -1.9337792e-02
  2.9733824e-02
 -2.0543214e-02
  1.1827607e-03
  6.0079824e-03
  3.0518442e-02
  4.1576433e-03
  2.5031745e-02
  3.1666853e-02
 -2.8259545e-03
 -1.8871272e-02
 -2.3799403e-02
  1.9048601e-02
  2.4239609e-03
  2.7463436e-02
 -9.8601552e-03
  1.6435821e-02
  2.7071403e-02
 -4.2593706e-02
  9.4930157e-02
 -1.4373859e-02
  2.9102452e-02
  2.2869283e-02
 -4.5393217e-02
  2.8496903e-01
 -7.0151924e-03
 -8.2346490e-03
 -6.7465925e-03
 -1.1043087e-02
  1.1564922e-02
  2.4786476e-02
 -9.0251025e-03
  1.3914246e-02
 -2.3873642e-02
  1.4438324e-03
  7.6725408e-02
 -2.2700059e-03
 -9.7028762e-03
  9.1277407e-03
  2.6237721e-02
  1.2250419e-02
 -7.5421585e-03
 -2.5694204e-02
  1.5406960e-02
  7.7767586e-03
 -1.3200390e-02
  9.1780890e-03
  4.9845818e-02
  2.5167847e-03
  8.8069309e-03
 -1.5405993e-03
  3.1952846e-03
 -4.2259791e-03
 -2.4267213e-02
  2.0758510e-02
  2.2459857e-02
  1.8986126e-02
  7.6935221e-03
 -1.8226106e-02
  1.4214487e-02
  1.3584645e-02
 -3.3657873e-01
 -7.0092618e-01
  8.9593709e-01
  1.6043712e+00
  3.8917267e-01
  3.5699558e-01
  5.2629447e-01
 -1.2112894e+00
  2.1565054e-03
 -6.9960825e-02
 -5.2575245e-03
 -1.5156521e-02
 -2.7845773e-01
 -3.2430835e-02
 -1.4404367e-01
  3.0321476e-01
  1.3609195e-01
 -8.6066835e-02
 -3.0001253e-01
  2.1344191e-01
 -8.6043996e-01
 -3.0579722e-01
 -7.9969190e-02
 -2.3408723e-01
 -4.6614453e-01
  1.5136988e-02
 -1.0843961e-01
 -4.0040320e-01
 -4.1895127e-01
 -2.3704307e-01
  5.9444720e-01
  2.0062588e-01
  2.8752008e-02
  1.6474099e-01
 -3.2501796e-01
 -5.6712282e-01
 -1.9455598e-01
  3.0417275e-01
 -7.4244547e-03
 -1.5391654e-01
 -1.5139653e-01
  5.9651679e-01
  9.5848435e-01
 -3.1494090e-01
 -4.7668797e-01
 -4.4195388e-02
  7.1528710e-02
 -6.5751523e-02
  2.3396996e-01
 -1.5399582e-02
  5.7924427e-02
  8.6195707e-02
 -1.0819969e-01
  5.4834616e-01
 -1.2746425e-02
  9.1258623e-03
 -4.2329744e-02
  3.5229480e-04
  2.3378402e-02
 -9.9772960e-02
 -2.7643766e-02
 -9.4224624e-03
  9.4357945e-02
 -3.4477550e-01
  2.0329779e-01
  4.2926085e-01
  4.7687721e-01
  8.8048345e-01
  1.0589119e+00
  9.2520791e-01
  1.9477800e-03
 -1.3759606e+00
  1.1232344e-01
 -3.0145854e-01
 -2.7718714e-01
  1.7858538e-01
  9.5490134e-01
  3.7405521e-02
  7.5526494e-01
 -1.3470502e+00
 -4.6189678e-01
 -9.6695572e-01
  2.0803997e-01
 -4.1914108e-01
  2.1427178e-01
 -1.7373276e-01
  4.7873434e-01
  2.2817070e-02
 -1.6670888e-02
 -2.0898633e-01
 -1.3572458e+00
 -6.9973087e-01
 -6.6715759e-01
  3.0336064e-01
 -1.9776290e-02
 -4.2547679e-01
  1.6045703e+00
  1.5253013e-01
 -4.6895754e-02
 -1.0233190e+00
 -8.3127264e-03
 -1.5111203e-01
  2.4976363e-02
  1.7905114e-02
  1.0594779e-01
  1.5425691e-01
 -1.1072797e-01
 -3.9370099e-01
 -7.1576290e-02
 -5.7288621e-02
  1.5253426e-01
 -4.1817176e-01
 -8.3423316e-02
 -7.3994368e-02
 -3.8954131e-02
  1.9969738e-01
  4.3857780e-01
 -2.7985314e-01
  2.9475384e-03
 -1.3533501e-01
 -1.0854964e-01
  4.9093008e-02
 -1.2928220e-02
  2.7016787e-02
  6.7206949e-02
 -5.0506685e-02
  6.5989322e-03
 -1.5525214e-01
  2.7393815e-01
 -1.3005891e-01
 -8.3577752e-02
  4.3378316e-02
 -1.5832260e-02
  2.5190747e-01
  4.7778137e-02
  1.0575911e-01
  6.6883676e-02
  4.9805325e-02
  3.2917726e-01
 -1.3302341e-01
  7.3349632e-02
  3.5318960e-02
  7.0565320e-03
 -2.7655238e-01
  1.4488854e-01
 -1.2820731e-01
  6.2056847e-02
 -6.7663655e-02
 -3.4451466e-02
 -8.3175398e-02
  2.5538024e-02
  3.0248085e-02
 -2.2594102e-02
  2.6482940e-02
 -2.2097810e-01
 -7.7806741e-02
  1.6482061e-01
 -1.4725611e-01
  6.2906377e-02
 -1.0291662e-01
  9.9131927e-02
  6.3546024e-02
  5.0605333e-01
 -1.4875759e-01
  3.4412738e-02
 -9.9319994e-02
 -1.5762220e-01
  6.6392757e-02
 -1.7985179e-01
  5.3145241e-02
  1.7130977e-03
  2.5334368e-02
 -4.0727392e-02
  2.4924984e-02
  1.8361205e-01
 -2.4550652e-02
  4.4842094e-02
 -7.6580629e-02
  2.0318108e-02
  4.1532099e-02
  3.5577759e-02
  5.2631915e-02
  6.0506038e-02
  3.5629779e-02
 -5.2294801e-03
 -3.6347091e-02
 -3.0870517e-03
 -3.1362616e-02
  4.3007395e-01
 -1.8914390e-01
  1.3235071e-01
  1.2578116e-01
  8.2252514e-01
  1.7513935e-01
  5.8930147e-02
  9.0739980e-02
  9.1333276e-01
  8.8475831e-02
 -1.0322241e-01
  8.0389589e-02
  3.0210104e-02
  2.7185872e-01
  2.9747683e-01
  8.0848195e-02
 -1.0040756e-01
  1.0495767e-02
 -9.1889523e-02
  2.3686865e-02
  2.0951903e-01
  1.6689979e-01
  1.0235725e-01
  1.8391934e-01
 -1.1303800e-01
  9.7866118e-02
  6.4162925e-02
  1.3781728e-01
 -4.3611288e-02
  6.4200073e-02
  2.6530564e-02
 -8.5068464e-02
  1.5124220e-01
 -9.2555739e-02
 -5.1804189e-02
  1.0051571e-01
 -1.6108327e-01
 -6.3577458e-02
 -4.1030951e-02
 -1.6331855e-02
 -1.6269948e-01
 -9.0136051e-02
  9.0736225e-02
 -1.0559146e-01
 -2.7849287e-04
 -4.4222269e-02
 -2.0860354e-03
  4.9179107e-02
 -5.2094638e-02
  1.7738184e-02
 -1.0795154e-02
  5.6081895e-02
 -1.1681758e-02
  2.7554743e-03
  8.3162650e-02
 -2.3215869e-02
  1.5222454e-02
 -1.4193024e-02
  2.8076037e-03
  2.9815609e-02
 -7.0801517e-03
 -1.2378817e-02
  5.1864781e-03
  8.0214087e-03
  1.2035248e-01
 -1.6055459e-02
  3.1671776e-03
  8.6161427e-02
 -2.6418759e-02
 -3.5446156e-02
 -5.6108329e-03
  1.8135572e-02
  5.0895292e-02
  8.6671077e-02
  3.7348934e-02
 -4.0094070e-03
  9.1165751e-03
 -1.1773874e-02
  1.7148076e-02
  4.8281119e-04
  6.0157772e-02
 -6.0456712e-02
  3.0871617e-02
 -4.1537188e-02
  1.5411031e-02
 -6.5165654e-02
  1.1677176e-01
 -3.9875094e-02
  4.8651680e-02
  3.5733581e-02
 -2.2155408e-02
  4.7932893e-02
 -7.7546812e-03
 -3.4554169e-02
  1.9507494e-03
 -2.7127476e-02
  1.5538906e-02
 -3.0343886e-02
  8.9289285e-03
  5.8045286e-01
  8.1530809e-03
 -9.9986056e-03
  9.2527242e-03
  1.5669851e-01
 -5.7718968e-03
  6.1842881e-02
  5.6986589e-02
  3.6586359e-02
 -3.2559868e-02
  1.4290109e-03
 -1.2356909e-02
  3.1154668e-02
  3.0974036e-02
 -1.1960248e-02
  4.2032539e-03
 -1.5443414e-02
  1.1484683e-02
  1.4962245e-03
  2.2764131e-02
 -5.0674048e-03
  4.8676752e-02
  1.2306778e-02
  1.0103158e-02
 -1.4480238e-02
 -5.9547776e-04
  1.9482536e-03
  3.9896378e-03
 -1.7748708e-02
  1.8107776e-02
  9.3393564e-02
 -1.1538997e-01
 -5.4771170e-02
  1.0750115e-01
 -1.2898262e-01
 -1.5257545e-01
  3.7652943e-02
  1.2796631e-01
 -6.1245062e-03
  1.2358916e-01
 -1.5573218e-02
  2.0062447e-01
  4.7073491e-02
 -1.1760034e-02
  4.9757428e-02
 -1.0557979e-01
  9.2883416e-02
 -1.0653757e-01
  6.4430602e-02
 -1.0484744e-01
 -8.1269525e-02
 -7.4405037e-02
  1.3671322e-01
  5.3353790e-02
  1.0273258e-01
  1.0137375e-01
  2.8281754e-03
 -6.4896874e-02
  4.0682998e-01
 -1.6892545e-01
  1.2975134e-01
  6.0973335e-03
  1.1347675e-01
 -1.3262765e-02
  7.0452489e-02
 -9.1939077e-02
  2.6595097e-02
 -9.7943753e-02
  3.8054869e-02
 -2.8237030e-02
  1.1293028e-01
  1.8727584e-02
 -1.1792886e-01
  2.3516333e-02
 -4.2182401e-02
 -8.2538003e-01
 -8.8610491e-03
 -5.4896423e-03
  7.2238352e-03
 -4.5224451e-02
  2.2830954e-03
  7.6970965e-02
  4.0439524e-02
  2.2296214e-02
  4.8343837e-03
  2.6574323e-03
  2.6597360e-02
  8.6481884e-02
 -2.3712113e-03
 -9.0154717e-03
 -2.1314722e-02
  9.0826511e-01
  2.1761706e-01
 -5.7486629e-01
 -2.6901132e-01
 -1.0655314e-01
 -3.1404480e-01
  1.5489466e-01
  2.1506408e-01
  9.3122553e-03
  2.6858842e-01
  6.4231646e-01
  2.6195186e-01
  9.3375385e-02
  5.5433806e-02
  4.2762917e-02
 -5.7866800e-01
 -2.6970255e-01
  1.6767861e-02
  1.4648969e-01
  2.4329838e-01
  2.8185606e-01
 -4.5728102e-01
 -3.1961399e-01
 -1.4028013e-01
  5.3622875e-02
 -4.1019005e-01
 -4.8245364e-01
  2.2155939e-01
  9.0219760e-01
  2.5220409e-01
  2.0383564e-01
 -4.0375063e-01
  5.5120236e-01
  1.4996034e-01
  9.8129831e-02
  1.1544137e-01
  1.0247774e-01
 -6.5504968e-02
 -2.8457087e-01
 -8.9207476e-01
 -2.7542945e-02
 -5.0304663e-01
  1.0339855e-01
  4.0402880e-01
  6.8034455e-02
 -3.3241645e-02
 -3.9180420e-02
 -4.7986459e-02
 -4.3580897e-02
 -6.5701120e-02
  9.7367093e-02
 -1.1039978e-01
  5.6014411e-02
  4.3785673e-02
  8.6819038e-02
 -3.3437200e-02
  1.2256669e-01
 -8.5100465e-02
 -4.5031291e-02
 -2.9652305e-02
  2.2241047e-02
 -1.9917220e-02
 -4.4662669e-02
 -1.2856823e-01
 -4.1000232e-01
  7.1160263e-01
 -3.9793691e-01
 -2.8766721e-01
 -7.4057281e-01
 -3.6503583e-01
 -4.8629814e-01
 -7.3308265e-01
 -1.2131537e+00
 -6.2317818e-01
  4.6163297e-01
 -3.3813649e-01
  1.3000767e-01
 -5.4949429e-02
  1.1376788e-01
 -3.5339478e-01
 -2.6042685e-01
 -7.6778030e-01
 -4.0297607e-01
  3.1292167e-01
  6.8757838e-01
 -6.5257698e-01
  2.0407379e-01
 -8.7795991e-01
 -3.4589958e-01
  4.4506520e-01
 -4.3812129e-01
 -8.8947129e-01
 -3.4189343e-01
 -5.7388330e-01
 -6.6729552e-01
 -5.6038147e-01
  3.6653531e-01
